svm_type c_svc
kernel_type linear
nr_class 3
total_sv 1007
rho -0.8821415272583446 -0.7901421293671888 0.03617196042797846
label 0 1 2
nr_sv 379 303 325
SV
1.0 1.0 
1.0 0.561437949278509 1:1.0 
1.0 1.0 
0.044427204287997374 0.0 2:1.0 3:1.0 13:1.0 14:1.0 15:1.0 730:1.0 736:1.0 
1.0 1.0 
0.0 0.06479748023144276 2:1.0 4:1.0 19:1.0 20:1.0 21:1.0 22:1.0 23:1.0 730:1.0 
1.0 0.0 2:1.0 3:1.0 451:1.0 730:1.0 736:1.0 
1.0 1.0 24:1.0 25:1.0 
0.0 0.013068743330993596 26:1.0 27:1.0 28:1.0 29:1.0 
1.0 1.0 
1.0 1.0 
1.0 1.0 
1.0 1.0 
0.44980891242227783 0.2789705945413603 31:1.0 32:1.0 396:1.0 653:1.0 
0.0 0.06792117792246495 36:1.0 
0.5486675554822603 0.10480593943918329 40:1.0 41:1.0 
1.0 1.0 
0.3886871780731041 0.0 42:1.0 43:1.0 44:1.0 45:1.0 
1.0 1.0 
0.5469449866912497 0.0 2:1.0 3:1.0 48:1.0 730:1.0 736:1.0 
0.007233338323533269 0.2562570788109292 49:1.0 50:1.0 
0.0 0.13724552795976602 35:1.0 51:1.0 
0.7349976257385147 0.4179582995948729 54:1.0 55:1.0 56:1.0 
0.4168806153067053 1.0 46:0.9461732649399713 61:1.0 62:1.0 63:1.0 379:1.0 411:1.0 
0.0 0.4975937728603207 64:1.0 65:1.0 66:1.0 67:1.0 68:1.0 
0.6863865510005773 0.69182915034478 64:1.0 69:1.0 70:1.0 71:1.0 731:1.0 
0.4156864052211668 0.3068703708518486 34:1.0 72:1.0 73:1.0 74:1.0 464:1.0 
0.07500252669268372 0.0 2:1.0 3:1.0 39:1.0 75:1.0 76:1.0 730:1.0 736:1.0 
1.0 1.0 636:1.0 
1.0 1.0 
1.0 1.0 
1.0 0.0 2:1.0 3:1.0 730:1.0 736:1.0 
1.0 1.0 
1.0 1.0 
0.0 1.0 85:1.0 86:1.0 617:1.0 
1.0 1.0 
1.0 1.0 
0.3876969448921186 0.0 90:1.0 
1.0 1.0 388:1.0 
0.07292809629144066 0.0 92:1.0 93:1.0 94:1.0 95:1.0 96:1.0 97:1.0 98:1.0 99:1.0 
1.0 1.0 
0.11802820981851629 1.0 100:1.0 
1.0 1.0 
1.0 0.016224844403838243 8:1.0 404:1.0 738:1.0 
0.43047012383569816 0.0 9:1.0 40:1.0 101:1.0 
0.061440833151589117 0.2779859353409084 104:1.0 105:1.0 106:1.0 
1.0 1.0 
1.0 1.0 
0.0 0.9192730031224734 34:1.0 
1.0 1.0 69:1.0 731:1.0 
1.0 0.6025259150207213 99:1.0 120:0.9461732649399713 
0.2547953368343512 0.11032559184880783 25:1.0 121:1.0 
1.0 0.0 2:1.0 3:1.0 730:1.0 736:1.0 
1.0 1.0 
0.11759250295474033 0.2097379352969404 122:1.0 
0.2182532193148238 0.30831394298201154 9:1.0 27:1.0 94:1.0 116:1.0 123:1.0 124:1.0 732:1.0 
0.0 0.7444890996496776 22:1.0 125:0.9434410727537982 126:1.0 714:1.0 
1.0 0.0 127:1.0 128:1.0 
0.9625041108007929 0.005375083595897084 32:1.0 111:1.0 
0.0 0.11883901371317816 44:1.0 117:1.0 130:1.0 131:1.0 
0.0 0.08237838620915347 25:1.0 51:1.0 134:1.0 135:1.0 136:1.0 
0.05249147605228138 0.0 2:1.0 3:1.0 9:1.0 57:1.0 137:1.0 730:1.0 736:1.0 
0.0 0.03414714793989454 111:1.0 112:1.0 138:1.0 
1.0 1.0 
1.0 0.6161768684522371 139:1.0 140:1.0 430:1.0 
0.011631189352417751 0.0 37:1.0 
0.07276049669978979 1.0 142:1.0 143:1.0 
1.0 1.0 
0.33155029458686375 0.005333767594567388 8:1.0 59:1.0 93:1.0 350:1.0 738:1.0 
0.0 0.3366400214757427 136:1.0 149:1.0 
0.48605115620316486 1.0 142:1.0 143:1.0 425:1.0 
0.07359408234078553 0.0 25:1.0 34:1.0 72:0.9632509146485629 149:1.0 150:1.0 458:1.0 
0.0 0.30887619049987514 72:1.0 155:1.0 
0.5588655254285734 1.0 497:1.0 498:1.0 
1.0 1.0 
1.0 1.0 
1.0 0.2097273356641331 407:1.0 
1.0 1.0 
0.0 1.0 145:1.0 156:1.0 349:1.0 
1.0 0.7287617503134874 707:1.0 
0.5308605402543952 1.0 157:1.0 641:1.0 
0.3667809511628282 0.0 2:1.0 19:1.0 99:1.0 141:0.9526983675813206 730:1.0 
1.0 1.0 
1.3054884841647225E-4 0.46454998142939474 22:1.0 158:1.0 159:1.0 
1.0 1.0 3:1.0 160:1.0 161:1.0 736:1.0 
1.0 1.0 
1.0 0.0 2:1.0 169:1.0 513:1.0 730:1.0 
0.4768180488265703 0.0 36:1.0 170:1.0 
0.03711958382751101 0.011470046872599346 111:1.0 112:1.0 113:1.0 171:1.0 172:1.0 
0.34582292748939214 0.48666968538618915 69:1.0 103:1.0 173:1.0 460:1.0 705:1.0 731:1.0 
0.18890694168171032 0.0 162:1.0 174:1.0 
1.0 1.0 175:1.0 
0.41732873639086043 1.0 63:1.0 124:1.0 163:1.0 176:1.0 177:1.0 319:1.0 676:1.0 732:1.0 
1.0 1.0 
0.09160038722853384 0.0 2:1.0 3:1.0 89:1.0 178:1.0 179:1.0 180:1.0 730:1.0 736:1.0 
1.0 0.6136766454745269 67:1.0 181:1.0 
1.0 0.0 2:1.0 3:1.0 730:1.0 736:1.0 
1.0 0.2099512004986217 331:1.0 
0.056152459417351266 0.0 106:1.0 
1.0 0.4256164131333723 72:1.0 129:1.0 187:1.0 
0.5816698275658244 0.259635319906683 47:1.0 136:1.0 181:1.0 188:1.0 663:1.0 664:1.0 
0.0 0.04912528854513515 33:1.0 
1.0 0.0 2:1.0 3:1.0 730:1.0 736:1.0 
0.44112263696060355 1.0 104:1.0 127:1.0 177:1.0 
1.0 1.0 51:1.0 
1.0 0.962984653765413 30:1.0 69:1.0 89:1.0 190:1.0 731:1.0 
1.0 1.0 
1.0 1.0 191:1.0 
0.0 1.0 8:1.0 738:1.0 
1.0 1.0 
0.4852881035836832 0.8467649023521626 126:1.0 193:1.0 446:1.0 
0.042691439534544615 0.0 50:1.0 51:1.0 56:1.0 150:1.0 194:1.0 
0.14518890028289014 0.6483806782447321 156:0.9000000062999999 
1.0 1.0 
0.0 0.5225095415505813 163:1.0 195:1.0 
0.11776748496299352 0.0 196:1.0 
1.0 0.0 2:1.0 3:1.0 730:1.0 736:1.0 
1.0 1.0 
1.0 1.0 
1.0 0.5934008226564512 139:1.0 
1.0 0.0 89:1.0 197:0.9482826755649801 198:1.0 199:1.0 
1.0 1.0 69:1.0 731:1.0 
1.0 0.0 2:1.0 3:1.0 730:1.0 736:1.0 
1.0 1.0 69:1.0 731:1.0 
0.0 0.2982119772345573 196:1.0 202:1.0 203:1.0 204:1.0 205:1.0 
0.0 0.160225044935755 206:1.0 
0.0 0.28139793922240997 68:1.0 190:1.0 208:1.0 
0.0 0.7558503045319638 8:1.0 64:1.0 738:1.0 
0.04480391130012409 0.0 2:1.0 3:1.0 13:1.0 15:1.0 207:1.0 730:1.0 736:1.0 
1.0 1.0 
0.05887927508106273 0.10487694278110087 82:1.0 83:1.0 
0.864990102889305 1.0 69:1.0 195:1.0 731:1.0 
0.0 0.07601142087728524 46:1.0 210:1.0 211:1.0 
0.2474269082255906 0.5116875331407283 199:1.0 
0.0 1.0 34:1.0 
0.5038748621125446 1.0 69:1.0 212:1.0 731:1.0 
0.11785426936136825 0.48432210065691655 501:1.0 
0.0 0.4033990190621202 37:1.0 38:1.0 203:1.0 205:1.0 
0.0 0.08032599858942034 4:1.0 48:1.0 174:1.0 216:1.0 645:1.0 
0.5084567032523943 0.4312907470757218 66:0.9482826755649801 99:0.9612011315760955 178:0.9482826755649801 
0.01827303999267219 0.2644709345296497 31:1.0 69:1.0 175:1.0 521:1.0 522:1.0 731:1.0 
1.0 1.0 
1.0 1.0 
1.0 1.0 
0.4151924872917073 0.1399461485581768 16:1.0 17:1.0 39:1.0 168:1.0 217:1.0 348:1.0 
0.0 0.042189588375212396 75:1.0 218:1.0 219:1.0 
1.0 1.0 
0.13861121864881598 0.0 2:1.0 3:1.0 29:1.0 60:1.0 188:1.0 580:1.0 730:1.0 736:1.0 
0.001600699892625124 1.0 34:1.0 
0.32528782593575706 0.222444847281008 198:1.0 221:1.0 710:1.0 
0.12312063500861839 0.0 71:1.0 215:1.0 222:1.0 223:1.0 
1.0 0.5936263452877486 69:1.0 169:1.0 224:1.0 731:1.0 
1.0 1.0 
1.0 1.0 64:1.0 
0.0 0.06369311957239064 99:1.0 226:1.0 662:1.0 
0.02618182003143566 0.0 227:1.0 228:1.0 229:1.0 399:1.0 
0.1534387590336184 0.0 68:1.0 130:1.0 
0.29638392092722887 0.5935885029298763 69:1.0 132:1.0 133:1.0 731:1.0 
0.5973925977779231 0.0 162:1.0 
0.11775630081526803 0.2098547080266368 230:1.0 
0.06055825925997783 0.0 49:1.0 155:1.0 170:1.0 231:1.0 
0.5988328641627804 1.0 321:1.0 488:1.0 
0.0 0.6098373621128141 233:1.0 
0.6706896670553033 0.55159221328332 34:1.0 88:1.0 234:0.9434410727537982 336:1.0 691:1.0 
1.0 0.0 2:1.0 3:1.0 730:1.0 736:1.0 
1.0 1.0 
1.0 1.0 
0.47106103499554497 0.9904360094627721 8:1.0 30:1.0 51:1.0 561:1.0 738:1.0 
0.43396310466462995 0.0 16:1.0 17:1.0 36:1.0 
1.0 0.41906897795073167 307:1.0 
0.145477201740006 0.0 2:1.0 3:1.0 236:1.0 730:1.0 736:1.0 
1.0 0.8528585569279744 175:1.0 238:1.0 
0.5073163045931591 1.0 32:1.0 52:1.0 64:1.0 239:1.0 422:1.0 
1.0 1.0 
1.0 0.0 2:1.0 3:1.0 236:1.0 730:1.0 736:1.0 
0.1676213625733254 0.0 213:1.0 215:1.0 
0.015505935848641607 0.2721499378180749 228:1.0 229:1.0 240:1.0 
0.11756130706207056 0.20974173163613002 241:1.0 
1.0 0.0 2:1.0 3:1.0 730:1.0 736:1.0 
0.0 0.790776704692074 86:1.0 242:1.0 562:1.0 
1.0 1.0 
0.11810274977671999 0.09156849424490138 175:1.0 247:1.0 
0.11772981937408718 0.41834209338183725 86:1.0 
0.3568621071236588 0.31034514799707824 11:1.0 55:1.0 164:1.0 
1.0 1.0 
1.0 0.0 162:1.0 248:1.0 314:1.0 734:1.0 
0.0 1.0 249:1.0 
1.0 1.0 
1.0 0.0 2:1.0 3:1.0 730:1.0 736:1.0 
0.33772012896612746 0.4126855266764515 51:1.0 216:1.0 647:1.0 
0.11741713254221907 1.0 159:1.0 
0.19841156681239672 0.0 32:1.0 
1.0 1.0 
1.0 1.0 69:1.0 731:1.0 
0.0 0.04327404831956931 2:1.0 252:1.0 730:1.0 
0.0 0.03742225112771716 18:1.0 
0.08719554751924419 0.0 2:1.0 3:1.0 16:1.0 17:1.0 29:1.0 112:1.0 730:1.0 736:1.0 
1.0 1.0 
1.0 1.0 69:1.0 731:1.0 
1.0 1.0 
0.0570220337288538 0.20971889142059133 231:1.0 
0.004122533818624596 0.10501156481734589 78:1.0 256:1.0 
1.0 1.0 240:1.0 
0.1177310508571467 0.4187009839208095 639:1.0 
0.49713912668242966 0.0 35:1.0 105:1.0 174:1.0 190:1.0 245:1.0 258:1.0 
0.25207729450830846 0.593663879098427 69:1.0 148:1.0 255:1.0 731:1.0 
0.25616415813206184 0.5228375873299059 163:1.0 209:1.0 
0.02964073904467769 0.0 2:1.0 3:1.0 110:1.0 165:0.9461732649399713 166:1.0 259:1.0 730:1.0 736:1.0 
4.858828358137446E-4 0.0 131:1.0 
1.0 0.0956466668362123 69:1.0 72:1.0 115:1.0 127:1.0 325:1.0 731:1.0 
0.0 0.0023427565402197948 72:1.0 73:1.0 
1.0 0.0 2:1.0 3:1.0 326:1.0 730:1.0 736:1.0 
0.7109959742079882 0.19726358577626046 48:0.9514475685014027 130:1.0 264:1.0 
0.0 0.1538654027589836 156:1.0 190:1.0 
1.0 1.0 
1.0 1.0 
1.0 1.0 
1.0 1.0 265:1.0 343:1.0 391:1.0 709:1.0 
0.0 1.0 111:1.0 112:1.0 
1.0 2.3769241588148015E-4 33:1.0 201:1.0 266:1.0 
0.042816761599520324 0.0 2:1.0 3:1.0 81:1.0 110:1.0 267:1.0 730:1.0 736:1.0 
0.443622379140846 0.0 9:1.0 33:1.0 92:1.0 172:1.0 268:1.0 
0.11112075082564946 0.0 18:1.0 44:1.0 244:1.0 269:1.0 
1.0 1.0 163:1.0 
0.6224102237431393 1.0 8:1.0 738:1.0 
0.29190208229371406 0.008155534594296765 26:1.0 146:1.0 270:1.0 
1.0 1.0 
0.0 1.0 103:1.0 675:1.0 
1.0 1.0 191:1.0 
0.0 0.6823818516957366 101:1.0 176:1.0 
0.6852056121828315 1.0 34:1.0 
1.0 1.0 
1.0 1.0 
1.0 1.0 
0.0 0.6666666666666666 222:1.0 
0.37779972359006186 1.0 271:1.0 
1.0 1.0 8:1.0 738:1.0 
0.09180766621791907 0.2098619683118231 227:1.0 
1.0 1.0 
1.0 1.0 
5.561957144850638E-17 0.0 162:1.0 272:1.0 
1.0 0.0 2:1.0 3:1.0 33:1.0 61:1.0 117:1.0 169:1.0 410:1.0 730:1.0 736:1.0 
1.0 1.0 
1.0 1.0 8:1.0 738:1.0 
1.0 1.0 
1.0 1.0 
0.9968062462028044 0.20960572917328477 383:1.0 
0.033546340561419884 0.0 2:1.0 3:1.0 10:1.0 11:1.0 12:1.0 730:1.0 736:1.0 
0.1173083255546287 0.08988594181112233 131:1.0 
0.11773930134970198 0.20978301284553807 596:1.0 
1.0 1.0 7:1.0 160:1.0 
1.0 1.0 
1.0 0.4188652919669696 242:1.0 
1.0 1.0 
1.0 1.0 179:1.0 
1.0 0.2100113565818244 358:1.0 
1.0 1.0 
1.0 0.8890226415565414 162:1.0 
1.0 1.0 
1.0 1.0 51:1.0 69:1.0 194:1.0 273:1.0 392:1.0 731:1.0 
0.15257052628995993 0.2714590774974865 275:0.8791325223340872 
1.0 0.0 2:1.0 3:1.0 730:1.0 736:1.0 
0.0 0.5308415896628808 141:1.0 175:1.0 193:1.0 514:1.0 684:1.0 
1.0 1.0 
0.8369939052082959 0.0 2:1.0 3:1.0 192:1.0 323:1.0 730:1.0 736:1.0 
1.0 0.25887949735235566 276:0.9000000062999999 
1.0 1.0 
0.05886606100781161 1.0 605:1.0 681:1.0 
1.0 0.37932691903317634 53:1.0 
0.7839073438752949 1.0 387:1.0 
0.1477754296032844 0.08358276926165546 218:1.0 277:1.0 421:1.0 
1.0 5.271413285256636E-4 86:1.0 278:1.0 
0.06531749297139831 0.14189472675278736 2:1.0 3:1.0 84:1.0 110:1.0 253:1.0 260:1.0 261:1.0 262:1.0 263:1.0 730:1.0 736:1.0 
0.04224281175565333 0.4468265032236697 130:1.0 269:1.0 
0.0 0.39348493847891935 100:0.8385196894372301 229:1.0 
1.0 1.0 
0.11771122355834814 0.20988623259035738 246:1.0 
0.8885073726016365 0.0 99:1.0 279:1.0 
0.0031629980494687886 6.360541956306198E-4 280:1.0 
0.0 0.5430291699524908 222:1.0 
0.2562835312637934 1.0 163:1.0 692:1.0 
0.10954480475845135 0.0 2:1.0 3:1.0 77:1.0 78:1.0 730:1.0 736:1.0 
1.0 0.0 2:1.0 3:1.0 40:1.0 125:1.0 187:1.0 226:1.0 730:1.0 736:1.0 
0.0739814109279088 0.0 2:1.0 3:1.0 75:1.0 219:1.0 730:1.0 736:1.0 
0.6995715764217567 0.16032503796009182 33:1.0 163:1.0 281:1.0 
1.0 1.0 
1.0 1.0 
0.0 0.30887057292175657 72:1.0 90:1.0 
1.0 0.9320771558737907 2:1.0 3:1.0 11:1.0 305:1.0 730:1.0 736:1.0 737:1.0 
0.11777007375790095 0.20976123428413193 669:1.0 
0.5130673263237486 0.43924061955586774 55:1.0 282:1.0 
0.11754877429240855 1.0 65:1.0 
1.0 1.0 
0.7533346727655493 1.0 239:1.0 629:1.0 
0.25447638841005443 0.11042000897268843 25:1.0 249:1.0 
1.0 0.6948802737277625 99:1.0 104:1.0 281:1.0 376:1.0 646:1.0 
0.0 0.2100113565818243 45:1.0 
0.117770073757901 0.21002549556896796 283:1.0 
0.8749203805120046 1.0 2:1.0 124:1.0 220:1.0 730:1.0 732:1.0 
0.5683042210408785 1.0 28:1.0 
1.0 1.0 
0.0 0.35525356464361446 215:1.0 284:1.0 711:1.0 
1.0 1.0 
0.10240729678354807 0.0 8:1.0 216:1.0 285:1.0 318:1.0 738:1.0 
0.0 0.9117381009822154 204:1.0 
0.27588036670912464 0.48788500721668143 64:1.0 265:1.0 271:1.0 286:1.0 363:1.0 553:1.0 
1.0 1.0 
0.34926327847474986 0.06992019948593522 200:1.0 287:1.0 288:1.0 
0.0 0.4388402884105894 286:1.0 289:1.0 
1.0 0.0 62:1.0 175:1.0 290:1.0 
0.588653338648659 0.0 2:1.0 3:1.0 47:1.0 135:1.0 730:1.0 736:1.0 
0.098671050334977 0.0 9:1.0 92:1.0 475:1.0 
0.0 0.27894660808140476 42:1.0 72:1.0 124:1.0 273:1.0 274:1.0 732:1.0 
0.1478785508048159 0.0 2:1.0 3:1.0 150:1.0 291:1.0 292:1.0 730:1.0 736:1.0 
1.0 1.0 9:1.0 69:1.0 731:1.0 
0.3822810365568258 0.0 2:1.0 3:1.0 6:1.0 43:1.0 730:1.0 736:1.0 
0.0038571532495365345 0.1311586448340042 114:1.0 257:1.0 285:1.0 466:1.0 
0.0 1.0 136:1.0 
1.0 1.0 
0.34664582795907267 0.32611183498326957 69:1.0 107:1.0 108:1.0 199:1.0 294:1.0 560:1.0 731:1.0 
0.05624606490722698 0.0 2:1.0 3:1.0 103:1.0 157:1.0 175:1.0 235:1.0 730:1.0 736:1.0 
1.0 1.0 
0.0 9.065541609602843E-4 131:1.0 251:1.0 353:1.0 
0.1178165631153083 1.0 295:1.0 
0.14077365430994096 0.0 2:1.0 3:1.0 189:1.0 296:1.0 730:1.0 736:1.0 
1.0 0.0 89:1.0 
0.9505212154057499 0.0 39:1.0 72:1.0 80:1.0 238:1.0 
1.0 0.0 2:1.0 3:1.0 266:1.0 730:1.0 736:1.0 
1.0 1.0 
0.11761055407113814 0.0 284:1.0 
1.0 1.0 
1.0 1.0 
0.11475479455220342 0.20909648294284466 280:1.0 
0.24223547622074945 0.17205067976065092 18:1.0 69:1.0 145:1.0 146:1.0 147:1.0 208:1.0 731:1.0 
1.0 1.0 
0.5867206757513507 0.1660041183562661 5:1.0 53:1.0 258:1.0 297:0.9395662717713813 
0.16048843363284193 0.0 2:1.0 3:1.0 204:1.0 215:1.0 730:1.0 736:1.0 
1.0 1.0 
1.0 1.0 
1.0 1.0 
1.0 0.9727463331437186 298:1.0 729:1.0 
1.0 1.0 
1.0 0.3926267878409956 2:1.0 3:1.0 274:1.0 384:1.0 448:1.0 730:1.0 736:1.0 
0.9077714465454367 0.5914249639097777 9:1.0 
7.632783294297951E-17 0.0 213:1.0 214:1.0 215:1.0 
1.0 0.7710524658622345 289:1.0 
1.0 1.0 
0.05900191458830451 0.41886946967514255 582:1.0 583:1.0 
0.11759012337357748 1.0 516:1.0 
1.0 1.0 
0.5589735423886457 0.6049110111951979 250:1.0 385:1.0 
1.0 1.0 34:1.0 
1.0 1.0 
1.0 1.0 
0.6009934051395619 1.0 124:1.0 163:1.0 356:1.0 626:1.0 732:1.0 
0.11773356873907179 0.2099286303109127 91:1.0 
0.0 0.0319987315263387 221:1.0 299:1.0 
0.0024679070895074853 0.0 300:1.0 
1.0 1.0 
0.17859058587759133 0.0 103:1.0 237:1.0 301:0.9395662717713813 610:1.0 
1.0 0.10485506504848764 291:1.0 417:1.0 
1.0 1.0 
0.3935048793958809 0.154085386460618 2:1.0 3:1.0 328:1.0 405:1.0 730:1.0 736:1.0 
0.0 0.14185955354598326 36:1.0 39:1.0 170:1.0 174:1.0 210:1.0 217:1.0 453:1.0 512:1.0 529:1.0 
0.3316053116495262 0.0 233:1.0 291:1.0 292:1.0 420:1.0 
0.06984061925113154 0.0 2:1.0 3:1.0 43:1.0 72:1.0 202:1.0 232:1.0 254:1.0 288:1.0 730:1.0 736:1.0 
0.10594016329994951 0.0 2:1.0 3:1.0 37:1.0 38:1.0 39:1.0 730:1.0 736:1.0 
1.0 1.0 124:1.0 732:1.0 
0.5754913934596013 0.7368255263936673 180:1.0 265:1.0 
1.0 0.007082351267023756 2:1.0 3:1.0 4:1.0 8:1.0 22:1.0 23:1.0 730:1.0 736:1.0 738:1.0 
1.0 0.0 2:1.0 3:1.0 730:1.0 736:1.0 
1.0 0.04962150086693743 72:1.0 206:1.0 302:1.0 373:1.0 
1.0 0.20949180764371259 380:1.0 
0.2230038182940249 0.0 2:1.0 3:1.0 211:1.0 730:1.0 736:1.0 
1.0 1.0 34:1.0 
0.11775512392283116 1.0 315:1.0 
0.0 0.209784386279652 301:1.0 
1.0 0.0 8:1.0 23:1.0 127:1.0 251:1.0 738:1.0 
0.11509074595763605 0.21001880311043858 300:1.0 
-0.9306673130907175 0.0 2:1.0 3:1.0 30:1.0 302:1.0 303:1.0 730:1.0 736:1.0 
-1.0 1.0 
-0.8042643599027594 0.03587439371308475 304:1.0 
-1.0 0.0 2:1.0 3:1.0 127:1.0 128:1.0 266:1.0 730:1.0 736:1.0 
-0.27064837058009217 0.0 305:1.0 737:1.0 
-1.0 1.0 
-1.0 1.0 
-1.0 1.0 104:1.0 
-1.0 1.0 72:1.0 
-0.0 0.022720323713343506 181:1.0 187:1.0 295:1.0 315:1.0 316:1.0 
-1.0 0.09996637867641524 2:1.0 3:1.0 16:1.0 17:1.0 43:1.0 194:1.0 317:1.0 730:1.0 736:1.0 
-1.0 1.0 160:1.0 
-1.0 1.0 69:1.0 273:1.0 321:1.0 663:1.0 731:1.0 
-0.00823980454116846 0.0 322:1.0 
-1.0 1.0 
-1.0 1.0 111:1.0 327:1.0 
-0.6541454689794959 0.0 309:0.9585833550531665 
-0.337944426511863 0.0 34:1.0 126:1.0 306:1.0 733:1.0 
-1.0 0.934109209563267 89:1.0 336:1.0 
-0.6022580840931968 0.14488858266216734 245:1.0 339:1.0 
-0.8681362375844861 0.0 33:1.0 69:1.0 314:1.0 731:1.0 734:1.0 
-0.15075280905417648 0.0 178:1.0 274:1.0 341:1.0 342:1.0 
-0.7354390583450336 0.0 306:1.0 646:1.0 733:1.0 
-0.9409244672395568 1.0 345:1.0 346:1.0 
-0.0 1.0 341:1.0 347:1.0 348:1.0 349:1.0 
-0.07948959316456025 0.0 2:1.0 3:1.0 104:1.0 251:1.0 343:1.0 351:1.0 352:1.0 353:1.0 488:1.0 730:1.0 736:1.0 
-0.0 0.5097694265632352 47:1.0 124:1.0 163:1.0 354:1.0 355:1.0 356:1.0 357:1.0 732:1.0 
-0.94109043362801 1.0 358:1.0 359:1.0 
-1.0 1.0 636:1.0 
-0.0 1.0 187:1.0 321:1.0 
-1.0 0.0 2:1.0 3:1.0 730:1.0 736:1.0 
-1.0 0.0 2:1.0 69:1.0 343:1.0 730:1.0 731:1.0 
-0.8819873091991872 0.0 308:1.0 
-1.0 0.5236221472351094 47:1.0 361:1.0 
-0.0 0.024992623970331817 51:1.0 99:1.0 236:1.0 305:1.0 364:1.0 737:1.0 
-0.5604638893917441 0.18836355716483175 172:1.0 365:1.0 366:1.0 367:1.0 
-0.6652611986030132 0.564753342033001 36:1.0 170:1.0 336:1.0 362:1.0 710:1.0 
-1.0 0.0 2:1.0 3:1.0 373:1.0 730:1.0 736:1.0 
-0.22057399741703038 0.964700127510623 374:1.0 375:1.0 376:1.0 625:1.0 
-1.0 1.0 175:1.0 
-1.0 1.0 382:1.0 
-1.0 0.0 9:1.0 127:1.0 323:1.0 383:0.8791325223340872 
-0.32443568928846594 0.0 162:1.0 187:1.0 251:0.9547817712486715 364:1.0 384:1.0 
-1.0 1.0 69:1.0 146:1.0 731:1.0 
-1.0 1.0 
-1.0 1.0 
-1.0 1.0 344:1.0 385:1.0 
-0.445095958689075 0.0 34:0.9668326966440145 187:1.0 386:0.9514475685014027 387:1.0 
-1.0 0.0 2:1.0 3:1.0 730:1.0 736:1.0 
-1.0 1.0 
-1.0 1.0 8:1.0 124:1.0 265:1.0 732:1.0 738:1.0 
-0.9484040217023384 0.0 342:1.0 
-1.0 1.0 
-1.0 1.0 
-0.46574197443748805 0.0 2:1.0 3:1.0 130:1.0 163:1.0 388:1.0 389:1.0 730:1.0 736:1.0 
-1.0 1.0 
-0.0 1.0 124:1.0 339:1.0 732:1.0 
-0.003194673207404297 0.0 326:1.0 
-1.0 1.0 11:1.0 34:0.9668326966440145 64:1.0 258:1.0 281:0.9482826755649801 653:1.0 
-0.0 1.0 104:1.0 305:1.0 737:1.0 
-0.24798433555821295 1.0 69:1.0 393:1.0 394:1.0 731:1.0 
-0.0 0.2527588067770872 69:1.0 140:1.0 345:1.0 357:1.0 395:1.0 396:1.0 397:1.0 731:1.0 
-1.0 1.0 
-0.08914810140809054 0.0 132:1.0 314:1.0 395:1.0 734:1.0 
-0.0 1.0 8:1.0 124:1.0 339:1.0 732:1.0 738:1.0 
-1.0 1.0 
-0.0 0.27241767612921763 124:1.0 306:1.0 693:1.0 732:1.0 733:1.0 
-1.0 0.0 2:1.0 3:1.0 536:1.0 730:1.0 736:1.0 
-0.6287367738806838 0.017008573807077168 69:1.0 198:1.0 402:1.0 731:1.0 
-1.0 0.8281549446604748 181:1.0 403:0.9356790986937439 
-1.0 1.0 163:1.0 343:1.0 
-1.0 0.14171116163870703 71:1.0 358:1.0 
-0.9547554232265121 0.6010909703545628 124:1.0 404:1.0 732:1.0 
-1.0 0.0 187:1.0 
-1.0 0.0 23:1.0 
-0.6550807003404967 0.027974469702477543 298:1.0 729:1.0 
-1.0 0.0 169:1.0 
-1.0 1.0 723:1.0 
-0.0 1.0 347:0.9572208227547742 411:1.0 
-0.51056647106519 0.0 276:1.0 341:1.0 
-0.9813875484156808 0.7778095019442617 24:1.0 104:1.0 412:1.0 
-0.0 0.48484589311461285 122:1.0 345:1.0 373:1.0 
-1.0 1.0 
-1.0 1.0 415:1.0 
-1.0 1.0 69:1.0 389:1.0 731:1.0 
-1.0 0.9198300473521188 23:1.0 
-0.23415026886590798 0.0 11:1.0 115:1.0 163:1.0 251:1.0 265:1.0 305:1.0 737:1.0 
-0.47640641083550167 0.32889600123538854 51:1.0 130:1.0 199:1.0 266:1.0 577:1.0 
-0.06736351544084597 0.0 51:1.0 350:1.0 373:1.0 416:1.0 
-1.0 0.07257363231377585 33:1.0 339:1.0 417:1.0 
-0.0 0.8967448153398794 306:1.0 340:1.0 418:1.0 551:1.0 733:1.0 
-1.0 1.0 350:1.0 
-1.0 1.0 69:1.0 139:1.0 731:1.0 
-1.0 1.0 
-0.5037870659947759 0.0 187:1.0 420:1.0 
-0.0 0.6690488090166099 69:1.0 187:1.0 271:1.0 731:1.0 
-1.0 1.0 
-0.4918362587613047 1.0 179:1.0 190:1.0 422:1.0 423:1.0 
-0.0 0.3734196644305139 53:1.0 305:1.0 424:1.0 737:1.0 
-1.0 1.0 426:1.0 
-0.001957877849889489 0.0 140:1.0 187:1.0 427:1.0 428:1.0 
-0.5357623854903951 0.0 47:1.0 80:1.0 140:1.0 271:1.0 305:1.0 737:1.0 
-0.0 0.5607930430407917 120:0.8923464244972587 160:1.0 324:1.0 
-1.0 1.0 197:1.0 
-1.0 0.06166857197683627 238:1.0 
-1.0 1.0 69:1.0 86:1.0 319:1.0 380:1.0 619:1.0 731:1.0 
-0.9775511538713444 0.0 2:1.0 3:1.0 237:1.0 316:1.0 730:1.0 736:1.0 
-0.1749792391502145 0.0 2:1.0 3:1.0 339:1.0 730:1.0 736:1.0 
-0.16633089397385953 0.9619674249555048 139:1.0 265:1.0 595:1.0 
-1.0 1.0 
-0.9809696564555703 0.6720526055318873 240:1.0 331:1.0 404:1.0 
-0.010490454926183628 0.0 8:1.0 332:1.0 333:1.0 334:1.0 738:1.0 
-1.0 1.0 
-0.05875615071513586 0.0 296:1.0 309:1.0 
-1.0 1.0 
-1.0 0.0 2:1.0 3:1.0 44:1.0 431:1.0 730:1.0 736:1.0 
-0.5533496171693344 0.0 2:1.0 3:1.0 433:1.0 434:1.0 730:1.0 736:1.0 
-0.0 0.4132368335263709 163:1.0 187:1.0 435:1.0 436:1.0 
-1.0 1.0 
-0.3619318965060839 0.32800453937387486 392:1.0 437:1.0 438:0.9395662717713813 439:1.0 722:1.0 
-0.0 0.15440504690725185 124:1.0 191:0.9616500562152344 342:0.9597029578031678 368:0.9482826755649801 732:1.0 
-0.0 0.944270419238002 124:1.0 266:1.0 732:1.0 
-0.28614842610470465 0.482300388404333 177:1.0 298:1.0 400:1.0 401:1.0 729:1.0 
-1.0 1.0 291:1.0 560:1.0 
-0.45068074828427024 0.44097679768218007 28:1.0 323:1.0 357:1.0 379:1.0 432:1.0 440:1.0 
-1.0 0.06034441982137473 169:1.0 
-1.0 1.0 
-1.0 0.07420477676867483 139:1.0 
-1.0 0.0 326:1.0 
-0.11201532343932828 0.44515786409380537 191:1.0 213:1.0 408:1.0 
-0.0 0.20994205276407035 69:1.0 233:1.0 308:1.0 391:1.0 419:1.0 623:1.0 690:1.0 731:1.0 
-0.3442608540001981 0.25955264016446494 8:1.0 162:1.0 337:1.0 343:1.0 435:1.0 738:1.0 
-1.0 0.0 407:0.8643453660069231 
-0.0 1.0 286:1.0 302:1.0 343:1.0 422:1.0 
-0.0 1.0 69:1.0 308:1.0 731:1.0 
-0.11486888239245224 0.6046829118973657 160:1.0 224:1.0 392:1.0 397:1.0 423:1.0 
-1.0 0.0 2:1.0 3:1.0 266:1.0 730:1.0 736:1.0 
-0.610457747700063 0.38944600943922875 341:1.0 443:1.0 
-0.0 1.0 354:1.0 355:1.0 
-0.9940833481939113 1.0 34:1.0 51:1.0 418:1.0 444:1.0 
-1.0 1.0 72:1.0 354:1.0 355:1.0 
-0.8569194679778708 1.0 304:1.0 
-1.0 1.0 
-1.0 1.0 398:1.0 
-1.0 1.0 2:1.0 3:1.0 69:1.0 730:1.0 731:1.0 736:1.0 
-0.38889081983468377 0.4630684567353246 215:1.0 335:1.0 378:1.0 448:1.0 555:1.0 574:1.0 
-0.0 0.16230881519641888 140:1.0 341:1.0 449:1.0 712:1.0 
-1.0 0.5414434937235938 127:0.9556691497371942 450:1.0 
-0.0 0.38168978516284835 210:1.0 309:1.0 445:1.0 
-1.0 1.0 160:1.0 
-0.7534921284998658 0.0 72:1.0 347:1.0 369:1.0 
-0.0 0.4081917116915289 276:1.0 339:1.0 354:1.0 355:1.0 429:1.0 
-0.7831994498976634 0.8879055799932423 342:1.0 
-1.0 0.0 266:1.0 
-1.0 1.0 2:1.0 3:1.0 288:1.0 411:1.0 730:1.0 736:1.0 
-1.0 1.0 55:1.0 56:1.0 
-1.0 1.0 402:1.0 
-1.0 1.0 
-1.0 0.8740330163351798 449:1.0 
-1.0 1.0 1:1.0 55:1.0 69:1.0 731:1.0 
-1.0 1.0 
-1.0 1.0 
-0.7703826543660629 0.0 33:1.0 264:1.0 268:1.0 314:1.0 734:1.0 
-0.2237099815413958 0.012127660920124298 197:1.0 352:1.0 353:1.0 
-0.0 0.7352656849336594 306:1.0 681:1.0 733:1.0 
-1.0 0.7730127800667828 62:1.0 580:1.0 
-1.0 1.0 51:1.0 143:1.0 391:1.0 561:1.0 
-1.0 0.20748243426758486 72:1.0 454:1.0 
-1.0 1.0 169:1.0 
-0.20221073769901324 0.0 347:1.0 
-1.0 1.0 23:1.0 
-0.0 0.6156687110528108 69:1.0 326:1.0 731:1.0 
-1.0 0.0 326:1.0 
-1.0 0.0 326:0.87910914388668 
-1.0 1.0 
-0.2725437030223035 0.0 9:1.0 314:1.0 734:1.0 
-0.0 8.61348275840585E-4 240:1.0 306:1.0 733:1.0 
-0.32507604498122183 0.38615634909793994 51:1.0 115:1.0 163:1.0 187:1.0 421:1.0 425:1.0 
-0.7346025583755889 0.0 53:1.0 169:1.0 
-1.0 1.0 
-1.0 1.0 
-1.0 1.0 8:1.0 738:1.0 
-1.0 1.0 191:1.0 
-0.5638743039067472 0.2941942522371947 64:1.0 181:1.0 198:1.0 328:1.0 457:1.0 
-1.0 1.0 458:1.0 
-0.0 0.45939784532380296 160:1.0 305:1.0 405:1.0 691:1.0 737:1.0 
-1.0 0.5407664734746124 289:1.0 460:1.0 461:1.0 
-0.9923415496045686 0.018233501599914406 307:1.0 447:1.0 
-1.0 0.0 40:1.0 
-1.0 0.0 162:1.0 291:1.0 446:1.0 
-1.0 1.0 39:1.0 
-0.0 0.035922436471240944 306:1.0 315:1.0 733:1.0 
-1.0 1.0 9:1.0 
-0.0 0.2653469430724643 179:1.0 339:1.0 
-0.10992641669834056 0.15153163248994564 187:1.0 208:1.0 399:1.0 453:1.0 463:1.0 
-1.0 1.0 
-1.0 1.0 464:1.0 
-1.0 1.0 465:1.0 
-0.0 0.11615858781366094 23:1.0 345:1.0 362:1.0 381:1.0 
-0.0 0.08045476700343432 179:1.0 305:1.0 345:1.0 405:1.0 422:1.0 466:1.0 737:1.0 
-1.0 1.0 325:0.9075982371681834 
-1.0 0.05491097429543386 157:1.0 175:1.0 290:1.0 331:1.0 
-1.0 1.0 99:1.0 
-1.0 1.0 
-0.7137820071265792 0.0 2:1.0 3:1.0 92:1.0 163:1.0 408:1.0 660:1.0 730:1.0 736:1.0 
-0.0 0.06335891661305833 124:1.0 308:1.0 732:1.0 
-0.06836183936130422 0.022513653111217065 324:1.0 468:1.0 469:1.0 
-1.0 1.0 175:1.0 
-0.9264882974474755 0.0 347:1.0 
-1.0 0.0 8:1.0 62:1.0 302:1.0 738:1.0 
-1.0 0.4184851923497266 61:1.0 162:1.0 470:1.0 
-0.6704640901774974 0.15201019540984603 2:1.0 3:1.0 8:1.0 433:1.0 569:1.0 730:1.0 736:1.0 738:1.0 
-1.0 1.0 371:1.0 498:1.0 
-1.0 0.04409519383420386 373:1.0 448:1.0 
-0.0 0.05912465269356054 179:1.0 306:1.0 345:1.0 395:1.0 414:1.0 617:1.0 733:1.0 
-0.0 0.7272602908052527 69:1.0 126:1.0 314:1.0 384:1.0 392:1.0 731:1.0 734:1.0 
-0.9492577428148876 0.0 309:0.9585833550531665 
-0.3680764457891977 0.70387459870102 309:1.0 396:1.0 
-1.0 1.0 
-1.0 0.9480869721765252 2:1.0 3:1.0 265:1.0 730:1.0 736:1.0 
-1.0 1.0 191:1.0 
-0.4562369184496613 1.0 176:1.0 303:1.0 330:1.0 
-1.0 1.0 338:1.0 
-0.08265452677427054 1.0 124:1.0 140:1.0 163:1.0 472:1.0 732:1.0 
-1.0 0.0 308:1.0 
-1.0 0.0 2:1.0 3:1.0 8:1.0 99:1.0 325:1.0 730:1.0 736:1.0 738:1.0 
-0.5471765434478125 0.0 39:1.0 124:1.0 140:1.0 163:1.0 472:1.0 732:1.0 
-1.0 1.0 
-0.22131249479104495 0.0 127:1.0 304:1.0 387:1.0 511:1.0 
-0.8958338315533092 1.0 239:1.0 407:1.0 422:1.0 
-0.6711606373640784 0.45190755412330186 324:1.0 388:1.0 
-1.0 1.0 629:1.0 
-0.3203490967393947 0.41262829263393336 310:1.0 332:1.0 390:1.0 
-0.36131230139269366 0.2115093563439078 195:1.0 390:1.0 412:1.0 473:1.0 
-1.0 0.4623751999104574 22:1.0 40:0.9556691497371942 
-1.0 1.0 69:1.0 392:1.0 731:1.0 
-0.0 0.002230387848654292 140:1.0 187:1.0 191:1.0 203:1.0 385:1.0 474:1.0 475:1.0 
-0.30629630267926444 0.5196499735684901 9:1.0 62:1.0 262:1.0 457:1.0 
-1.0 0.0 2:1.0 3:1.0 276:1.0 730:1.0 736:1.0 
-1.0 1.0 360:1.0 
-1.0 1.0 348:1.0 
-1.0 0.664307221815338 69:1.0 234:1.0 707:1.0 731:1.0 
-1.0 1.0 190:1.0 
-1.0 1.0 406:1.0 
-0.664908200669804 0.059403251544071424 89:0.9564780355205298 99:1.0 377:1.0 
-0.11412453690000497 0.0 460:1.0 461:1.0 
-0.8977375626960213 1.0 64:1.0 447:1.0 
-0.04021110123714939 0.09418177858241591 365:1.0 366:1.0 367:1.0 476:1.0 477:1.0 
-1.0 1.0 
-1.0 1.0 478:1.0 
-0.0 0.7127451052720692 326:1.0 335:1.0 
-1.0 0.06483580923423034 2:1.0 3:1.0 730:1.0 736:1.0 
-1.0 0.9964852030609498 238:1.0 
-1.0 1.0 191:1.0 
-1.0 0.7341625286412767 48:1.0 479:1.0 
-0.4543600955988557 0.904691535685661 9:1.0 40:1.0 160:1.0 
-1.0 1.0 89:1.0 
-1.0 0.0 187:1.0 
-0.011355183732803578 0.0010439585298130493 480:1.0 481:1.0 
-1.0 0.0778426511361654 32:1.0 99:1.0 
-1.0 1.0 
-1.0 1.0 
-0.19313866130164198 0.0 175:1.0 305:1.0 737:1.0 
-1.0 1.0 
-1.0 1.0 69:1.0 471:1.0 731:1.0 
-1.0 1.0 32:1.0 
-1.0 1.0 
-0.1602057355919111 0.0 2:1.0 3:1.0 127:1.0 305:1.0 425:1.0 730:1.0 736:1.0 737:1.0 
-0.922704973263194 0.0 2:1.0 3:1.0 89:1.0 99:1.0 236:1.0 258:1.0 451:1.0 730:1.0 736:1.0 
-1.0 0.72781918310953 322:1.0 
-1.0 1.0 181:1.0 
-0.7012273701040126 0.852041108014993 407:0.8643453660069231 531:1.0 
-1.0 0.0 197:1.0 199:1.0 384:1.0 
-1.0 1.0 
-0.9298009223277632 0.9534259707568024 480:1.0 481:1.0 
-0.5493524372169822 0.5866928753817061 8:1.0 332:1.0 333:1.0 334:1.0 738:1.0 
-1.0 0.0 2:1.0 3:1.0 730:1.0 736:1.0 
-1.0 1.0 160:1.0 
-0.8739436323435232 1.0 322:1.0 
-1.0 0.04736270202832734 374:1.0 376:1.0 
-0.2862755278711033 0.0 2:1.0 3:1.0 90:0.9434410727537982 115:1.0 324:1.0 363:1.0 414:1.0 730:1.0 736:1.0 
-1.0 1.0 
-1.0 1.0 238:1.0 
-0.8940807588219426 0.0 2:1.0 3:1.0 8:1.0 470:1.0 730:1.0 736:1.0 738:1.0 
-1.0 0.6447539363227809 2:1.0 3:1.0 730:1.0 736:1.0 
-1.0 1.0 124:1.0 732:1.0 
-0.9998364863581544 0.14538074574057597 242:1.0 298:1.0 410:1.0 729:1.0 
-1.0 0.0 2:1.0 3:1.0 169:1.0 730:1.0 736:1.0 
-0.719760412494475 0.0 25:1.0 324:1.0 
-1.0 1.0 467:1.0 
-1.0 1.0 34:1.0 179:1.0 698:1.0 
-1.0 6.071532165918825E-18 2:1.0 3:1.0 278:1.0 730:1.0 736:1.0 
-1.0 0.7957555485305098 25:1.0 281:1.0 
-0.5470219631229947 0.23020186674424972 305:1.0 737:1.0 
-1.0 0.8022073012162514 53:1.0 464:1.0 
-1.0 1.0 627:1.0 
-1.0 1.0 393:1.0 
-1.0 1.0 2:1.0 3:1.0 730:1.0 736:1.0 
-1.0 1.0 69:1.0 139:1.0 731:1.0 
-1.0 1.0 
-0.004865639306175873 0.0 2:1.0 3:1.0 69:1.0 194:1.0 343:1.0 730:1.0 731:1.0 736:1.0 
-0.6855291722165106 0.04683077327253238 174:1.0 216:0.9461732649399713 426:1.0 
-1.0 1.0 120:1.0 624:1.0 
-1.0 -0.0 483:1.0 
-0.005580731520857731 -0.004604568460092627 55:1.0 56:1.0 319:1.0 485:1.0 486:1.0 
-0.9981330901531842 -0.0 492:1.0 
-1.0 -0.9407220754893594 321:1.0 
-1.0 -0.0 495:1.0 
-0.001457936469248358 -0.0 303:1.0 496:1.0 497:1.0 498:1.0 499:1.0 
-0.014054933516270851 -0.0 500:1.0 501:1.0 502:1.0 503:1.0 
-0.0 -0.004250074112309346 49:1.0 65:1.0 69:1.0 169:1.0 494:1.0 512:1.0 513:1.0 731:1.0 
-0.9178545377555529 -0.0 69:1.0 516:1.0 731:1.0 
-0.0017271876538416083 -0.0 8:1.0 63:1.0 194:1.0 435:1.0 517:1.0 518:1.0 519:1.0 520:1.0 521:1.0 522:1.0 738:1.0 
-0.062117122502201444 -0.0 487:1.0 735:1.0 
-0.16719260195901747 -0.003703970580002795 28:1.0 99:1.0 336:1.0 391:0.953799129046101 523:1.0 
-0.003947804007604417 -0.0 221:1.0 315:1.0 411:1.0 524:1.0 525:1.0 526:1.0 527:1.0 528:1.0 
-2.0951345989768852E-4 -0.006002511506502904 529:1.0 530:1.0 531:1.0 
-0.0 -0.0015613511447696868 175:1.0 399:1.0 539:1.0 540:1.0 541:1.0 542:1.0 
-0.0026246765774776185 -0.001992228465010032 395:1.0 544:1.0 545:1.0 546:1.0 547:1.0 548:1.0 549:1.0 550:1.0 
-0.0 -0.008375091090937599 551:1.0 552:1.0 553:1.0 554:1.0 555:1.0 
-9.16876859866611E-4 -0.0 25:1.0 565:1.0 566:1.0 
-0.0 -0.0023465379554681786 124:1.0 160:1.0 576:1.0 732:1.0 
-0.0037585377170717047 -0.00961552159956476 577:1.0 578:1.0 579:1.0 
-0.0 -0.003916125028011014 2:1.0 3:1.0 104:1.0 176:1.0 580:1.0 581:1.0 582:1.0 583:1.0 584:1.0 730:1.0 736:1.0 
-1.0 -0.6370939466563164 240:1.0 
-0.0036672064661999924 -0.0 64:1.0 585:1.0 586:1.0 587:1.0 
-0.5500730849541418 -0.0 51:1.0 163:1.0 588:1.0 
-0.0 -0.01932003434270907 594:1.0 595:1.0 
-0.0031750239025055793 -0.0041725900901295266 336:1.0 601:1.0 602:1.0 
-0.0012136417418186958 -4.425170010874946E-4 603:1.0 604:1.0 605:1.0 
-0.7901582672846932 -0.9639744970672005 483:1.0 
-0.9974340436016917 -0.0 484:1.0 
-0.3912650649584811 -0.7339080024221278 55:1.0 56:1.0 319:1.0 485:1.0 486:1.0 
-0.7922295740687143 -0.9641361355582478 492:1.0 
-1.0 -1.0 321:1.0 
-0.7479264947099835 -0.7650867633206146 495:1.0 
-0.24905492675586755 -0.0 303:1.0 496:1.0 497:1.0 498:1.0 499:1.0 
-0.2606321770813372 -0.0 500:1.0 501:1.0 502:1.0 503:1.0 
-0.0 -0.020163469053987804 49:1.0 65:1.0 69:1.0 169:1.0 494:1.0 512:1.0 513:1.0 731:1.0 
-0.8947133572764737 -0.6717257426098591 69:1.0 516:1.0 731:1.0 
-0.9917339353292209 -0.901203003507387 28:1.0 99:1.0 336:1.0 391:0.953799129046101 523:1.0 
-0.07267182299020271 -0.0 221:1.0 315:1.0 411:1.0 524:1.0 525:1.0 526:1.0 527:1.0 528:1.0 
-0.4646560711113135 -0.2436257251685482 529:1.0 530:1.0 531:1.0 
-0.0 -0.08615188469735877 175:1.0 399:1.0 539:1.0 540:1.0 541:1.0 542:1.0 
-0.0 -0.2901123287663581 69:1.0 124:1.0 410:1.0 543:1.0 731:1.0 732:1.0 
-0.1817472600613652 -0.1073241543292384 395:1.0 544:1.0 545:1.0 546:1.0 547:1.0 548:1.0 549:1.0 550:1.0 
-0.44364834073335413 -0.29231488640137515 25:1.0 565:1.0 566:1.0 
-0.0 -0.16759438908709218 160:1.0 507:1.0 567:1.0 568:1.0 569:1.0 
-0.0 -0.2787590147615775 124:1.0 160:1.0 576:1.0 732:1.0 
-0.5930277771191871 -0.42121014804624124 577:1.0 578:1.0 579:1.0 
-0.0 -0.14749150752002263 2:1.0 3:1.0 104:1.0 176:1.0 580:1.0 581:1.0 582:1.0 583:1.0 584:1.0 730:1.0 736:1.0 
-1.0 -1.0 240:1.0 
-0.2650486095249252 -0.07351148294182293 64:1.0 585:1.0 586:1.0 587:1.0 
-1.0 -0.8000175774615723 51:1.0 163:1.0 588:1.0 
-0.8950717378109462 -0.943518214946236 594:1.0 595:1.0 
-0.39119191750535065 -0.5001542623191582 336:1.0 601:1.0 602:1.0 
-0.9287949071301086 -0.32091705725569364 603:1.0 604:1.0 605:1.0 
-0.8674792551149512 -0.0 63:1.0 
-1.0 -1.0 
-1.0 -0.0023643127728309155 34:1.0 191:1.0 564:1.0 
-1.0 -1.0 69:1.0 731:1.0 
-1.0 -0.9639118310333092 612:1.0 
-0.6702585820938394 -0.8190969843541306 104:1.0 348:1.0 616:1.0 
-1.0 -0.5375007215459789 617:1.0 
-0.025233473165638728 -0.06996553087686368 494:1.0 
-1.0 -1.0 
-0.0 -1.0 2:1.0 3:1.0 104:1.0 191:1.0 265:1.0 321:1.0 730:1.0 736:1.0 
-1.0 -1.0 
-0.18205918208777172 -0.8730819109920406 69:1.0 463:1.0 481:1.0 731:1.0 
-0.7084264688827614 -0.15733695496576783 621:1.0 622:1.0 
-0.9015675796579322 -0.7423636056801893 210:1.0 623:1.0 
-0.7080888490810283 -0.4992785894851447 2:1.0 3:1.0 63:1.0 162:0.9591432457393305 194:1.0 615:1.0 730:1.0 736:1.0 
-1.0 -0.9287788502809666 625:1.0 
-0.09650498024251439 -0.0 8:1.0 455:1.0 541:1.0 568:1.0 738:1.0 
-0.5439271819382916 -0.0 124:1.0 626:1.0 732:1.0 
-0.0 -0.13541721199006296 63:1.0 627:1.0 628:1.0 
-1.0 -0.9880440520316447 376:1.0 631:1.0 
-1.0 -0.994569630038964 584:0.9113383516909281 
-0.43827277579454 -0.34115175518092566 66:1.0 69:1.0 731:1.0 
-0.8760874968220365 -0.37857436988459203 8:1.0 72:1.0 136:1.0 175:1.0 575:1.0 738:1.0 
-0.042213142282477134 -0.19911910936647517 175:1.0 495:1.0 525:1.0 
-0.8951002536263089 -0.4818540465638205 634:1.0 635:1.0 
-1.0 -0.00655177018896869 636:1.0 
-1.0 -0.9820055347897654 497:1.0 498:1.0 
-0.395094158327923 -0.4410468189886305 432:1.0 617:1.0 
-1.0 -0.671404155334296 566:1.0 
-1.0 -0.0 203:1.0 
-0.8789964949118674 -0.0 584:1.0 
-1.0 -1.0 195:1.0 
-0.2061903297526364 -0.0 64:1.0 637:1.0 638:1.0 
-1.0 -0.9639831609005871 640:1.0 
-1.0 -0.0 239:1.0 
-0.12622793811424127 -0.520694004812947 361:1.0 551:1.0 
-0.49333151354781235 -1.0 239:1.0 392:1.0 
-1.0 -0.9639378556523931 641:1.0 
-0.4636531407485952 -1.0 160:1.0 
-1.0 -0.0 249:1.0 642:1.0 
-1.0 -0.9638559164666186 644:1.0 
-1.0 -0.9639091512721211 645:1.0 
-0.7440771715350675 -0.2365103641437795 69:1.0 552:1.0 646:1.0 731:1.0 
-1.0 -1.0 393:1.0 
-0.9758818686629606 -0.04729465052348857 491:1.0 
-1.0 -0.0 142:1.0 143:1.0 265:1.0 
-1.0 -1.0 330:1.0 
-0.0 -0.5223985316241149 69:1.0 424:1.0 619:1.0 731:1.0 
-0.0 -0.02194929317788862 135:1.0 215:1.0 238:1.0 411:1.0 468:1.0 469:1.0 486:0.953799129046101 629:1.0 648:1.0 
-0.28121356052178953 -0.3306064120356891 66:1.0 179:1.0 649:1.0 
-1.0 -1.0 
-1.0 -0.8125434438422817 176:1.0 
-0.0 -0.09898252384142328 63:1.0 69:1.0 426:1.0 650:1.0 731:1.0 
-0.8951207664160512 -0.2917237864661906 651:1.0 652:1.0 
-0.0 -1.0 354:1.0 355:1.0 
-1.0 -0.48411261353721174 193:1.0 384:1.0 
-0.0 -0.3426545750916835 179:1.0 345:1.0 411:1.0 653:1.0 
-1.0 -0.0 163:0.9684078428233273 654:1.0 
-0.0 -0.13453618652861385 8:1.0 163:1.0 262:1.0 303:1.0 343:1.0 494:1.0 738:1.0 
-0.0 -0.10812168943362203 34:1.0 63:1.0 69:1.0 163:1.0 273:1.0 358:1.0 656:1.0 657:1.0 658:1.0 659:1.0 660:1.0 661:1.0 731:1.0 
-0.6281985378227528 -0.0 504:1.0 
-1.0 -1.0 34:0.9668326966440145 
-0.0 -0.555997005071604 69:1.0 354:1.0 355:1.0 731:1.0 
-0.0 -0.3255483478803049 48:1.0 124:1.0 504:1.0 663:1.0 664:1.0 732:1.0 
-0.05004201991978582 -0.0 63:1.0 199:1.0 582:1.0 
-1.0 -1.0 8:1.0 574:1.0 738:1.0 
-1.0 -0.713392418928588 22:1.0 130:1.0 262:1.0 
-1.0 -0.963936971095528 672:1.0 
-1.0 -1.0 69:1.0 731:1.0 
-1.0 -0.0 34:1.0 159:1.0 673:1.0 
-1.0 -1.0 
-0.0 -0.3938860987179824 124:1.0 273:1.0 504:1.0 732:1.0 
-1.0 -0.0 8:1.0 63:1.0 295:1.0 738:1.0 
-0.44380639787946025 -0.0 104:1.0 675:1.0 
-0.18129044443540068 -0.2313305498912723 124:1.0 572:1.0 613:1.0 614:1.0 732:1.0 
-0.49167300124124985 -1.0 8:1.0 286:1.0 422:1.0 423:1.0 738:1.0 
-0.33578220669296405 -0.1452269547147603 53:1.0 416:1.0 551:1.0 
-0.15485045291457092 -0.0 69:1.0 176:1.0 273:1.0 504:1.0 676:1.0 731:1.0 
-1.0 -0.5170017956041904 349:1.0 
-1.0 -1.0 
-1.0 -1.0 
-1.0 -0.0 239:1.0 
-1.0 -1.0 163:1.0 
-0.0 -0.7827179501013496 124:1.0 355:1.0 732:1.0 
-0.7926538671552377 -0.4302259504642543 678:1.0 679:1.0 
-1.0 -1.0 349:1.0 
-1.0 -1.0 69:1.0 731:1.0 
-0.0 -0.44701057633822905 348:1.0 349:1.0 
-0.016150573646235754 -0.0 349:1.0 680:1.0 
-0.0 -0.4684022311920213 11:1.0 335:1.0 422:1.0 489:1.0 653:1.0 
-1.0 -1.0 
-1.0 -0.23978228883011854 193:1.0 204:1.0 
-1.0 -1.0 190:1.0 385:1.0 
-0.3730164134248746 -0.5821135111439996 371:0.9482826755649801 622:1.0 682:1.0 
-1.0 -1.0 55:1.0 684:0.8791325223340872 
-0.26328435329677147 -0.8787666828396212 347:1.0 685:1.0 686:1.0 
-1.0 -0.3994520955337836 637:1.0 
-1.0 -1.0 
-0.9995677384318233 -0.45130896981036894 388:1.0 508:1.0 
-1.0 -1.0 
-1.0 -0.9640896596414223 556:1.0 
-0.5234981307489578 -0.11204482327451273 140:1.0 271:1.0 485:1.0 
-0.0 -0.04463939266266609 336:1.0 617:1.0 618:1.0 
-0.30298116543054543 -0.905012853880587 175:1.0 235:1.0 341:1.0 654:1.0 
-0.7685001649864339 -0.14073845426229376 647:1.0 689:1.0 
-0.90210190428512 -0.0 104:1.0 681:1.0 
-0.07950785410999713 -0.03165674024057852 463:1.0 673:1.0 690:1.0 
-1.0 -1.0 2:1.0 3:1.0 51:1.0 561:1.0 630:1.0 730:1.0 736:1.0 
-0.0 -0.39890525812192723 392:1.0 504:1.0 
-1.0 -1.0 
-1.0 -0.0 30:1.0 617:1.0 
-0.5780493427408995 -0.0 63:1.0 199:1.0 582:1.0 
-1.0 -0.8268465523954901 265:1.0 692:1.0 
-1.0 -1.0 
-1.0 -1.0 
-1.0 -1.0 693:1.0 
-0.0 -0.6502326032153161 305:1.0 396:1.0 562:1.0 696:1.0 697:1.0 737:1.0 
-1.0 -1.0 
-1.0 -1.0 
-0.5677727489765297 -1.0 2:1.0 3:1.0 315:1.0 393:1.0 668:1.0 730:1.0 736:1.0 
-0.8032987752073638 -1.0 179:1.0 392:1.0 698:1.0 
-1.0 -0.964147033584346 239:1.0 
-1.0 -1.0 69:1.0 731:1.0 
-1.0 -0.0 66:1.0 100:1.0 
-0.2086675739175335 -0.6920210956724765 124:1.0 136:1.0 322:1.0 695:1.0 732:1.0 
-1.0 -1.0 
-0.4781330817021 -0.9999999999999999 258:1.0 625:1.0 
-0.35165186991211544 -1.0 1:1.0 2:1.0 3:1.0 418:1.0 500:1.0 730:1.0 736:1.0 
-0.7732764707542503 -0.0 177:1.0 489:1.0 
-1.0 -1.0 
-1.0 -0.0 86:1.0 177:1.0 242:1.0 562:1.0 
-1.0 -1.0 69:1.0 731:1.0 
-1.0 -1.0 120:1.0 176:1.0 181:1.0 
-0.6057427315000975 -0.42350087600492536 65:1.0 69:1.0 126:1.0 179:1.0 731:1.0 
-1.0 -1.0 124:1.0 139:1.0 732:1.0 
-0.20161789692039445 -0.0 136:1.0 551:1.0 
-1.0 -0.48205431764658874 156:1.0 456:1.0 
-0.5191857786043713 -0.0 34:1.0 63:1.0 69:1.0 136:1.0 157:1.0 273:1.0 707:1.0 731:1.0 
-1.0 -0.8846552250105756 51:1.0 561:1.0 
-1.0 -0.9640542714296194 688:1.0 
-0.11867457188751995 -0.0 411:1.0 643:1.0 
-0.31509400191429837 -0.40085538443795415 328:1.0 395:1.0 466:1.0 627:1.0 666:1.0 667:1.0 
-1.0 -1.0 160:1.0 
-0.8923801379317422 -0.7178698934948763 124:1.0 356:1.0 379:1.0 732:1.0 
-1.0 -1.0 
-0.8677796334627262 -0.13771670423065582 298:1.0 486:1.0 692:1.0 709:1.0 729:1.0 
-1.0 -0.7126367065212618 177:1.0 
-1.0 -1.0 422:1.0 
-1.0 -0.9640112853099958 655:1.0 
-0.8126771189828101 -1.0 69:1.0 335:1.0 731:1.0 
-1.0 -1.0 619:1.0 
-0.5004972745134662 -0.0 494:1.0 
-0.0 -0.22844613106327288 63:1.0 69:1.0 99:1.0 140:1.0 343:1.0 522:1.0 624:1.0 650:1.0 731:1.0 
-0.0 -0.030435293542611274 160:1.0 379:1.0 
-0.0 -0.5765369012875986 181:0.9129559249479757 192:1.0 354:1.0 355:1.0 
-0.5372785860814835 -1.0 303:1.0 531:1.0 
-0.39356313681046456 -0.5645529666933915 637:1.0 710:1.0 
-0.759239642032624 -0.21116006974684395 25:1.0 64:1.0 379:1.0 653:1.0 705:1.0 711:1.0 
-1.0 -0.0 551:1.0 
-0.25117425040171903 -1.0 306:1.0 340:1.0 535:1.0 590:1.0 733:1.0 
-0.0 -0.06698103474881725 440:1.0 531:1.0 622:1.0 639:1.0 
-0.21201537458954145 -0.13928379474437902 8:1.0 11:1.0 71:1.0 265:1.0 396:1.0 442:1.0 712:1.0 738:1.0 
-0.2090948305451581 -0.0 491:1.0 639:1.0 713:1.0 
-0.8862684796687119 -0.0 504:1.0 
-1.0 -0.9636660800166676 716:1.0 
-1.0 -1.0 160:1.0 
-1.0 -0.6994705620231243 681:1.0 
-1.0 -1.0 69:1.0 731:1.0 
-0.9030083388863477 -0.7296496734390213 64:1.0 354:1.0 355:1.0 
-0.5919604896759549 -0.5535792575130039 34:1.0 362:1.0 691:1.0 717:1.0 
-0.0 -0.13480747756691552 51:1.0 63:1.0 163:1.0 224:1.0 345:1.0 
-0.22683198383424036 -0.023335700093109705 315:1.0 321:1.0 360:1.0 488:1.0 663:1.0 664:1.0 
-1.0 -0.9637093242031851 159:1.0 
-0.4893497747492399 -0.8560011349269271 64:1.0 265:1.0 343:1.0 487:1.0 735:1.0 
-1.0 -0.24044393279264878 714:1.0 715:1.0 
-1.0 -1.0 
-1.0 -1.0 305:1.0 737:1.0 
-1.0 -0.9346197387668066 559:1.0 
-0.7908548571812521 -0.5128320636196088 508:1.0 
-1.0 -0.41385240228402004 8:1.0 173:1.0 387:1.0 738:1.0 
-0.9207555784923794 -0.8677878358254651 111:1.0 624:1.0 
-0.9015984671695573 -0.18447154685716724 11:1.0 488:1.0 541:1.0 
-0.3999241336556981 -0.0 157:1.0 175:1.0 233:1.0 290:1.0 641:1.0 672:1.0 
-1.0 -1.0 
-0.534312791242221 -0.0 410:1.0 535:1.0 662:1.0 
-0.0 -0.35763690925372293 69:1.0 303:1.0 690:1.0 731:1.0 
-0.0 -0.8817674152634007 53:1.0 104:1.0 551:1.0 
-1.0 -0.9640613541391809 720:1.0 
-0.12103064819338126 -0.10635795374051843 34:1.0 504:1.0 663:1.0 721:1.0 
-0.8736987486804312 -0.7266767891942828 100:1.0 124:1.0 732:1.0 
-0.0 -1.0 124:1.0 139:1.0 411:1.0 732:1.0 
-0.019610922432843368 -0.0 156:1.0 286:1.0 564:1.0 646:1.0 694:1.0 710:1.0 
-0.01574112863514652 -0.0 63:1.0 64:1.0 628:1.0 
-0.2817282867914416 -0.0 321:1.0 599:1.0 
-1.0 -0.28491073074406315 175:1.0 686:1.0 
-1.0 -1.0 8:1.0 738:1.0 
-0.522112893400049 -0.5295772417429955 491:1.0 
-1.0 -1.0 34:1.0 
-0.050218572355590456 -0.08715952726523914 62:1.0 63:1.0 252:1.0 265:1.0 
-1.0 -1.0 9:1.0 723:0.9395662717713813 
-0.7062270633648612 -1.0 23:1.0 89:1.0 620:1.0 724:1.0 
-0.0 -0.18996009008851084 69:1.0 124:1.0 552:1.0 731:1.0 732:1.0 
-0.7750552314954827 -0.2659865324614528 64:1.0 67:1.0 362:1.0 677:1.0 
-0.0 -0.16270688651141363 179:1.0 494:1.0 514:0.9461732649399713 
-0.0013031841738424038 -0.0 353:1.0 487:1.0 735:1.0 
-1.0 -1.0 422:1.0 
-1.0 -1.0 124:1.0 732:1.0 
-1.0 -0.21629190105051468 163:1.0 396:1.0 425:1.0 
-1.0 -1.0 
-1.0 -0.9639054013936348 725:1.0 
-0.20928930930621958 -0.0 307:1.0 540:1.0 541:1.0 
-1.0 -0.09179243386100083 494:1.0 
-0.2633576508921015 -0.02931723232872147 414:1.0 558:1.0 559:1.0 
-0.0 -1.0 191:1.0 339:1.0 425:1.0 642:1.0 
-0.2741111759618787 -0.4980960198567708 9:1.0 439:1.0 494:0.9642888961384068 
-0.2433887138527208 -0.7336825029837373 177:1.0 348:1.0 
-0.0 -0.032630986718482205 124:1.0 614:1.0 679:1.0 732:1.0 
-1.0 -0.9639002472963372 222:1.0 
-1.0 -1.0 
-1.0 -0.45057504496024475 64:1.0 126:1.0 585:1.0 
-0.4638051784012775 -0.4832966442951126 384:1.0 714:1.0 
-0.3297514890210473 -0.0 349:1.0 680:1.0 
-0.8951538032624221 -0.0 696:1.0 697:1.0 
-0.0 -0.49602235551021945 160:1.0 648:1.0 
-0.48717917006311673 -0.6463576371547644 436:0.9434410727537982 689:0.9461732649399713 
-0.7082588254268114 -0.8734736832861287 140:1.0 271:1.0 712:1.0 
-1.0 -1.0 
-0.36916708276409316 -0.0 34:1.0 463:1.0 725:1.0 
-1.0 -0.9637969565496147 626:1.0 
-1.0 -1.0 
-0.7927542730541542 -0.9641305324403776 484:1.0 
-1.0 -0.0 675:1.0 
-1.0 -1.0 160:1.0 
-1.0 -1.0 339:1.0 
-0.3263898717977226 -1.0 160:1.0 560:1.0 
-0.5104564281064836 -0.0 124:1.0 156:0.9499999874 271:1.0 727:1.0 732:1.0 
-0.5830663430458141 -0.6918735511299653 541:1.0 
-1.0 -0.4073404286396056 34:1.0 575:1.0 
-0.8235650346700941 -0.9146519166905663 464:1.0 500:1.0 629:1.0 
-1.0 -0.0 411:1.0 
-1.0 -1.0 69:1.0 731:1.0 
-0.08319597500849034 -0.38672867474566597 421:1.0 491:1.0 
-0.09653060934165171 -0.0 386:1.0 640:1.0 711:1.0 718:1.0 
-0.5421714483038005 -1.0 187:1.0 281:1.0 332:1.0 681:1.0 
-0.005386953592214429 -0.10650730978266523 48:1.0 190:1.0 564:1.0 649:1.0 
-0.3028027150389816 -0.03212309968702783 50:1.0 564:1.0 
-0.0 -0.30766387810545887 181:1.0 551:1.0 706:1.0 
-1.0 -0.9641663293767561 632:1.0 
-0.41567444777849827 -0.7907457201411324 9:1.0 62:1.0 190:1.0 286:1.0 418:1.0 564:1.0 
-0.34216276902682846 -0.0 487:1.0 735:1.0 
-0.7618903603924909 -1.0 191:1.0 238:1.0 636:1.0 
-1.0 -1.0 111:1.0 
-1.0 -0.22245483485453618 65:1.0 208:1.0 633:1.0 
-0.09828277981282309 -0.0 104:1.0 349:1.0 
-0.0 -0.3800952139819081 69:1.0 651:1.0 731:1.0 
-1.0 -0.9573718626016667 636:1.0 
-1.0 -1.0 435:1.0 
-1.0 -1.0 
-1.0 -1.0 69:1.0 163:1.0 731:1.0 
-0.11881928121711825 -0.7112515305675192 397:1.0 411:1.0 
-1.0 -0.9819079841038273 86:1.0 675:1.0 
-1.0 -1.0 345:1.0 
-0.20457357888500025 -0.07065498596988108 32:1.0 52:1.0 104:1.0 210:1.0 678:1.0 689:1.0 
-1.0 -1.0 359:1.0 
-1.0 -0.9662402406658702 203:1.0 
-0.3571022039390058 -0.4477910727407313 191:1.0 411:1.0 
-1.0 -0.9639002472963372 532:1.0 
-0.26337955778860017 -0.49314512063937854 345:1.0 563:1.0 719:1.0 
-1.0 -1.0 69:1.0 72:1.0 142:1.0 143:1.0 731:1.0 
-1.0 -1.0 
-1.0 -0.5861173929645958 24:1.0 289:1.0 411:1.0 
