svm_type c_svc
kernel_type linear
nr_class 3
total_sv 997
rho -0.8892862139736535 -0.7091852290337635 0.05980878678561656
label 0 1 2
nr_sv 381 308 308
SV
1.0 1.0 
1.0 0.29092576230970346 1:1.0 
1.0 1.0 
0.016131580603803316 0.0 2:1.0 3:1.0 13:1.0 14:1.0 15:1.0 679:1.0 685:1.0 
1.0 1.0 
0.7300474345779292 0.0 2:1.0 3:1.0 491:1.0 679:1.0 685:1.0 
1.0 1.0 24:1.0 25:1.0 
1.0 1.0 
1.0 1.0 
1.0 1.0 
1.0 0.1070887358859004 30:1.0 
0.3070658205887904 0.0 32:1.0 33:1.0 34:1.0 419:1.0 626:1.0 
0.09279750505957843 0.0 2:1.0 3:1.0 35:1.0 679:1.0 685:1.0 
0.0 0.2097402088402999 38:1.0 
0.13380306942542605 0.14532592631782512 42:1.0 43:1.0 
1.0 1.0 
0.149208886571289 0.0 44:1.0 45:1.0 46:1.0 47:1.0 
0.005634093601055192 0.0 33:1.0 48:1.0 49:1.0 
1.0 1.0 
1.0 0.0 2:1.0 3:1.0 50:1.0 679:1.0 685:1.0 
0.007682336387359906 0.35262145641011083 51:1.0 52:1.0 
0.13755916698577056 0.0 37:1.0 53:1.0 
0.04307310627857696 0.0 54:1.0 55:1.0 
0.7494982578739388 0.5444418909297085 56:1.0 57:1.0 58:1.0 
0.48734186979305955 1.0 48:0.9479525034613154 63:1.0 64:1.0 65:1.0 66:1.0 401:1.0 
0.0 0.6167840506487878 67:1.0 68:1.0 69:1.0 70:1.0 71:1.0 434:1.0 
0.530856108252717 0.37168813215538643 67:1.0 72:1.0 73:1.0 74:1.0 680:1.0 
0.3864448537259718 0.4088484269213257 36:1.0 75:1.0 76:1.0 426:1.0 
0.01603655236146392 0.0 2:1.0 3:1.0 41:1.0 77:1.0 78:1.0 679:1.0 685:1.0 
1.0 1.0 588:1.0 
1.0 1.0 
1.0 1.0 
1.0 0.0 2:1.0 3:1.0 679:1.0 685:1.0 
1.0 1.0 
1.0 1.0 
0.0 1.0 88:1.0 89:1.0 569:1.0 
1.0 1.0 
0.06674141335745379 0.0 92:1.0 93:1.0 416:1.0 
1.0 1.0 
0.8209518853074413 0.0 94:1.0 
1.0 1.0 410:1.0 
0.10566155605101964 0.0 96:1.0 97:1.0 98:1.0 99:1.0 100:1.0 101:1.0 102:1.0 103:1.0 
1.0 1.0 
0.11075797785007022 1.0 104:1.0 
1.0 1.0 
1.0 0.6206552507780508 8:1.0 435:1.0 687:1.0 
1.0 0.0 9:1.0 42:1.0 
0.14892748348166465 0.36303320750775625 108:1.0 109:1.0 110:1.0 
1.0 1.0 
1.0 1.0 
0.24754026709397473 1.0 36:1.0 
1.0 1.0 72:1.0 680:1.0 
1.0 0.4180945280945581 103:1.0 123:0.9499999874 
0.17811091216472374 0.0 25:1.0 124:1.0 
1.0 0.0 2:1.0 3:1.0 679:1.0 685:1.0 
1.0 1.0 
0.11069423879112025 0.29056350673851916 125:1.0 
0.15751330219068285 0.2078625644825082 9:1.0 27:1.0 98:1.0 119:1.0 126:1.0 127:1.0 681:1.0 
0.12378866099610061 0.7606186115690434 22:1.0 128:0.94530094099201 129:1.0 453:1.0 
0.9304033261339661 0.5628417986477003 33:1.0 115:1.0 
0.34862882476755125 0.0 46:1.0 120:1.0 135:1.0 136:1.0 
0.0 0.49748955774661957 115:1.0 116:1.0 144:1.0 
1.0 1.0 
1.0 0.2612255142216567 145:1.0 146:1.0 478:1.0 
0.11024432826150399 0.0 39:1.0 
0.5492174043619575 1.0 148:1.0 149:1.0 
1.0 1.0 
0.02051882894828465 0.0 18:1.0 126:1.0 150:1.0 151:1.0 152:1.0 153:1.0 
0.3518834415359419 0.20694522728986628 8:1.0 61:1.0 97:1.0 371:1.0 687:1.0 
0.0 0.13046851972377552 142:1.0 155:1.0 
0.0 1.0 148:1.0 149:1.0 475:1.0 
0.5477008771438019 1.0 520:1.0 521:1.0 
1.0 1.0 
1.0 1.0 
1.0 0.29078051236983415 425:1.0 
0.13776927009178327 0.0 53:1.0 140:1.0 
0.12482623721295381 0.3279223855776513 162:0.9415410972642327 
0.1105338129343624 0.2907174564445812 169:1.0 
0.261695650229822 0.5628532449194678 161:1.0 170:1.0 171:1.0 465:1.0 
0.0311145247142552 0.0 2:1.0 3:1.0 13:1.0 79:1.0 679:1.0 685:1.0 
0.0 0.20837097436912977 174:1.0 
0.0 0.7100143911458109 41:1.0 175:1.0 176:1.0 
0.0 0.2662852004698101 70:1.0 
0.0 0.29080828790469315 28:1.0 
0.0 7.265880282346529E-4 93:1.0 177:1.0 178:1.0 
0.05535126205035932 0.12552415603764133 86:1.0 118:1.0 
0.006555223617406055 0.0 90:1.0 179:1.0 180:1.0 
1.0 1.0 64:1.0 72:1.0 175:1.0 181:1.0 642:1.0 680:1.0 686:1.0 
0.19265492957132122 0.2903636679762194 182:1.0 
0.11078768651501639 0.2907855257822415 183:1.0 
0.8504110871263892 0.2905170226269177 45:1.0 
0.0 1.0 184:1.0 
0.7405685381799424 1.0 185:1.0 
1.0 1.0 
0.11076075205670417 0.29076637551814 190:1.0 
1.0 0.2909434439062397 25:1.0 
1.0 1.0 
1.0 1.0 72:1.0 680:1.0 
1.0 0.0 2:1.0 3:1.0 679:1.0 685:1.0 
1.0 1.0 
0.6285989042846674 0.14544777582917112 191:1.0 489:1.0 
0.0 0.2944041235849355 192:1.0 
0.0 0.2635453957092104 136:1.0 195:1.0 196:1.0 197:1.0 608:1.0 
1.0 1.0 
0.11117837754411851 0.0 2:1.0 3:1.0 198:1.0 679:1.0 685:1.0 
0.0 0.5864356598644775 142:1.0 200:1.0 
1.0 1.0 
1.0 1.0 2:1.0 3:1.0 127:1.0 146:1.0 201:1.0 393:1.0 413:1.0 555:1.0 653:1.0 679:1.0 681:1.0 685:1.0 
0.18368150859055837 0.0 2:1.0 3:1.0 130:1.0 131:1.0 132:1.0 133:1.0 679:1.0 685:1.0 
1.0 0.0 2:1.0 3:1.0 679:1.0 685:1.0 
1.0 1.0 
0.03712480728103836 0.0 55:1.0 202:1.0 203:1.0 204:1.0 
0.08042904184553083 0.0 55:1.0 205:1.0 206:1.0 
1.0 1.0 
0.0 0.18358387075006288 30:1.0 34:1.0 75:1.0 
0.2865287434096252 0.0 207:1.0 208:1.0 
0.5554727250586596 0.2739511019526116 209:1.0 210:1.0 
0.12478638643510911 0.7212029014235161 211:1.0 212:1.0 
0.21639117737101468 0.0 33:1.0 213:1.0 214:1.0 
0.08230162292183228 0.3898152726437058 71:1.0 108:1.0 206:1.0 217:1.0 218:1.0 
0.0 0.9091476630274659 9:1.0 
1.0 1.0 
0.0 1.0 151:1.0 180:1.0 598:1.0 
0.35706983646516666 0.21859006695411407 2:1.0 679:1.0 
1.0 1.0 
0.2838903375376469 1.0 219:1.0 616:1.0 
0.36089736751705503 0.0 2:1.0 19:1.0 103:1.0 147:0.9553555198340536 679:1.0 
1.0 1.0 
0.13464130266091479 0.46692530670358884 22:1.0 220:1.0 221:1.0 
1.0 1.0 3:1.0 222:1.0 685:1.0 
1.0 1.0 
1.0 0.0 2:1.0 224:1.0 679:1.0 
0.5505841849033425 0.0 38:1.0 225:1.0 
0.07012330657417085 0.16599900312800475 115:1.0 116:1.0 117:1.0 226:1.0 227:1.0 
0.0 1.0 72:1.0 106:1.0 228:1.0 680:1.0 
0.6961931670844463 0.0 197:1.0 229:1.0 
1.0 1.0 168:1.0 
0.3468545740515368 1.0 66:1.0 127:1.0 170:1.0 230:1.0 341:1.0 437:1.0 643:1.0 681:1.0 
1.0 1.0 
0.5094434251311426 0.20757662842734714 70:1.0 215:1.0 234:1.0 
1.0 0.0 2:1.0 3:1.0 679:1.0 685:1.0 
1.0 0.29048259501280804 353:1.0 
0.0 0.8588935704894484 110:1.0 
1.0 0.6527883036781259 75:1.0 134:1.0 240:1.0 
0.5674925859101525 0.4920677737543492 49:1.0 142:1.0 214:1.0 234:1.0 241:1.0 636:1.0 
0.0 0.2244194709068508 35:1.0 
1.0 0.0 2:1.0 3:1.0 679:1.0 685:1.0 
0.7628806036363338 1.0 108:1.0 130:1.0 230:1.0 
1.0 0.588904705991067 53:1.0 
1.0 1.0 31:1.0 72:1.0 93:1.0 185:1.0 680:1.0 
1.0 1.0 
1.0 1.0 340:1.0 
1.0 1.0 8:1.0 687:1.0 
1.0 1.0 
0.13628839013247918 0.8860605730551773 129:1.0 244:1.0 488:1.0 
0.0951187248302874 0.023667587729260097 52:1.0 53:1.0 58:1.0 156:1.0 245:1.0 
0.12957300160454427 0.3674028586298847 180:0.9000000062999999 
1.0 1.0 
0.0 1.0 170:1.0 246:1.0 
0.11062199178318538 0.006359546409387351 247:1.0 
1.0 0.0 2:1.0 3:1.0 679:1.0 685:1.0 
1.0 1.0 
1.0 1.0 
1.0 1.0 145:1.0 
1.0 0.0 93:1.0 248:0.9499999874 249:1.0 250:1.0 
1.0 1.0 72:1.0 680:1.0 
1.0 0.0 2:1.0 3:1.0 679:1.0 685:1.0 
1.0 1.0 72:1.0 680:1.0 
0.0 0.28441643776482345 167:1.0 247:1.0 252:1.0 253:1.0 254:1.0 
0.0 0.19917200777579908 255:1.0 
0.0 0.02701071711228611 71:1.0 185:1.0 257:1.0 
1.0 1.0 
0.0 1.0 8:1.0 67:1.0 687:1.0 
0.016009035741977075 0.0 2:1.0 3:1.0 13:1.0 15:1.0 256:1.0 679:1.0 685:1.0 
1.0 1.0 
0.05520689441570088 0.14545167961843852 84:1.0 85:1.0 
0.6120365914229045 1.0 72:1.0 246:1.0 680:1.0 
0.0 0.1432809287521692 48:1.0 258:1.0 259:1.0 
0.7235943298410749 1.0 250:1.0 
1.0 1.0 36:1.0 
0.32736500971599525 1.0 72:1.0 260:1.0 680:1.0 
1.0 1.0 
1.7928508144405522E-4 0.43054310716763317 39:1.0 40:1.0 253:1.0 254:1.0 
0.0 0.1854280784031449 4:1.0 50:1.0 207:1.0 229:1.0 619:1.0 
0.4983308408506096 0.4776324274774396 69:0.9516670196927766 103:0.9620851208387015 231:0.9479525034613154 
0.0 0.39900781063557433 32:1.0 72:1.0 168:1.0 529:1.0 680:1.0 
1.0 1.0 
1.0 1.0 
1.0 1.0 
0.41072038346371453 0.048718568440957066 16:1.0 17:1.0 41:1.0 189:1.0 263:1.0 370:1.0 
1.0 1.0 
1.0 0.17784162180239393 36:1.0 427:1.0 
0.0 0.13287352017125567 249:1.0 267:1.0 
0.15650018969587196 0.0 74:1.0 182:1.0 268:1.0 269:1.0 
1.0 1.0 72:1.0 224:1.0 270:1.0 680:1.0 
0.08182546902506767 0.0 2:1.0 63:1.0 271:1.0 679:1.0 
1.0 1.0 
1.0 0.9762669022349555 67:1.0 
0.11261173211678756 0.0 71:1.0 135:1.0 
0.21861351165736884 0.5168198956986751 72:1.0 137:1.0 138:1.0 680:1.0 
0.0 0.29061925521891896 276:1.0 
0.6457775303210572 1.0 216:1.0 343:1.0 
0.0 0.9116302200283265 279:1.0 456:1.0 
0.40626415613912326 0.38371720208569815 36:1.0 92:1.0 175:1.0 176:1.0 280:0.94530094099201 
1.0 0.0 2:1.0 3:1.0 679:1.0 685:1.0 
1.0 1.0 
1.0 1.0 
0.5520988750389992 0.6199007250471937 8:1.0 31:1.0 53:1.0 546:1.0 687:1.0 
0.4157662665804874 0.0 16:1.0 17:1.0 38:1.0 
0.11076075205670402 0.5105083708271564 163:1.0 
0.08337378544054004 0.0 2:1.0 3:1.0 4:1.0 9:1.0 26:1.0 283:1.0 679:1.0 685:1.0 
1.0 0.6334447550659391 168:1.0 284:1.0 
0.141471357534479 1.0 33:1.0 54:1.0 67:1.0 285:1.0 424:1.0 
1.0 1.0 
0.7298847573117371 0.0 2:1.0 3:1.0 282:1.0 679:1.0 685:1.0 
0.0 2.2000678833780795E-4 182:1.0 261:1.0 
0.26084247943099914 0.3315766101601277 274:1.0 275:1.0 354:1.0 
0.0 0.29094540351157006 286:1.0 
1.0 0.0 2:1.0 3:1.0 679:1.0 685:1.0 
0.0 1.0 89:1.0 206:1.0 547:1.0 
1.0 1.0 
0.07932291982482684 0.05497474446131728 168:1.0 289:1.0 
0.0 0.9522570340834919 89:1.0 
0.2968357924817077 0.5056014763140072 11:1.0 57:1.0 223:1.0 
1.0 1.0 
1.0 0.0 197:1.0 290:1.0 336:1.0 683:1.0 
0.0 0.9963498773278714 192:1.0 
1.0 1.0 
1.0 0.0 2:1.0 3:1.0 679:1.0 685:1.0 
0.026674950754515366 0.25623976928292613 53:1.0 207:1.0 208:1.0 602:1.0 
0.0 1.0 221:1.0 
0.582942092355505 0.0 33:1.0 
1.0 1.0 
1.0 1.0 72:1.0 680:1.0 
0.0 2.9247656132340633E-4 2:1.0 293:1.0 679:1.0 
0.0 0.20845160778799104 18:1.0 
0.0970691813714298 0.0 2:1.0 3:1.0 16:1.0 17:1.0 29:1.0 116:1.0 679:1.0 685:1.0 
1.0 1.0 
1.0 1.0 72:1.0 680:1.0 
1.0 1.0 
0.11047235507881187 0.2907006323702567 277:1.0 
0.3273769399571017 1.0 72:1.0 154:1.0 680:1.0 
0.046788473248153176 0.14540049140087766 80:1.0 296:1.0 
1.0 1.0 
1.0 1.0 
0.20405212233627473 0.0 44:1.0 297:1.0 
0.9936642085083931 0.29050392126316527 405:1.0 
0.0 0.027451880256300635 136:1.0 
1.0 1.0 
0.19183316882530135 0.0 63:1.0 276:1.0 
1.0 1.0 7:1.0 222:1.0 
0.0 0.20760424822829754 53:1.0 170:1.0 246:1.0 
1.0 1.0 
0.7001501704091561 0.10243384531345169 205:1.0 206:1.0 
1.0 1.0 
1.0 1.0 232:1.0 
1.0 0.2909389031320163 380:1.0 
1.0 1.0 
0.891528013823686 0.8823287792381314 197:1.0 
0.04910295394380992 0.0 35:1.0 65:1.0 93:1.0 143:1.0 147:1.0 290:1.0 293:1.0 
1.0 1.0 
1.0 1.0 53:1.0 72:1.0 211:1.0 245:1.0 297:1.0 680:1.0 
0.11040502429211325 0.2907759841742109 298:1.0 
1.0 0.0 2:1.0 3:1.0 679:1.0 685:1.0 
0.0 0.5129746641523223 147:1.0 168:1.0 244:1.0 528:1.0 650:1.0 
1.0 1.0 
0.7648257221306535 0.0 2:1.0 3:1.0 243:1.0 345:1.0 679:1.0 685:1.0 
1.0 1.0 299:0.9061447530240242 
1.0 1.0 
0.6192935063920229 1.0 606:1.0 
1.0 1.0 55:1.0 
0.3744432342713765 1.0 409:1.0 
0.04553756362639817 0.3227402891863045 264:1.0 300:1.0 610:1.0 
0.9880088827152015 0.0 89:1.0 301:1.0 
0.277917237495137 0.20290524997294282 2:1.0 3:1.0 87:1.0 114:1.0 294:1.0 629:1.0 679:1.0 685:1.0 
1.0 1.0 135:1.0 
0.0 0.29610971462805624 104:0.8438574472610926 202:1.0 275:1.0 
1.0 1.0 
0.11058217630471887 0.2908076264442967 288:1.0 
0.8474463809906473 0.0 103:1.0 302:1.0 
0.006510387074833535 0.0 303:1.0 
0.0 1.0 268:1.0 
1.0 1.0 170:1.0 
0.016834292106784117 0.0 2:1.0 3:1.0 79:1.0 80:1.0 679:1.0 685:1.0 
0.9207168337569342 0.0 2:1.0 3:1.0 42:1.0 128:1.0 240:1.0 272:1.0 679:1.0 685:1.0 
0.04767187145466697 0.0 2:1.0 3:1.0 77:1.0 265:1.0 679:1.0 685:1.0 
1.0 0.0661557545430931 35:1.0 170:1.0 304:1.0 
1.0 1.0 
0.19793138064505483 0.0 2:1.0 227:1.0 286:1.0 679:1.0 
0.0 0.34402062473970996 75:1.0 94:1.0 200:1.0 
1.0 0.0 2:1.0 3:1.0 11:1.0 181:1.0 679:1.0 685:1.0 686:1.0 
0.11064402090565179 0.37503495740194037 604:1.0 
0.4361454699570884 0.4513900681977313 57:1.0 305:1.0 
0.1106584147695158 1.0 68:1.0 
0.5281586154822902 1.0 9:1.0 
1.0 1.0 
0.6023847662010031 1.0 285:1.0 581:1.0 
0.17822212749878574 0.0 25:1.0 192:1.0 
1.0 0.8974880557024496 103:1.0 108:1.0 304:1.0 398:1.0 620:1.0 
0.0 0.29081146489777726 47:1.0 
0.11071454272313663 0.29094223665809393 306:1.0 
0.755995261764001 0.8318398293407615 2:1.0 127:1.0 266:1.0 679:1.0 681:1.0 
0.3793429876380688 1.0 28:1.0 
1.0 1.0 
0.6284913287142335 0.2907770439386884 444:1.0 
0.14602565692988076 0.046343182434076396 8:1.0 207:1.0 308:1.0 339:1.0 687:1.0 
0.11049138360335076 1.0 167:1.0 
0.43711375926859397 0.916632933370501 67:1.0 177:1.0 201:1.0 309:1.0 385:1.0 
1.0 1.0 
0.15752611500632743 0.0 63:1.0 305:1.0 484:1.0 
0.33359750016092415 0.0969402315781112 251:1.0 310:1.0 311:1.0 
0.0 0.9738289118664878 177:1.0 312:1.0 
1.0 0.2517500369315482 65:1.0 168:1.0 313:1.0 
0.5781648186622758 0.0 2:1.0 3:1.0 49:1.0 141:1.0 679:1.0 685:1.0 
0.34148169729660105 2.1614418811751043E-4 9:1.0 96:1.0 503:1.0 
0.0 0.35639524188917254 44:1.0 75:1.0 127:1.0 199:1.0 297:1.0 681:1.0 
1.0 1.0 9:1.0 72:1.0 680:1.0 
8.13507700578217E-4 0.0 2:1.0 3:1.0 6:1.0 45:1.0 679:1.0 685:1.0 
0.0 0.03962598086865443 118:1.0 308:1.0 494:1.0 
0.0 1.0 142:1.0 
1.0 1.0 
0.30420984848698646 0.4070620643315994 72:1.0 111:1.0 112:1.0 250:1.0 317:1.0 544:1.0 680:1.0 
0.5428200195453222 0.0 2:1.0 3:1.0 106:1.0 168:1.0 219:1.0 281:1.0 679:1.0 685:1.0 
1.0 1.0 
0.0 2.3785913815505802E-4 2:1.0 203:1.0 204:1.0 679:1.0 
0.11062404817516325 0.29067000094301937 318:1.0 
1.0 0.024760707736468573 93:1.0 
1.0 0.0 41:1.0 75:1.0 82:1.0 284:1.0 
1.0 0.0 2:1.0 3:1.0 328:1.0 679:1.0 685:1.0 
1.0 1.0 
0.11071595853288456 0.2907127597990311 307:1.0 
1.0 1.0 
0.0 0.0017216071020528562 252:1.0 278:1.0 302:1.0 560:1.0 
1.0 1.0 
0.10413765557316729 0.2909752611729097 303:1.0 
0.2075807472770139 0.0822205010024055 18:1.0 72:1.0 151:1.0 152:1.0 153:1.0 174:1.0 257:1.0 680:1.0 
1.0 1.0 
0.5993550858930357 0.21163382977221426 5:1.0 55:1.0 320:0.9415410972642327 414:1.0 
1.0 1.0 
1.0 1.0 
1.0 1.0 
1.0 0.14538869908283236 321:1.0 678:1.0 
1.0 1.0 
1.0 0.20662033061468993 2:1.0 3:1.0 199:1.0 217:1.0 432:1.0 679:1.0 685:1.0 
0.0 2.1326352164819165E-4 9:1.0 213:1.0 
2.081122327089E-4 6.418476861114186E-17 182:1.0 261:1.0 262:1.0 
0.11053394874674834 0.31712613856479394 312:1.0 
1.0 1.0 
0.11051900142291907 1.0 554:1.0 
1.0 1.0 
1.0 1.0 
0.4442170890931139 0.6455559378104773 291:1.0 407:1.0 
1.0 1.0 36:1.0 
1.0 1.0 
1.0 1.0 
0.48695840649784294 1.0 127:1.0 170:1.0 378:1.0 578:1.0 681:1.0 
0.11074333247720797 0.290559145419744 95:1.0 
0.05529716033705539 0.13265585560816998 267:1.0 322:1.0 
0.0 0.009591575990812673 323:1.0 
1.0 1.0 
0.1679206190525801 0.0 106:1.0 283:1.0 324:0.9415410972642327 
0.0 2.35496685513384E-4 9:1.0 124:1.0 
1.0 0.14549343834142175 314:1.0 469:1.0 
0.11051210727239608 1.0 178:1.0 
0.5557117330829479 0.021197161636222008 2:1.0 3:1.0 350:1.0 461:1.0 679:1.0 685:1.0 
0.0 0.08075175360764973 38:1.0 41:1.0 225:1.0 229:1.0 258:1.0 263:1.0 527:1.0 
0.11503491496144427 0.0 279:1.0 314:1.0 315:1.0 472:1.0 
0.109946659152936 0.0 2:1.0 3:1.0 45:1.0 75:1.0 252:1.0 278:1.0 295:1.0 311:1.0 679:1.0 685:1.0 
1.0 1.0 127:1.0 681:1.0 
0.4089584877242849 0.0 35:1.0 130:1.0 168:1.0 185:1.0 313:1.0 436:1.0 
0.9316180822847984 0.8374820558229183 233:1.0 309:1.0 
0.5828915588914848 0.12928586633413824 2:1.0 3:1.0 4:1.0 8:1.0 22:1.0 23:1.0 679:1.0 685:1.0 687:1.0 
1.0 0.0 2:1.0 3:1.0 679:1.0 685:1.0 
1.0 0.09154097884796336 75:1.0 255:1.0 325:1.0 395:1.0 
0.42005477652376627 0.0 212:1.0 402:1.0 
0.11106947562648817 0.0 2:1.0 3:1.0 259:1.0 679:1.0 685:1.0 
1.0 1.0 36:1.0 
0.11061061450643608 0.9412553252488173 184:1.0 
0.0 0.2906015106626987 324:1.0 
1.0 0.07527673282029793 8:1.0 23:1.0 130:1.0 292:1.0 687:1.0 
0.11061555505657458 0.2810385896851502 323:1.0 
-1.0 0.0 2:1.0 3:1.0 31:1.0 325:1.0 326:1.0 679:1.0 685:1.0 
-1.0 1.0 
-0.23305774836396892 1.0 327:1.0 
-0.06730622703266069 0.0 181:1.0 686:1.0 
-1.0 1.0 
-1.0 1.0 
-1.0 1.0 108:1.0 
-1.0 1.0 75:1.0 
-1.0 0.08681627808748868 2:1.0 3:1.0 16:1.0 17:1.0 45:1.0 245:1.0 338:1.0 679:1.0 685:1.0 
-0.9895856224849737 1.0 222:1.0 
-1.0 1.0 72:1.0 214:1.0 297:1.0 343:1.0 680:1.0 
-6.073611093655451E-4 0.0 344:1.0 
-1.0 1.0 
-1.0 1.0 115:1.0 349:1.0 
-0.8145556504030974 0.0 332:0.9595136331427304 
-0.25936678230684984 0.0 36:1.0 129:1.0 330:1.0 682:1.0 
-1.0 1.0 93:1.0 176:1.0 
-0.0 0.055824731836379655 195:1.0 361:1.0 
-0.08367782157529191 0.0 199:1.0 231:1.0 363:1.0 364:1.0 
-0.22117294759439818 0.0 330:1.0 367:1.0 620:1.0 682:1.0 
-1.0 1.0 368:1.0 
-0.0 0.9922262066778377 363:1.0 369:1.0 370:1.0 598:1.0 
-0.18095728479252307 0.0 2:1.0 3:1.0 108:1.0 216:1.0 292:1.0 365:1.0 373:1.0 374:1.0 375:1.0 679:1.0 685:1.0 
-0.0 0.3394103071597219 49:1.0 127:1.0 170:1.0 376:1.0 377:1.0 378:1.0 379:1.0 681:1.0 
-0.9446752872177844 1.0 380:1.0 381:1.0 
-1.0 1.0 588:1.0 
-0.0 1.0 240:1.0 343:1.0 
-1.0 0.0 2:1.0 3:1.0 679:1.0 685:1.0 
-0.6431385022038717 0.042742041357522166 2:1.0 72:1.0 365:1.0 679:1.0 680:1.0 
-1.0 0.704927759281322 49:1.0 383:1.0 
-0.4653441951354473 0.19262520305753428 227:1.0 387:1.0 388:1.0 389:1.0 
-0.7030896643154033 0.699375852707359 38:1.0 176:1.0 225:1.0 384:1.0 
-1.0 0.0 2:1.0 3:1.0 395:1.0 679:1.0 685:1.0 
-0.22228013925611995 0.940786817715737 396:1.0 397:1.0 398:1.0 577:1.0 
-1.0 1.0 168:1.0 
-1.0 1.0 404:1.0 
-1.0 0.0 9:1.0 130:1.0 345:1.0 405:0.8830820463442043 
-0.3575540628607006 0.0 197:1.0 217:1.0 240:1.0 292:0.956309621329957 386:1.0 
-1.0 1.0 72:1.0 152:1.0 680:1.0 
-1.0 1.0 
-1.0 1.0 
-0.7777271674386207 0.680546794094689 366:1.0 406:1.0 407:1.0 
-0.2639341439382559 0.0 36:0.9682510171240427 240:1.0 408:0.9530723608080983 409:1.0 
-1.0 0.0 2:1.0 3:1.0 679:1.0 685:1.0 
-1.0 1.0 
-0.0 0.3940901678460923 72:1.0 229:1.0 348:1.0 680:1.0 
-1.0 1.0 8:1.0 127:1.0 309:1.0 681:1.0 687:1.0 
-0.8641741540433474 0.0 364:1.0 
-1.0 1.0 
-1.0 1.0 
-0.6287772297463949 0.006473662334424655 2:1.0 3:1.0 135:1.0 170:1.0 410:1.0 411:1.0 679:1.0 685:1.0 
-1.0 1.0 
-0.0 1.0 127:1.0 361:1.0 681:1.0 
-0.007467409147092874 0.0 348:1.0 
-1.0 1.0 11:1.0 36:0.9682510171240427 67:1.0 304:0.9499999874 414:1.0 626:1.0 
-0.0 1.0 108:1.0 181:1.0 686:1.0 
-1.0 0.0 197:1.0 336:1.0 683:1.0 
-0.07371567739412128 0.9812380982609729 72:1.0 415:1.0 416:1.0 417:1.0 680:1.0 
-0.0 0.4500877836835755 72:1.0 146:1.0 368:1.0 379:1.0 418:1.0 419:1.0 420:1.0 680:1.0 
-1.0 1.0 
-0.10955769168850411 0.0 137:1.0 336:1.0 418:1.0 683:1.0 
-0.0 1.0 8:1.0 127:1.0 361:1.0 681:1.0 687:1.0 
-0.13358632615555366 0.34036403168829454 127:1.0 421:1.0 681:1.0 
-1.0 0.9615866068934459 350:1.0 413:1.0 
-1.0 1.0 123:0.9499999874 
-1.0 0.3300347363112738 393:0.9107109769894385 427:1.0 
-0.06576922134670261 0.0 240:1.0 670:1.0 
-1.0 1.0 522:1.0 
-0.4467608500193661 0.37705445669250054 8:1.0 36:1.0 72:1.0 297:1.0 329:1.0 367:1.0 430:1.0 680:1.0 687:1.0 
-0.4037238459917784 0.2851153779184107 41:1.0 185:1.0 431:1.0 432:1.0 433:1.0 
-1.0 1.0 
-0.07342214735627339 0.0 2:1.0 3:1.0 33:1.0 54:1.0 93:1.0 433:1.0 434:1.0 679:1.0 685:1.0 
-1.0 0.0 2:1.0 3:1.0 679:1.0 685:1.0 
-1.0 0.0 2:1.0 348:1.0 679:1.0 
-0.0 0.039459315222555066 35:1.0 129:1.0 222:1.0 328:1.0 436:1.0 
-0.5569584133636911 0.28784378825936197 2:1.0 3:1.0 393:1.0 437:1.0 679:1.0 685:1.0 
-1.0 0.2907365525551998 382:1.0 
-1.0 0.4235049771796474 36:1.0 361:1.0 
-1.0 1.0 
-0.07578581809002677 0.01026421706645671 346:1.0 440:0.94530094099201 
-0.0010980994739747674 0.0 441:1.0 442:1.0 
-0.518073905952246 0.3262625867734232 94:1.0 415:1.0 443:1.0 444:1.0 
-0.0 0.17372773695674948 330:1.0 437:1.0 682:1.0 
-0.954037445000202 0.0 331:1.0 
-0.01338170809286361 0.0241816844871842 240:1.0 447:0.9415410972642327 448:1.0 449:1.0 450:1.0 451:1.0 
-0.8364615560153322 0.6733300677181826 103:1.0 130:1.0 453:1.0 
-0.2904122390076926 0.0 224:1.0 
-1.0 1.0 281:1.0 455:1.0 
-0.9107692475387211 1.0 340:1.0 
-1.0 1.0 
-0.0 0.4791197657906668 127:1.0 330:1.0 656:1.0 681:1.0 682:1.0 
-1.0 0.0 2:1.0 3:1.0 679:1.0 685:1.0 
-0.8361402799467442 0.4685344804732654 72:1.0 249:1.0 429:1.0 680:1.0 
-0.9853584189159712 0.762910277840792 234:1.0 460:0.9379113125386787 
-0.8391434441033732 1.0 170:1.0 365:1.0 
-1.0 0.047353396951818796 74:1.0 380:1.0 
-1.0 1.0 127:1.0 435:1.0 681:1.0 
-1.0 0.0 240:1.0 
-1.0 1.0 23:1.0 
-1.0 0.0 321:1.0 678:1.0 
-1.0 0.964440283512005 224:1.0 
-1.0 1.0 672:1.0 
-0.604532724579434 1.0 64:1.0 369:0.9586782386254836 
-0.49052119047793785 0.678119288210489 299:1.0 363:1.0 
-1.0 0.6022320403717354 24:1.0 108:1.0 466:1.0 
-0.0 0.5300996817012262 125:1.0 368:1.0 395:1.0 
-0.14928425970792447 0.1948998314752538 72:1.0 284:1.0 345:1.0 680:1.0 
-0.5442616529337795 0.0 25:1.0 346:1.0 
-1.0 1.0 
-1.0 1.0 467:1.0 
-1.0 1.0 72:1.0 411:1.0 680:1.0 
-1.0 1.0 23:1.0 
-0.0 0.0988691920156562 11:1.0 170:1.0 181:1.0 292:1.0 309:1.0 456:1.0 468:1.0 686:1.0 
-0.9169986015022041 0.3220930657118117 53:1.0 135:1.0 250:1.0 328:1.0 
-0.07144526670815489 0.0 53:1.0 371:1.0 395:1.0 545:1.0 
-0.9190351682546437 0.008200723438872298 35:1.0 361:1.0 469:1.0 
-0.0 0.6967478808641184 330:1.0 362:1.0 470:1.0 539:1.0 682:1.0 
-1.0 1.0 371:1.0 
-1.0 1.0 72:1.0 145:1.0 680:1.0 
-1.0 1.0 
-0.060838411272998875 0.0 240:1.0 472:1.0 
-0.025873196988432594 0.3187692106656475 179:1.0 331:1.0 610:1.0 
-0.6677485560243512 1.0 72:1.0 201:1.0 240:1.0 680:1.0 
-1.0 1.0 
-0.6353007231001383 1.0 185:1.0 232:1.0 424:1.0 473:1.0 
-0.7603260491094791 0.0 55:1.0 181:1.0 686:1.0 
-0.0 0.7522708474107556 55:1.0 181:1.0 474:1.0 686:1.0 
-0.07320765341754737 0.0 336:1.0 683:1.0 
-1.0 1.0 476:1.0 
-0.30912419367535093 0.0 146:1.0 240:1.0 
-0.6183727481849501 0.0 49:1.0 82:1.0 146:1.0 181:1.0 201:1.0 686:1.0 
-1.0 0.9340759612705566 248:1.0 
-1.0 0.7858597029319485 284:1.0 
-0.8540084006574223 1.0 72:1.0 89:1.0 341:1.0 402:1.0 571:1.0 680:1.0 
-1.0 0.0 2:1.0 3:1.0 283:1.0 337:1.0 679:1.0 685:1.0 
-0.06837774485965055 1.0 145:1.0 309:1.0 
-1.0 1.0 
-0.671826727191365 0.30489467384153585 353:1.0 354:1.0 435:1.0 
-9.245854838801405E-4 0.0 8:1.0 355:1.0 356:1.0 357:1.0 687:1.0 
-1.0 1.0 
-1.0 1.0 
-1.0 1.8453203370262793E-4 2:1.0 3:1.0 46:1.0 479:1.0 679:1.0 685:1.0 
-0.6226505527150453 0.0 2:1.0 3:1.0 445:1.0 481:1.0 679:1.0 685:1.0 
-0.0 0.6687958223816968 170:1.0 240:1.0 482:1.0 483:1.0 
-1.0 1.0 
-0.5587378478012984 0.35162103232904673 211:1.0 484:1.0 485:0.9415410972642327 671:1.0 
-0.0 0.16309795876162533 127:1.0 340:0.9629800780170852 364:0.9610889283409573 390:0.9499999874 681:1.0 
-0.0 0.9789628032648062 127:1.0 328:1.0 681:1.0 
-0.37302612614791975 0.320578717006993 230:1.0 321:1.0 458:1.0 459:1.0 678:1.0 
-1.0 1.0 314:1.0 544:1.0 
-0.2688292889212899 0.19933084727977318 28:1.0 345:1.0 379:1.0 401:1.0 431:1.0 480:1.0 
-1.0 1.0 224:1.0 
-1.0 1.0 
-1.0 1.0 145:1.0 
-0.8820393647275017 0.2266954210594031 348:1.0 
-0.0 0.4140546500392265 261:1.0 340:1.0 463:1.0 
-0.0 0.10359220175511143 72:1.0 279:1.0 331:1.0 413:1.0 471:1.0 575:1.0 655:1.0 680:1.0 
-0.11933216670311553 0.2128250117016182 8:1.0 197:1.0 359:1.0 365:1.0 482:1.0 687:1.0 
-1.0 0.0 425:0.8715141236021012 
-0.0 1.0 177:1.0 325:1.0 365:1.0 424:1.0 
-0.0 1.0 72:1.0 331:1.0 680:1.0 
-0.0 0.7857123300689036 211:1.0 222:1.0 270:1.0 420:1.0 473:1.0 
-0.971768143404728 0.0 2:1.0 3:1.0 328:1.0 679:1.0 685:1.0 
-0.5841625437573943 0.19468051058236885 363:1.0 454:1.0 
-0.0 1.0 376:1.0 377:1.0 
-1.0 1.0 36:1.0 53:1.0 470:1.0 
-1.0 1.0 75:1.0 376:1.0 377:1.0 
-0.9991005680089919 1.0 327:1.0 
-1.0 1.0 
-0.1627382083386226 0.0 314:1.0 358:1.0 439:1.0 469:1.0 487:1.0 488:1.0 
-1.0 1.0 457:1.0 
-1.0 1.0 2:1.0 3:1.0 72:1.0 679:1.0 680:1.0 685:1.0 
-0.23890705231453066 0.3888122035055339 182:1.0 358:1.0 400:1.0 432:1.0 433:1.0 
-0.1467233104979084 0.0 146:1.0 363:1.0 489:1.0 
-1.0 0.21585177429310637 130:0.9586782386254836 490:1.0 
-0.0 0.32278418055153124 258:1.0 332:1.0 487:1.0 
-1.0 1.0 222:1.0 
-0.26870988492520687 0.0 75:1.0 369:1.0 391:1.0 
-0.0 0.5163754193266705 299:1.0 361:1.0 376:1.0 377:1.0 477:1.0 
-0.9414818620158063 0.9028547907102887 364:1.0 
-1.0 0.0 328:1.0 
-1.0 1.0 2:1.0 3:1.0 64:1.0 311:1.0 679:1.0 685:1.0 
-1.0 1.0 57:1.0 58:1.0 
-1.0 0.5169340785891542 30:1.0 429:1.0 
-0.006065244092284075 0.0 50:1.0 240:1.0 314:1.0 483:1.0 
-1.0 1.0 
-1.0 1.0 489:1.0 
-0.9655643568695815 0.9471276198996029 1:1.0 57:1.0 72:1.0 205:1.0 434:1.0 680:1.0 
-1.0 1.0 
-1.0 1.0 
-0.5205111924554959 0.0 35:1.0 336:1.0 436:1.0 683:1.0 
-0.15923422921480612 2.5434581154219706E-4 248:1.0 374:1.0 375:1.0 
-0.5083974899513585 0.19882719246845398 330:1.0 606:1.0 682:1.0 
-1.0 0.5927026774167239 65:1.0 210:1.0 
-0.9878861967226797 1.0 53:1.0 149:1.0 413:1.0 546:1.0 
-0.10644976232796127 0.0 336:1.0 683:1.0 
-1.0 0.569874453657916 75:1.0 493:1.0 
-1.0 1.0 224:1.0 
-0.0 0.04915835485600522 23:1.0 368:1.0 384:1.0 403:1.0 
-0.0 0.22682969382466414 181:1.0 232:1.0 368:1.0 424:1.0 461:1.0 494:1.0 686:1.0 
-1.0 1.0 347:0.9085734369384193 
-1.0 0.14523110679323886 168:1.0 219:1.0 313:1.0 353:1.0 
-1.0 1.0 103:1.0 
-0.0 0.5617372799876369 72:1.0 336:1.0 680:1.0 683:1.0 
-1.0 1.0 
-0.7430511833020776 0.0 2:1.0 3:1.0 96:1.0 170:1.0 463:1.0 634:1.0 679:1.0 685:1.0 
-0.03382092556401853 0.08769141104093515 346:1.0 496:1.0 497:1.0 
-1.0 1.0 168:1.0 
-1.0 0.0 369:1.0 
-0.0 0.0171828281067861 72:1.0 182:1.0 241:1.0 326:1.0 336:1.0 680:1.0 683:1.0 
-0.7233219967272888 0.0 8:1.0 65:1.0 325:1.0 687:1.0 
-1.0 0.4210141677762071 63:1.0 197:1.0 498:1.0 
-0.6434886186386166 0.20937167845858873 2:1.0 3:1.0 8:1.0 445:1.0 446:1.0 679:1.0 685:1.0 687:1.0 
-0.9846028553695111 1.0 393:1.0 521:1.0 
-1.0 0.0 395:1.0 432:1.0 
-0.0 0.38220107742853726 232:1.0 330:1.0 368:1.0 418:1.0 438:1.0 569:1.0 682:1.0 
-0.0 0.1477234770305577 72:1.0 129:1.0 211:1.0 217:1.0 336:1.0 444:1.0 680:1.0 683:1.0 
-1.0 0.6505943123164242 332:0.9595136331427304 
-0.22778873254177398 0.157201466214464 332:1.0 419:1.0 
-1.0 1.0 
-1.0 1.0 2:1.0 3:1.0 309:1.0 679:1.0 685:1.0 
-0.6569948821813913 0.0 2:1.0 3:1.0 327:1.0 679:1.0 685:1.0 
-1.0 1.0 340:1.0 
-0.22640052345291597 1.0 326:1.0 352:1.0 437:1.0 
-1.0 1.0 360:1.0 
-0.0 1.0 127:1.0 146:1.0 170:1.0 500:1.0 681:1.0 
-0.9096962573875425 0.0 331:1.0 
-0.263961272979274 0.0 2:1.0 3:1.0 8:1.0 103:1.0 347:1.0 679:1.0 685:1.0 687:1.0 
-0.9916515184463159 0.05183423559752732 41:1.0 127:1.0 146:1.0 170:1.0 500:1.0 681:1.0 
-1.0 1.0 
-0.23527208669049626 0.5972678674051771 285:1.0 422:1.0 423:1.0 424:1.0 425:1.0 
-0.4395130447070093 0.9525607546043452 346:1.0 410:1.0 
-1.0 1.0 581:1.0 
-0.3629996558942336 0.38663671204837313 333:1.0 355:1.0 412:1.0 
-0.2845627896042318 0.29749116331549624 246:1.0 412:1.0 466:1.0 501:1.0 
-1.0 0.6962818996844017 22:1.0 42:0.956309621329957 
-1.0 1.0 72:1.0 211:1.0 680:1.0 
-0.0 0.018516375013487556 146:1.0 240:1.0 253:1.0 340:1.0 407:1.0 450:1.0 502:1.0 503:1.0 
-1.0 1.0 9:1.0 65:1.0 629:1.0 
-1.0 0.0 2:1.0 3:1.0 299:1.0 679:1.0 685:1.0 
-0.8892927189920455 0.9066808057536839 382:1.0 
-1.0 1.0 370:1.0 
-1.0 1.0 72:1.0 280:1.0 680:1.0 
-1.0 1.0 185:1.0 
-1.0 1.0 462:1.0 
-0.8112221397799058 0.0 93:0.959965550316625 103:1.0 399:1.0 
-1.0 1.0 
-1.0 1.0 67:1.0 439:1.0 
-0.09863787186906084 0.09631260152876711 387:1.0 388:1.0 389:1.0 504:1.0 505:1.0 
-1.0 1.0 
-1.0 1.0 506:1.0 
-0.0 0.438846337718794 348:1.0 358:1.0 
-0.13483774802509335 0.0 336:1.0 435:1.0 472:0.8906018608900373 642:1.0 683:1.0 
-1.0 0.04503036875867343 2:1.0 3:1.0 679:1.0 685:1.0 
-0.869917192162935 0.16196249678597274 284:1.0 595:1.0 
-0.9785950760845719 1.0 340:1.0 
-1.0 0.6700035501474858 50:1.0 507:1.0 
-1.0 0.7249072039475964 9:1.0 42:1.0 222:1.0 
-1.0 1.0 93:1.0 
-1.0 0.0 240:1.0 
-0.0 0.004957501804571713 441:1.0 442:1.0 
-1.0 0.0 33:1.0 103:1.0 
-1.0 1.0 
-1.0 1.0 
-1.0 0.0 168:1.0 181:1.0 686:1.0 
-1.0 1.0 
-0.0 0.049855720766120874 340:1.0 426:1.0 463:1.0 
-1.0 1.0 72:1.0 499:1.0 680:1.0 
-1.0 1.0 33:1.0 
-1.0 1.0 
-0.6187206311032508 0.0 2:1.0 3:1.0 93:1.0 103:1.0 282:1.0 414:1.0 491:1.0 679:1.0 685:1.0 
-0.9941214832774159 0.9342196552602813 344:1.0 
-1.0 1.0 234:1.0 
-0.8449779104477707 0.8747951551629499 425:0.8715141236021012 532:1.0 
-1.0 0.12531536314961478 217:1.0 248:1.0 250:1.0 
-1.0 1.0 
-0.354879791016905 0.0 25:1.0 379:1.0 425:1.0 
-0.9434227700132708 0.8838499182748993 441:1.0 442:1.0 
-0.514871392259957 0.6022438750005306 8:1.0 355:1.0 356:1.0 357:1.0 687:1.0 
-0.045217967615256593 0.0 181:1.0 408:1.0 503:1.0 686:1.0 
-1.0 0.0 2:1.0 3:1.0 679:1.0 685:1.0 
-0.89997746644361 1.0 222:1.0 
-0.89458191446509 0.9852313254055418 344:1.0 
-1.0 0.07894071607074056 396:1.0 398:1.0 
-0.20298377108278834 0.0 2:1.0 3:1.0 94:0.9479525034613154 346:1.0 385:1.0 438:1.0 468:1.0 679:1.0 685:1.0 
-1.0 1.0 
-1.0 1.0 284:1.0 
-0.9096519928942504 0.0 2:1.0 3:1.0 8:1.0 498:1.0 679:1.0 685:1.0 687:1.0 
-1.0 0.1185444561220427 2:1.0 3:1.0 679:1.0 685:1.0 
-1.0 1.0 127:1.0 421:1.0 681:1.0 
-0.5669924615910499 0.22833657843167887 206:1.0 321:1.0 465:1.0 678:1.0 
-0.5987321931237024 0.0 2:1.0 3:1.0 224:1.0 679:1.0 685:1.0 
-0.5249425641609813 0.0 25:1.0 346:1.0 
-1.0 1.0 495:1.0 
-1.0 1.0 36:1.0 232:1.0 661:1.0 
-1.0 0.053707391827712524 2:1.0 3:1.0 301:1.0 679:1.0 685:1.0 
-1.0 0.9675925017249808 25:1.0 304:1.0 
-0.45332286190178894 0.10398531549162761 181:1.0 686:1.0 
-1.0 1.0 55:1.0 426:1.0 
-1.0 1.0 579:1.0 
-1.0 1.0 415:1.0 
-0.12133428190610987 0.0 42:1.0 309:1.0 460:1.0 
-0.011267872169738522 0.0 89:1.0 330:1.0 342:1.0 682:1.0 
-1.0 1.0 2:1.0 3:1.0 679:1.0 685:1.0 
-1.0 1.0 72:1.0 145:1.0 680:1.0 
-1.0 1.0 
-0.696473938563407 0.0 207:0.9499999874 229:1.0 476:1.0 
-0.9446371442572037 1.0 123:1.0 576:1.0 
-1.0 -1.0 
-0.006853908224563832 -0.009298999063416306 510:1.0 
-0.6617084952265344 -0.7233124115073438 57:1.0 58:1.0 341:1.0 511:1.0 512:1.0 
-1.0 -1.0 
-1.0 -1.0 343:1.0 
-1.0 -0.6214793711388036 519:1.0 
-0.3365402889420349 -0.6603513833017038 326:1.0 520:1.0 521:1.0 522:1.0 
-0.25247181590413575 -0.0 523:1.0 
-0.0 -0.06742997694950237 51:1.0 68:1.0 72:1.0 224:1.0 518:1.0 527:1.0 680:1.0 
-1.0 -1.0 72:1.0 680:1.0 
-1.0 -1.0 28:1.0 103:1.0 176:1.0 413:0.9553555198340536 
-0.10745540980149103 -0.0 64:1.0 184:1.0 267:1.0 530:1.0 531:1.0 
-1.0 -1.0 532:1.0 
-0.0 -0.06398332764909856 164:1.0 168:1.0 535:1.0 536:1.0 537:1.0 
-0.1287282258835385 -0.4944269355247513 72:1.0 127:1.0 465:1.0 680:1.0 681:1.0 
-0.5238496049740119 -0.886373350330818 418:1.0 538:1.0 
-1.0 -0.8255355441517128 25:1.0 550:1.0 
-0.13018523417926384 -0.2846236762024603 222:1.0 446:1.0 525:1.0 551:1.0 
-0.0 -1.0 127:1.0 222:1.0 681:1.0 
-1.0 -1.0 
-0.0 -0.2629533452625358 2:1.0 3:1.0 108:1.0 210:1.0 437:1.0 554:1.0 555:1.0 679:1.0 685:1.0 
-1.0 -1.0 354:1.0 
-0.9999999999999998 -0.6542809249134953 67:1.0 556:1.0 
-1.0 -1.0 53:1.0 170:1.0 
-0.30088017432753467 -0.5930857592834708 309:1.0 343:1.0 
-1.0 -0.9404972498977189 557:1.0 
-1.0 -1.0 176:1.0 
-1.0 -1.0 
-0.8277211737725169 -0.0 66:1.0 
-1.0 -1.0 
-0.0 -0.1888953112113387 36:1.0 340:1.0 549:1.0 
-1.0 -1.0 72:1.0 680:1.0 
-1.0 -0.940393802262205 564:1.0 
-0.2649710364334271 -0.7079781045285034 108:1.0 370:1.0 568:1.0 
-1.0 -1.0 569:1.0 
-0.0 -0.1841567741365143 518:1.0 
-1.0 -1.0 
-0.0 -1.0 2:1.0 3:1.0 108:1.0 309:1.0 340:1.0 343:1.0 679:1.0 685:1.0 
-1.0 -1.0 
-0.3427596699239611 -0.7175754960197165 72:1.0 442:1.0 562:1.0 680:1.0 
-0.4796199743776446 -0.05813053370863139 573:1.0 574:1.0 
-0.765691443520739 -0.6764916886825431 258:1.0 575:1.0 
-0.8911324303629853 -0.433817981048807 2:1.0 3:1.0 66:1.0 197:0.9593453270656368 245:1.0 567:1.0 679:1.0 685:1.0 
-0.0 -0.07831222889378431 297:1.0 524:1.0 552:1.0 576:1.0 
-1.0 -0.8812942978425155 577:1.0 
-0.8780222591690038 -0.0 127:1.0 578:1.0 681:1.0 
-0.0 -0.25609298889561105 66:1.0 579:1.0 580:1.0 
-1.0 -0.9799517758475051 398:1.0 583:1.0 
-1.0 -0.8452560283092813 555:0.9107109769894385 
-1.0 -0.36069615284305856 69:1.0 72:1.0 680:1.0 
-0.28902695048855476 -0.0 8:1.0 75:1.0 142:1.0 168:1.0 553:1.0 687:1.0 
-0.41867388013109064 -0.31889274408477414 168:1.0 519:1.0 530:1.0 
-0.8545332431956626 -0.4700593453724685 586:1.0 587:1.0 
-1.0 -0.0 588:1.0 
-1.0 -0.3097805229649937 520:1.0 521:1.0 
-0.7095021047572071 -0.0 550:1.0 
-1.0 -0.0 253:1.0 
-0.4530635584030382 -0.0 555:1.0 
-1.0 -1.0 246:1.0 
-0.4999999999999999 -0.0 67:1.0 590:1.0 591:1.0 
-0.17798909594821358 -0.3203594495732265 127:1.0 326:1.0 515:1.0 681:1.0 
-1.0 -0.94036541385357 592:1.0 
-0.22394157980550122 -0.1526339932746558 72:1.0 593:1.0 680:1.0 
-0.6382432987315774 -0.0 539:1.0 
-1.0 -0.0 510:1.0 
-0.00450285724821603 -0.0800649933164336 516:1.0 
-0.0 -0.4055601025117064 431:1.0 438:1.0 553:1.0 
-1.0 -1.0 381:1.0 
-0.6617196641632263 -0.0 89:1.0 474:1.0 538:1.0 
-1.0 -0.9401523730352072 534:1.0 
-1.0 -0.5775753341141102 2:1.0 3:1.0 108:1.0 184:1.0 214:1.0 600:1.0 679:1.0 685:1.0 
-1.0 -1.0 
-1.0 -1.0 
-1.0 -1.0 72:1.0 299:1.0 680:1.0 
-1.0 -1.0 55:1.0 536:1.0 
-0.0 -0.24220681574836453 75:1.0 513:1.0 684:1.0 
-1.0 -0.118869869367255 246:1.0 602:1.0 
-1.0 -0.0 603:1.0 
-1.0 -1.0 211:1.0 
-0.08423552732289724 -0.0 68:1.0 281:1.0 437:1.0 604:1.0 605:1.0 
-0.49567914750000425 -0.0 53:1.0 66:1.0 270:1.0 581:1.0 582:1.0 
-0.0 -1.0 376:1.0 377:1.0 
-0.8546085890729825 -1.0 330:1.0 682:1.0 
-1.0 -1.0 
-1.0 -1.0 
-0.35459294131665303 -0.0 149:1.0 533:1.0 
-0.6773271347558654 -1.0 327:1.0 610:1.0 611:1.0 
-0.022751419185007324 -1.0 72:1.0 145:1.0 224:1.0 415:1.0 680:1.0 
-0.014561308963543898 -0.0 142:1.0 539:1.0 612:1.0 
-1.0 -1.0 72:1.0 680:1.0 
-1.0 -1.0 232:1.0 
-0.0 -0.6802692123671843 368:1.0 516:1.0 
-0.9109790168202914 -0.08363396917389021 456:1.0 539:1.0 
-1.0 -0.0 523:1.0 
-0.4526475154302879 -0.0 230:1.0 527:1.0 545:1.0 
-1.0 -0.9404265768778596 614:1.0 
-0.9312788755724121 -0.8374415551346077 75:1.0 110:1.0 224:1.0 447:1.0 589:1.0 
-0.21535534230508382 -0.8364258604137822 285:1.0 365:1.0 615:1.0 
-0.0 -0.6897261990788228 383:1.0 539:1.0 
-0.8326500896094595 -0.24008095418811157 211:1.0 285:1.0 
-1.0 -0.9402506519019329 616:1.0 
-1.0 -1.0 222:1.0 
-1.0 -0.0 192:1.0 617:1.0 
-0.742488066515336 -0.39382020452155436 593:1.0 618:1.0 
-1.0 -0.9401345997372434 619:1.0 
-0.8155114053258056 -0.27313419299070507 72:1.0 540:1.0 620:1.0 680:1.0 
-1.0 -1.0 415:1.0 
-0.8241178150061508 -0.0 516:1.0 
-1.0 -0.0 148:1.0 149:1.0 309:1.0 
-1.0 -1.0 352:1.0 
-0.15229981685739494 -1.0 72:1.0 474:1.0 571:1.0 680:1.0 
-0.0 -0.08320043235568128 64:1.0 141:1.0 182:1.0 284:1.0 496:1.0 497:1.0 512:0.9499999874 581:1.0 621:1.0 
-0.5634150377975348 -0.0 53:1.0 513:1.0 546:1.0 684:1.0 
-0.257293563309781 -0.0 115:1.0 177:1.0 210:1.0 358:1.0 568:1.0 
-0.0 -0.18589779666673664 69:1.0 232:1.0 622:1.0 
-1.0 -1.0 
-1.0 -1.0 437:1.0 
-0.0 -0.059243634041602114 66:1.0 72:1.0 476:1.0 623:1.0 680:1.0 
-0.7424771052692546 -0.3935152173425366 624:1.0 625:1.0 
-0.0 -1.0 376:1.0 377:1.0 
-1.0 -0.0 217:1.0 244:1.0 
-0.0 -0.045975777037140994 64:1.0 232:1.0 368:1.0 626:1.0 
-1.0 -0.0 170:0.96870434067015 627:1.0 
-0.0 -0.25675271712679487 127:1.0 145:1.0 550:1.0 628:1.0 681:1.0 
-0.0 -0.06498083893624759 8:1.0 170:1.0 326:1.0 365:1.0 518:1.0 629:1.0 687:1.0 
-0.0 -0.034946525753532375 36:1.0 66:1.0 72:1.0 170:1.0 297:1.0 380:1.0 630:1.0 631:1.0 632:1.0 633:1.0 634:1.0 635:1.0 680:1.0 
-0.7389029201868053 -0.0 524:1.0 
-1.0 -1.0 36:0.9682510171240427 
-0.0 -0.01729581551394816 50:1.0 127:1.0 214:1.0 524:1.0 636:1.0 681:1.0 
-0.2036722832164352 -0.0 66:1.0 250:1.0 554:1.0 
-1.0 -1.0 8:1.0 433:1.0 687:1.0 
-1.0 -0.9667427271433935 22:1.0 135:1.0 629:1.0 
-1.0 -0.9402042584115032 640:1.0 
-1.0 -1.0 72:1.0 680:1.0 
-1.0 -0.35051761784818236 36:1.0 221:1.0 608:1.0 
-1.0 -1.0 
-0.0 -0.86315052612493 127:1.0 297:1.0 524:1.0 681:1.0 
-0.3461648173501243 -0.0 108:1.0 642:1.0 
-0.29257239462691853 -0.19304336199245067 127:1.0 552:1.0 565:1.0 566:1.0 681:1.0 
-0.5741628990237178 -1.0 8:1.0 177:1.0 424:1.0 473:1.0 687:1.0 
-0.0 -0.23211424394701102 55:1.0 539:1.0 545:1.0 
-1.0 -0.6479624109999852 598:1.0 
-1.0 -1.0 
-1.0 -1.0 
-1.0 -0.0 285:1.0 
-1.0 -1.0 170:1.0 
-0.0 -0.6650722497349353 127:1.0 377:1.0 681:1.0 
-0.6536596039235335 -0.4621499039925816 645:1.0 646:1.0 
-1.0 -1.0 598:1.0 
-1.0 -1.0 72:1.0 680:1.0 
-0.0 -0.2843116104499058 370:1.0 598:1.0 
-0.0033352780898025514 -0.0 598:1.0 647:1.0 
-0.0 -0.8271954704153774 11:1.0 358:1.0 424:1.0 514:1.0 626:1.0 
-1.0 -1.0 
-1.0 -0.6112762888076189 167:1.0 244:1.0 434:1.0 
-1.0 -1.0 185:1.0 407:1.0 
-0.7501282356222012 -0.8237886980761888 393:0.9553555198340536 574:1.0 648:1.0 
-0.08006387346854142 -0.0 142:1.0 513:1.0 637:1.0 649:1.0 684:1.0 
-1.0 -1.0 57:1.0 650:0.8830820463442043 
-0.23640572604865506 -0.8160329684109756 369:1.0 651:1.0 652:1.0 
-1.0 -0.9402203111629869 590:1.0 
-1.0 -1.0 
-0.9997641142688254 -0.9496719718758015 410:1.0 526:1.0 
-1.0 -1.0 
-0.8546444761287636 -0.4701577496271529 541:1.0 597:1.0 
-0.4699694980189128 -0.1919413803621101 146:1.0 201:1.0 511:1.0 
-0.2868960210649962 -1.0 168:1.0 281:1.0 363:1.0 627:1.0 
-1.0 -0.0 108:1.0 606:1.0 
-0.08207704708764285 -0.0 562:1.0 608:1.0 655:1.0 
-0.3466414233381588 -0.9698076219816246 2:1.0 3:1.0 53:1.0 546:1.0 582:1.0 603:1.0 679:1.0 685:1.0 
-1.0 -1.0 
-1.0 -0.16155584510833454 31:1.0 569:1.0 595:1.0 
-1.0 -0.0 66:1.0 250:1.0 554:1.0 
-1.0 -1.0 309:1.0 
-1.0 -1.0 
-1.0 -1.0 
-1.0 -1.0 656:1.0 
-0.9706027106049983 -0.0 72:1.0 175:1.0 297:1.0 524:1.0 680:1.0 
-0.0 -0.01876396218517033 64:1.0 362:1.0 
-0.0 -0.6519306043527092 181:1.0 419:1.0 547:1.0 659:1.0 660:1.0 686:1.0 
-1.0 -1.0 
-1.0 -1.0 
-0.22795908711875443 -0.3202982266072126 2:1.0 3:1.0 184:1.0 415:1.0 600:1.0 679:1.0 685:1.0 
-0.3189521257770776 -1.0 211:1.0 232:1.0 661:1.0 
-1.0 -0.0 178:1.0 285:1.0 
-1.0 -1.0 72:1.0 680:1.0 
-1.0 -0.0 69:1.0 104:1.0 
-0.5189904605607722 -0.8596877023549041 127:1.0 142:1.0 344:1.0 658:1.0 681:1.0 
-1.0 -1.0 
-0.46050260366117723 -1.0 414:1.0 577:1.0 
-0.0 -1.0 1:1.0 2:1.0 3:1.0 470:1.0 523:1.0 679:1.0 685:1.0 
-0.8244133338155781 -0.0 230:1.0 514:1.0 
-1.0 -1.0 
-1.0 -0.0 89:1.0 206:1.0 230:1.0 547:1.0 
-1.0 -1.0 72:1.0 680:1.0 
-0.9073169230465873 -1.0 123:1.0 234:1.0 437:1.0 
-0.6410838168197847 -0.2587600832737594 68:1.0 72:1.0 129:1.0 232:1.0 680:1.0 
-0.8003457405496588 -0.0 200:1.0 518:1.0 
-1.0 -1.0 127:1.0 145:1.0 681:1.0 
-0.1457157350273982 -0.0 142:1.0 539:1.0 612:1.0 
-1.0 -1.0 72:1.0 680:1.0 
-1.0 -0.8505494408152989 67:1.0 376:1.0 377:1.0 
-0.6901219191784284 -0.47875355008577924 36:1.0 175:1.0 384:1.0 666:1.0 
-0.0 -0.4426113529925339 30:1.0 53:1.0 66:1.0 170:1.0 270:1.0 368:1.0 416:1.0 
-0.31531848169482385 -0.1374740351354991 184:1.0 214:1.0 216:1.0 343:1.0 382:1.0 636:1.0 
-1.0 -0.29479104399344824 221:1.0 613:1.0 
-0.0 -0.4730058131249645 67:1.0 309:1.0 365:1.0 513:1.0 684:1.0 
-0.9575556074258639 -0.44685202487810377 453:1.0 609:1.0 
-1.0 -1.0 
-1.0 -1.0 181:1.0 686:1.0 
-1.0 -0.9401777107388375 543:1.0 
-0.709562831785985 -0.0 526:1.0 
-1.0 -0.40325028083427655 8:1.0 228:1.0 409:1.0 687:1.0 
-0.8392319969108779 -0.9308816392917492 115:1.0 576:1.0 
-0.5598485923955048 -0.003363137561762573 11:1.0 216:1.0 536:1.0 
-0.6216692571056659 -0.0 168:1.0 219:1.0 279:1.0 313:1.0 616:1.0 640:1.0 
-1.0 -1.0 
-0.5685739608406697 -0.0 171:1.0 465:1.0 534:1.0 
-0.184887587392836 -0.31079099384242576 72:1.0 326:1.0 655:1.0 680:1.0 
-0.0 -0.272750323071666 55:1.0 108:1.0 539:1.0 
-1.0 -0.9402248057053846 669:1.0 
-0.0 -0.10164928147735361 36:1.0 214:1.0 524:1.0 670:1.0 
-1.0 -0.6598859535107258 104:1.0 127:1.0 681:1.0 
-0.07542025108996554 -0.0 175:1.0 246:1.0 320:1.0 358:1.0 518:1.0 561:1.0 671:1.0 
-0.0 -1.0 64:1.0 127:1.0 145:1.0 681:1.0 
-0.2330170903963875 -0.0 177:1.0 180:1.0 549:1.0 620:1.0 657:1.0 
-0.29083420500477775 -0.0 66:1.0 67:1.0 580:1.0 
-0.5464400417550963 -0.10479864997283167 343:1.0 558:1.0 
-1.0 -0.44323468795684956 168:1.0 652:1.0 
-1.0 -1.0 8:1.0 687:1.0 
-0.8806042107306277 -0.1260292942153836 516:1.0 
-1.0 -1.0 36:1.0 
-0.0 -0.13745339358464617 65:1.0 66:1.0 293:1.0 309:1.0 
-1.0 -1.0 9:1.0 672:0.9415410972642327 
-0.7348030468378361 -1.0 23:1.0 93:1.0 572:1.0 673:1.0 
-0.7999804509798114 -0.3080430238103144 67:1.0 70:1.0 384:1.0 644:1.0 
-0.0 -0.06270591602108251 232:1.0 518:1.0 528:0.94530094099201 
-1.0 -1.0 424:1.0 
-1.0 -1.0 127:1.0 681:1.0 
-1.0 -0.0 170:1.0 419:1.0 475:1.0 
-1.0 -1.0 
-1.0 -0.940273945762834 599:1.0 
-0.21990558257745146 -0.0 163:1.0 535:1.0 536:1.0 
-0.0 -0.5277950603572681 518:1.0 
-0.30402302986331137 -0.0 206:1.0 547:1.0 553:1.0 
-0.23649753339096447 -0.0 438:1.0 542:1.0 543:1.0 
-0.0 -1.0 340:1.0 361:1.0 475:1.0 617:1.0 
-1.0 -0.03416222569231893 9:1.0 518:0.9633954190370358 
-0.607816738660895 -1.0 230:1.0 370:1.0 
-0.0 -0.0022340806831482396 127:1.0 566:1.0 646:1.0 681:1.0 
-1.0 -0.9401408872094018 268:1.0 
-1.0 -1.0 
-0.0 -0.0538136351289252 244:1.0 301:1.0 415:1.0 473:1.0 516:1.0 
-0.3454178247237406 -0.0 555:1.0 
-1.0 -0.0 67:1.0 129:1.0 556:1.0 
-0.5544672661743407 -0.7198908650582764 217:1.0 453:1.0 
-0.5415582201716671 -0.0 605:1.0 659:1.0 660:1.0 
-0.39054824498632823 -0.5614189574143861 222:1.0 621:1.0 
-0.7438483678143838 -0.8725843891741853 483:0.94530094099201 654:0.94530094099201 
-1.0 -1.0 146:1.0 201:1.0 
-0.35124952931633535 -0.0 598:1.0 647:1.0 
-1.0 -1.0 
-0.19879591083536244 -0.0 36:1.0 562:1.0 599:1.0 
-1.0 -0.9403939692442881 578:1.0 
-1.0 -1.0 
-0.7024537614572748 -0.9310550156236768 510:1.0 
-1.0 -0.0 642:1.0 
-1.0 -1.0 222:1.0 
-1.0 -1.0 361:1.0 
-0.7978846808651143 -1.0 222:1.0 544:1.0 
-0.8155107558971945 -0.1611281436294794 127:1.0 180:0.9499999874 201:1.0 676:1.0 681:1.0 
-1.0 -0.5901551518602686 36:1.0 553:1.0 
-0.4566748723145337 -0.6356391838286668 426:1.0 523:1.0 581:1.0 
-0.4416694931913706 -0.0 64:1.0 72:1.0 401:1.0 680:1.0 
-1.0 -0.0 64:1.0 
-0.0 -0.0638655165776368 66:1.0 120:1.0 499:1.0 628:1.0 641:1.0 
-1.0 -1.0 72:1.0 680:1.0 
-0.1773567128863989 -0.0 408:1.0 592:1.0 667:1.0 675:1.0 
-0.8313084277977457 -1.0 240:1.0 304:1.0 355:1.0 606:1.0 
-0.1489588021384619 -0.2631632473312551 50:1.0 185:1.0 549:1.0 622:1.0 
-0.43829165379380214 -0.0 52:1.0 549:1.0 
-0.0 -0.3739602345530872 234:1.0 539:1.0 601:1.0 
-1.0 -0.94038075980518 584:1.0 
-0.8271109972612368 -0.7254844070066955 9:1.0 65:1.0 177:1.0 185:1.0 470:1.0 549:1.0 
-0.21116556486268728 -0.0 513:1.0 684:1.0 
-0.5787015990212867 -1.0 284:1.0 340:1.0 588:1.0 
-0.23057103620346264 -0.505778512774626 285:1.0 350:1.0 413:1.0 424:1.0 653:1.0 
-1.0 -1.0 115:1.0 
-0.9032270018229409 -0.2046981732701184 68:1.0 257:1.0 585:1.0 
-0.18459535537460245 -0.49555183506913447 64:1.0 362:1.0 
-1.0 -0.0 142:1.0 555:1.0 
-0.22396630571443085 -0.15323807974473866 72:1.0 624:1.0 680:1.0 
-1.0 -0.9401317417703899 588:1.0 
-1.0 -1.0 482:1.0 
-1.0 -1.0 
-1.0 -1.0 72:1.0 170:1.0 680:1.0 
-0.18462675933149109 -1.0 64:1.0 420:1.0 
-1.0 -0.9701028863266314 89:1.0 642:1.0 
-1.0 -1.0 368:1.0 
-0.4020737955585782 -0.01342157858713997 33:1.0 54:1.0 108:1.0 258:1.0 645:1.0 654:1.0 
-0.7094713101526675 -0.9402243597917113 381:1.0 
-1.0 -0.9588997263621513 253:1.0 
-0.6061911501963854 -0.26879829717917636 64:1.0 340:1.0 
-1.0 -0.9402722027956272 533:1.0 
-0.236432419010543 -0.4698072769409886 368:1.0 548:1.0 668:1.0 
-1.0 -1.0 72:1.0 75:1.0 148:1.0 149:1.0 680:1.0 
-1.0 -1.0 
-1.0 -0.21005581722875358 24:1.0 64:1.0 312:1.0 
