svm_type c_svc
kernel_type linear
nr_class 3
total_sv 994
rho -0.9393861406841334 -0.829380332366608 0.056965986560462825
label 0 1 2
nr_sv 380 308 306
SV
1.0 1.0 
1.0 0.4446836531227279 1:1.0 
1.0 1.0 
0.008471964884297255 0.0 2:1.0 3:1.0 13:1.0 14:1.0 15:1.0 671:1.0 675:1.0 
1.0 1.0 
0.0824520966321575 0.0 9:1.0 16:1.0 17:1.0 18:1.0 663:1.0 
0.0 0.18257453249783176 2:1.0 4:1.0 19:1.0 20:1.0 21:1.0 22:1.0 23:1.0 671:1.0 
0.9576724692113259 0.0 2:1.0 3:1.0 458:1.0 671:1.0 675:1.0 
1.0 1.0 24:1.0 25:1.0 
1.0 1.0 
1.0 1.0 
1.0 1.0 
1.0 0.1704163804713025 30:1.0 
0.06860514061957856 0.15712892736463346 32:1.0 33:1.0 34:1.0 589:1.0 628:1.0 
0.0 0.09606737551087925 35:1.0 36:1.0 37:1.0 664:1.0 
0.0 0.1702019801882122 38:1.0 
0.8660172748154037 0.08251752334421743 42:1.0 43:1.0 
1.0 1.0 
0.23961687210314733 0.0 44:1.0 45:1.0 46:1.0 47:1.0 
1.0 1.0 
0.3224640465386108 0.0 2:1.0 3:1.0 50:1.0 671:1.0 675:1.0 
0.030146535199802097 0.28312238970374526 51:1.0 52:1.0 
0.8025341779856446 0.37665098669650826 56:1.0 57:1.0 58:1.0 
0.2919772047262931 1.0 48:0.9461507336503839 62:1.0 63:1.0 64:1.0 65:1.0 437:1.0 668:1.0 
0.0 0.48037780731997504 66:1.0 67:1.0 68:1.0 69:1.0 70:1.0 389:1.0 
0.5295373272833016 0.43116711259258034 66:1.0 71:1.0 72:1.0 73:1.0 672:1.0 
0.4923902164949004 0.21551153147817323 36:1.0 74:1.0 75:1.0 76:1.0 377:1.0 
0.059302212885643954 0.0 2:1.0 3:1.0 41:1.0 77:1.0 671:1.0 675:1.0 
1.0 1.0 649:1.0 
1.0 1.0 
1.0 1.0 
1.0 0.0 2:1.0 3:1.0 671:1.0 675:1.0 
1.0 1.0 
1.0 1.0 
0.0 0.7290083478741377 87:1.0 88:1.0 584:1.0 
1.0 1.0 
0.18533058968455898 0.0 91:1.0 92:1.0 
1.0 1.0 
0.4808939845177377 0.17056118099605982 93:1.0 
1.0 1.0 
0.9904134638125537 0.016117482127454966 53:1.0 
0.06060578545001486 0.0 94:1.0 
0.06838232095462136 0.1929424110445693 95:0.939504638093022 
0.05993046769389114 0.0 2:1.0 3:1.0 60:1.0 671:1.0 675:1.0 
0.05504399667461661 0.008755311914385139 96:1.0 97:1.0 
0.06053785704719115 0.17047827274537034 103:1.0 
0.0 0.5101759615996958 94:1.0 104:1.0 105:1.0 106:1.0 
0.01767012572051274 0.0 2:1.0 3:1.0 13:1.0 78:1.0 671:1.0 675:1.0 
0.060261662974304867 0.0 110:1.0 
0.0 0.7163675610251701 41:1.0 111:1.0 112:1.0 
0.0 0.04921483936793934 69:1.0 
0.0 0.7175771239207844 28:1.0 
0.10967848769236084 0.0 92:1.0 113:1.0 114:1.0 
0.030214362408761575 0.03945726682371162 85:1.0 98:1.0 
0.0 0.051252787381136054 89:1.0 115:1.0 116:1.0 
1.0 1.0 63:1.0 71:1.0 111:1.0 117:1.0 118:1.0 672:1.0 676:1.0 
0.5111710463442148 0.0 119:1.0 
0.060459526295765856 0.1707283067750483 120:1.0 
0.7875262138077119 0.17056006813969823 45:1.0 
0.0 1.0 122:1.0 
0.6767791183213738 1.0 123:1.0 
1.0 1.0 
0.06041196572380819 0.17035245892609235 128:1.0 
1.0 0.8264361782545127 25:1.0 
1.0 1.0 
1.0 1.0 71:1.0 672:1.0 
1.0 0.0 2:1.0 3:1.0 671:1.0 675:1.0 
0.5302722363244358 0.08538593168568412 130:1.0 456:1.0 
0.0 0.17702673312265815 131:1.0 
0.0 0.29565497666974555 134:1.0 135:1.0 136:1.0 137:1.0 562:1.0 
1.0 1.0 
0.05999356815667105 0.0 2:1.0 3:1.0 138:1.0 671:1.0 675:1.0 
0.0 0.7426530678754062 140:1.0 141:1.0 
1.0 1.0 
1.0 1.0 2:1.0 3:1.0 142:1.0 143:1.0 144:1.0 145:1.0 381:1.0 534:1.0 620:1.0 671:1.0 673:1.0 675:1.0 
1.0 0.0 2:1.0 3:1.0 146:1.0 147:1.0 671:1.0 675:1.0 
1.0 0.0 2:1.0 3:1.0 671:1.0 675:1.0 
1.0 1.0 
0.014346211846144732 0.0 55:1.0 148:1.0 149:1.0 150:1.0 
0.12224726135546007 0.0 55:1.0 151:1.0 152:1.0 
1.0 1.0 
0.3048377260937882 0.0 153:1.0 154:1.0 
0.5104162149129591 0.0 155:1.0 156:1.0 
0.0 0.5848068766347645 157:1.0 158:1.0 
0.4136350398131215 0.03896340996315514 33:1.0 159:1.0 160:1.0 
0.09033488003426661 0.48897090116157893 70:1.0 152:1.0 165:1.0 166:1.0 167:1.0 
1.0 1.0 
0.0 1.0 116:1.0 168:1.0 360:1.0 
0.8953897427479222 0.0 2:1.0 671:1.0 
1.0 0.3647317411258796 642:1.0 
0.31621119246896157 1.0 172:1.0 574:1.0 
0.6813084329944503 0.0 2:1.0 19:1.0 107:0.9514561266245171 173:1.0 671:1.0 
1.0 1.0 
0.0 0.6626232302587668 22:1.0 174:1.0 175:1.0 
1.0 1.0 3:1.0 176:1.0 177:1.0 670:1.0 675:1.0 
1.0 1.0 
1.0 0.0 2:1.0 179:1.0 671:1.0 
0.0 0.024324825902648537 181:1.0 182:1.0 183:1.0 184:1.0 
0.1806983167278955 0.4125423811247633 71:1.0 162:1.0 185:1.0 469:1.0 640:1.0 672:1.0 
0.5187344127838489 0.0 137:1.0 186:1.0 
1.0 0.0 102:1.0 
0.1788260270596617 1.0 65:1.0 105:1.0 145:1.0 187:1.0 188:1.0 329:1.0 608:1.0 668:1.0 673:1.0 
1.0 1.0 
0.24157209606088692 0.0 2:1.0 3:1.0 92:1.0 189:1.0 190:1.0 191:1.0 671:1.0 675:1.0 
0.5707472236370912 0.27440966484527335 69:1.0 161:1.0 192:1.0 
1.0 0.0 2:1.0 3:1.0 671:1.0 675:1.0 
1.0 0.17073983906376877 341:1.0 
1.0 1.0 
1.0 0.4066081192020692 74:1.0 121:1.0 198:1.0 
0.38957320339062745 0.4513461039572228 49:1.0 140:1.0 160:1.0 192:1.0 199:1.0 599:1.0 
1.0 0.0 2:1.0 3:1.0 671:1.0 675:1.0 
0.713526695649008 1.0 147:1.0 166:1.0 188:1.0 
1.0 1.0 53:1.0 
0.030223189841507483 0.0 174:1.0 200:1.0 
1.0 0.9544457662096961 31:1.0 71:1.0 92:1.0 123:1.0 672:1.0 
1.0 1.0 
1.0 1.0 201:1.0 
0.0 1.0 8:1.0 678:1.0 
1.0 1.0 
0.5265782348603535 0.8816150066462431 203:1.0 346:1.0 455:1.0 
0.07422136336497265 1.0 116:0.9029121064528801 
1.0 1.0 
0.4198982054488003 0.1466447036285831 105:1.0 206:1.0 
0.014820752068813177 0.0 207:1.0 
1.0 0.0 2:1.0 3:1.0 671:1.0 675:1.0 
1.0 1.0 
1.0 1.0 
1.0 1.0 358:1.0 
1.0 0.0 92:1.0 208:0.9461507336503839 209:1.0 210:1.0 
1.0 1.0 71:1.0 672:1.0 
1.0 0.0 2:1.0 3:1.0 671:1.0 675:1.0 
1.0 1.0 71:1.0 672:1.0 
0.0 0.19704977742058702 101:1.0 207:1.0 214:1.0 215:1.0 216:1.0 
0.0 0.17054239246576097 217:1.0 
0.0 0.09443198070130006 8:1.0 66:1.0 678:1.0 
0.008529784472459355 0.0 2:1.0 3:1.0 13:1.0 15:1.0 218:1.0 671:1.0 675:1.0 
1.0 1.0 
0.0 0.43894699090450306 191:1.0 572:1.0 
0.030284978284708313 0.085151334144063 83:1.0 84:1.0 
0.1387813471403412 1.0 71:1.0 206:1.0 672:1.0 
0.7488659954871334 1.0 210:1.0 
0.0 1.0 36:1.0 
0.27663516575600255 0.8764182750503219 71:1.0 223:1.0 672:1.0 
1.0 1.0 
5.751432874420038E-4 0.10088422494857163 39:1.0 40:1.0 215:1.0 216:1.0 
0.0 0.1279936484143891 4:1.0 50:1.0 153:1.0 186:1.0 578:1.0 
0.8893314545202522 0.4302264176612924 68:0.9482726796868418 173:0.9597593216091628 189:0.9461507336503839 
0.08090669798859225 0.34199117898540404 32:1.0 71:1.0 102:1.0 511:1.0 672:1.0 
1.0 1.0 
1.0 1.0 
1.0 1.0 
0.4449928406988645 0.0 16:1.0 17:1.0 41:1.0 127:1.0 226:1.0 359:1.0 
1.0 1.0 
0.04001298644718765 0.0 2:1.0 3:1.0 29:1.0 61:1.0 156:1.0 199:1.0 671:1.0 675:1.0 
1.0 0.7115206913004146 36:1.0 380:1.0 
0.0 0.3244639670709628 209:1.0 230:1.0 646:1.0 
0.1570421123970222 0.0 73:1.0 119:1.0 231:1.0 232:1.0 
1.0 1.0 71:1.0 179:1.0 233:1.0 672:1.0 
1.0 1.0 
0.13767873389460955 1.0 66:1.0 
0.26360303592417367 0.008501557579801658 106:1.0 173:1.0 235:1.0 
0.09381025652145746 0.0 70:1.0 239:1.0 
1.0 1.0 71:1.0 672:1.0 
0.0038440920886075682 0.0 2:1.0 3:1.0 78:1.0 79:1.0 671:1.0 675:1.0 
0.06052114504336239 0.1704814198902881 240:1.0 
0.5393788026389446 1.0 164:1.0 331:1.0 
0.29895233534977245 0.6863906774738009 243:1.0 412:1.0 
0.19494018185794884 0.44136181860112267 36:1.0 91:1.0 111:1.0 112:1.0 244:0.94340246432784 
1.0 0.0 2:1.0 3:1.0 671:1.0 675:1.0 
1.0 1.0 
0.045431499725549225 0.0 162:1.0 207:1.0 246:1.0 424:1.0 
1.0 1.0 
0.46989035388831546 0.5979809421251977 8:1.0 31:1.0 53:1.0 525:1.0 678:1.0 
0.33518513872375066 0.0 16:1.0 17:1.0 38:1.0 
1.0 0.3233699597571991 96:1.0 
1.0 0.992519446326509 102:1.0 249:1.0 
0.29185172270237636 1.0 33:1.0 54:1.0 66:1.0 250:1.0 374:1.0 
1.0 1.0 
0.9575791227173223 0.0 2:1.0 3:1.0 247:1.0 671:1.0 675:1.0 
0.060321938097755046 0.17043964868220743 252:1.0 
1.0 0.0 2:1.0 3:1.0 671:1.0 675:1.0 
0.0 1.0 88:1.0 152:1.0 526:1.0 
1.0 1.0 
0.014284646087645028 0.0 102:1.0 256:1.0 
0.0 1.0 88:1.0 
0.04837910641385827 0.4765656355996375 11:1.0 57:1.0 178:1.0 677:1.0 
0.17532915823279124 0.0 115:1.0 173:1.0 236:1.0 257:0.94340246432784 258:1.0 
1.0 1.0 
1.0 0.0 137:1.0 259:1.0 326:1.0 666:1.0 
0.013934315256272423 0.9935037079677502 131:1.0 
1.0 1.0 
1.0 0.0 2:1.0 3:1.0 671:1.0 675:1.0 
0.0 0.27205882184570185 53:1.0 153:1.0 154:1.0 553:1.0 
0.06036878610174082 1.0 175:1.0 
0.05983188290480148 0.0 260:1.0 
0.0 0.05885089820206875 36:1.0 53:1.0 261:1.0 413:1.0 
1.0 0.0 33:1.0 
1.0 1.0 
1.0 1.0 71:1.0 672:1.0 
3.2909604016465954E-4 0.0 2:1.0 262:1.0 671:1.0 
1.0 1.0 
1.0 1.0 71:1.0 672:1.0 
1.0 1.0 
0.06031902345545101 0.17033276516983104 241:1.0 
0.026271985781049372 0.0853633333936714 79:1.0 266:1.0 
0.6037768939579887 1.0 251:1.0 
0.06056746807555376 0.34042467818641264 129:1.0 
0.18998129054736973 0.0 37:1.0 123:1.0 134:1.0 186:1.0 212:1.0 268:1.0 
0.138528404914764 0.43842559905464523 71:1.0 245:1.0 265:1.0 672:1.0 
0.2773648835723111 0.2182537188793371 105:1.0 220:1.0 
1.0 0.0 71:1.0 74:1.0 147:1.0 335:1.0 427:1.0 672:1.0 
0.030258837016844273 0.0825937450923622 132:1.0 271:1.0 
1.0 0.0 2:1.0 3:1.0 336:1.0 671:1.0 675:1.0 
5.798733568155801E-4 0.0 2:1.0 3:1.0 86:1.0 263:1.0 269:1.0 272:1.0 273:1.0 274:1.0 275:1.0 671:1.0 675:1.0 
0.7752412753655986 0.2604705744403703 50:0.9514561266245171 239:1.0 276:1.0 
1.0 1.0 
1.0 1.0 
1.0 1.0 
1.0 0.7416887117702321 144:1.0 277:1.0 353:1.0 644:1.0 
0.530386014936138 1.0 181:1.0 182:1.0 
1.0 0.0 35:1.0 213:1.0 278:1.0 664:1.0 
0.23380968622283047 0.0 9:1.0 35:1.0 184:1.0 280:1.0 281:1.0 663:1.0 664:1.0 
0.184703906465791 0.0 18:1.0 46:1.0 254:1.0 282:1.0 
1.0 1.0 105:1.0 
0.9811781858073008 1.0 8:1.0 678:1.0 
0.015219008032380259 0.0 26:1.0 163:1.0 283:1.0 284:1.0 
1.0 1.0 
0.0 0.8820572730430774 118:1.0 162:1.0 
1.0 1.0 201:1.0 
1.0 1.0 187:1.0 
0.20502416320669242 1.0 36:1.0 
1.0 1.0 
1.0 1.0 
1.0 1.0 
0.0 0.635888550198547 231:1.0 
0.4521245126579275 1.0 142:1.0 
1.0 1.0 8:1.0 678:1.0 
0.0 0.17054071665793077 236:1.0 
1.0 1.0 
1.0 1.0 
3.6802181701770285E-4 0.0 137:1.0 285:1.0 
1.0 0.0 2:1.0 3:1.0 35:1.0 62:1.0 104:1.0 179:1.0 286:1.0 664:1.0 671:1.0 675:1.0 
1.0 1.0 
1.0 1.0 8:1.0 678:1.0 
1.0 1.0 
1.0 1.0 
0.09628527321792635 0.0 44:1.0 287:1.0 
1.0 1.0 
0.0 0.17052178575448626 212:1.0 
1.0 1.0 
1.0 1.0 7:1.0 176:1.0 670:1.0 
1.0 1.0 
0.030429893883007656 0.0 168:1.0 253:1.0 
0.8627460237549712 0.0 151:1.0 152:1.0 
1.0 1.0 
1.0 1.0 190:1.0 
1.0 0.17035142831801084 369:1.0 
1.0 1.0 
0.7100850980690714 0.0 137:1.0 
1.0 1.0 
1.0 1.0 53:1.0 71:1.0 157:1.0 205:1.0 287:1.0 672:1.0 
0.30921275341198806 0.220716618691586 288:0.8790090959018073 
1.0 0.0 2:1.0 3:1.0 671:1.0 675:1.0 
0.0 0.4975120866555791 102:1.0 107:1.0 203:1.0 510:1.0 617:1.0 
1.0 1.0 
0.5301430788866166 0.0 2:1.0 3:1.0 202:1.0 333:1.0 671:1.0 675:1.0 
1.0 1.0 289:0.9029121064528801 
1.0 1.0 
0.06041734372872727 1.0 560:1.0 
1.0 0.8220504145165488 55:1.0 
0.8768825395195838 1.0 610:1.0 
0.3147703090771046 0.2925658110857035 227:1.0 290:1.0 433:1.0 
0.9559089940656298 0.09113295363119535 88:1.0 291:1.0 
0.0748904899374973 0.0626613909477605 2:1.0 3:1.0 86:1.0 263:1.0 269:1.0 272:1.0 273:1.0 274:1.0 275:1.0 671:1.0 675:1.0 
0.0 0.4551236536102452 239:1.0 282:1.0 
0.01726563973873143 0.4918494523645335 148:1.0 238:1.0 292:0.8302073295876669 
1.0 1.0 
0.06077480357882072 0.17045763246369575 255:1.0 
1.0 0.0 173:1.0 293:1.0 
0.0 0.008676467516013623 294:1.0 
0.0 0.5346141773653146 231:1.0 
0.2774858466646075 1.0 105:1.0 624:1.0 
0.004149893066518829 0.0 2:1.0 3:1.0 78:1.0 79:1.0 671:1.0 675:1.0 
0.831199863551136 0.0 2:1.0 3:1.0 42:1.0 198:1.0 235:1.0 258:1.0 671:1.0 675:1.0 
4.05060417905149E-4 0.0 2:1.0 3:1.0 77:1.0 228:1.0 671:1.0 675:1.0 
1.0 1.0 
0.0 0.0047355428162856854 210:1.0 257:1.0 
1.0 0.0 2:1.0 3:1.0 11:1.0 117:1.0 671:1.0 675:1.0 676:1.0 677:1.0 
0.06038149269735984 0.5433656764299333 556:1.0 
0.6049459014969786 0.3569925103674403 57:1.0 296:1.0 
0.06061874452596185 1.0 67:1.0 
0.0 0.0020932442793010365 9:1.0 663:1.0 
1.0 1.0 
0.46577749112141303 1.0 250:1.0 558:1.0 
0.04656357273102704 0.0 25:1.0 131:1.0 
1.0 0.7598054072976906 166:1.0 173:1.0 295:1.0 482:1.0 579:1.0 
0.0 0.17032480404578318 47:1.0 
0.06045070144936304 0.17073122686857453 297:1.0 
0.48296196681952175 0.7361713283561389 2:1.0 145:1.0 229:1.0 671:1.0 673:1.0 
0.0 0.005484362369304474 43:1.0 271:0.94340246432784 
0.6192312702197718 1.0 28:1.0 
1.0 1.0 
0.0 0.4071911682536117 119:1.0 298:1.0 647:1.0 
0.3256710568579207 0.17042301363086565 399:1.0 
0.12230391621574707 0.0 8:1.0 153:1.0 299:1.0 328:1.0 678:1.0 
0.06034993769381387 0.9735510871307751 101:1.0 
0.16138751960536474 1.0 66:1.0 113:1.0 142:1.0 277:1.0 
1.0 1.0 
0.342324882911753 0.0569114069419546 211:1.0 300:1.0 301:1.0 
0.0 0.1289098867260205 113:1.0 302:1.0 
1.0 0.08227341235071578 64:1.0 102:1.0 303:1.0 
0.33673110750756013 0.0 2:1.0 3:1.0 49:1.0 671:1.0 675:1.0 
0.35237577730171576 0.0 9:1.0 281:1.0 488:1.0 663:1.0 
0.0 0.39231075188717635 44:1.0 74:1.0 139:1.0 145:1.0 287:1.0 673:1.0 
0.250177374315079 0.0 2:1.0 3:1.0 204:1.0 304:1.0 305:1.0 671:1.0 675:1.0 
1.0 1.0 9:1.0 71:1.0 663:1.0 672:1.0 
0.0 0.09161058156207887 98:1.0 267:1.0 299:1.0 476:1.0 
0.026982619636766285 0.0 2:1.0 3:1.0 39:1.0 40:1.0 41:1.0 671:1.0 675:1.0 
0.0 1.0 140:1.0 
1.0 1.0 
0.0 0.37317163838603096 39:1.0 74:1.0 155:1.0 306:1.0 555:1.0 
0.3041654144487126 0.2370474507532754 71:1.0 169:1.0 170:1.0 210:1.0 307:1.0 524:1.0 672:1.0 
0.4282687204641968 0.0 2:1.0 3:1.0 102:1.0 162:1.0 172:1.0 246:1.0 671:1.0 675:1.0 
1.0 1.0 
0.0912293814996493 0.0 136:1.0 261:1.0 364:1.0 
0.06043461240088268 1.0 308:1.0 
1.0 0.21618694283135773 92:1.0 
1.0 0.0 41:1.0 74:1.0 81:1.0 249:1.0 385:1.0 
1.0 0.0 2:1.0 3:1.0 278:1.0 671:1.0 675:1.0 
1.0 1.0 
0.06052377529977186 0.0 298:1.0 
1.0 1.0 
0.0 0.010087923876203069 214:1.0 242:1.0 293:1.0 540:1.0 
1.0 1.0 
0.0604477014316008 0.1620303314768653 294:1.0 
0.0 0.1753896261373807 18:1.0 71:1.0 110:1.0 168:1.0 219:1.0 284:1.0 672:1.0 
1.0 1.0 
0.2665927966228173 0.3483627952177574 5:1.0 55:1.0 268:1.0 310:0.939504638093022 
1.0 1.0 
1.0 1.0 
0.0 2.1303134548710954E-4 26:1.0 38:1.0 180:1.0 
1.0 1.0 
1.0 1.0 311:0.922531947302117 
1.0 1.0 
1.0 0.0 2:1.0 3:1.0 139:1.0 165:1.0 387:1.0 671:1.0 675:1.0 
1.0 1.0 302:1.0 
1.0 1.0 
0.06063332137269359 1.0 533:1.0 
1.0 1.0 
1.0 1.0 
5.507355761589228E-4 0.585405718019091 260:1.0 452:1.0 
0.9996382383456484 1.0 36:1.0 
1.0 1.0 
1.0 1.0 
0.3800193615608908 1.0 105:1.0 145:1.0 367:1.0 637:1.0 673:1.0 
1.0 1.0 
0.030448818295710618 0.07150825190323071 230:1.0 312:1.0 
0.011351730524973258 0.001550755766766887 313:1.0 
1.0 1.0 
0.14089219080970664 0.0 162:1.0 248:1.0 314:0.939504638093022 
0.0 0.9509178418222639 9:1.0 663:1.0 
1.0 0.08532951217927427 304:1.0 429:1.0 
0.0 1.0 114:1.0 
0.559881221624758 0.0 2:1.0 3:1.0 338:1.0 419:1.0 671:1.0 675:1.0 
0.1546105874819335 0.0 243:1.0 304:1.0 305:1.0 432:1.0 
0.033528454331878246 0.0 2:1.0 3:1.0 45:1.0 74:1.0 214:1.0 242:1.0 264:1.0 301:1.0 671:1.0 675:1.0 
0.0021859411006962897 0.0 2:1.0 3:1.0 39:1.0 40:1.0 41:1.0 671:1.0 675:1.0 
1.0 1.0 145:1.0 673:1.0 
0.07200108757194186 0.0 35:1.0 102:1.0 123:1.0 147:1.0 280:1.0 303:1.0 664:1.0 
0.1513149177909753 0.08954339889025464 191:1.0 277:1.0 
0.9998355171578968 0.0 2:1.0 3:1.0 4:1.0 8:1.0 22:1.0 23:1.0 671:1.0 675:1.0 678:1.0 
1.0 0.0 2:1.0 3:1.0 671:1.0 675:1.0 
0.9966361009907687 0.0 74:1.0 217:1.0 315:1.0 425:1.0 
0.43756850843639344 0.0 158:1.0 407:1.0 
0.06009351123246576 0.0 2:1.0 3:1.0 222:1.0 671:1.0 675:1.0 
1.0 1.0 36:1.0 
0.06063875448433349 1.0 122:1.0 
0.0 0.17044932952307223 314:1.0 
1.0 0.0 8:1.0 23:1.0 147:1.0 261:1.0 678:1.0 
0.04906486568668056 0.16917452156420132 313:1.0 
-1.0 0.0 2:1.0 3:1.0 31:1.0 315:1.0 316:1.0 671:1.0 675:1.0 
-1.0 1.0 
-0.0 1.0 317:1.0 
-0.9434283270067689 0.0 2:1.0 3:1.0 146:1.0 147:1.0 278:1.0 671:1.0 675:1.0 
-0.02210126565209271 0.0 117:1.0 676:1.0 
-1.0 1.0 
-1.0 1.0 
-1.0 1.0 166:1.0 
-1.0 1.0 74:1.0 
-1.0 0.0 2:1.0 3:1.0 16:1.0 17:1.0 45:1.0 205:1.0 671:1.0 675:1.0 
-0.9695386879813699 1.0 176:1.0 670:1.0 
-0.9302734042124892 1.0 71:1.0 160:1.0 287:1.0 331:1.0 552:1.0 672:1.0 
-0.01595201481027153 0.0 332:1.0 
-1.0 1.0 
-1.0 1.0 181:1.0 337:1.0 
-0.0 0.06097940565151629 55:1.0 176:1.0 233:1.0 277:1.0 319:1.0 580:1.0 670:1.0 674:1.0 
-0.5190775133196386 0.0 36:1.0 319:1.0 346:1.0 674:1.0 
-1.0 1.0 92:1.0 112:1.0 
-0.12906417086995609 0.244531299959097 134:1.0 349:1.0 
-0.5148763063042127 0.0 35:1.0 71:1.0 326:1.0 664:1.0 666:1.0 672:1.0 
-0.5474706211835985 0.0 139:1.0 189:1.0 351:1.0 352:1.0 
-1.0 0.34339452828714256 353:1.0 
-0.24519137311867384 0.0 319:1.0 354:1.0 579:1.0 674:1.0 
-0.8126674149164561 1.0 355:1.0 356:1.0 
-0.0 1.0 351:1.0 357:1.0 359:1.0 360:1.0 
-0.08781018283719996 0.0 2:1.0 3:1.0 164:1.0 166:1.0 261:1.0 353:1.0 363:1.0 364:1.0 671:1.0 675:1.0 
-0.0 0.8186260128450797 49:1.0 105:1.0 145:1.0 365:1.0 366:1.0 367:1.0 368:1.0 673:1.0 
-0.9698008451412969 1.0 369:1.0 370:1.0 
-1.0 1.0 649:1.0 
-0.0 0.5942250914669817 198:1.0 331:1.0 
-1.0 0.0 2:1.0 3:1.0 671:1.0 675:1.0 
-1.0 0.0 2:1.0 71:1.0 353:1.0 671:1.0 672:1.0 
-0.4572212064208914 0.4400091682550391 145:1.0 371:1.0 673:1.0 
-1.0 1.0 144:1.0 338:1.0 
-1.0 1.0 378:0.9461507336503839 
-1.0 0.35544247427168746 380:1.0 381:0.9054281980262641 
-0.15524906240363665 0.0 198:1.0 656:1.0 
-1.0 1.0 504:1.0 
-0.0 1.0 71:1.0 117:1.0 145:1.0 672:1.0 673:1.0 676:1.0 
-0.44119817036016085 0.4920348178149326 8:1.0 36:1.0 71:1.0 287:1.0 318:1.0 354:1.0 384:1.0 672:1.0 678:1.0 
-0.08790000837348741 0.0 41:1.0 123:1.0 385:1.0 386:1.0 387:1.0 388:1.0 
-1.0 1.0 
-1.0 0.0 2:1.0 3:1.0 671:1.0 675:1.0 
-1.0 0.0 2:1.0 336:1.0 671:1.0 
-0.0 0.14100590896344994 35:1.0 176:1.0 278:1.0 280:1.0 346:1.0 664:1.0 670:1.0 
-0.9044915903928333 0.2825541967724269 2:1.0 3:1.0 187:1.0 381:1.0 671:1.0 675:1.0 
-1.0 0.5123234687195372 391:1.0 
-0.8710714913743641 1.0 36:1.0 349:1.0 
-1.0 1.0 
-0.004139122227354945 0.0 395:1.0 396:1.0 
-0.26506916433608857 0.5716088937300385 93:1.0 397:1.0 398:1.0 399:1.0 536:1.0 650:1.0 
-0.5489611742688346 0.0 43:1.0 102:1.0 147:1.0 290:1.0 326:1.0 666:1.0 
-0.0 0.5602703652538041 187:1.0 319:1.0 674:1.0 
-0.7665221293390397 0.0 320:1.0 
-0.03170202061379242 0.06528666895655656 198:1.0 402:0.939504638093022 403:1.0 404:1.0 405:1.0 406:1.0 
-0.5809217821328995 0.8549272292908409 147:1.0 173:1.0 409:1.0 
-0.5898632126572336 0.0 2:1.0 3:1.0 179:1.0 671:1.0 675:1.0 
-0.049780130798217234 0.05707001043602637 179:1.0 
-1.0 1.0 246:1.0 411:1.0 
-0.9995001254679955 1.0 201:1.0 
-1.0 1.0 669:1.0 
-0.0 0.5902351535266674 145:1.0 319:1.0 625:1.0 673:1.0 674:1.0 
-1.0 0.0 2:1.0 3:1.0 671:1.0 675:1.0 
-0.8315355248021326 0.5176908308425636 71:1.0 209:1.0 383:1.0 672:1.0 
-0.9811968749745544 0.9070624580798508 192:1.0 418:0.9356091074611332 
-0.4642984349114461 0.8647475862682247 105:1.0 353:1.0 
-1.0 0.06743332751802504 73:1.0 369:1.0 
-0.9134391006020486 1.0 145:1.0 390:1.0 673:1.0 
-1.0 0.0 198:1.0 
-1.0 0.0 23:1.0 
-1.0 0.7231847549417202 311:0.922531947302117 
-0.002010446457141407 0.0 336:1.0 
-1.0 1.0 179:1.0 
-1.0 1.0 658:1.0 
-0.37314511298789554 1.0 63:1.0 357:0.9579536646649862 
-0.2728831376199715 0.6373761207819995 289:1.0 351:1.0 
-1.0 0.8505484359619935 24:1.0 166:1.0 423:1.0 
-0.3138461811037095 0.515398502353786 355:1.0 424:1.0 425:1.0 
-0.5668678273198344 0.00858171412885332 71:1.0 249:1.0 333:1.0 672:1.0 
-0.0909278114260159 0.0 25:1.0 334:1.0 
-1.0 1.0 
-1.0 1.0 426:1.0 
-1.0 1.0 71:1.0 672:1.0 
-1.0 0.5120069869271795 23:1.0 
-0.6447990533632805 0.0 11:1.0 105:1.0 117:1.0 261:1.0 277:1.0 412:1.0 427:1.0 676:1.0 677:1.0 
-0.9926630156699314 0.12233364724582307 53:1.0 210:1.0 239:1.0 278:1.0 
-0.22735133772575244 0.0 53:1.0 361:1.0 425:1.0 428:1.0 
-1.0 0.0 35:1.0 349:1.0 429:1.0 664:1.0 
-0.0 1.0 319:1.0 350:1.0 430:1.0 520:1.0 674:1.0 
-1.0 1.0 361:1.0 
-0.7230126458463438 1.0 71:1.0 358:1.0 672:1.0 
-1.0 1.0 
-0.30981903273166467 0.0 198:1.0 432:1.0 
-0.15482199278752776 0.0 115:1.0 320:1.0 433:1.0 
-0.8861056961968057 0.7342153930050275 71:1.0 142:1.0 198:1.0 672:1.0 
-1.0 1.0 
-0.79018424561905 1.0 123:1.0 190:1.0 374:1.0 434:1.0 
-0.10320108063552512 0.0 55:1.0 117:1.0 676:1.0 
-0.8562387836714486 0.0 2:1.0 3:1.0 321:1.0 665:1.0 671:1.0 675:1.0 
-0.0 0.5924721268239572 55:1.0 117:1.0 435:1.0 676:1.0 
-1.0 1.0 438:1.0 
-0.6666026276345567 0.0 49:1.0 81:1.0 117:1.0 142:1.0 143:1.0 676:1.0 
-0.0 0.016286913106212577 105:1.0 176:1.0 198:1.0 261:1.0 670:1.0 
-1.0 0.7328665207550124 208:1.0 
-1.0 0.9113233619983971 249:1.0 
-0.8146986359152509 1.0 71:1.0 88:1.0 329:1.0 407:1.0 582:1.0 672:1.0 
-1.0 0.0 2:1.0 3:1.0 248:1.0 327:1.0 671:1.0 675:1.0 
-0.0 1.0 277:1.0 358:1.0 
-1.0 1.0 
-0.5432804496989756 0.2774506706785384 251:1.0 341:1.0 390:1.0 
-1.0 1.0 
-1.0 1.0 
-1.0 0.0 2:1.0 3:1.0 46:1.0 443:1.0 671:1.0 675:1.0 
-0.626390421914731 0.0 2:1.0 3:1.0 400:1.0 445:1.0 671:1.0 675:1.0 
-0.0 0.4072778202540191 105:1.0 198:1.0 446:1.0 447:1.0 
-1.0 1.0 
-0.3727894851007519 0.5579639550180083 157:1.0 448:1.0 449:0.939504638093022 450:1.0 657:1.0 
-0.0 1.0 145:1.0 278:1.0 673:1.0 
-0.48705809957952373 0.4275346236404871 188:1.0 311:1.0 416:1.0 417:1.0 
-1.0 1.0 304:1.0 524:1.0 
-0.43334622058730743 0.4059312553291258 28:1.0 333:1.0 368:1.0 386:1.0 437:1.0 444:1.0 
-1.0 1.0 179:1.0 
-1.0 1.0 
-1.0 1.0 358:1.0 
-0.42707895028743065 0.0 336:1.0 
-0.0 0.024821012641928118 201:1.0 224:1.0 421:1.0 
-0.04733992303236442 0.0 71:1.0 144:1.0 243:1.0 320:1.0 431:1.0 609:1.0 623:1.0 672:1.0 
-0.1688455283512378 0.2671114687222873 8:1.0 137:1.0 347:1.0 353:1.0 446:1.0 678:1.0 
-0.0 0.027156198009077488 117:1.0 166:1.0 423:1.0 452:1.0 676:1.0 
-1.0 0.0 375:0.8671066223940068 
-0.0 1.0 113:1.0 315:1.0 353:1.0 374:1.0 
-0.0 1.0 71:1.0 320:1.0 672:1.0 
-0.0 0.7131981830673896 157:1.0 176:1.0 233:1.0 434:1.0 573:1.0 670:1.0 
-0.23008189273618146 0.0 2:1.0 3:1.0 8:1.0 342:1.0 343:1.0 344:1.0 671:1.0 675:1.0 678:1.0 
-1.0 0.0 2:1.0 3:1.0 278:1.0 671:1.0 675:1.0 
-0.5594797823458943 0.19670664495377388 351:1.0 410:1.0 
-0.0 1.0 365:1.0 366:1.0 
-1.0 1.0 36:1.0 53:1.0 430:1.0 453:1.0 
-1.0 1.0 74:1.0 365:1.0 366:1.0 
-0.7692793732228733 1.0 317:1.0 
-0.12551801415964634 0.0 11:1.0 28:1.0 62:1.0 145:1.0 261:1.0 326:1.0 448:0.9461507336503839 666:1.0 673:1.0 677:1.0 
-1.0 1.0 
-0.4698057326847748 0.02848797261091911 414:1.0 669:1.0 
-1.0 1.0 2:1.0 3:1.0 71:1.0 671:1.0 672:1.0 675:1.0 
-0.6079239797272222 0.9194695051406273 119:1.0 345:1.0 387:1.0 388:1.0 
-0.0 0.017612088955469153 143:1.0 351:1.0 456:1.0 648:1.0 
-1.0 0.12485469090881192 147:0.956515651533849 457:1.0 
-1.0 1.0 176:1.0 670:1.0 
-1.0 0.0 74:1.0 357:1.0 
-0.0 0.5679413689405811 289:1.0 349:1.0 365:1.0 366:1.0 441:1.0 
-1.0 1.0 352:1.0 
-1.0 0.0 278:1.0 
-1.0 1.0 2:1.0 3:1.0 63:1.0 301:1.0 671:1.0 675:1.0 
-1.0 1.0 57:1.0 58:1.0 
-1.0 0.43559080671166645 30:1.0 383:1.0 
-1.0 1.0 
-1.0 1.0 456:1.0 
-1.0 0.9480066062900494 1:1.0 57:1.0 71:1.0 151:1.0 389:1.0 672:1.0 
-1.0 1.0 
-1.0 1.0 
-0.6485336228571419 0.0 35:1.0 276:1.0 280:1.0 326:1.0 664:1.0 666:1.0 
-0.2669370407588537 6.938893903907228E-18 208:1.0 363:1.0 364:1.0 
-0.0 0.20294423456348726 319:1.0 560:1.0 674:1.0 
-1.0 1.0 64:1.0 156:1.0 
-1.0 1.0 53:1.0 144:1.0 525:1.0 564:1.0 
-0.0 0.008357356882707613 353:1.0 410:1.0 460:1.0 461:1.0 
-1.0 0.5284396110057872 74:1.0 462:1.0 
-1.0 1.0 179:1.0 
-0.0 0.0021975655308289236 357:1.0 
-0.20322513732655093 0.0 288:1.0 319:1.0 674:1.0 
-1.0 0.6465413861299786 23:1.0 
-0.0 1.0 71:1.0 336:1.0 672:1.0 
-0.6346139893221984 0.0 336:1.0 
-1.0 0.235981394939966 336:0.8757882646690595 
-1.0 1.0 
-0.16616661720266734 0.0 9:1.0 326:1.0 663:1.0 666:1.0 
-0.0 0.05908873238385874 136:1.0 145:1.0 278:1.0 463:1.0 673:1.0 
-0.08475899465203632 0.5379584467958655 53:1.0 105:1.0 198:1.0 427:1.0 433:1.0 436:1.0 
-0.2998337047967225 0.0 55:1.0 179:1.0 
-1.0 1.0 
-1.0 1.0 
-1.0 1.0 8:1.0 678:1.0 
-1.0 1.0 201:1.0 
-0.05984681880363046 0.0 66:1.0 192:1.0 209:1.0 338:1.0 466:1.0 
-1.0 1.0 467:1.0 
-0.0 0.5072864646772749 111:1.0 117:1.0 176:1.0 419:1.0 670:1.0 676:1.0 
-0.09519944254960232 0.13778497536095588 53:1.0 165:1.0 198:1.0 433:1.0 439:1.0 440:1.0 
-0.9997982211495815 0.5355232801540344 302:1.0 469:1.0 470:1.0 
-0.9970935124663991 0.028526734466599694 96:1.0 393:1.0 
-1.0 0.0 42:1.0 
-1.0 0.0 137:1.0 304:1.0 455:1.0 
-1.0 0.5284862371457977 41:1.0 385:1.0 
-0.0 0.3635427551662728 122:1.0 319:1.0 674:1.0 
-1.0 1.0 9:1.0 663:1.0 
-0.0 0.045363172495144204 268:1.0 335:1.0 337:1.0 
-0.0 1.0 190:1.0 349:1.0 
-0.05259358747161945 0.03085352289444582 97:1.0 198:1.0 219:1.0 461:1.0 472:1.0 
-0.0 0.13969581062544484 340:1.0 353:1.0 653:1.0 
-1.0 1.0 
-1.0 1.0 377:1.0 
-1.0 1.0 474:1.0 
-0.0 0.8985257810976054 23:1.0 355:1.0 475:1.0 
-0.0 0.0794798597556357 117:1.0 190:1.0 355:1.0 374:1.0 419:1.0 476:1.0 676:1.0 
-1.0 1.0 335:0.909619332600634 
-1.0 0.2246278903628065 102:1.0 172:1.0 303:1.0 341:1.0 
-1.0 1.0 173:1.0 
-0.0 0.7355608937412306 71:1.0 326:1.0 666:1.0 672:1.0 
-1.0 1.0 
-0.7697793117450972 0.010237259047153799 2:1.0 3:1.0 105:1.0 281:1.0 421:1.0 596:1.0 671:1.0 675:1.0 
-0.0 0.439964485519767 145:1.0 320:1.0 673:1.0 
-0.0 0.25405805009857946 334:1.0 478:1.0 479:1.0 
-1.0 1.0 102:1.0 
-0.5820851820756723 0.04699456420823983 357:1.0 
-0.9101683900393704 0.0 8:1.0 64:1.0 315:1.0 678:1.0 
-1.0 0.2013530276448453 62:1.0 137:1.0 480:1.0 
-0.6870313108761053 0.3094236559238737 2:1.0 3:1.0 8:1.0 400:1.0 401:1.0 671:1.0 675:1.0 678:1.0 
-1.0 1.0 381:1.0 
-1.0 0.0 387:1.0 425:1.0 
-0.18982685048744552 0.0 289:1.0 481:1.0 482:1.0 
-0.0 0.14893362481216074 190:1.0 319:1.0 355:1.0 392:1.0 464:1.0 584:1.0 674:1.0 
-0.045124457713959426 0.0 321:1.0 665:1.0 
-0.06836256301177945 0.6459394998429397 321:1.0 628:1.0 665:1.0 
-1.0 1.0 
-1.0 0.5478173142908213 2:1.0 3:1.0 277:1.0 671:1.0 675:1.0 
-0.3542923468931363 0.0 2:1.0 3:1.0 317:1.0 671:1.0 675:1.0 
-1.0 1.0 201:1.0 
-0.4045293242775211 1.0 187:1.0 316:1.0 340:1.0 
-1.0 1.0 348:1.0 
-0.3417692478385626 1.0 105:1.0 143:1.0 145:1.0 484:1.0 673:1.0 
-0.9709441381524477 0.0 320:1.0 
-0.7929643620491564 0.0 2:1.0 3:1.0 8:1.0 173:1.0 335:1.0 671:1.0 675:1.0 678:1.0 
-0.4450548792680562 0.0 41:1.0 105:1.0 143:1.0 145:1.0 484:1.0 673:1.0 
-1.0 1.0 
-0.8161431562859969 0.0 147:1.0 317:1.0 610:1.0 
-0.16262015837228413 0.5833218557848141 250:1.0 372:1.0 373:1.0 374:1.0 375:1.0 
-0.7286421382046258 0.8031139398770695 334:1.0 
-1.0 1.0 558:1.0 
-0.371733827999318 0.4506777810118558 322:1.0 342:1.0 485:1.0 
-0.2815505389302801 0.03254549687590185 206:1.0 423:1.0 485:1.0 486:1.0 
-1.0 0.7094636609361363 22:1.0 42:0.9538213143436547 
-1.0 1.0 71:1.0 157:1.0 672:1.0 
-0.0 0.0767274663124942 143:1.0 198:1.0 201:1.0 215:1.0 405:1.0 452:1.0 487:1.0 488:1.0 
-0.46826247930409104 0.5806832225725527 9:1.0 64:1.0 274:1.0 466:1.0 663:1.0 
-1.0 0.0 2:1.0 3:1.0 289:1.0 671:1.0 675:1.0 
-0.9395934959768202 0.7940249074879455 391:1.0 
-1.0 1.0 359:1.0 
-1.0 0.7352805873459627 71:1.0 244:1.0 642:1.0 672:1.0 
-1.0 1.0 123:1.0 
-1.0 1.0 420:1.0 
-1.0 0.0 92:0.9585960292101304 173:1.0 
-0.06035564642968665 0.0 469:1.0 470:1.0 
-1.0 1.0 66:1.0 393:1.0 
-0.969821044431679 0.5284707848754833 489:1.0 490:1.0 
-1.0 1.0 
-1.0 1.0 491:1.0 
-1.0 0.0 2:1.0 3:1.0 671:1.0 675:1.0 
-0.6862512951961365 0.39125378857042903 249:1.0 544:1.0 
-0.9399447013990803 1.0 201:1.0 
-1.0 0.5311426582681412 50:1.0 492:1.0 
-0.0 1.0 9:1.0 42:1.0 176:1.0 663:1.0 670:1.0 
-1.0 1.0 92:1.0 
-1.0 0.0 198:1.0 
-0.0 3.015101797025216E-4 395:1.0 396:1.0 
-1.0 0.0 33:1.0 173:1.0 
-1.0 1.0 
-1.0 1.0 
-1.0 0.0 102:1.0 117:1.0 676:1.0 
-1.0 1.0 
-1.0 1.0 71:1.0 483:1.0 672:1.0 
-1.0 1.0 33:1.0 
-1.0 1.0 
-0.8978548457298238 0.0 2:1.0 3:1.0 92:1.0 173:1.0 247:1.0 268:1.0 458:1.0 671:1.0 675:1.0 
-1.0 0.8006922258862998 332:1.0 
-1.0 1.0 192:1.0 
-0.5975106648687579 1.0 375:0.8671066223940068 513:1.0 
-1.0 0.32395423619571534 165:1.0 208:1.0 210:1.0 
-1.0 1.0 
-0.9656464883061726 0.5281739842865837 395:1.0 396:1.0 
-0.3126422557965478 0.6722419567496415 8:1.0 342:1.0 343:1.0 344:1.0 678:1.0 
-0.17615214705817775 0.027174337011463216 117:1.0 460:1.0 488:1.0 676:1.0 
-1.0 0.0 2:1.0 3:1.0 671:1.0 675:1.0 
-1.0 1.0 176:1.0 670:1.0 
-0.92329689933585 1.0 332:1.0 
-1.0 0.5284399203321273 481:1.0 482:1.0 
-0.16421439322894052 0.0 2:1.0 3:1.0 93:0.9461507336503839 334:1.0 392:1.0 427:1.0 671:1.0 675:1.0 
-1.0 1.0 
-1.0 1.0 249:1.0 
-1.0 0.1860351672005556 2:1.0 3:1.0 8:1.0 480:1.0 671:1.0 675:1.0 678:1.0 
-1.0 0.0 2:1.0 3:1.0 671:1.0 675:1.0 
-1.0 1.0 145:1.0 371:1.0 673:1.0 
-1.0 0.19100311559930105 104:1.0 152:1.0 311:0.8837978690164768 
-1.0 0.0 2:1.0 3:1.0 179:1.0 671:1.0 675:1.0 
-0.9556927053925909 0.0 25:1.0 334:1.0 
-1.0 1.0 477:1.0 
-1.0 1.0 36:1.0 190:1.0 631:1.0 
-1.0 0.0 2:1.0 3:1.0 291:1.0 671:1.0 675:1.0 
-1.0 1.0 25:1.0 295:1.0 
-0.3568442446386479 0.0 117:1.0 676:1.0 
-1.0 0.6995528123559358 55:1.0 377:1.0 
-1.0 1.0 638:1.0 
-1.0 1.0 397:1.0 
-0.03640795811925396 0.0 88:1.0 319:1.0 330:1.0 674:1.0 
-1.0 0.0 2:1.0 3:1.0 671:1.0 675:1.0 
-1.0 1.0 71:1.0 358:1.0 672:1.0 
-1.0 1.0 
-0.0015016362135191676 0.0 2:1.0 3:1.0 71:1.0 205:1.0 353:1.0 671:1.0 672:1.0 675:1.0 
-0.7082261891272743 0.020896003437594565 153:0.9482726796868418 186:1.0 438:1.0 
-0.4967116021653742 1.0 378:1.0 645:1.0 
-1.0 -1.0 
-0.0 -0.0019275051512594593 495:1.0 
-0.396359926850858 -0.6906108675403573 57:1.0 58:1.0 329:1.0 496:1.0 497:1.0 
-1.0 -1.0 
-1.0 -1.0 331:1.0 
-1.0 -0.9430919432981297 503:1.0 
-0.9146972536256118 -1.0 316:1.0 504:1.0 
-0.19619051403536403 -0.0 505:1.0 
-0.0 -0.12808530601250023 140:1.0 145:1.0 287:1.0 358:1.0 506:1.0 673:1.0 
-1.0 -1.0 71:1.0 672:1.0 
-0.1423696421531712 -0.0 8:1.0 65:1.0 205:1.0 446:1.0 511:1.0 668:1.0 678:1.0 
-1.0 -1.0 28:1.0 112:1.0 144:0.9538213143436547 173:1.0 
-0.297087179864213 -0.0 63:1.0 122:1.0 230:1.0 512:1.0 
-1.0 -1.0 513:1.0 
-0.008343656067142356 -0.019936154362868434 97:1.0 102:1.0 516:1.0 517:1.0 518:1.0 
-0.24562220890146666 -0.3369365688494158 71:1.0 104:1.0 145:1.0 672:1.0 673:1.0 
-0.426678658898892 -0.0 464:1.0 519:1.0 
-1.0 -0.9715040468021515 25:1.0 529:1.0 
-0.0 -0.23098949541260466 176:1.0 401:1.0 507:1.0 530:1.0 670:1.0 
-0.0 -0.18992262596502704 145:1.0 176:1.0 670:1.0 673:1.0 
-1.0 -1.0 
-0.04707139285720217 -0.6398803274627436 2:1.0 3:1.0 156:1.0 166:1.0 187:1.0 533:1.0 534:1.0 671:1.0 675:1.0 
-1.0 -1.0 251:1.0 
-1.0 -0.5284912498360159 66:1.0 535:1.0 
-1.0 -1.0 53:1.0 105:1.0 
-0.42974554797303954 -0.0 277:1.0 331:1.0 536:1.0 
-1.0 -0.9431750532856102 537:1.0 
-0.5471014440458088 -0.0 28:1.0 534:1.0 538:1.0 
-1.0 -0.9433602007326463 112:1.0 
-1.0 -1.0 
-0.41734899092942385 -0.11474366533533967 71:1.0 542:1.0 672:1.0 
-0.9248801822661216 -0.696636113897896 520:1.0 
-0.9978142644319079 -0.0 495:1.0 
-0.06510081985886777 -0.31405555781679084 386:1.0 392:1.0 532:1.0 
-0.9905296730886902 -0.9994565292327311 370:1.0 
-0.06674512491834232 -0.0 71:1.0 537:1.0 540:1.0 672:1.0 
-0.7409160947054401 -0.6500295097712994 88:1.0 435:1.0 519:1.0 
-1.0 -0.0 515:1.0 
-0.8270235329445956 -0.9109938053059852 2:1.0 3:1.0 122:1.0 160:1.0 166:1.0 549:1.0 671:1.0 675:1.0 
-1.0 -1.0 
-1.0 -0.9433010659714222 550:1.0 
-1.0 -1.0 71:1.0 289:1.0 672:1.0 
-1.0 -1.0 55:1.0 517:1.0 
-0.3872392663915736 -0.0 74:1.0 498:1.0 667:1.0 
-0.9237533668527713 -0.40155823317459094 206:1.0 552:1.0 553:1.0 
-1.0 -0.42788515415783807 554:1.0 
-1.0 -0.982915161113109 157:1.0 555:1.0 
-0.3728317944089359 -0.0 67:1.0 187:1.0 246:1.0 556:1.0 557:1.0 
-0.49697609260205167 -0.0 53:1.0 65:1.0 233:1.0 558:1.0 559:1.0 668:1.0 
-0.0 -1.0 365:1.0 366:1.0 
-0.9146851000976917 -1.0 319:1.0 674:1.0 
-1.0 -1.0 
-1.0 -1.0 
-0.06222402856356989 -0.0 514:1.0 564:1.0 
-0.7072682500021292 -1.0 317:1.0 433:1.0 566:1.0 
-0.0 -1.0 71:1.0 179:1.0 358:1.0 397:1.0 672:1.0 
-0.03191140937429379 -0.0 140:1.0 520:1.0 567:1.0 
-1.0 -1.0 71:1.0 672:1.0 
-1.0 -1.0 190:1.0 
-0.0 -0.7960257497615749 355:1.0 500:1.0 
-0.6861421510693179 -0.0 412:1.0 520:1.0 
-1.0 -0.0 505:1.0 
-0.2613047819818515 -0.0 188:1.0 428:1.0 509:1.0 
-0.972415896128245 -0.002598449786959221 571:1.0 
-1.0 -1.0 74:1.0 179:1.0 402:1.0 
-0.7971618306984996 -1.0 250:1.0 353:1.0 572:1.0 
-0.048897035540353885 -1.0 520:1.0 
-0.5351882826777092 -0.24837909043086062 157:1.0 250:1.0 
-1.0 -0.9432443519469454 574:1.0 
-0.03438039039968995 -1.0 176:1.0 670:1.0 
-1.0 -0.0 131:1.0 576:1.0 
-0.706171868922012 -0.41428386626786673 542:1.0 577:1.0 
-1.0 -0.9432597360100208 578:1.0 
-0.9414653088297515 -0.26444000050752847 71:1.0 521:1.0 579:1.0 672:1.0 
-1.0 -1.0 397:1.0 
-0.991003049807137 -0.0 500:1.0 
-0.7048346757010241 -0.0 277:1.0 564:1.0 581:1.0 
-1.0 -1.0 340:1.0 
-0.0 -0.23588763367153712 71:1.0 435:1.0 582:1.0 672:1.0 
-0.0 -0.2543015616042957 63:1.0 119:1.0 249:1.0 478:1.0 479:1.0 497:0.9514561266245171 558:1.0 583:1.0 
-0.19204251750179274 -0.3100220257324088 388:1.0 584:1.0 
-0.2975574494087474 -0.5793102950759977 68:1.0 190:1.0 585:1.0 
-1.0 -1.0 
-1.0 -1.0 187:1.0 
-0.7061039520184078 -0.41454916631148386 587:1.0 588:1.0 
-0.0 -1.0 365:1.0 366:1.0 
-1.0 -0.0 165:1.0 203:1.0 
-1.0 -0.0 105:0.9676429700827083 590:1.0 
-0.0 -0.07800860719564154 36:1.0 65:1.0 71:1.0 105:1.0 287:1.0 369:1.0 592:1.0 593:1.0 594:1.0 595:1.0 596:1.0 597:1.0 668:1.0 672:1.0 
-1.0 -1.0 36:0.966678726559249 
-0.0 -0.358149725492708 71:1.0 365:1.0 366:1.0 672:1.0 
-0.07608894958305051 -0.0 65:1.0 210:1.0 533:1.0 668:1.0 
-0.10651785553003848 -0.0 63:1.0 251:1.0 
-0.0 -0.4894479331394335 42:1.0 277:1.0 331:1.0 498:1.0 667:1.0 
-1.0 -1.0 8:1.0 388:1.0 678:1.0 
-1.0 -0.7850805523222286 22:1.0 239:1.0 274:1.0 
-1.0 -0.9433121870841047 604:1.0 
-1.0 -1.0 71:1.0 672:1.0 
-1.0 -0.06310020854826592 36:1.0 175:1.0 562:1.0 
-1.0 -1.0 
-0.0 -0.8065676720286583 145:1.0 287:1.0 506:1.0 673:1.0 
-1.0 -0.0 8:1.0 65:1.0 308:1.0 668:1.0 678:1.0 
-0.7236268396429864 -0.0 118:1.0 166:1.0 
-0.32640879275049356 -0.18654334786712964 145:1.0 531:1.0 606:1.0 607:1.0 673:1.0 
-0.4578992038184888 -0.8659182068762065 8:1.0 113:1.0 374:1.0 434:1.0 678:1.0 
-0.0 -0.15379483159759783 55:1.0 428:1.0 520:1.0 
-0.05467844925549866 -0.0 71:1.0 187:1.0 287:1.0 506:1.0 608:1.0 672:1.0 
-1.0 -0.0 360:1.0 
-1.0 -1.0 
-1.0 -1.0 
-1.0 -0.0 250:1.0 
-0.5029461978403202 -0.22777771089617133 36:1.0 71:1.0 545:1.0 609:1.0 672:1.0 
-1.0 -1.0 105:1.0 
-0.08723792299337775 -0.5911494824686973 145:1.0 366:1.0 673:1.0 
-0.7364466772214159 -0.39316987224329314 612:1.0 613:1.0 
-1.0 -0.7443207898320305 360:1.0 
-1.0 -1.0 71:1.0 672:1.0 
-0.0 -1.0 359:1.0 360:1.0 
-0.0070937067362772666 -0.0 360:1.0 614:1.0 
-0.0 -0.05690651233211433 11:1.0 345:1.0 374:1.0 499:1.0 589:1.0 677:1.0 
-1.0 -1.0 
-1.0 -0.6303292583673992 101:1.0 203:1.0 389:1.0 
-1.0 -1.0 123:1.0 452:1.0 
-0.9567121717589328 -0.8710879123394676 381:0.952714099013132 580:1.0 615:1.0 
-0.08478288928437705 -0.0 140:1.0 498:1.0 600:1.0 616:1.0 667:1.0 
-1.0 -1.0 57:1.0 617:0.8790090959018073 
-0.27638802291964476 -0.9503898223226086 357:1.0 618:1.0 619:1.0 
-1.0 -0.9430907629880428 565:1.0 
-1.0 -1.0 
-1.0 -0.0 508:1.0 
-1.0 -1.0 
-0.08827290520468763 -0.0 144:1.0 532:1.0 571:1.0 620:1.0 
-0.9146165141485751 -0.47143514767640843 522:1.0 547:1.0 
-0.6603913294163086 -0.07810743008624822 142:1.0 143:1.0 496:1.0 
-0.17463186690460955 -0.0 112:1.0 584:1.0 621:1.0 
-0.21158958893360186 -1.0 102:1.0 246:1.0 351:1.0 590:1.0 
-0.020109286944936425 -0.0 553:1.0 622:1.0 
-1.0 -0.0 166:1.0 560:1.0 
-0.3076823982544582 -0.3034836239219324 472:1.0 562:1.0 623:1.0 
-0.27776229017705967 -0.5152614365738114 2:1.0 3:1.0 53:1.0 525:1.0 554:1.0 559:1.0 671:1.0 675:1.0 
-1.0 -1.0 
-1.0 -0.39106654531768464 31:1.0 544:1.0 584:1.0 
-1.0 -0.0 65:1.0 210:1.0 533:1.0 668:1.0 
-1.0 -0.8015648297259688 277:1.0 624:1.0 
-1.0 -1.0 
-1.0 -1.0 
-1.0 -1.0 625:1.0 
-0.027246739005769478 -0.0 140:1.0 145:1.0 332:0.952714099013132 626:1.0 627:1.0 673:1.0 
-0.9079609125112185 -0.0 71:1.0 111:1.0 287:1.0 506:1.0 672:1.0 
-0.0030846532389416426 -0.0 63:1.0 350:1.0 
-0.0 -0.6350457906244269 117:1.0 526:1.0 628:1.0 629:1.0 630:1.0 676:1.0 
-1.0 -1.0 
-1.0 -1.0 
-0.41307415268670294 -0.0 2:1.0 3:1.0 122:1.0 397:1.0 549:1.0 671:1.0 675:1.0 
-0.46372469835054814 -1.0 157:1.0 190:1.0 631:1.0 
-1.0 -0.0 114:1.0 250:1.0 
-1.0 -1.0 71:1.0 672:1.0 
-1.0 -0.0 68:1.0 292:1.0 
-0.5479540578713267 -0.7440638794740014 140:1.0 145:1.0 332:1.0 627:1.0 673:1.0 
-1.0 -1.0 
-1.0 -0.9885707947051293 268:1.0 
-0.2739470998158072 -1.0 1:1.0 2:1.0 3:1.0 430:1.0 505:1.0 671:1.0 675:1.0 
-0.5227111197729911 -0.0 188:1.0 499:1.0 
-1.0 -1.0 
-1.0 -0.0 88:1.0 152:1.0 188:1.0 526:1.0 
-1.0 -1.0 71:1.0 672:1.0 
-1.0 -1.0 187:1.0 192:1.0 378:1.0 
-0.1899080938829037 -0.2696264863632158 67:1.0 71:1.0 190:1.0 346:1.0 672:1.0 
-0.7423105223819815 -0.0 141:1.0 502:1.0 
-1.0 -1.0 145:1.0 358:1.0 673:1.0 
-0.13781106131882476 -0.0 140:1.0 520:1.0 567:1.0 
-0.0 -0.1682349954794774 176:1.0 640:1.0 641:1.0 670:1.0 
-1.0 -0.4715632669271942 116:1.0 465:1.0 
-0.19415881548451253 -0.0 36:1.0 65:1.0 71:1.0 140:1.0 172:1.0 287:1.0 642:1.0 668:1.0 672:1.0 
-1.0 -1.0 53:1.0 525:1.0 
-0.5207019150629608 -0.0 142:1.0 528:1.0 
-0.7688880670828981 -0.9407048515420411 571:1.0 
-0.10645779172119953 -0.0 63:1.0 362:1.0 
-0.23520938539538727 -0.47570389235002175 338:1.0 464:1.0 476:1.0 543:1.0 601:1.0 638:1.0 
-0.6429687005427452 -1.0 176:1.0 670:1.0 
-1.0 -0.8920781413624316 145:1.0 367:1.0 437:1.0 673:1.0 
-1.0 -1.0 
-0.774247995661858 -0.11817169241672348 311:1.0 497:1.0 624:1.0 644:1.0 
-1.0 -0.3709486810729854 188:1.0 
-1.0 -1.0 374:1.0 
-0.45275650110075333 -0.7708510509899956 552:1.0 591:1.0 
-1.0 -1.0 71:1.0 345:1.0 672:1.0 
-1.0 -1.0 582:1.0 
-0.0 -0.2742058051045578 65:1.0 71:1.0 143:1.0 173:1.0 353:1.0 511:1.0 586:1.0 645:1.0 668:1.0 672:1.0 
-0.0 -0.6542303910123931 192:0.9130313239373835 202:1.0 365:1.0 366:1.0 
-0.0 -0.4713632578465406 316:1.0 513:1.0 
-0.5770918065131497 -0.0 565:1.0 646:1.0 
-0.6558903357864783 -0.0 25:1.0 66:1.0 437:1.0 589:1.0 640:1.0 647:1.0 
-0.0 -1.0 319:1.0 350:1.0 515:1.0 536:1.0 674:1.0 
-0.028114133718763104 -0.0 8:1.0 11:1.0 73:1.0 277:1.0 451:1.0 628:1.0 648:1.0 677:1.0 678:1.0 
-0.1700196337341153 -0.1732455648501673 129:1.0 500:1.0 650:1.0 
-0.8669628705985187 -0.0 506:1.0 
-1.0 -0.942911495158997 651:1.0 
-1.0 -1.0 176:1.0 670:1.0 
-0.42358208926176383 -0.0 380:1.0 555:1.0 560:1.0 
-1.0 -1.0 71:1.0 672:1.0 
-0.8923173837204932 -0.3429459633029088 66:1.0 365:1.0 366:1.0 
-0.774689644215986 -0.6746525132783603 36:1.0 111:1.0 475:1.0 652:1.0 
-0.0 -0.3318341655721522 30:1.0 53:1.0 65:1.0 105:1.0 233:1.0 355:1.0 668:1.0 
-0.3712976337883418 -0.2493607217239049 122:1.0 160:1.0 164:1.0 331:1.0 391:1.0 599:1.0 
-1.0 -0.43991169004116654 175:1.0 569:1.0 
-0.0 -0.29202085577187126 66:1.0 277:1.0 353:1.0 498:1.0 667:1.0 
-0.7802626973778731 -0.4451117655502819 409:1.0 563:1.0 
-1.0 -1.0 
-1.0 -1.0 117:1.0 676:1.0 
-1.0 -0.9431477939969438 523:1.0 
-0.8293322978286302 -0.943188722536042 508:1.0 
-1.0 -0.266126466470434 8:1.0 185:1.0 610:1.0 678:1.0 
-0.9268677055925362 -0.834278427025514 181:1.0 645:1.0 
-0.5084130184021348 -0.0 11:1.0 164:1.0 517:1.0 677:1.0 
-0.5163462922927444 -0.0 102:1.0 172:1.0 243:1.0 303:1.0 574:1.0 604:1.0 
-1.0 -1.0 
-0.5376018224136168 -0.0 104:1.0 106:1.0 515:1.0 
-0.0 -0.04540576568846652 55:1.0 166:1.0 520:1.0 
-1.0 -0.942928859726495 655:1.0 
-0.3877290118974108 -0.5599529861990994 145:1.0 292:1.0 673:1.0 
-0.004159259014688449 -0.0 111:1.0 206:1.0 310:1.0 345:1.0 502:1.0 541:1.0 657:1.0 
-0.0 -1.0 63:1.0 145:1.0 358:1.0 673:1.0 
-0.24077681016993085 -0.3992933562309203 331:1.0 538:1.0 
-1.0 -0.09879980099399259 102:1.0 619:1.0 
-1.0 -1.0 8:1.0 678:1.0 
-0.6683735671932576 -0.0 500:1.0 
-0.2821205910134585 -0.0 71:1.0 118:1.0 672:1.0 
-1.0 -1.0 36:1.0 
-0.026373540395510407 -0.04889833272400879 64:1.0 65:1.0 262:1.0 277:1.0 668:1.0 
-1.0 -1.0 9:1.0 658:0.939504638093022 663:1.0 
-1.0 -1.0 23:1.0 92:1.0 659:1.0 
-0.6336275196442757 -0.25077836041657786 66:1.0 69:1.0 475:1.0 611:1.0 
-0.0 -0.15843313660550387 190:1.0 502:1.0 510:0.94340246432784 
-1.0 -1.0 374:1.0 
-1.0 -1.0 145:1.0 673:1.0 
-0.9552843869288039 -0.24573137480172677 105:1.0 436:1.0 628:1.0 
-1.0 -1.0 
-1.0 -0.9428224615180597 548:1.0 
-0.16167973454027004 -0.0 96:1.0 516:1.0 517:1.0 
-0.8536310985090508 -0.0 502:1.0 
-0.2912066660975481 -0.0 152:1.0 526:1.0 532:1.0 639:1.0 
-0.0 -0.2826453736972399 166:1.0 449:1.0 502:1.0 598:1.0 657:1.0 
-0.25467858025198165 -0.0 376:1.0 392:1.0 523:1.0 
-0.0 -1.0 201:1.0 349:1.0 436:1.0 576:1.0 
-0.2383750059256075 -0.6012718703504284 9:1.0 450:1.0 502:0.9625580805333945 663:1.0 
-0.5227674556270162 -1.0 188:1.0 359:1.0 
-1.0 -0.9431163268988534 231:1.0 
-1.0 -1.0 
-0.0 -0.003461708060651358 355:0.961717381576092 438:1.0 502:1.0 612:1.0 625:1.0 
-0.6177228319460174 -0.15168773322976495 534:1.0 643:1.0 
-0.7816625608778612 -0.0 66:1.0 346:1.0 535:1.0 
-0.2690534208531426 -0.9074650895138684 165:1.0 409:1.0 
-0.40769878749687294 -0.0 360:1.0 614:1.0 
-0.48545591349691575 -0.0 557:1.0 629:1.0 630:1.0 
-0.0 -0.12942478040942887 176:1.0 583:1.0 670:1.0 
-0.8251576831873183 -0.6626057701146755 447:0.94340246432784 622:0.9461507336503839 
-1.0 -0.7861444328355406 142:1.0 143:1.0 648:1.0 
-0.0 -0.19903528744362597 360:1.0 614:1.0 650:1.0 
-1.0 -1.0 
-0.2021048676279263 -0.0 36:1.0 472:1.0 548:1.0 
-1.0 -0.9431420223172666 637:1.0 
-1.0 -1.0 
-0.8318002943322056 -0.9410024844127142 495:1.0 
-1.0 -0.5936826968760672 118:1.0 
-1.0 -1.0 176:1.0 670:1.0 
-1.0 -1.0 349:1.0 
-0.23723944075638248 -1.0 176:1.0 524:1.0 670:1.0 
-0.931362666074005 -0.0 116:0.9514561266245171 142:1.0 145:1.0 661:1.0 673:1.0 
-0.1511167840594235 -0.0 517:1.0 
-1.0 -0.5554334624117507 36:1.0 532:1.0 
-0.35918955650277057 -0.7961260619199042 377:1.0 505:1.0 558:1.0 
-1.0 -0.0 63:1.0 
-1.0 -1.0 71:1.0 672:1.0 
-0.3951066774801123 -0.27955903774070107 460:1.0 575:1.0 647:1.0 653:1.0 
-0.6429630285730602 -1.0 198:1.0 295:1.0 342:1.0 560:1.0 
-0.17162259692896617 -0.005356860460391004 50:1.0 123:1.0 528:1.0 585:1.0 
-0.39549473956466824 -3.8045910103399853E-4 52:1.0 528:1.0 
-0.0 -0.047096785768086555 192:1.0 520:1.0 551:1.0 641:1.0 
-1.0 -0.9432695155902181 568:1.0 
-0.6294522267068119 -0.9366224962492401 9:1.0 64:1.0 113:1.0 123:1.0 430:1.0 528:1.0 663:1.0 
-0.44271813402817434 -0.0 498:1.0 667:1.0 
-1.0 -1.0 201:1.0 249:1.0 649:1.0 
-0.08307171249062727 -0.317607984829454 144:1.0 250:1.0 338:1.0 374:1.0 620:1.0 
-1.0 -1.0 181:1.0 
-1.0 -0.35207729589638515 67:1.0 219:1.0 
-0.10355890169565629 -0.0 63:1.0 350:1.0 
-1.0 -0.0 140:1.0 534:1.0 
-0.4174462184350451 -0.1142669796614667 71:1.0 587:1.0 672:1.0 
-0.0 -0.10430686864801578 71:1.0 145:1.0 201:1.0 376:1.0 506:1.0 672:1.0 673:1.0 
-1.0 -0.9431281921650041 649:1.0 
-1.0 -1.0 446:1.0 
-1.0 -1.0 
-1.0 -1.0 71:1.0 105:1.0 672:1.0 
-0.1062919525914748 -0.4262067054511384 63:1.0 573:1.0 
-1.0 -0.34955437818103774 88:1.0 118:1.0 
-1.0 -1.0 355:1.0 
-0.35651497333624016 -0.1529652170509928 33:1.0 54:1.0 166:1.0 221:1.0 612:1.0 622:1.0 
-0.8389649738640442 -0.9436520314268327 370:1.0 
-1.0 -1.0 215:1.0 
-1.0 -1.0 63:1.0 201:1.0 
-1.0 -0.9431946958319983 514:1.0 
-0.2765381862547045 -0.4846794289639027 355:1.0 527:1.0 654:1.0 
-0.0 -1.0 71:1.0 74:1.0 564:1.0 581:1.0 672:1.0 
-1.0 -1.0 
-1.0 -0.5496611857279516 24:1.0 63:1.0 302:1.0 
