svm_type c_svc
kernel_type linear
nr_class 3
total_sv 1039
rho -0.8958224728241685 -0.7603591120788117 0.056884318372398726
label 0 1 2
nr_sv 400 320 319
SV
1.0 1.0 
1.0 1.0 1:0.93041292506863 
1.0 1.0 
1.0 1.0 2:0.914070844205805 
0.12454762580129004 1.0 3:0.914070844205805 
1.0 1.0 
0.6106931467005726 0.2974120323526311 5:1.0 6:1.0 7:1.0 
1.0 1.0 
1.0 1.0 
1.0 1.0 
1.0 1.0 
0.10493910882590853 0.0 8:1.0 9:1.0 14:1.0 15:1.0 16:1.0 17:1.0 698:1.0 705:1.0 
0.5520022438474259 0.0 18:1.0 19:1.0 
0.3707549393314262 0.03303590069508099 16:1.0 20:1.0 21:1.0 22:1.0 23:1.0 24:1.0 25:1.0 698:1.0 
0.0 0.31872932701827955 26:1.0 27:1.0 577:1.0 
1.0 1.0 
0.0 0.6665815924954268 35:1.0 36:1.0 37:1.0 700:1.0 
1.0 1.0 
1.0 1.0 
1.0 1.0 
1.0 1.0 38:1.0 
1.0 1.0 
1.0 1.0 
1.0 0.7378001808540557 43:1.0 44:1.0 45:1.0 
0.18626192593873933 0.19139372855052195 13:1.0 16:1.0 17:1.0 47:1.0 698:1.0 705:1.0 707:1.0 708:1.0 
1.0 0.5 48:1.0 49:1.0 458:1.0 
0.07940583633884277 1.0 50:1.0 51:1.0 392:1.0 
0.0 0.4986541150905978 53:1.0 659:1.0 
0.10395642143274296 0.23948484706328355 54:1.0 
1.6285630268040585E-4 0.0 26:1.0 55:1.0 56:1.0 
1.0 1.0 
1.0 1.0 
1.0 1.0 
0.6432845942563705 0.11980629851512327 57:1.0 497:1.0 
0.42116036186728734 0.0993412348020628 8:1.0 9:1.0 58:1.0 59:1.0 60:1.0 483:1.0 
0.008447046486045811 1.0 62:1.0 604:1.0 
1.0 1.0 45:1.0 
0.10408093994850323 0.23942004680167434 64:1.0 
1.0 1.0 
1.0 1.0 
1.0 1.0 
1.0 0.2395784825674393 607:1.0 
1.0 1.0 
1.0 1.0 13:1.0 708:1.0 
1.0 1.0 13:1.0 708:1.0 
0.0 0.3042287280836119 46:1.0 69:1.0 70:1.0 71:1.0 526:1.0 
1.0 1.0 
0.10382031323998756 0.23945449634297378 72:1.0 
1.0 1.0 73:1.0 74:1.0 75:1.0 701:1.0 
0.0 0.029434813830229764 23:1.0 63:1.0 76:1.0 77:1.0 78:1.0 79:1.0 80:1.0 
0.0 0.28015516335661844 76:1.0 81:1.0 82:1.0 
0.10413531379868982 1.0 544:1.0 
0.0 0.2920772536924934 18:1.0 76:1.0 86:1.0 87:1.0 689:1.0 
0.15808137213195547 0.10436686526387401 76:0.9677467624332038 88:1.0 89:1.0 90:1.0 91:1.0 501:1.0 
0.8247569746177446 0.6412913778490086 76:1.0 91:1.0 92:1.0 333:1.0 
1.0 1.0 91:1.0 
1.0 1.0 91:1.0 
1.0 1.0 91:1.0 
1.0 1.0 
0.26290074750423326 0.46078561193516604 35:1.0 62:1.0 94:1.0 95:1.0 96:1.0 700:1.0 
1.0 0.11231786430510894 76:1.0 97:1.0 355:1.0 402:1.0 
1.0 1.0 98:1.0 
0.6051375489949764 0.0 16:1.0 17:1.0 99:1.0 100:1.0 698:1.0 705:1.0 
1.0 1.0 
1.0 1.0 
1.0 1.0 
1.0 1.0 
0.16809975537528227 0.4139886777698788 74:1.0 83:1.0 101:1.0 102:1.0 701:1.0 
1.0 1.0 
1.0 1.0 
1.0 0.3169339535658939 13:1.0 365:1.0 708:1.0 
0.372339537860524 0.24002305743234562 38:1.0 105:1.0 
0.49746693616960647 0.17393961710595535 63:1.0 85:1.0 106:0.9465996167497696 107:1.0 
0.0 0.6660133136595221 6:1.0 83:1.0 95:1.0 108:1.0 109:1.0 379:1.0 
0.0 0.2187359994768738 110:1.0 
0.1606419837085447 0.0 11:1.0 16:1.0 17:1.0 22:1.0 111:1.0 112:1.0 693:1.0 698:1.0 705:1.0 
0.20635808057738436 0.0 16:1.0 17:1.0 115:1.0 698:1.0 705:1.0 
6.427766967565399E-4 0.0 16:1.0 17:1.0 115:1.0 116:1.0 117:1.0 698:1.0 705:1.0 
1.0 0.0 16:1.0 17:1.0 47:1.0 123:1.0 698:1.0 705:1.0 706:1.0 707:1.0 
1.0 0.0 16:1.0 17:1.0 698:1.0 705:1.0 
1.0 0.0 16:1.0 17:1.0 698:1.0 705:1.0 
1.0 0.0 16:1.0 17:1.0 334:1.0 698:1.0 705:1.0 
0.20707284265255207 0.0 16:1.0 17:1.0 127:1.0 698:1.0 705:1.0 
1.0 0.0 16:1.0 17:1.0 66:1.0 124:1.0 129:1.0 340:1.0 698:1.0 702:1.0 705:1.0 
0.551986496001798 0.0 16:1.0 17:1.0 30:1.0 33:1.0 45:1.0 130:1.0 698:1.0 705:1.0 
0.06926781360949821 0.0 16:1.0 17:1.0 59:1.0 131:1.0 132:1.0 698:1.0 705:1.0 
1.0 0.0 16:1.0 17:1.0 332:1.0 698:1.0 705:1.0 
0.16700385968796877 0.0 16:1.0 17:1.0 90:1.0 134:1.0 135:1.0 698:1.0 705:1.0 
1.0 0.0 16:1.0 17:1.0 138:1.0 698:1.0 705:1.0 
0.9619312466976097 1.0 16:1.0 17:1.0 49:1.0 139:1.0 140:1.0 141:1.0 424:1.0 565:1.0 670:1.0 698:1.0 703:1.0 705:1.0 
0.10368578347669181 0.0 16:1.0 17:1.0 133:1.0 147:1.0 698:1.0 705:1.0 
0.37427618791645484 0.0 16:1.0 17:1.0 148:1.0 698:1.0 705:1.0 
1.0 0.0 16:1.0 17:1.0 698:1.0 705:1.0 
0.051381003242645405 0.0 11:1.0 16:1.0 17:1.0 151:1.0 152:1.0 693:1.0 698:1.0 705:1.0 
0.0 0.5001615708866066 127:1.0 153:1.0 154:1.0 
1.0 1.0 
1.0 1.0 
1.0 1.0 13:1.0 708:1.0 
0.1729711971462813 0.0878648783979439 91:1.0 156:1.0 157:1.0 380:1.0 
0.2533456904464342 0.0 99:1.0 153:1.0 158:1.0 
1.0 0.0 71:1.0 159:1.0 335:1.0 695:1.0 
1.0 0.0 16:1.0 17:1.0 698:1.0 705:1.0 
1.0 0.08053311940631873 16:1.0 17:1.0 94:1.0 161:1.0 431:1.0 698:1.0 705:1.0 
0.1036676200554359 0.0 16:1.0 17:1.0 59:1.0 87:1.0 162:1.0 698:1.0 705:1.0 
1.0 0.0 16:1.0 17:1.0 399:1.0 698:1.0 705:1.0 
0.06894664234655801 0.0 16:1.0 17:1.0 131:1.0 163:1.0 698:1.0 705:1.0 
0.036892819037228665 0.0 16:1.0 17:1.0 79:1.0 164:1.0 165:1.0 698:1.0 705:1.0 
0.03679808530738444 0.0 16:1.0 17:1.0 79:1.0 165:1.0 169:1.0 698:1.0 705:1.0 
0.0882207605664493 0.0 16:1.0 17:1.0 113:1.0 175:1.0 698:1.0 705:1.0 
0.0227989751842243 0.0 16:1.0 17:1.0 79:1.0 113:1.0 698:1.0 705:1.0 
0.029369594348959825 0.0 16:1.0 17:1.0 118:1.0 166:0.954252902026773 167:1.0 178:1.0 698:1.0 705:1.0 
1.0 0.0 16:1.0 17:1.0 698:1.0 705:1.0 
0.042531280226523874 0.0 16:1.0 17:1.0 118:1.0 119:1.0 120:1.0 698:1.0 705:1.0 
0.050113024641464395 0.10921520372222131 16:1.0 17:1.0 118:1.0 180:1.0 181:1.0 182:1.0 183:1.0 184:1.0 185:1.0 698:1.0 705:1.0 
0.3435355124948155 0.094913870293034 16:1.0 17:1.0 504:1.0 516:1.0 698:1.0 705:1.0 
1.0 0.0 16:1.0 17:1.0 698:1.0 705:1.0 
1.0 0.0 16:1.0 17:1.0 698:1.0 705:1.0 
1.0 0.0 16:1.0 17:1.0 698:1.0 705:1.0 
0.004219433633905895 0.0 16:1.0 17:1.0 47:1.0 121:1.0 122:1.0 698:1.0 705:1.0 707:1.0 
0.3678376147948633 0.0 16:1.0 20:1.0 67:1.0 150:0.9581355531685978 698:1.0 
1.0 1.0 
0.0 1.0 193:1.0 
1.0 1.0 45:1.0 194:1.0 
1.0 1.0 83:1.0 
0.9972096948638894 0.23968740159234536 443:1.0 
0.0 0.23927724612140827 195:1.0 
0.0 0.025616692580598246 3:1.0 68:1.0 84:1.0 
0.8774784708770769 0.0 71:1.0 
0.0 0.05562863260415703 196:1.0 197:1.0 199:1.0 200:1.0 457:1.0 
1.0 1.0 
1.0 1.0 
0.0 0.19594850051288193 22:1.0 198:1.0 201:1.0 202:1.0 658:1.0 
0.41120358164910636 1.0 38:1.0 141:1.0 203:1.0 204:1.0 456:1.0 524:1.0 589:1.0 697:1.0 703:1.0 
1.0 1.0 
0.0 0.8184993740436547 205:1.0 
1.0 0.0 59:1.0 76:1.0 177:1.0 194:1.0 498:1.0 
0.7099489153561033 0.1650968973981835 158:1.0 179:1.0 
0.0416328999139739 0.4406798178310162 210:1.0 211:1.0 
0.05185107202989061 0.0 16:1.0 212:1.0 213:1.0 698:1.0 
1.0 1.0 
0.3358609776310827 0.10560650820235035 13:1.0 65:1.0 128:1.0 368:1.0 708:1.0 
0.11431117199592623 0.0 158:1.0 215:1.0 216:1.0 
0.0 0.04556127251715019 46:1.0 142:1.0 211:1.0 217:1.0 
0.051044324066217804 0.0 16:1.0 218:1.0 219:1.0 698:1.0 
0.47275811968734954 1.0 50:1.0 51:1.0 
1.0 0.23969311945797162 450:1.0 
0.0 0.0050319006534429575 126:1.0 150:0.9581355531685978 220:1.0 
0.22159301003725 0.0 10:1.0 210:1.0 217:1.0 221:1.0 
0.37524181076226637 0.13551985325177776 158:1.0 222:1.0 517:1.0 623:1.0 
1.0 1.0 
0.0 0.23964706181328613 225:1.0 
0.0 1.0 225:1.0 
1.0 1.0 74:1.0 701:1.0 
1.0 1.0 
1.0 1.0 
0.5331865761245012 1.0 224:1.0 
1.0 0.6088994561735246 157:1.0 
0.6270014671275261 1.0 228:1.0 548:1.0 
0.10406233228306555 0.23954405077168534 229:1.0 
1.0 0.0 16:1.0 17:1.0 231:1.0 232:1.0 698:1.0 705:1.0 
0.2966909382418206 0.0 63:1.0 145:1.0 
1.0 1.0 74:1.0 191:1.0 224:1.0 233:1.0 701:1.0 
0.1169155757009383 0.0 91:1.0 157:1.0 234:1.0 
0.10405883230947333 0.23966888868470715 42:1.0 
1.0 1.0 
1.0 0.0 191:1.0 
0.10436218449971896 0.4337611345260728 37:1.0 
1.0 1.0 
0.0 0.4735831415295769 209:1.0 
0.13098513845571857 1.0 209:1.0 
1.0 0.23964905095155226 147:1.0 
1.0 0.0 67:1.0 238:1.0 
0.0 0.09730358770326364 28:1.0 238:1.0 609:1.0 
1.0 1.0 
1.0 1.0 
0.8974300676096574 0.47842234779828763 239:1.0 
0.2064513646418398 0.0 239:1.0 240:1.0 
0.3576182037386639 0.3004003409070649 241:0.8931991808295205 
1.0 0.9295690684661537 140:1.0 242:1.0 338:1.0 597:1.0 
1.0 1.0 13:1.0 83:1.0 708:1.0 
0.2919647161664337 0.7457865060978026 83:1.0 139:1.0 242:1.0 243:1.0 415:1.0 
7.871018666164469E-4 0.0 63:1.0 218:1.0 219:1.0 244:1.0 
0.0 0.020677992169089093 40:1.0 58:1.0 59:1.0 110:1.0 154:1.0 202:1.0 489:1.0 580:1.0 
1.0 1.0 
1.0 1.0 
0.0 0.04952153583906797 11:1.0 693:1.0 
1.0 1.0 
0.1040801593676904 0.2394662452117097 245:1.0 
0.0 1.5679245558561508E-4 11:1.0 226:0.9465996167497696 246:1.0 693:1.0 
0.11347840832732554 0.0 191:1.0 247:1.0 395:1.0 
0.3469682015219365 0.4718342539596362 91:1.0 247:1.0 248:1.0 249:0.9499999874 250:1.0 
0.30065722053308946 0.0 40:1.0 110:1.0 
0.6453059725297604 1.5111964068255E-4 195:1.0 251:1.0 252:1.0 
0.10397037668561915 0.23962976620700024 253:1.0 
0.03690174820220236 2.2200183141438825E-4 11:1.0 254:1.0 426:1.0 693:1.0 
1.0 1.0 
1.0 1.0 
0.620673822089593 1.0 255:1.0 385:1.0 
0.10418410146084722 0.23972672403616638 104:1.0 
0.10431326002752674 0.9917113987534303 205:1.0 
0.10422846843352433 0.4796609052555972 93:1.0 
0.0 2.332176819243436E-4 11:1.0 256:1.0 693:1.0 
0.11952168921865049 0.0 89:1.0 256:1.0 
0.40241125355436963 0.0 36:1.0 69:1.0 107:1.0 202:1.0 224:1.0 257:1.0 
1.0 1.0 258:1.0 
1.0 1.0 
0.04077010647721379 1.0 34:1.0 
1.0 1.0 
1.0 1.0 261:1.0 
0.026103351255679898 0.0 261:1.0 262:1.0 263:1.0 
0.7727268571046231 0.6326980018313587 71:1.0 
0.0 0.2668107833257916 71:1.0 265:1.0 
1.0 1.0 74:1.0 701:1.0 
0.2100162563006382 0.496455479182725 74:1.0 114:1.0 266:1.0 701:1.0 
0.022120755026313922 0.39293940998691673 45:1.0 74:1.0 222:1.0 572:1.0 701:1.0 
0.5294220353410196 1.0 74:1.0 267:1.0 701:1.0 
0.24480042460512483 0.4965713653316264 74:1.0 268:1.0 269:1.0 701:1.0 
0.17597794114863508 0.09614212279803222 10:1.0 74:1.0 223:1.0 270:1.0 271:1.0 272:1.0 273:1.0 701:1.0 
1.0 0.11978995685606016 134:1.0 433:1.0 
0.41975214572614344 0.9925744285208399 74:1.0 274:1.0 701:1.0 
1.0 1.0 11:1.0 74:1.0 693:1.0 701:1.0 
1.0 1.0 74:1.0 701:1.0 
1.0 1.0 74:1.0 701:1.0 
0.1911947278403423 0.4813960873314313 24:1.0 193:1.0 207:1.0 
0.036999819869497026 0.0 90:1.0 157:1.0 252:1.0 275:1.0 276:1.0 
1.0 1.0 
0.0 3.842603483256049E-4 157:1.0 257:1.0 
1.0 1.0 
0.15961071967844334 0.7626635484657388 24:1.0 66:0.9499999874 277:1.0 446:1.0 
1.0 0.0 16:1.0 17:1.0 75:1.0 142:1.0 148:1.0 212:1.0 278:1.0 698:1.0 705:1.0 
0.06302898709431774 0.0 16:1.0 17:1.0 26:1.0 34:1.0 698:1.0 705:1.0 
1.0 1.0 
0.2265862356194741 1.0 427:1.0 
0.10212862853157151 0.0 44:1.0 45:1.0 148:1.0 224:1.0 232:1.0 279:1.0 
1.0 1.0 
0.45816122527242364 0.7704645772222094 203:1.0 206:1.0 
1.0 1.0 63:1.0 
1.0 1.0 
1.0 1.0 
0.3465947211731778 0.0 26:1.0 
0.048654282327453384 0.2681260717125713 157:1.0 198:1.0 280:1.0 535:1.0 
0.31310317103171137 0.0 198:1.0 280:1.0 
0.10405981816453719 1.0 560:1.0 
0.0 0.14355695907420285 10:1.0 
0.10391339164662576 1.0 108:1.0 
0.1918421935341753 0.03585774063992712 112:1.0 271:1.0 281:1.0 282:1.0 
1.0 1.0 
1.0 1.0 
1.0 1.0 
1.0 1.0 
1.0 1.0 
0.05835100874686453 0.0 30:1.0 111:1.0 283:1.0 
1.0 0.0 191:1.0 260:1.0 284:0.954252902026773 515:1.0 
0.0 1.2383677503873767E-4 103:1.0 159:1.0 
0.0 0.4010909158414 244:1.0 263:1.0 285:0.8571979908695315 
0.10388773112548566 1.0 285:1.0 
1.0 1.0 
0.10431117132315905 1.0 551:1.0 
0.21184661716799044 6.940624041036207E-4 38:1.0 157:1.0 267:1.0 
0.10390319719127848 0.23962991406313297 286:1.0 
0.6278213043055484 0.11978654267887034 124:1.0 287:1.0 
1.0 1.0 
0.0 0.534747321389623 4:1.0 76:1.0 141:1.0 161:1.0 288:1.0 703:1.0 
0.7673387491473325 1.0 16:1.0 125:1.0 141:1.0 698:1.0 703:1.0 
1.0 1.0 141:1.0 703:1.0 
0.5181419672685936 1.0 38:1.0 141:1.0 410:1.0 540:1.0 703:1.0 
0.05212321038925472 0.11976960867928194 289:1.0 290:1.0 
0.10342467591708805 0.0 16:1.0 192:1.0 698:1.0 
0.0193786722377485 0.941360807976507 291:1.0 486:1.0 
0.2556420896635161 0.0 134:1.0 135:1.0 291:1.0 490:1.0 
0.0 0.9036789753423158 82:1.0 292:1.0 
0.626344497124473 0.40569368983725695 5:1.0 99:1.0 137:1.0 216:1.0 292:1.0 590:1.0 
0.0 2.972865096520556E-4 11:1.0 215:1.0 693:1.0 
1.0 1.0 
1.0 1.0 
0.0 0.232590020465683 98:1.0 243:1.0 
0.008059787147056147 0.11983042636440332 175:1.0 237:1.0 
1.0 0.07242609700673083 74:1.0 76:1.0 232:1.0 324:1.0 393:1.0 701:1.0 
1.0 0.9320390602698748 48:1.0 
0.44580714662886173 0.0 294:1.0 455:1.0 
1.0 0.0 16:1.0 17:1.0 698:1.0 705:1.0 
1.0 1.0 
1.0 0.0 13:1.0 25:1.0 156:1.0 232:1.0 708:1.0 
0.0 0.07991763475038317 295:1.0 296:1.0 297:1.0 
0.07900055059433357 0.0 295:1.0 296:1.0 297:1.0 459:1.0 
0.8090884062775634 0.31782893376625937 260:1.0 
1.0 0.0 16:1.0 698:1.0 
1.0 1.0 
0.10615717132657236 0.0 16:1.0 302:1.0 303:1.0 698:1.0 
5.007866752812321E-4 0.0 87:1.0 
0.6117813196344776 0.2425691995212756 53:1.0 242:1.0 
1.0 1.0 
1.0 1.0 74:1.0 701:1.0 
1.0 1.0 
0.03354214672428015 0.1196937642041277 41:1.0 276:1.0 
0.0 0.4868704188345305 29:1.0 87:1.0 162:1.0 684:1.0 
0.10401489828629988 0.23922951488081795 103:1.0 
1.0 1.0 
0.0 0.042715903923853875 6:1.0 
0.0 0.4637449943531364 39:1.0 76:1.0 
1.0 1.0 74:1.0 701:1.0 
1.0 1.0 251:1.0 
0.025295754189243017 0.4884510661101028 294:1.0 304:1.0 
0.0 0.016726620186148677 133:1.0 158:1.0 178:1.0 305:1.0 
0.0 0.9099987715073224 30:1.0 306:1.0 
0.4583890785456001 0.0 71:1.0 202:1.0 
0.0520776474759392 1.0 307:1.0 529:1.0 
0.27602506110316166 1.0 130:1.0 687:1.0 
1.0 1.0 
1.0 1.0 
0.0 0.2348628065491493 150:1.0 
0.0 1.0 38:1.0 267:1.0 
0.11586916702165699 0.2674622329789564 308:0.9465996167497696 
0.04897493049974574 1.0 309:1.0 
0.14475219910876083 1.0 14:1.0 179:1.0 
0.0 0.0031506148307209555 14:1.0 77:1.0 179:1.0 
0.1040974481467639 0.0 46:1.0 
1.0 1.0 74:1.0 157:1.0 275:1.0 288:1.0 304:1.0 701:1.0 
0.8544230907621336 0.31275162930865974 146:1.0 201:0.9570354377473717 211:1.0 
0.14913596682316008 0.0 65:1.0 67:1.0 80:1.0 227:1.0 254:1.0 259:1.0 
0.10427600829155066 0.2396287901593483 52:1.0 
1.0 1.0 
1.0 1.0 
0.7647721730579482 0.0 81:1.0 
1.0 1.0 
0.05200026563074679 0.11975337918938354 299:1.0 300:1.0 
0.7181516694547149 1.0 35:1.0 204:1.0 232:1.0 700:1.0 
1.0 0.8213036800893689 35:1.0 67:1.0 349:1.0 479:1.0 700:1.0 
1.0 1.0 
1.0 1.0 
0.0 1.0 3:1.0 270:1.0 525:1.0 
0.0 0.1197626942376074 131:1.0 163:1.0 
0.11948190726401493 0.0 89:1.0 225:1.0 
0.8243649188451461 0.0 61:1.0 62:1.0 
0.005061206642628213 0.0 313:1.0 
1.0 1.0 
0.44157261650172297 0.6199169350580057 314:1.0 440:1.0 
0.010200447390366296 0.23968740159234514 315:1.0 
0.12410381387325045 0.0 38:1.0 39:1.0 160:1.0 278:1.0 
1.0 1.0 17:1.0 155:1.0 316:1.0 699:1.0 705:1.0 
1.0 1.0 12:1.0 316:1.0 699:1.0 
0.5521161957000449 1.0 598:1.0 599:1.0 
1.0 1.0 
1.0 1.0 74:1.0 123:1.0 248:1.0 306:1.0 514:1.0 701:1.0 706:1.0 
0.0 0.6022868232309944 59:1.0 248:1.0 250:1.0 
1.0 0.7308703598488593 89:1.0 
1.0 0.0 16:1.0 17:1.0 345:1.0 698:1.0 705:1.0 
0.09381302078962209 1.0 315:1.0 
1.0 1.0 
0.15221717439541513 4.800202719694572E-4 157:1.0 318:1.0 
0.5118618243472887 0.9658287335740675 277:1.0 305:1.0 435:1.0 
0.10351574169858152 0.16790743101912553 45:1.0 214:1.0 
0.0 0.14343018419288184 272:1.0 
1.0 1.0 
1.0 1.0 
1.0 0.4966073966140309 67:1.0 319:0.954252902026773 
0.05506775142528828 0.0 191:1.0 243:1.0 309:1.0 
1.0 1.0 
1.0 1.0 
1.0 1.0 
0.38922732492493184 0.0 16:1.0 17:1.0 201:1.0 698:1.0 705:1.0 
1.0 1.0 
1.0 0.23951999510575916 362:1.0 
1.0 1.0 
0.17147816574785638 0.365591800939937 11:1.0 141:1.0 208:1.0 227:1.0 312:1.0 693:1.0 703:1.0 
1.0 1.0 89:1.0 
0.4001501377749542 0.0 8:1.0 9:1.0 110:1.0 
0.0 0.23965975069928147 234:1.0 
0.43108178593834845 0.2398015928456056 472:1.0 
0.0 0.127098695181719 97:1.0 
1.0 1.0 
0.0 0.23953869638176978 302:1.0 
0.0 0.07959275299721767 88:1.0 292:1.0 
0.37231638625584274 1.0 38:1.0 686:1.0 
0.6799835174687782 0.43857125073892234 67:0.9656227282488034 109:0.9557624022993108 321:0.9523993617178639 
0.21639929547567585 0.41965459750413875 30:1.0 32:1.0 74:1.0 369:1.0 622:1.0 701:1.0 
0.3265873087256375 0.6058722943842387 11:1.0 693:1.0 
0.0 1.0 292:1.0 
1.0 0.23960616908308957 31:1.0 
0.10394330837465786 0.0 27:1.0 
1.0 1.0 
0.0 1.0 83:1.0 145:1.0 158:1.0 228:1.0 507:1.0 
0.0 0.23964706181328613 148:1.0 
0.09895827760853375 0.2396154177375851 313:1.0 
1.0 0.23956574888313428 381:1.0 
1.0 1.0 346:1.0 
0.052046300067523955 0.09183252637655248 199:1.0 301:1.0 
0.46010461993288443 0.0774346135675747 78:1.0 197:1.0 
0.5203155975347887 0.0 11:1.0 148:1.0 254:1.0 279:1.0 303:1.0 693:1.0 
0.10401650712201493 0.7653762814533945 149:1.0 
1.0 1.0 322:1.0 
1.0 1.0 258:1.0 
0.0 0.5755791611074873 233:1.0 545:1.0 
0.1043107023002956 0.23955398776675035 293:1.0 
1.0 1.0 
0.0 0.01789337788987121 3:1.0 224:1.0 
0.07576273412868491 0.0 16:1.0 17:1.0 53:1.0 191:1.0 321:1.0 322:1.0 698:1.0 705:1.0 
0.0 1.0 139:1.0 
1.0 1.0 
0.29147043378122606 0.0 4:1.0 288:1.0 
-0.025295412956120145 0.0 323:1.0 
-1.0 1.0 324:0.9199377291773552 
-1.0 0.0 2:1.0 16:1.0 17:1.0 698:1.0 705:1.0 
-0.003481359501259181 0.0 325:1.0 326:1.0 
-1.0 1.0 666:1.0 
-0.0 0.22501165846185855 63:1.0 123:1.0 330:1.0 706:1.0 
-1.0 1.0 
-1.0 1.0 319:0.954252902026773 
-1.0 0.0 334:1.0 
-1.0 0.9843892668071729 63:1.0 333:1.0 
-0.0 1.0 74:1.0 337:1.0 701:1.0 
-0.9795341926409122 1.0 258:1.0 
-1.0 1.0 48:1.0 
-0.8220759863114439 0.0 16:1.0 17:1.0 67:1.0 107:1.0 138:1.0 191:1.0 345:1.0 698:1.0 705:1.0 
-0.6652154576807682 0.9187487921582191 346:1.0 347:1.0 
-1.0 0.07535277933721998 348:1.0 349:1.0 
-0.22394324532469523 0.9435686667562281 348:1.0 349:1.0 350:1.0 549:1.0 
-1.0 0.7588372960406667 323:1.0 
-0.008894197390773451 0.0 13:1.0 341:1.0 357:1.0 358:1.0 708:1.0 
-0.5083987939345808 0.49026162381783017 13:1.0 341:1.0 357:1.0 358:1.0 708:1.0 
-1.0 1.0 360:1.0 
-1.0 0.0 362:0.8822498536865863 
-0.0 1.0 13:1.0 141:1.0 363:1.0 703:1.0 708:1.0 
-0.763354202333332 0.0 13:1.0 16:1.0 17:1.0 67:1.0 324:1.0 698:1.0 705:1.0 708:1.0 
-0.42773331823103844 0.5389269821456463 13:1.0 71:1.0 338:1.0 364:1.0 708:1.0 
-0.603497431407025 0.0 13:1.0 16:1.0 17:1.0 366:1.0 367:1.0 698:1.0 705:1.0 708:1.0 
-0.9252904396493218 0.0 13:1.0 43:1.0 355:1.0 708:1.0 
-0.7049503649134673 0.0 157:1.0 211:1.0 260:1.0 334:1.0 
-1.0 0.0 98:1.0 369:1.0 370:1.0 
-0.05620345535600569 0.5283680652609166 369:1.0 370:1.0 
-1.0 1.0 371:1.0 
-1.0 1.0 
-0.0 0.22866990472594345 76:1.0 316:1.0 338:1.0 372:1.0 699:1.0 
-1.0 1.0 76:1.0 
-1.0 0.0 124:1.0 
-1.0 0.6830707179676648 284:1.0 
-0.9416288750240028 1.0 91:1.0 157:1.0 328:1.0 329:1.0 
-0.0 0.17358126883566674 141:1.0 258:0.966755310108045 359:0.9643026183465505 377:0.9523993617178639 703:1.0 
-0.8161690851242932 0.7660886304546436 61:1.0 74:1.0 78:1.0 251:1.0 379:1.0 701:1.0 
-1.0 0.29514343505799767 67:1.0 158:1.0 
-0.7659176240927119 1.0 362:0.8822498536865863 530:1.0 
-1.0 0.0 332:0.8929078032547826 
-1.0 0.22467513152569812 232:0.9621161620302667 382:1.0 
-0.0 0.07017498579339061 46:1.0 141:1.0 334:1.0 383:1.0 703:1.0 
-1.0 1.0 74:1.0 384:1.0 701:1.0 
-1.0 1.0 74:1.0 216:1.0 288:1.0 385:1.0 701:1.0 
-1.0 1.0 13:1.0 708:1.0 
-0.6292810062240862 0.19209677167380257 303:1.0 388:1.0 389:1.0 390:1.0 
-0.07968216826292103 0.3888200588337341 38:1.0 157:1.0 340:1.0 391:1.0 392:1.0 393:1.0 702:1.0 
-0.12219062495468694 0.8710509558196465 74:1.0 394:1.0 395:1.0 396:1.0 701:1.0 
-1.0 0.0 16:1.0 17:1.0 698:1.0 705:1.0 
-1.0 0.0 16:1.0 17:1.0 698:1.0 705:1.0 
-1.0 0.0 16:1.0 17:1.0 698:1.0 705:1.0 
-1.0 0.0 16:1.0 17:1.0 698:1.0 705:1.0 
-1.0 0.0 16:1.0 17:1.0 698:1.0 705:1.0 
-0.5947818438682169 0.0 16:1.0 17:1.0 366:1.0 403:1.0 698:1.0 705:1.0 
-0.22999052531326206 0.0 16:1.0 17:1.0 334:1.0 698:1.0 705:1.0 
-1.0 0.0 16:1.0 17:1.0 402:1.0 698:1.0 705:1.0 
-0.8016070586373353 0.0 13:1.0 16:1.0 17:1.0 405:1.0 698:1.0 705:1.0 708:1.0 
-0.8579634713782271 0.0 16:1.0 17:1.0 231:1.0 232:1.0 334:1.0 698:1.0 705:1.0 
-0.1371995996171592 0.0 16:1.0 17:1.0 35:1.0 156:1.0 255:1.0 338:1.0 404:1.0 406:1.0 407:1.0 698:1.0 700:1.0 705:1.0 
-1.0 0.0 16:1.0 17:1.0 698:1.0 705:1.0 
-1.0 0.0 16:1.0 17:1.0 111:1.0 409:1.0 698:1.0 705:1.0 
-0.1925203805297754 0.0 16:1.0 17:1.0 145:1.0 158:1.0 191:1.0 379:1.0 411:1.0 698:1.0 705:1.0 
-1.0 0.0 16:1.0 17:1.0 217:1.0 412:1.0 698:1.0 705:1.0 
-0.349913840358091 0.0 16:1.0 17:1.0 81:0.9523993617178639 347:1.0 393:1.0 414:1.0 415:1.0 698:1.0 705:1.0 
-0.06119200963471804 0.0 157:1.0 327:1.0 368:1.0 402:1.0 
-1.0 0.0 423:1.0 
-1.0 1.0 
-0.0 0.47972271715477854 344:1.0 551:1.0 704:1.0 
-1.0 1.0 11:1.0 693:1.0 
-0.8719617683035382 0.4731791253388845 16:1.0 17:1.0 203:1.0 424:1.0 698:1.0 705:1.0 
-0.12249901794963246 0.0 91:0.9701426475816275 340:1.0 425:0.9570354377473717 427:1.0 702:1.0 
-1.0 1.0 548:1.0 
-0.5584529089282573 0.0 76:1.0 423:1.0 428:1.0 
-1.0 1.0 
-1.0 1.0 429:1.0 
-1.0 1.0 336:1.0 
-1.0 1.0 394:1.0 
-0.30579055660243293 0.6138387202806495 26:1.0 411:1.0 430:1.0 431:1.0 432:1.0 
-0.0 0.41255287888650216 332:1.0 430:1.0 
-1.0 1.0 
-1.0 0.028474911634380214 239:1.0 436:1.0 
-0.979486151288165 1.0 83:1.0 436:1.0 
-0.3515444387297605 1.0 203:1.0 422:1.0 438:1.0 
-0.46810281872458176 0.0 71:1.0 94:1.0 156:0.9599688385878998 340:1.0 380:1.0 702:1.0 
-1.0 1.0 
-1.0 1.0 
-1.0 1.0 
-1.0 1.0 191:1.0 
-1.0 1.0 
-0.7791488588563413 0.6797393521540419 339:1.0 439:1.0 440:1.0 
-1.0 1.0 
-1.0 1.0 
-1.0 1.0 
-0.44882486773781916 0.7297791380356482 40:1.0 110:1.0 250:1.0 354:1.0 648:1.0 
-1.0 0.0 402:1.0 431:1.0 
-1.0 0.0 11:1.0 232:1.0 399:1.0 443:0.8931991808295205 693:1.0 
-0.0 0.5274606123414289 104:1.0 402:1.0 445:1.0 
-0.0 0.4211740839622927 205:1.0 344:1.0 704:1.0 
-0.3671111190200656 0.0 69:1.0 363:1.0 
-0.0 0.4066846432010519 55:1.0 258:1.0 331:1.0 
-1.0 1.0 258:1.0 
-1.0 1.0 258:1.0 
-0.9512742537782237 0.6489097015742278 67:1.0 232:1.0 446:1.0 
-0.5093372378978899 0.0 75:1.0 
-1.0 1.0 
-1.0 1.0 
-1.0 1.0 
-1.0 1.0 333:1.0 
-0.0 0.9867114984461062 74:1.0 332:1.0 701:1.0 
-0.0 0.0012336893136872952 16:1.0 17:1.0 341:1.0 366:1.0 403:1.0 409:1.0 698:1.0 705:1.0 
-0.3210803634209534 0.15240455607951273 267:1.0 353:1.0 447:1.0 448:1.0 
-0.3523795437997885 0.47103372527559023 341:1.0 417:1.0 447:1.0 
-1.0 0.2771101518089026 24:1.0 124:0.960749968549696 
-1.0 1.0 450:1.0 451:1.0 
-1.0 0.9773967980918177 19:1.0 43:1.0 
-0.10842211441186679 0.0 71:1.0 335:1.0 695:1.0 
-1.0 0.42422811829503376 74:1.0 194:1.0 399:1.0 701:1.0 
-1.0 1.0 48:1.0 74:1.0 701:1.0 
-0.47897430334967933 0.2665758933191611 13:1.0 74:1.0 91:1.0 288:1.0 452:1.0 453:1.0 454:1.0 701:1.0 708:1.0 
-0.8124494831325245 0.7999369046720461 74:1.0 455:1.0 456:1.0 621:1.0 701:1.0 
-0.05569907393791591 0.4131412803241912 74:1.0 139:1.0 340:1.0 701:1.0 702:1.0 
-0.0 0.017942821055247284 74:1.0 123:1.0 141:1.0 439:1.0 701:1.0 703:1.0 706:1.0 
-0.016030433902420843 0.22271586582438083 74:1.0 140:1.0 291:1.0 337:1.0 408:1.0 631:1.0 632:1.0 701:1.0 
-0.21192902249180576 0.0 74:1.0 194:1.0 202:1.0 344:1.0 458:1.0 459:1.0 701:1.0 704:1.0 
-1.0 1.0 74:1.0 271:1.0 701:1.0 
-1.0 1.0 74:1.0 304:1.0 701:1.0 
-1.0 0.6608856492524573 201:1.0 461:1.0 
-0.0010715845275243011 0.0 116:1.0 444:1.0 694:1.0 
-1.0 1.0 38:1.0 338:1.0 
-1.0 0.9810325022359668 75:1.0 
-0.1563055324055867 0.0 74:1.0 204:1.0 240:1.0 324:1.0 450:1.0 464:1.0 465:1.0 701:1.0 
-0.8744964143370473 0.8741876693673883 5:1.0 466:0.9435870932384233 
-0.40817632644625634 0.0 63:1.0 123:1.0 706:1.0 
-1.0 1.0 600:1.0 
-0.4151072575917788 0.41733640885774304 1:1.0 204:1.0 464:1.0 465:1.0 
-0.9244981334727093 0.0 16:1.0 74:1.0 338:1.0 698:1.0 701:1.0 
-0.9445691238706339 0.5283612401521633 325:1.0 326:1.0 
-0.011280275041361754 0.0 194:1.0 338:1.0 372:1.0 
-1.0 1.0 51:1.0 140:1.0 157:1.0 573:1.0 
-1.0 8.304791630028136E-4 25:1.0 
-1.0 1.0 
-1.0 1.0 
-0.31194312090520404 0.0 444:1.0 694:1.0 
-0.0 0.22479867454086755 154:1.0 434:1.0 444:1.0 694:1.0 
-0.2592427967822834 0.0 444:1.0 694:1.0 
-0.9284232281237742 6.47263937373875E-4 359:1.0 
-0.9478749465666461 1.0 316:1.0 699:1.0 
-0.8959960442561732 1.0 437:1.0 
-1.0 1.0 437:1.0 
-0.6281470771006434 1.0 38:1.0 49:1.0 141:1.0 469:1.0 703:1.0 
-0.30217242380790893 0.0 38:1.0 49:1.0 59:1.0 141:1.0 469:1.0 703:1.0 
-0.0016049156090464558 0.09613376167281942 388:1.0 389:1.0 390:1.0 470:1.0 471:1.0 
-0.0 0.1000599060112251 74:1.0 94:1.0 277:1.0 304:1.0 335:1.0 472:1.0 695:1.0 701:1.0 
-0.39232067442389434 0.4205321129853253 304:1.0 473:1.0 474:0.9465996167497696 475:1.0 620:1.0 
-0.9897315305828454 0.350200760484579 476:1.0 
-0.0 0.3581615704140881 141:1.0 194:1.0 209:1.0 233:1.0 335:1.0 695:1.0 703:1.0 
-0.2317267364063459 0.4117337493218667 141:1.0 478:1.0 703:1.0 
-0.0 1.0 141:1.0 334:1.0 703:1.0 
-0.0 1.0 141:1.0 363:1.0 703:1.0 
-1.0 1.0 35:1.0 700:1.0 
-0.9169132998488114 0.9200556876685804 47:1.0 83:1.0 91:0.9701426475816275 107:1.0 479:0.9523993617178639 623:1.0 707:1.0 
-0.5989681261050447 0.0 67:1.0 191:0.9632836538860275 480:1.0 
-1.0 1.0 
-1.0 1.0 
-1.0 1.0 
-1.0 0.9240295873343196 25:1.0 
-1.0 1.0 25:1.0 
-0.8706688244594176 1.0 323:1.0 
-1.0 1.0 
-1.0 1.0 45:1.0 
-1.0 1.0 481:1.0 
-1.0 1.0 
-0.027042213682064633 0.249254334427079 209:1.0 351:1.0 399:1.0 460:1.0 477:1.0 482:1.0 
-1.0 1.0 483:1.0 
-0.011092435879524574 0.0 123:1.0 150:1.0 158:1.0 483:1.0 706:1.0 
-0.21506563352145394 0.20801060644298394 11:1.0 43:1.0 183:1.0 484:1.0 693:1.0 
-0.0 1.0 11:1.0 124:1.0 316:1.0 693:1.0 699:1.0 
-0.0 0.14958182510505724 38:1.0 340:1.0 364:1.0 485:1.0 702:1.0 
-1.0 1.0 16:1.0 17:1.0 242:1.0 698:1.0 705:1.0 
-0.3271701634676504 0.30146729621667345 81:1.0 352:1.0 394:1.0 472:1.0 669:1.0 
-0.19182461500197512 4.163336342344337E-17 284:1.0 406:1.0 407:1.0 
-0.174267146736798 0.0 38:1.0 47:1.0 123:1.0 156:1.0 242:1.0 393:1.0 486:1.0 706:1.0 707:1.0 
-0.04957206644355748 0.0 223:1.0 240:1.0 340:1.0 416:1.0 489:1.0 702:1.0 
-0.2556002758953912 0.0 340:1.0 490:1.0 702:1.0 
-1.0 1.0 
-1.0 0.20481997090357604 16:1.0 17:1.0 31:1.0 698:1.0 705:1.0 
-0.0 0.9458379674695405 73:1.0 304:1.0 316:1.0 493:1.0 494:1.0 699:1.0 
-0.0 0.03378313485840733 123:1.0 706:1.0 
-1.0 1.0 76:1.0 495:1.0 496:1.0 
-1.0 1.0 
-1.0 1.0 1:0.93041292506863 
-1.0 1.0 
-0.7895875358728476 0.0 146:1.0 148:1.0 279:1.0 335:1.0 695:1.0 
-1.0 1.0 497:1.0 
-1.0 1.0 134:1.0 655:1.0 
-0.20300621004815314 0.0 241:1.0 344:1.0 704:1.0 
-0.7437055631918853 0.0 16:1.0 17:1.0 38:1.0 254:1.0 331:1.0 678:1.0 698:1.0 705:1.0 
-1.0 0.5283717858620809 59:1.0 498:1.0 
-1.0 1.0 
-0.6686773271172024 0.8380761354798689 2:1.0 499:1.0 
-0.052391110924898336 0.0 251:1.0 338:1.0 372:1.0 
-1.0 0.9956921865199873 75:1.0 
-1.0 0.9986404431859485 75:1.0 
-0.5886250392042653 0.0 45:1.0 123:1.0 706:1.0 
-0.6769025885509405 0.888530725617255 359:1.0 
-0.9165811976406714 0.0 340:1.0 702:1.0 
-1.0 1.0 
-0.0 0.2016130931110468 148:1.0 277:1.0 279:1.0 316:1.0 334:1.0 699:1.0 
-1.0 1.0 501:1.0 
-1.0 1.0 316:1.0 699:1.0 
-0.0 0.03043856697407088 16:1.0 20:1.0 123:1.0 316:1.0 698:1.0 699:1.0 706:1.0 
-0.9479850512362702 1.0 445:1.0 492:1.0 
-0.0 0.6438415551642678 322:1.0 344:1.0 414:1.0 445:1.0 502:1.0 529:1.0 704:1.0 
-1.0 1.0 141:1.0 365:1.0 703:1.0 
-0.0 0.6622137778633176 123:1.0 248:1.0 316:1.0 504:1.0 699:1.0 706:1.0 
-0.07001584286824797 0.0 268:1.0 335:1.0 502:1.0 695:1.0 
-0.3867750820400061 0.0 63:1.0 75:1.0 
-0.15016205148686199 0.6217532248430591 228:1.0 362:1.0 505:1.0 506:1.0 507:1.0 
-1.0 1.0 424:1.0 599:1.0 
-1.0 1.0 45:1.0 
-0.0 0.38054970187628734 2:1.0 356:1.0 363:1.0 495:1.0 496:1.0 
-1.0 0.6996958096746732 74:1.0 249:1.0 607:1.0 701:1.0 
-0.027964705007196364 0.0 338:1.0 372:1.0 425:1.0 489:1.0 
-0.0 1.0 495:1.0 496:1.0 
-0.007607820596192416 0.05649743750019383 347:1.0 508:1.0 509:1.0 
-1.0 1.0 89:1.0 479:1.0 
-1.0 0.9759844747458802 35:1.0 353:1.0 700:1.0 
-0.0 1.0 35:1.0 123:1.0 700:1.0 706:1.0 
-1.0 1.0 
-1.0 1.0 
-0.1907459385750125 0.0 45:1.0 232:1.0 287:1.0 335:1.0 374:1.0 695:1.0 
-0.8829924199214237 0.0 49:1.0 99:1.0 123:1.0 139:1.0 177:1.0 706:1.0 
-1.0 1.0 5:1.0 
-0.8387352254635081 0.0 16:1.0 17:1.0 233:1.0 355:1.0 438:1.0 698:1.0 705:1.0 
-0.5725241360095535 0.0 89:1.0 362:1.0 477:1.0 
-1.0 1.0 510:1.0 
-1.0 0.405831246402655 99:1.0 511:1.0 
-0.577265511721977 0.256884933715226 424:0.9162711792677062 500:1.0 
-0.0 0.03396001050972878 1:1.0 366:1.0 367:1.0 
-0.841904805222389 0.0 16:1.0 332:1.0 698:1.0 
-1.0 1.0 
-1.0 1.0 368:1.0 
-1.0 1.0 
-0.9477552240880412 1.0 319:1.0 616:1.0 
-0.0 0.6501765887140251 38:1.0 99:1.0 141:1.0 410:1.0 477:1.0 495:1.0 496:1.0 703:1.0 
-0.0016044344132612465 0.0 337:1.0 
-0.9174194258456396 0.0 337:1.0 
-1.0 1.0 387:1.0 
-0.017455006700966214 6.810309718438331E-4 347:1.0 512:0.9499999874 
-5.334725431654549E-4 0.0 89:1.0 347:1.0 
-0.8395865503054243 0.08019835387424992 89:1.0 347:1.0 
-0.5910384286578854 0.0 91:1.0 277:1.0 344:1.0 704:1.0 
-1.0 0.09953082182928256 8:1.0 9:1.0 16:1.0 17:1.0 147:1.0 275:1.0 513:1.0 698:1.0 705:1.0 
-0.35016656919039124 0.0 16:1.0 17:1.0 38:1.0 211:1.0 346:1.0 384:1.0 698:1.0 705:1.0 
-0.3128293623012896 1.0 48:1.0 242:1.0 
-0.20598416919982257 1.0 423:0.9621161620302667 514:1.0 
-1.0 1.0 
-0.4800369093530378 0.4412494584764266 5:1.0 83:1.0 484:1.0 515:1.0 516:1.0 
-0.0 0.1989830677229537 203:1.0 344:1.0 704:1.0 
-1.0 0.3205501800094536 16:1.0 17:1.0 698:1.0 705:1.0 
-1.0 1.0 
-1.0 1.0 
-0.8413607425346579 0.0 140:1.0 335:1.0 695:1.0 
-0.9161923022308441 1.0 258:1.0 
-1.0 1.0 
-0.1613280278514148 0.0 332:1.0 
-1.0 0.0 71:1.0 134:1.0 435:1.0 
-1.0 1.0 74:1.0 373:1.0 701:1.0 
-0.0 0.3225986672361201 49:1.0 74:1.0 445:1.0 477:1.0 494:1.0 502:1.0 517:1.0 701:1.0 
-1.0 1.0 48:1.0 74:1.0 701:1.0 
-1.0 1.0 16:1.0 17:1.0 74:1.0 698:1.0 701:1.0 705:1.0 
-1.0 1.0 611:1.0 
-0.5501161533136419 0.0 74:1.0 336:1.0 515:1.0 701:1.0 
-1.0 1.0 67:1.0 
-1.0 1.0 16:1.0 17:1.0 514:1.0 698:1.0 705:1.0 
-1.0 1.0 
-0.6492655361633476 0.019482071296900844 198:0.954252902026773 202:1.0 518:1.0 
-0.8828045751527037 0.14341299334251842 123:1.0 706:1.0 
-0.9061751041824088 1.0 476:1.0 
-1.0 1.0 141:1.0 478:1.0 703:1.0 
-1.0 0.37342746571469837 94:1.0 260:1.0 284:1.0 
-0.0 1.0 340:1.0 385:1.0 702:1.0 
-0.29203803963796454 0.0 59:1.0 224:1.0 351:1.0 411:1.0 431:1.0 498:1.0 
-0.0 1.0 243:1.0 338:1.0 355:1.0 507:1.0 
-1.0 1.0 316:1.0 699:1.0 
-1.0 1.0 
-1.0 0.0 332:1.0 
-1.0 0.3023237460452608 1:0.8956193358632657 62:1.0 278:1.0 
-0.9608275036045799 0.0 337:1.0 
-0.0 0.13170579648874808 25:1.0 354:1.0 441:1.0 445:1.0 
-1.0 1.0 
-1.0 1.0 
-1.0 1.0 518:1.0 
-1.0 1.0 519:1.0 
-1.0 1.0 
-0.0 0.1484923686404829 68:1.0 337:1.0 391:1.0 
-0.9739768032699435 0.29820004503152253 261:1.0 365:1.0 381:1.0 
-1.0 0.0 148:1.0 363:1.0 433:1.0 
-1.0 1.0 91:1.0 322:1.0 667:1.0 
-1.0 1.0 194:1.0 660:1.0 
-1.0 1.0 224:1.0 
-1.0 1.0 179:1.0 520:1.0 
-1.0 1.0 191:1.0 250:1.0 
-0.0 0.24165759429599148 74:1.0 335:1.0 695:1.0 701:1.0 
-1.0 0.1622724469882838 44:1.0 45:1.0 130:1.0 381:1.0 
-0.0 0.22079529446943066 329:1.0 344:1.0 378:1.0 522:1.0 704:1.0 
-1.0 0.6453821246629631 251:1.0 252:1.0 
-1.0 1.0 16:1.0 17:1.0 698:1.0 705:1.0 
-1.0 0.33240474182114 71:1.0 212:1.0 405:1.0 
-0.5640991216750252 0.678090142869702 91:1.0 363:1.0 
-0.2907040790294273 0.0 161:1.0 321:1.0 359:1.0 499:1.0 
-0.18212927473431945 0.0 49:1.0 497:1.0 499:1.0 550:1.0 
-0.0 1.0 423:1.0 483:1.0 499:1.0 525:1.0 
-0.641654587638364 1.0 224:1.0 322:1.0 493:1.0 507:1.0 
-1.0 1.0 13:1.0 141:1.0 242:1.0 703:1.0 708:1.0 
-1.0 0.5027230357087881 76:1.0 503:1.0 
-1.0 1.0 33:1.0 521:1.0 
-0.3755656661465269 0.426465092638675 444:1.0 517:1.0 694:1.0 
-0.7667241362692426 -0.2594369071127127 6:1.0 83:1.0 354:1.0 527:1.0 
-1.0 -1.0 13:1.0 708:1.0 
-0.01838530050477292 -0.05263065584670462 532:1.0 
-0.269255275779116 -0.0 38:1.0 532:1.0 
-0.01945663871336445 -0.0 533:1.0 
-1.0 -1.0 
-0.0 -0.2484557987644294 535:1.0 538:1.0 
-1.0 -0.9433510199976515 540:1.0 
-1.0 -1.0 
-1.0 -1.0 
-0.7391686961568501 -0.47146520504920886 541:1.0 542:1.0 
-1.0 -1.0 
-1.0 -1.0 
-0.9117041247509963 -0.024462769718392112 525:1.0 544:1.0 545:1.0 
-0.0 -0.05616232888355008 26:1.0 100:1.0 194:1.0 508:1.0 509:1.0 514:1.0 546:0.9557624022993108 547:1.0 548:1.0 
-1.0 -1.0 
-1.0 -0.9670282182045351 549:1.0 
-1.0 -9.83697259818294E-4 306:1.0 
-1.0 -1.0 385:1.0 
-0.0 -0.5480696736451809 74:1.0 141:1.0 278:1.0 701:1.0 703:1.0 
-0.5260282738009726 -0.0 13:1.0 149:1.0 524:1.0 697:1.0 708:1.0 
-0.0 -0.41044163613860984 13:1.0 47:1.0 102:1.0 242:1.0 517:1.0 550:1.0 707:1.0 708:1.0 
-1.0 -1.0 
-0.002021640288275145 -1.0 316:1.0 699:1.0 
-1.0 -0.10159442923862574 91:1.0 193:1.0 526:1.0 
-1.0 -0.35151147995280235 35:1.0 551:1.0 700:1.0 
-0.1762386187973284 -0.0 33:1.0 108:1.0 203:1.0 544:1.0 554:1.0 
-0.8904201595715472 -0.18271534120813562 13:1.0 45:1.0 76:1.0 292:1.0 555:1.0 708:1.0 
-0.1617479069963643 -0.0 91:1.0 416:1.0 543:1.0 
-0.483075936914261 -0.37602037175064973 91:1.0 555:1.0 
-0.0 -0.27364099925221275 91:1.0 216:1.0 553:1.0 556:1.0 
-1.0 -1.0 91:0.9701426475816275 
-0.23466443492013767 -0.38276421586193743 91:1.0 258:1.0 557:1.0 
-1.0 -1.0 
-0.13294595704475431 -0.5512166899251891 438:1.0 530:1.0 
-0.18555474978487882 -0.1330202428470438 532:1.0 
-1.0 -0.9432861829432992 558:1.0 
-1.0 -1.0 
-1.0 -1.0 
-1.0 -0.0 83:1.0 277:1.0 559:1.0 
-0.9875784066318603 -0.0 560:1.0 
-1.0 -1.0 251:1.0 561:1.0 
-1.0 -1.0 
-0.5008724087479304 -0.0 533:1.0 
-1.0 -0.8127608534600359 562:1.0 
-0.25345850555138283 -0.13065745635075862 414:1.0 562:1.0 563:1.0 
-1.0 -1.0 
-0.9937187844334497 -0.0 514:1.0 
-0.7604352068894464 -0.0 564:1.0 
-1.0 -0.0 35:1.0 306:1.0 700:1.0 
-0.0 -0.808448943993441 16:1.0 17:1.0 78:1.0 329:1.0 566:1.0 698:1.0 705:1.0 
-0.0 -0.5446077213264917 16:1.0 17:1.0 19:1.0 35:1.0 203:1.0 565:1.0 569:1.0 698:1.0 700:1.0 705:1.0 
-0.3737088942836883 -1.0 16:1.0 17:1.0 157:1.0 573:1.0 574:1.0 575:1.0 698:1.0 705:1.0 
-0.12084775543946182 -0.0 425:1.0 576:1.0 577:1.0 578:1.0 
-1.0 -0.0 267:1.0 535:1.0 
-1.0 -1.0 
-0.3603589034747572 -0.0 204:1.0 327:1.0 580:1.0 
-0.0 -0.07216590920064295 63:1.0 327:1.0 522:1.0 
-1.0 -0.0 225:1.0 536:1.0 
-1.0 -1.0 
-0.760109293151839 -0.872100974173082 424:0.9581355531685978 531:1.0 583:1.0 
-0.0 -1.0 258:1.0 363:1.0 392:1.0 536:1.0 
-0.0 -0.3104833794710362 38:1.0 73:1.0 157:1.0 395:1.0 445:1.0 524:1.0 697:1.0 
-1.0 -1.0 203:1.0 
-0.3534395571946713 -0.0 73:1.0 157:1.0 524:1.0 548:1.0 574:1.0 697:1.0 
-0.752749662148648 -0.34270514783146583 585:1.0 586:1.0 
-0.6436981036191125 -1.0 333:1.0 548:1.0 566:1.0 
-0.5705700518550518 -0.29352743319960595 205:1.0 216:1.0 255:1.0 385:1.0 476:1.0 590:1.0 
-1.0 -1.0 
-1.0 -0.9430484653422576 591:1.0 
-0.3612647095076634 -0.24080179664861057 201:1.0 224:1.0 557:1.0 592:1.0 
-1.0 -1.0 67:1.0 140:0.9591040300577447 209:1.0 250:1.0 
-0.9993882978712358 -1.0 194:1.0 258:1.0 560:1.0 
-0.0 -0.6052172423489719 83:1.0 242:1.0 338:1.0 539:1.0 696:1.0 
-0.9625282938949083 -1.0 83:1.0 495:1.0 496:1.0 
-0.37748694236604696 -0.6084272512350303 438:1.0 598:1.0 599:1.0 600:1.0 
-0.8119043360130878 -0.0 94:1.0 305:1.0 
-0.46725737159705955 -0.9198577638366789 107:1.0 549:1.0 
-1.0 -1.0 
-0.7664430406620024 -0.9481092742682485 258:1.0 514:1.0 
-0.23405830214585532 -0.0 209:1.0 565:1.0 602:1.0 
-1.0 -0.0 82:1.0 532:1.0 
-0.8802253157810136 -0.47161912731259453 567:1.0 603:1.0 
-1.0 -0.0 62:1.0 204:1.0 604:1.0 
-1.0 -1.0 224:1.0 440:1.0 
-1.0 -0.4972974442610386 16:1.0 17:1.0 71:0.9643026183465505 275:1.0 524:1.0 697:1.0 698:1.0 705:1.0 
-1.0 -1.0 74:1.0 701:1.0 
-1.0 -1.0 74:1.0 701:1.0 
-1.0 -1.0 50:1.0 51:1.0 74:1.0 76:1.0 701:1.0 
-0.13635092786760292 -0.011458153011908863 74:1.0 546:1.0 701:1.0 
-1.0 -1.0 74:1.0 701:1.0 
-1.0 -1.0 74:1.0 701:1.0 
-1.0 -0.0 74:1.0 248:1.0 288:1.0 553:1.0 701:1.0 
-1.0 -1.0 74:1.0 701:1.0 
-0.625097315900765 -0.33103245968530576 74:1.0 108:1.0 277:1.0 322:1.0 701:1.0 
-1.0 -1.0 74:1.0 430:1.0 701:1.0 
-1.0 -1.0 74:1.0 701:1.0 
-0.0 -0.043379429808298 74:1.0 495:1.0 496:1.0 701:1.0 
-0.0523534275979495 -0.0 74:1.0 591:1.0 609:1.0 701:1.0 
-0.25380430963434464 -0.2584307515756112 74:1.0 610:1.0 701:1.0 
-1.0 -1.0 74:1.0 701:1.0 
-0.20755192849398643 -0.46258949546647715 457:1.0 502:1.0 516:1.0 611:1.0 613:1.0 614:1.0 
-1.0 -0.4892913897739854 74:1.0 109:1.0 701:1.0 
-0.0 -0.1822197819432495 49:1.0 67:1.0 74:1.0 338:1.0 524:1.0 572:1.0 615:1.0 616:1.0 697:1.0 701:1.0 
-1.0 -1.0 13:1.0 411:1.0 708:1.0 
-1.0 -1.0 621:1.0 
-1.0 -1.0 74:1.0 701:1.0 
-0.5957618111573747 -0.13535452334303605 83:1.0 89:1.0 482:1.0 577:1.0 622:1.0 623:1.0 
-0.9312757022247691 -0.37297094730029473 446:1.0 608:1.0 
-1.0 -1.0 38:1.0 157:1.0 
-0.0 -0.06635591486010549 45:1.0 240:1.0 534:1.0 537:1.0 627:1.0 
-0.6054589456674496 -0.5613464627509087 11:1.0 43:1.0 224:1.0 243:1.0 329:1.0 557:1.0 693:1.0 
-1.0 -1.0 530:1.0 
-1.0 -1.0 
-1.0 -0.9493439677867866 63:1.0 534:1.0 
-0.21857040029949693 -1.0 33:1.0 45:1.0 499:1.0 605:1.0 
-1.0 -1.0 
-1.0 -1.0 
-0.11732999116701447 -0.11465898364059465 74:1.0 438:1.0 631:1.0 701:1.0 
-0.2619104825952381 -0.3166511315266112 416:1.0 526:1.0 631:1.0 
-1.0 -0.3631336538648026 598:1.0 599:1.0 
-1.0 -0.0 533:1.0 
-1.0 -1.0 38:1.0 74:1.0 701:1.0 
-0.006313608217140591 -0.0 539:1.0 696:1.0 
-0.0 -0.14322237096130538 76:1.0 539:1.0 696:1.0 
-0.027934551013267344 -0.0 292:1.0 539:1.0 637:1.0 638:1.0 696:1.0 
-0.21184437417354146 -0.0 62:1.0 555:1.0 604:1.0 626:1.0 
-0.0 -0.11252284456781433 5:1.0 522:1.0 639:1.0 640:1.0 
-1.0 -0.0 109:1.0 285:1.0 
-1.0 -0.36959073317447966 45:1.0 641:1.0 
-0.656131817006656 -0.2965657621720387 330:1.0 642:1.0 
-1.0 -1.0 363:1.0 
-0.0 -0.1827330448389599 322:1.0 445:1.0 514:1.0 623:1.0 
-0.6982766391779633 -1.0 25:1.0 191:1.0 643:1.0 644:1.0 
-0.4068101301565289 -0.0 83:1.0 645:1.0 646:1.0 
-0.11199033960976952 -0.7293586215700582 645:1.0 648:1.0 
-0.0 -0.5845552760802958 123:1.0 517:1.0 604:1.0 649:1.0 650:1.0 706:1.0 
-1.0 -1.0 
-1.0 -0.9424333697447437 306:1.0 
-0.44844394436863344 -0.5752451679503919 502:1.0 642:1.0 
-0.7640779050716963 -0.0 522:1.0 
-0.0 -0.40526366248321594 511:1.0 522:1.0 
-0.0 -0.4586629952609181 522:1.0 
-0.015545425470395 -0.0 292:1.0 522:1.0 652:1.0 
-0.039751298102756884 -0.0 292:1.0 522:1.0 652:1.0 
-0.9996342787451875 -0.9942838703337648 451:1.0 
-0.7608009281442589 -0.9490228303359294 451:1.0 
-0.1537630219709418 -0.0 566:1.0 
-0.7533194902775562 -0.34235462359106394 610:1.0 654:1.0 
-1.0 -0.9811030305081644 349:1.0 584:1.0 
-0.2967392053966394 -0.5815903051905593 11:1.0 475:1.0 532:0.9674297828517266 693:1.0 
-0.6645423639570515 -0.0 141:1.0 540:1.0 703:1.0 
-0.0 -0.023893474015128098 141:1.0 201:1.0 216:1.0 553:1.0 590:1.0 703:1.0 
-0.0 -1.0 48:1.0 141:1.0 514:1.0 703:1.0 
-1.0 -1.0 48:1.0 141:1.0 703:1.0 
-1.0 -1.0 141:1.0 703:1.0 
-0.0 -0.6379872782456417 141:1.0 288:1.0 553:1.0 703:1.0 
-0.0 -0.05755652186244879 48:1.0 141:1.0 288:1.0 292:1.0 553:1.0 703:1.0 
-0.0 -0.5754335306712103 141:1.0 496:1.0 703:1.0 
-0.5342854044457579 -0.676202274552777 141:1.0 410:1.0 482:1.0 703:1.0 
-1.0 -1.0 141:1.0 703:1.0 
-0.3598181149358116 -0.7021011502285734 141:1.0 292:1.0 323:1.0 661:1.0 703:1.0 
-0.4779561430044531 -1.0 340:1.0 341:1.0 479:1.0 551:1.0 702:1.0 
-1.0 -0.0 98:1.0 514:1.0 
-1.0 -0.5283177919555124 13:1.0 32:1.0 427:1.0 708:1.0 
-0.635428269554092 -0.0 553:1.0 
-1.0 -1.0 123:1.0 706:1.0 
-1.0 -1.0 
-1.0 -0.2138515555582217 645:1.0 
-0.0 -1.0 495:1.0 496:1.0 
-1.0 -1.0 
-1.0 -0.6715842627653897 647:1.0 
-0.41601937996841976 -0.27162608933722615 45:1.0 647:1.0 664:1.0 
-3.934980149259415E-4 -0.0 525:1.0 606:1.0 
-1.0 -1.0 
-0.0 -0.7362124577586295 483:1.0 525:1.0 
-1.0 -1.0 91:1.0 
-1.0 -1.0 11:1.0 666:0.9465996167497696 693:1.0 
-1.0 -1.0 267:1.0 
-0.8609614845954732 -0.8512883772129988 37:1.0 75:1.0 76:1.0 487:1.0 663:1.0 
-1.0 -0.25330410523955665 49:1.0 139:1.0 550:1.0 
-0.5001968042729761 -0.03549813304618155 531:1.0 628:1.0 
-1.0 -1.0 422:1.0 
-1.0 -0.0 575:1.0 
-0.9412589137536982 -0.0 486:1.0 522:1.0 
-0.9998063379469021 -0.6951438162682537 154:1.0 632:1.0 
-0.4240101924114683 -0.0 525:1.0 606:1.0 
-0.0 -0.368797947706382 47:1.0 430:1.0 507:1.0 623:1.0 635:1.0 707:1.0 
-1.0 -1.0 2:1.0 74:1.0 701:1.0 
-0.29423292442000526 -0.5224760907765477 228:1.0 304:1.0 
-1.0 -1.0 
-0.9254791986558772 -0.6520396762396872 83:1.0 559:1.0 
-0.7734389627928647 -0.0 560:1.0 
-1.0 -0.39878363980948633 565:1.0 
-1.0 -0.0 292:1.0 565:1.0 
-0.9641653254898223 -0.8390943816073997 179:1.0 616:1.0 
-1.0 -1.0 179:1.0 
-1.0 -0.25651453527881096 228:1.0 
-1.0 -0.4370957226174512 24:1.0 183:1.0 211:1.0 
-0.0 -0.13371659703673244 525:1.0 606:1.0 669:1.0 
-0.7610059286628834 -0.02504622721257989 582:1.0 
-1.0 -1.0 38:1.0 
-1.0 -1.0 
-1.0 -0.4207737709839982 193:1.0 653:1.0 
-1.0 -1.0 507:1.0 
-0.23613470974304684 -1.0 13:1.0 243:1.0 493:1.0 507:1.0 708:1.0 
-0.21752059430820828 -0.0 140:1.0 228:1.0 507:1.0 516:1.0 670:1.0 
-1.0 -1.0 507:1.0 
-1.0 -0.501471676594851 34:1.0 305:1.0 379:1.0 
-0.0 -0.11566342835133944 35:1.0 63:1.0 522:1.0 700:1.0 
-1.0 -1.0 338:1.0 659:1.0 
-1.0 -0.9075223527823086 529:1.0 
-0.004583610592598655 -0.0 260:1.0 524:1.0 569:1.0 697:1.0 
-0.0 -0.12945255638357572 316:1.0 367:1.0 581:1.0 633:1.0 699:1.0 
-0.8780928163301878 -1.0 316:1.0 699:1.0 
-1.0 -1.0 316:1.0 699:1.0 
-0.0 -0.2984666771301052 316:1.0 547:1.0 699:1.0 
-1.0 -1.0 316:1.0 699:1.0 
-0.0 -0.8817750742638716 141:1.0 316:1.0 699:1.0 703:1.0 
-1.0 -1.0 445:1.0 
-0.0 -0.6576271677576465 445:1.0 533:1.0 
-0.8803312098123134 -0.4716281210599841 601:1.0 634:1.0 
-0.0 -1.0 316:1.0 655:1.0 699:1.0 
-0.0 -0.010140169256884568 322:1.0 532:1.0 673:0.9465996167497696 
-0.25338575409954595 -0.8452127663317702 423:1.0 629:1.0 641:1.0 
-1.0 -1.0 322:1.0 
-0.2398304526277985 -0.08282811451231106 93:1.0 533:1.0 669:1.0 
-0.2535172503709517 -0.4725626775354589 445:1.0 625:1.0 680:1.0 
-1.0 -1.0 35:1.0 483:1.0 700:1.0 
-0.28172393458603723 -0.0 35:1.0 145:1.0 154:1.0 158:1.0 538:1.0 541:1.0 700:1.0 
-0.0 -0.1172790780691501 13:1.0 38:1.0 183:1.0 338:1.0 438:1.0 532:1.0 708:1.0 
-1.0 -0.0 38:0.9716068859975728 605:1.0 
-0.9630670007292561 -0.0 566:1.0 
-0.9995706591866053 -0.9183161158274589 346:1.0 582:1.0 
-0.6309047080422476 -0.735187201448114 91:1.0 248:1.0 354:1.0 570:1.0 
-0.07357956933522515 -0.0 260:1.0 524:1.0 569:1.0 697:1.0 
-0.8801072648946966 -1.0 344:1.0 704:1.0 
-1.0 -0.9432821399596729 315:1.0 
-1.0 -0.9432464753379194 658:1.0 
-1.0 -0.0 684:1.0 
-0.0 -1.0 494:1.0 514:1.0 
-0.12969877479016845 -0.0 3:1.0 243:1.0 557:1.0 648:1.0 662:1.0 
-1.0 -0.9432276939907496 671:1.0 
-0.44311076205409616 -1.0 304:1.0 322:1.0 667:1.0 
-0.0 -0.11095450522980489 109:1.0 322:1.0 592:1.0 
-1.0 -0.0 50:1.0 51:1.0 242:1.0 
-1.0 -0.6792743436529419 233:1.0 529:1.0 660:1.0 
-0.2705459938006978 -0.0 47:1.0 255:1.0 534:1.0 707:1.0 
-0.9997576704759017 -0.0 683:1.0 
-0.7607690783686063 -0.9433238267756613 683:1.0 
-1.0 -0.663321724507491 49:1.0 139:1.0 624:1.0 
-0.6684202157739613 -0.0 3:0.9570354377473717 139:1.0 141:1.0 651:1.0 703:1.0 
-0.2534410222813013 -0.0 139:1.0 557:1.0 
-0.907138039068776 -0.1816961043988849 108:1.0 223:1.0 618:1.0 
-1.0 -1.0 16:1.0 17:1.0 205:1.0 394:1.0 681:1.0 698:1.0 705:1.0 
-1.0 -0.9432291368096644 593:1.0 
-0.8708898652270307 -0.5353110730946045 1:1.0 546:1.0 597:1.0 686:1.0 
-1.0 -0.0 38:1.0 392:1.0 517:1.0 
-1.0 -0.9432909468321805 687:1.0 
-0.0 -1.0 5:0.9242323033028577 495:1.0 496:1.0 
-1.0 -1.0 
-1.0 -0.9431025894438774 688:1.0 
-0.26809645398508486 -0.01813492634615027 385:1.0 602:1.0 
-0.6999742365383668 -0.0 204:1.0 635:1.0 
-1.0 -0.9432878202971994 543:1.0 
-0.23898420745556687 -0.0 239:1.0 534:1.0 627:1.0 
-1.0 -1.0 
-0.7020927403269085 -0.0 44:1.0 45:1.0 130:1.0 291:1.0 593:1.0 687:1.0 
-0.586644973416186 -1.0 391:1.0 437:1.0 682:1.0 
-0.0 -1.0 16:1.0 17:1.0 35:1.0 242:1.0 258:1.0 385:1.0 698:1.0 700:1.0 705:1.0 
-1.0 -1.0 5:1.0 203:1.0 319:1.0 
-1.0 -1.0 
-1.0 -1.0 
-1.0 -1.0 364:1.0 
-1.0 -0.9441668056412038 89:1.0 564:1.0 
-0.6605548085043592 -0.8462908020544054 94:1.0 446:1.0 
-1.0 -1.0 525:1.0 
-0.125112031765916 -0.0 74:1.0 203:1.0 288:1.0 553:1.0 589:1.0 701:1.0 
-0.2546366372011661 -0.2578706472149235 74:1.0 585:1.0 701:1.0 
-1.0 -1.0 
-0.5280436750852691 -0.0 554:1.0 649:1.0 650:1.0 
-0.5791474376069687 -0.0 539:1.0 696:1.0 
-0.26669939566474243 -0.0 265:1.0 539:1.0 696:1.0 
-1.0 -0.9432723281284249 576:1.0 
-0.0 -0.38211956344397635 351:1.0 414:1.0 555:1.0 
-1.0 -1.0 
-1.0 -0.5879021835293321 141:1.0 285:1.0 703:1.0 
-0.19146749478713687 -0.0 500:1.0 551:1.0 689:1.0 
-1.0 -1.0 
-0.0 -0.08292032246451235 288:1.0 553:1.0 616:1.0 668:1.0 
-0.22133249691849116 -0.16838147890091307 141:1.0 587:1.0 588:1.0 668:1.0 703:1.0 
-1.0 -1.0 250:1.0 
-1.0 -1.0 
-1.0 -0.0 579:1.0 
-0.25108386237383123 -0.0 534:1.0 
-0.0 -0.3122753362824806 204:1.0 483:1.0 
-1.0 -1.0 
-1.0 -1.0 204:1.0 
-0.0 -0.053287931830967736 316:1.0 622:1.0 640:1.0 699:1.0 
-1.0 -0.9431514715711121 684:1.0 
-0.0 -0.06725942463826962 41:1.0 74:1.0 75:1.0 108:1.0 532:1.0 580:1.0 701:1.0 
-1.0 -0.9430650473882887 690:1.0 
-0.2633048879539074 -0.0 565:1.0 685:1.0 
-1.0 -0.7861009611546659 228:1.0 
-1.0 -0.0 228:1.0 309:1.0 
-0.7602317160800277 -0.9430588258729946 579:1.0 
-0.8243912951428443 -0.4688310922610798 485:0.9499999874 538:0.9523993617178639 
-1.0 -0.47138873194467085 3:1.0 491:1.0 
-0.0034653020810225827 -0.0 83:1.0 524:1.0 612:1.0 697:1.0 
-1.0 -1.0 261:1.0 
-1.0 -1.0 
-1.0 -0.943620587851918 304:1.0 689:1.0 
-1.0 -0.9432011882341791 691:1.0 
-0.0 -0.2048241862186573 31:1.0 305:1.0 394:1.0 493:1.0 533:1.0 
-1.0 -0.9433424416058392 617:1.0 
-0.3801358527691068 -0.0 51:1.0 690:1.0 
-1.0 -0.3893791055855088 242:1.0 686:1.0 
-0.4198271539909837 -0.6132186165124615 242:1.0 385:1.0 
-0.1926970377938701 -1.0 48:1.0 74:1.0 75:1.0 394:1.0 701:1.0 
