svm_type c_svc
kernel_type linear
nr_class 3
total_sv 1028
rho -0.8962637524199552 -0.7614369454336467 0.0606313634050518
label 0 1 2
nr_sv 398 312 318
SV
1.0 1.0 
1.0 1.0 1:0.93041292506863 694:1.0 
1.0 1.0 
1.0 1.0 2:0.914070844205805 
0.12394321129936145 1.0 3:0.914070844205805 
1.0 1.0 
0.6119199016128661 0.2973059916550461 5:1.0 6:1.0 7:1.0 
1.0 1.0 
1.0 1.0 
1.0 1.0 
1.0 1.0 
0.11110536325380549 0.0 8:1.0 9:1.0 14:1.0 15:1.0 16:1.0 17:1.0 699:1.0 705:1.0 
0.551830367801126 0.0 18:1.0 19:1.0 
0.3763310618128102 0.03319139712150866 16:1.0 20:1.0 21:1.0 22:1.0 23:1.0 24:1.0 25:1.0 699:1.0 
0.0 0.3189038720573808 26:1.0 27:1.0 577:1.0 
1.0 1.0 
0.0 0.5636889337538736 35:1.0 36:1.0 37:1.0 
1.0 1.0 
1.0 1.0 
1.0 1.0 
1.0 1.0 38:1.0 693:1.0 
1.0 1.0 
1.0 1.0 
1.0 0.7377415536537608 43:1.0 44:1.0 45:1.0 
0.0011919010954769917 0.0 46:1.0 
0.09256128586615156 0.1863871523446973 13:1.0 16:1.0 17:1.0 47:1.0 699:1.0 705:1.0 707:1.0 708:1.0 
1.0 0.5000662877160192 48:1.0 49:1.0 458:1.0 
0.0922759886926981 1.0 50:1.0 51:1.0 392:1.0 
0.0 0.4989117839863369 53:1.0 659:1.0 
0.10353359348179748 0.2384432451898531 54:1.0 
1.0 1.0 
1.0 1.0 
1.0 1.0 
0.6454292066779783 0.11920119681526573 57:1.0 497:1.0 
0.4172073578108642 0.09827944524304148 8:1.0 9:1.0 58:1.0 59:1.0 60:1.0 483:1.0 
0.04327669301403069 0.0 61:1.0 62:1.0 63:1.0 
0.011715619107347091 1.0 62:1.0 604:1.0 
1.0 1.0 45:1.0 
0.1036622631842977 0.23841817046140018 64:1.0 
1.0 1.0 
1.0 1.0 
1.0 1.0 
1.0 0.23836586571103974 607:1.0 
1.0 1.0 
1.0 1.0 13:1.0 708:1.0 
1.0 1.0 13:1.0 708:1.0 
0.0 0.30414888653235267 46:1.0 69:1.0 70:1.0 71:1.0 526:1.0 
1.0 1.0 
0.10370764180548779 0.23837784485639477 72:1.0 
1.0 1.0 73:1.0 74:1.0 75:1.0 701:1.0 
0.0 0.030125625723927043 23:1.0 63:1.0 76:1.0 77:1.0 78:1.0 79:1.0 80:1.0 
0.0 0.2797661488332461 76:1.0 81:1.0 82:1.0 
0.10363502915517954 1.0 544:1.0 
0.0 0.29323164129914286 18:1.0 76:1.0 86:1.0 87:1.0 689:1.0 
0.158658054470067 0.10531323709000479 76:0.9677467624332038 88:1.0 89:1.0 90:1.0 91:1.0 501:1.0 
0.8241988905774639 0.6427283400818802 76:1.0 91:1.0 92:1.0 333:1.0 
1.0 1.0 91:1.0 
1.0 1.0 91:1.0 
1.0 1.0 91:1.0 
1.0 1.0 
0.2596593828082886 0.41874608758877124 35:1.0 62:1.0 94:1.0 95:1.0 96:1.0 
1.0 0.11272475526968734 76:1.0 97:1.0 355:1.0 402:1.0 
1.0 1.0 98:1.0 
0.5979865538629157 0.0 16:1.0 17:1.0 99:1.0 100:1.0 699:1.0 705:1.0 
1.0 1.0 
1.0 1.0 
1.0 1.0 
1.0 1.0 
0.17823690483126092 0.41195218955628654 74:1.0 83:1.0 101:1.0 102:1.0 701:1.0 
1.0 1.0 
1.0 1.0 
1.0 0.3147381567652603 13:1.0 365:1.0 708:1.0 
0.38682440384114686 0.23899331971611365 38:1.0 105:1.0 693:1.0 
0.4954322498747189 0.17348692296355872 63:1.0 85:1.0 106:0.9465996167497696 107:1.0 
0.0 0.6769054077548055 6:1.0 83:1.0 95:1.0 108:1.0 109:1.0 379:1.0 
0.0 0.21383050177620347 110:1.0 
0.15884756084767704 0.0 11:1.0 16:1.0 17:1.0 22:1.0 111:1.0 112:1.0 699:1.0 705:1.0 
0.20582225376286128 0.0 16:1.0 17:1.0 115:1.0 699:1.0 705:1.0 
1.233621521370084E-4 0.0 16:1.0 17:1.0 115:1.0 116:1.0 117:1.0 699:1.0 705:1.0 
1.0 0.0 16:1.0 17:1.0 47:1.0 123:1.0 699:1.0 705:1.0 706:1.0 707:1.0 
1.0 0.0 16:1.0 17:1.0 699:1.0 705:1.0 
1.0 0.0 16:1.0 17:1.0 699:1.0 705:1.0 
1.0 0.0 16:1.0 17:1.0 334:1.0 699:1.0 705:1.0 
0.20574502765064714 0.0 16:1.0 17:1.0 127:1.0 699:1.0 705:1.0 
1.0 0.0 16:1.0 17:1.0 66:1.0 124:1.0 129:1.0 340:1.0 699:1.0 702:1.0 705:1.0 
0.5494988469009591 0.0 16:1.0 17:1.0 30:1.0 33:1.0 45:1.0 130:1.0 699:1.0 705:1.0 
0.06950337816646983 0.0 16:1.0 17:1.0 59:1.0 131:1.0 132:1.0 699:1.0 705:1.0 
1.0 0.0 16:1.0 17:1.0 332:1.0 699:1.0 705:1.0 
0.15972803334645597 0.0 16:1.0 17:1.0 90:1.0 134:1.0 135:1.0 699:1.0 705:1.0 
1.0 0.0 16:1.0 17:1.0 138:1.0 699:1.0 705:1.0 
0.9499883323244211 1.0 16:1.0 17:1.0 49:1.0 139:1.0 140:1.0 141:1.0 424:1.0 565:1.0 670:1.0 699:1.0 703:1.0 705:1.0 
0.10301702658295635 0.0 16:1.0 17:1.0 133:1.0 147:1.0 699:1.0 705:1.0 
0.3672382064114215 0.0 16:1.0 17:1.0 148:1.0 699:1.0 705:1.0 
1.0 0.0 16:1.0 17:1.0 699:1.0 705:1.0 
0.05113290269212302 0.0 11:1.0 16:1.0 17:1.0 151:1.0 152:1.0 699:1.0 705:1.0 
0.0 0.5069389288401835 127:1.0 153:1.0 154:1.0 
1.0 1.0 
1.0 1.0 
1.0 1.0 13:1.0 708:1.0 
0.1561197494797478 0.08877709492396696 91:1.0 156:1.0 157:1.0 380:1.0 
0.2532622637361408 0.0 99:1.0 153:1.0 158:1.0 
1.0 0.0 71:1.0 159:1.0 335:1.0 696:1.0 
1.0 0.0 16:1.0 17:1.0 699:1.0 705:1.0 
1.0 0.08481609388522357 16:1.0 17:1.0 94:1.0 161:1.0 431:1.0 699:1.0 705:1.0 
0.10329840733875857 0.0 16:1.0 17:1.0 59:1.0 87:1.0 162:1.0 699:1.0 705:1.0 
1.0 0.0 16:1.0 17:1.0 399:1.0 699:1.0 705:1.0 
0.06774000740719674 0.0 16:1.0 17:0.982604508405621 131:1.0 163:1.0 699:1.0 705:1.0 
0.03682103516462597 0.0 16:1.0 17:1.0 79:1.0 164:1.0 165:1.0 699:1.0 705:1.0 
0.03658167105612559 0.0 16:1.0 17:1.0 79:1.0 165:1.0 169:1.0 699:1.0 705:1.0 
0.08756947787189015 0.0 16:1.0 17:1.0 113:1.0 175:1.0 699:1.0 705:1.0 
0.022582463759095017 0.0 16:1.0 17:1.0 79:1.0 113:1.0 699:1.0 705:1.0 
0.029321893290555647 0.0 16:1.0 17:1.0 118:1.0 166:0.954252902026773 167:1.0 178:1.0 699:1.0 705:1.0 
1.0 0.0 16:1.0 17:1.0 699:1.0 705:1.0 
0.04250644003334101 0.0 16:1.0 17:1.0 118:1.0 119:1.0 120:1.0 699:1.0 705:1.0 
0.04903881702418705 0.10895600639634026 16:1.0 17:1.0 118:1.0 180:1.0 181:1.0 182:1.0 183:1.0 184:1.0 185:1.0 699:1.0 705:1.0 
0.3452083173754357 0.09694515364990604 16:0.9833602539484247 17:1.0 504:1.0 516:1.0 699:1.0 705:1.0 
1.0 0.0 16:1.0 17:1.0 699:1.0 705:1.0 
1.0 0.0 16:1.0 17:1.0 699:1.0 705:1.0 
1.0 0.0 16:1.0 17:1.0 699:1.0 705:1.0 
0.01136511653984409 0.0 16:1.0 17:1.0 47:1.0 121:1.0 122:1.0 699:1.0 705:1.0 707:1.0 
0.3355674144954416 0.0 16:1.0 20:1.0 67:1.0 150:0.9581355531685978 699:1.0 
1.0 1.0 
0.0 1.0 193:1.0 
1.0 1.0 45:1.0 194:1.0 
1.0 1.0 83:1.0 
0.9967744712267766 0.2383609745111025 443:1.0 
0.0 0.23819772536429076 195:1.0 
0.0 0.025471616122012167 3:1.0 68:1.0 84:1.0 
1.0 0.0 71:1.0 
0.0 0.0556691481735772 196:1.0 197:1.0 199:1.0 200:1.0 457:1.0 
1.0 1.0 
1.0 1.0 
0.0 0.19463927221144436 22:1.0 198:1.0 201:1.0 202:1.0 658:1.0 
0.4054533289801592 1.0 38:1.0 141:1.0 203:1.0 204:1.0 456:1.0 524:1.0 589:1.0 693:1.0 698:1.0 703:1.0 
1.0 1.0 
0.0 0.8281527412649228 205:1.0 
1.0 0.0 59:1.0 76:1.0 177:1.0 194:1.0 498:1.0 
0.7304176225747154 0.18829327439001964 158:1.0 179:1.0 
0.0352819087948654 0.44025650910906 210:1.0 211:1.0 
0.0515653853807695 0.0 16:0.9833602539484247 212:1.0 213:1.0 699:1.0 
1.0 1.0 
0.33431168266209027 0.10498853781996782 13:1.0 65:1.0 128:1.0 368:1.0 708:1.0 
0.11857903442104402 0.0 158:1.0 215:1.0 216:1.0 
0.0 0.04539358585792621 46:1.0 142:1.0 211:1.0 217:1.0 
0.05026541741979897 0.0 16:1.0 218:1.0 219:1.0 699:1.0 
0.45967728795084745 1.0 50:1.0 51:1.0 
1.0 0.23826436430259215 450:1.0 
0.0 0.005043647955456986 126:1.0 150:0.9581355531685978 220:1.0 
0.2223931086618645 0.0 10:1.0 210:1.0 217:1.0 221:1.0 
0.3298751503485387 0.14022458376597735 158:1.0 222:1.0 517:1.0 623:1.0 
1.0 1.0 
0.0 0.2384155390712798 225:1.0 
0.0 1.0 225:1.0 
1.0 1.0 74:1.0 701:1.0 
1.0 1.0 
1.0 1.0 
0.5131086156790721 1.0 224:1.0 
1.0 0.6068141880724078 157:1.0 
0.6255133347352921 1.0 228:1.0 548:1.0 
0.10373253302034076 0.2385123268770582 229:1.0 
1.0 0.0 16:1.0 17:1.0 231:1.0 232:1.0 699:1.0 705:1.0 
0.29365295689304305 0.0 63:1.0 145:1.0 
1.0 1.0 74:1.0 191:1.0 224:1.0 233:1.0 701:1.0 
0.11785743177738363 0.0 91:1.0 157:1.0 234:1.0 
0.10365537077192946 0.23844164266627316 42:1.0 
1.0 1.0 
1.0 0.0 191:1.0 
0.1036601636244749 0.5343844951632887 37:1.0 
1.0 1.0 
0.0 0.48220972408526575 209:1.0 
0.13043515871760306 0.9947324027009075 209:1.0 
1.0 0.23841573460302978 147:1.0 
1.0 0.0 67:1.0 238:1.0 
0.0 0.09750614026439297 28:1.0 238:1.0 609:1.0 
1.0 1.0 
1.0 1.0 
0.6357508606886537 0.4761401377150615 239:1.0 
0.4678291651274393 3.8016772148112516E-4 239:1.0 240:1.0 
0.362425729793262 0.2987751495979435 241:0.8931991808295205 
1.0 0.9419371906399288 140:1.0 242:1.0 338:1.0 597:1.0 
0.9760066682412509 1.0 13:1.0 83:1.0 708:1.0 
0.2740338352913417 0.7437437424747873 83:1.0 139:1.0 242:1.0 243:1.0 415:1.0 
0.0012172818715792968 0.0 63:1.0 218:1.0 219:1.0 244:1.0 
0.0 0.024417841396171328 40:1.0 58:1.0 59:1.0 110:1.0 154:1.0 202:1.0 489:1.0 580:1.0 
1.0 1.0 
1.0 1.0 
0.0 0.0418298601716028 11:1.0 
1.0 1.0 
0.10340413560311222 0.2384252783850799 245:1.0 
0.0 1.6279762184895265E-4 11:1.0 226:0.9465996167497696 246:1.0 
0.1137215869741091 0.0 191:1.0 247:1.0 395:1.0 
0.346525820106475 0.47291539744085853 91:1.0 247:1.0 248:1.0 249:0.9499999874 250:1.0 
0.30173318314314046 0.0 40:1.0 110:1.0 
0.6440292129645944 2.063725296589889E-4 195:1.0 251:1.0 252:1.0 
0.10355053787272489 0.23842058954710638 253:1.0 
0.040480749686047944 2.412924923098594E-4 11:1.0 254:1.0 426:1.0 
1.0 1.0 
1.0 1.0 
0.6302120512343329 1.0 255:1.0 385:1.0 
0.10342046660412468 0.23843938247334334 104:1.0 
0.1035303237256758 0.9814588159978568 205:1.0 
0.10367618062610715 0.47728195113069544 93:1.0 
0.0 4.8331738361656607E-4 11:1.0 256:1.0 
0.11802450998152864 0.0 89:1.0 256:1.0 
0.3994017387543529 0.0 36:1.0 69:1.0 107:1.0 202:1.0 224:1.0 257:1.0 
1.0 1.0 258:1.0 
1.0 1.0 
0.10345671432672814 1.0 34:1.0 
1.0 1.0 
1.0 1.0 261:1.0 
0.025932153417957775 0.0 261:1.0 262:1.0 263:1.0 
0.6831040402327954 0.6821218066808492 71:1.0 
0.0 0.21629791396024292 71:1.0 265:1.0 
1.0 1.0 74:1.0 701:1.0 
0.21855535796384035 0.49470370051462653 74:1.0 114:1.0 266:1.0 701:1.0 
0.05329933091639943 0.3901833644708571 45:1.0 74:1.0 222:1.0 572:1.0 701:1.0 
0.5224789390712884 1.0 74:1.0 267:1.0 701:1.0 
0.25648799789238474 0.4947102530849387 74:1.0 268:1.0 269:1.0 701:1.0 
0.17914723166215746 0.09696200698074317 10:1.0 74:1.0 223:1.0 270:1.0 271:1.0 272:1.0 273:1.0 701:1.0 
1.0 0.11939836100040427 134:1.0 433:1.0 
0.43680870039611003 0.989365411905349 74:1.0 274:1.0 701:1.0 
1.0 1.0 11:1.0 74:1.0 701:1.0 
1.0 1.0 74:1.0 701:1.0 
1.0 1.0 74:1.0 701:1.0 
0.18827278034751507 0.48140054615322037 24:1.0 193:1.0 207:1.0 
0.040088608483745854 0.0 90:1.0 157:1.0 252:1.0 275:1.0 276:1.0 
1.0 1.0 
1.0 1.0 
0.16279320502185168 0.7613138498101516 24:1.0 66:0.9499999874 277:1.0 446:1.0 
1.0 0.0 16:1.0 17:1.0 75:1.0 142:1.0 148:1.0 212:1.0 278:1.0 699:1.0 705:1.0 
1.0 1.0 
0.22872230744780656 1.0 427:1.0 
0.13495396343628263 0.0 44:1.0 45:1.0 148:1.0 224:1.0 232:1.0 279:1.0 
1.0 1.0 
0.4571387650767695 0.7709259060859615 203:1.0 206:1.0 
1.0 1.0 63:1.0 
1.0 1.0 
1.0 1.0 
0.40996508886667504 0.0 26:1.0 
0.050708676559867334 0.2685861234863236 157:1.0 198:1.0 280:1.0 535:1.0 
0.3114911290658308 0.0 198:1.0 280:1.0 
0.10350257875418747 1.0 560:1.0 
0.0 0.1413707006666357 10:1.0 
0.10336629005330332 1.0 108:1.0 
0.19147941603319368 0.035297953396365135 112:1.0 271:1.0 281:1.0 282:1.0 
1.0 1.0 
1.0 1.0 
1.0 1.0 
1.0 1.0 
1.0 1.0 
0.05776955398798993 0.0 30:1.0 111:1.0 283:1.0 
1.0 0.0 191:1.0 260:1.0 284:0.954252902026773 515:1.0 
0.0 0.4006451353360333 244:1.0 263:1.0 285:0.8571979908695315 
0.10386195446160906 1.0 285:1.0 
1.0 1.0 
0.10350702852214454 1.0 551:1.0 
0.2433854920472457 8.253836409135753E-4 38:1.0 157:1.0 267:1.0 693:1.0 
0.1036365904578964 0.23844768752873297 286:1.0 
0.6150082824242153 0.11934642044473677 124:1.0 287:1.0 
1.0 1.0 
0.0 0.5332973974601155 4:1.0 76:1.0 141:1.0 161:1.0 288:1.0 703:1.0 
0.7670037377725815 1.0 16:1.0 125:1.0 141:1.0 699:1.0 703:1.0 
1.0 1.0 141:1.0 703:1.0 
0.5252882684251985 1.0 38:1.0 141:1.0 410:1.0 540:1.0 693:1.0 703:1.0 
0.05191946492818449 0.11917196954869577 289:1.0 290:1.0 
0.10301522849188943 0.0 16:1.0 192:1.0 699:1.0 
0.0 0.9395485064463709 291:1.0 486:1.0 
0.2642574034384853 0.0 134:1.0 135:1.0 291:1.0 490:1.0 
0.0 0.904156553085142 82:1.0 292:1.0 
0.6243093414515266 0.40583471944718486 5:1.0 99:1.0 137:1.0 216:1.0 292:1.0 590:1.0 
0.0 3.3791419543568085E-4 11:1.0 215:1.0 
1.0 1.0 
1.0 1.0 
0.0 0.23181764605050675 98:1.0 243:1.0 
0.008143843448314907 0.11927836903977634 175:1.0 237:1.0 
1.0 0.07150058262252441 74:1.0 76:1.0 232:1.0 324:1.0 393:1.0 701:1.0 
1.0 0.9331551182750686 48:1.0 
0.4383950669746372 0.0 294:1.0 455:1.0 
1.0 0.0 16:1.0 17:1.0 699:1.0 705:1.0 
1.0 1.0 
1.0 0.0 13:0.9733166011317542 25:1.0 156:1.0 232:1.0 708:1.0 
0.0 0.07945365817036758 295:1.0 296:1.0 297:1.0 
0.07650985411695259 0.0 295:1.0 296:1.0 297:1.0 459:1.0 
0.8239676829232468 0.31557339681058016 260:1.0 
1.0 0.0 16:1.0 699:1.0 
1.0 1.0 
0.10758267665645908 0.0 16:1.0 302:1.0 303:1.0 699:1.0 
3.042176846125659E-4 0.0 87:1.0 
0.5846113869139129 0.24063029044541512 53:1.0 242:1.0 
1.0 1.0 
1.0 1.0 74:1.0 701:1.0 
1.0 1.0 
0.031967437633708955 0.11921101270331126 41:1.0 276:1.0 
0.0 0.48634621670139666 29:1.0 87:1.0 162:1.0 684:1.0 
0.103546095619501 0.23826460236158103 103:1.0 
1.0 1.0 
0.0 0.031953526431604866 6:1.0 
0.0 0.4637113704650105 39:1.0 76:1.0 
1.0 1.0 74:1.0 701:1.0 
1.0 1.0 251:1.0 
0.029406057190573442 0.4868158488552098 294:1.0 304:1.0 
0.0 0.017124141810923643 133:1.0 158:1.0 178:1.0 305:1.0 
0.0 0.9095401251431057 30:1.0 306:1.0 
0.45290511174372244 0.0 71:1.0 202:1.0 
0.05179169152829517 1.0 307:1.0 529:1.0 
0.27709264656643595 1.0 130:1.0 687:1.0 
1.0 1.0 
1.0 1.0 
0.0 0.23377064836618675 150:1.0 
0.0 1.0 38:1.0 267:1.0 693:1.0 
0.1155390514162134 0.26610716791231703 308:0.9465996167497696 
0.02429134317312684 1.0 309:1.0 
0.1310830064430633 1.0 14:1.0 179:1.0 
0.10250511137439565 0.0 46:1.0 
1.0 1.0 74:1.0 157:1.0 275:1.0 288:1.0 304:1.0 701:1.0 
0.8734431786444048 0.31268281410401383 146:1.0 201:0.9570354377473717 211:1.0 
0.13794295373892107 0.0 65:1.0 67:1.0 80:1.0 227:1.0 254:1.0 259:1.0 
0.10348154322483477 0.23823399322671554 52:1.0 
1.0 1.0 
1.0 1.0 
0.7708327935106251 0.0 81:1.0 
1.0 1.0 
0.05197285443645977 0.11939750708632035 299:1.0 300:1.0 
0.5956171103381784 1.0 35:1.0 204:1.0 232:1.0 
1.0 0.774510753966742 35:1.0 67:1.0 349:1.0 479:1.0 
1.0 1.0 
1.0 1.0 
0.0 1.0 3:1.0 270:1.0 525:1.0 
0.0 0.11928172316804941 131:1.0 163:1.0 
0.11760301895280616 0.0 89:1.0 225:1.0 
0.7771785708003658 0.011172235396657106 61:1.0 62:1.0 
0.002759558003988666 0.0029368853127835215 313:1.0 
1.0 1.0 
0.4413448289445318 0.6192443229538201 314:1.0 440:1.0 
0.009257623094610022 0.2387295591794057 315:1.0 
0.1289994699267581 0.0 38:1.0 39:1.0 160:1.0 278:1.0 693:1.0 
1.0 1.0 17:1.0 155:1.0 316:1.0 700:1.0 705:1.0 
1.0 1.0 12:1.0 316:1.0 700:1.0 
0.551873838283418 1.0 598:1.0 599:1.0 
1.0 1.0 
1.0 1.0 74:1.0 123:1.0 248:1.0 306:1.0 514:1.0 701:1.0 706:1.0 
0.0 0.6000056836449751 59:1.0 248:1.0 250:1.0 
1.0 0.7307778097985358 89:1.0 
1.0 0.0 16:1.0 17:1.0 345:1.0 699:1.0 705:1.0 
0.09421425958786057 1.0 315:1.0 
1.0 1.0 
0.15449880656649703 0.0 157:1.0 318:1.0 
0.5124478889415709 0.9620619331099071 277:1.0 305:1.0 435:1.0 
0.10327996762482768 0.169507676549473 45:1.0 214:1.0 
0.0 0.14135587055326485 272:1.0 
1.0 1.0 
1.0 1.0 
1.0 0.5182949780365509 67:1.0 319:0.954252902026773 
0.07958459756768184 0.0 191:1.0 243:1.0 309:1.0 
1.0 1.0 
1.0 1.0 
1.0 1.0 
0.3702786590764263 0.0 16:1.0 17:1.0 201:1.0 699:1.0 705:1.0 
1.0 1.0 
1.0 0.23849542896239015 362:1.0 
1.0 1.0 
0.1752642800906388 0.36574688945580225 11:1.0 141:1.0 208:1.0 227:1.0 312:1.0 703:1.0 
1.0 1.0 89:1.0 
0.3980623668916088 0.0 8:1.0 9:1.0 110:1.0 
0.0 0.23848798244527863 234:1.0 
0.0 3.469446951953614E-17 132:1.0 234:1.0 
0.4325445684677688 0.23861724963376915 472:1.0 
0.0 0.12556255032791092 97:1.0 
1.0 1.0 
0.0 0.23830165502069556 302:1.0 
0.0 0.07890025000027048 88:1.0 292:1.0 
0.38677086013101425 1.0 38:1.0 686:1.0 693:1.0 
0.6390831668745555 0.44328771855661964 67:0.9656227282488034 109:0.9557624022993108 321:0.9523993617178639 
0.22234962417924622 0.41936333457388025 30:1.0 32:1.0 74:1.0 369:1.0 622:1.0 701:1.0 
0.3706042651830519 0.7298845110215628 11:1.0 
0.0 1.0 292:1.0 
1.0 0.23842061540645343 31:1.0 
0.10353080681311042 0.0 27:1.0 
1.0 1.0 
0.0 1.0 83:1.0 145:1.0 158:1.0 228:1.0 507:1.0 
0.0 0.23836380041406952 148:1.0 
0.10075585811719959 0.235507117815526 313:1.0 
1.0 0.238427548912602 381:1.0 
1.0 1.0 346:1.0 
0.05191623145778952 0.09148023360443938 199:1.0 301:1.0 
0.45597342276989045 0.07634534908377785 78:1.0 197:1.0 
0.5164692000720272 0.0 11:1.0 148:1.0 254:1.0 279:1.0 303:1.0 
0.10352299537991295 0.7666225733015962 149:1.0 
1.0 1.0 322:1.0 
1.0 1.0 258:1.0 
0.0 0.5744671790995953 233:1.0 545:1.0 
0.10367902425217115 0.23824370845116047 293:1.0 
1.0 1.0 
0.0 0.015929504976006086 3:1.0 224:1.0 
0.10068385949580784 0.0 16:1.0 17:1.0 53:1.0 191:1.0 321:1.0 322:1.0 699:1.0 705:1.0 
0.0 1.0 139:1.0 
1.0 1.0 
0.2909627119851342 0.0 4:1.0 288:1.0 
-0.002674369358558284 0.0 323:1.0 
-1.0 1.0 324:0.9199377291773552 
-1.0 0.0 2:1.0 16:1.0 17:1.0 699:1.0 705:1.0 
-7.634673991639209E-4 0.0 325:1.0 326:1.0 
-1.0 1.0 666:1.0 
-1.0 1.0 
-1.0 1.0 319:0.954252902026773 
-1.0 0.0 334:1.0 
-1.0 1.0 63:1.0 333:1.0 
-0.0 1.0 74:1.0 337:1.0 701:1.0 
-0.9935836351615219 1.0 258:1.0 
-1.0 1.0 48:1.0 
-0.8437859279122919 0.0 16:1.0 17:1.0 67:1.0 107:1.0 138:1.0 191:1.0 345:1.0 699:1.0 705:1.0 
-0.6715004227138686 0.9341490563955986 346:1.0 347:1.0 
-1.0 0.07982541351241432 348:1.0 349:1.0 
-0.22403906661067025 0.9401282868393069 348:1.0 349:1.0 350:1.0 549:1.0 
-0.9813201615537179 0.7699683061752873 323:1.0 
-0.0051937961604803795 0.0 13:1.0 341:1.0 357:1.0 358:1.0 708:1.0 
-0.5184927876134516 0.49007742002125426 13:1.0 341:1.0 357:1.0 358:1.0 708:1.0 
-1.0 1.0 360:1.0 
-1.0 0.0 362:0.8822498536865863 
-0.0 1.0 13:1.0 141:1.0 363:1.0 703:1.0 708:1.0 
-0.5634044460756997 0.0 13:1.0 16:1.0 17:1.0 67:1.0 324:1.0 699:1.0 705:1.0 708:1.0 
-0.45894933387946657 0.5143973916304533 13:1.0 71:1.0 338:1.0 364:1.0 708:1.0 
-0.6128787674668029 0.0 13:1.0 16:1.0 17:1.0 366:1.0 367:1.0 699:1.0 705:1.0 708:1.0 
-0.9379118354730921 0.0 13:1.0 43:1.0 355:1.0 708:1.0 
-0.7203641928083547 0.0 157:1.0 211:1.0 260:1.0 334:1.0 
-0.999790583540234 0.0 98:1.0 369:1.0 370:1.0 
-0.05961547534066143 0.5302378374585327 369:1.0 370:1.0 
-1.0 1.0 371:1.0 
-1.0 1.0 
-0.0 0.2285300469835739 76:1.0 316:1.0 338:1.0 372:1.0 700:1.0 
-1.0 1.0 76:1.0 
-1.0 0.0 124:1.0 
-1.0 0.6877637799548255 284:1.0 
-0.941136266220979 1.0 91:1.0 157:1.0 328:1.0 329:1.0 
-0.0 0.1567599778182078 141:0.9767479292449914 258:0.966755310108045 359:0.9643026183465505 377:0.9523993617178639 703:1.0 
-0.8083834809282928 0.7684849582671505 61:1.0 74:1.0 78:1.0 251:1.0 379:1.0 701:1.0 
-1.0 0.3013293617032028 67:1.0 158:1.0 
-0.7664412169342053 1.0 362:0.8822498536865863 530:1.0 
-1.0 0.0 332:0.8929078032547826 
-1.0 0.22525466090974022 232:0.9621161620302667 382:1.0 
-0.0 0.06889918744480085 46:1.0 141:1.0 334:1.0 383:1.0 703:1.0 
-1.0 1.0 74:1.0 384:1.0 701:1.0 
-1.0 1.0 74:1.0 216:1.0 288:1.0 385:1.0 701:1.0 
-1.0 1.0 13:0.9733166011317542 708:1.0 
-0.6281446773731385 0.19276068973417182 303:1.0 388:1.0 389:1.0 390:1.0 
-0.09233497136457716 0.39122732745120953 38:1.0 157:1.0 340:1.0 391:1.0 392:1.0 393:1.0 693:1.0 702:1.0 
-0.1159293785948086 0.8661288218079928 74:1.0 394:1.0 395:1.0 396:1.0 701:1.0 
-1.0 0.0 16:1.0 17:1.0 699:1.0 705:1.0 
-1.0 0.0 16:1.0 17:1.0 699:1.0 705:1.0 
-1.0 0.0 16:1.0 17:1.0 699:1.0 705:1.0 
-1.0 0.0 16:1.0 17:1.0 699:1.0 705:1.0 
-1.0 0.0 16:1.0 17:1.0 699:1.0 705:1.0 
-0.5906015163518901 0.0 16:1.0 17:1.0 366:1.0 403:1.0 699:1.0 705:1.0 
-0.25389260953243803 0.0 16:1.0 17:1.0 334:1.0 699:1.0 705:1.0 
-1.0 0.0 16:1.0 17:1.0 402:1.0 699:1.0 705:1.0 
-0.8163884948624018 0.0 13:1.0 16:1.0 17:1.0 405:1.0 699:1.0 705:1.0 708:1.0 
-0.8199913711946886 0.0 16:1.0 17:1.0 231:1.0 232:1.0 334:1.0 699:1.0 705:1.0 
-0.15682320290968513 0.0 16:1.0 17:1.0 35:1.0 156:1.0 255:1.0 338:1.0 404:1.0 406:1.0 407:1.0 699:1.0 705:1.0 
-1.0 0.0 16:1.0 17:1.0 699:1.0 705:1.0 
-1.0 0.0 16:1.0 17:1.0 111:1.0 409:1.0 699:1.0 705:1.0 
-0.18960137397089707 0.0 16:1.0 17:1.0 145:1.0 158:1.0 191:1.0 379:1.0 411:1.0 699:1.0 705:1.0 
-1.0 0.0 16:1.0 17:1.0 217:1.0 412:1.0 699:1.0 705:1.0 
-0.3552965227981753 0.0 16:1.0 17:1.0 81:0.9523993617178639 347:1.0 393:1.0 414:1.0 415:1.0 699:1.0 705:1.0 
-0.05984555856815976 0.0 157:1.0 327:1.0 368:1.0 402:1.0 
-1.0 0.0 423:1.0 
-1.0 1.0 
-0.0 0.33169059022838027 344:1.0 551:1.0 704:1.0 
-1.0 1.0 11:1.0 
-0.8618077350983303 0.4391361544984591 16:1.0 17:1.0 203:1.0 424:1.0 699:1.0 705:1.0 
-0.12487047899686189 0.0 91:0.9701426475816275 340:1.0 425:0.9570354377473717 427:1.0 702:1.0 
-1.0 1.0 548:1.0 
-0.5587277296549183 0.0 76:1.0 423:1.0 428:1.0 
-1.0 1.0 
-1.0 1.0 429:1.0 
-1.0 1.0 336:1.0 
-1.0 1.0 394:1.0 
-0.30621406088606384 0.6154709594347622 26:1.0 411:1.0 430:1.0 431:1.0 432:1.0 
-0.0 0.4042484766563087 332:1.0 430:1.0 
-1.0 1.0 
-1.0 0.03026991201177904 239:1.0 436:1.0 
-0.9768121944233149 1.0 83:1.0 436:1.0 
-0.35442592640919723 1.0 203:1.0 422:1.0 438:1.0 
-0.4649608532319046 0.0 71:1.0 94:1.0 156:0.9599688385878998 340:1.0 380:1.0 702:1.0 
-1.0 1.0 
-1.0 1.0 
-1.0 1.0 
-1.0 1.0 191:1.0 
-1.0 1.0 
-0.7791767993169606 0.6868512812444441 339:1.0 439:1.0 440:1.0 
-1.0 1.0 
-1.0 1.0 
-1.0 1.0 
-0.44886338122559677 0.7298448500565358 40:1.0 110:1.0 250:1.0 354:1.0 648:1.0 
-1.0 0.0 402:1.0 431:1.0 
-1.0 0.0 11:1.0 232:1.0 399:1.0 443:0.8931991808295205 
-0.0 0.5235011448965761 104:1.0 402:1.0 445:1.0 
-0.0 0.43857761168755466 205:1.0 344:1.0 704:1.0 
-0.3629821224560049 0.0036331421440874497 69:1.0 363:1.0 
-0.0 0.4066075852886135 55:1.0 258:1.0 331:1.0 
-1.0 1.0 258:1.0 
-1.0 1.0 258:1.0 
-0.9622959487416696 0.6515218326265682 67:1.0 232:1.0 446:1.0 
-0.062210551030347325 0.0 75:1.0 
-1.0 1.0 
-1.0 1.0 
-1.0 1.0 
-1.0 1.0 333:1.0 
-0.0 0.9988244117743157 74:1.0 332:1.0 701:1.0 
-0.32839687617228513 0.14935302057926847 267:1.0 353:1.0 447:1.0 448:1.0 
-0.3480755696499271 0.47367995892851283 341:1.0 417:1.0 447:1.0 
-1.0 0.2862556983690792 24:1.0 124:0.960749968549696 
-1.0 1.0 450:1.0 451:1.0 
-1.0 0.976540706832677 19:1.0 43:1.0 
-0.10829632549458756 0.0 71:1.0 335:1.0 696:1.0 
-1.0 0.4291443237867767 74:1.0 194:1.0 399:1.0 701:1.0 
-1.0 1.0 48:1.0 74:1.0 701:1.0 
-0.47831158758350656 0.26614370244045005 13:1.0 74:1.0 91:1.0 288:1.0 452:1.0 453:1.0 454:1.0 701:1.0 708:1.0 
-0.8023474108096095 0.8011022395724786 74:1.0 455:1.0 456:1.0 621:1.0 701:1.0 
-0.02346397910788399 0.38045910792561927 74:1.0 139:1.0 340:1.0 701:1.0 702:1.0 
-0.008693342936923965 0.22365713808146687 74:1.0 140:1.0 291:1.0 337:1.0 408:1.0 631:1.0 632:1.0 701:1.0 
-0.20193430270945126 0.0 74:1.0 194:1.0 202:1.0 344:1.0 458:1.0 459:1.0 701:1.0 704:1.0 
-1.0 1.0 74:1.0 271:1.0 701:1.0 
-1.0 1.0 74:1.0 304:1.0 701:1.0 
-1.0 0.6591807936693879 201:1.0 461:1.0 
-1.0 1.0 38:1.0 338:1.0 693:1.0 
-1.0 0.9815493617589537 75:1.0 
-0.41621751332764406 0.0 74:1.0 204:1.0 240:1.0 324:1.0 450:1.0 464:1.0 465:1.0 701:1.0 
-0.8719456948701054 0.878130584841173 5:1.0 466:0.9435870932384233 
-1.0 1.0 600:1.0 
-0.0 0.42768735011609715 1:1.0 204:1.0 464:1.0 465:1.0 694:1.0 
-0.8393901555484283 0.006340714583921737 16:1.0 74:1.0 338:1.0 699:1.0 701:1.0 
-0.9472783980705071 0.5302955230487283 325:1.0 326:1.0 
-0.0220831328003996 0.0 194:1.0 338:1.0 372:1.0 
-1.0 1.0 51:1.0 140:1.0 157:1.0 573:1.0 
-1.0 4.549879293839834E-4 25:1.0 
-1.0 1.0 
-1.0 1.0 
-0.0 0.21916639440281627 154:1.0 434:1.0 444:1.0 695:1.0 
-0.6826470199842126 0.0 444:0.963952212540973 695:1.0 
-1.0 1.0 123:0.7814118869307964 706:1.0 
-0.6125421085974487 0.0 359:1.0 
-0.9479896074266183 1.0 316:1.0 700:1.0 
-0.8963966951820094 1.0 437:1.0 
-1.0 1.0 437:1.0 
-0.6243265590976231 1.0 38:1.0 49:1.0 141:1.0 469:1.0 693:1.0 703:1.0 
-0.29790992072594685 0.0 38:1.0 49:1.0 59:1.0 141:1.0 469:1.0 693:1.0 703:1.0 
-0.0024212225917818395 0.09649997528555 388:1.0 389:1.0 390:1.0 470:1.0 471:1.0 
-0.0 0.1022174052827879 74:1.0 94:1.0 277:1.0 304:1.0 335:1.0 472:1.0 696:1.0 701:1.0 
-0.3932214748945058 0.41333235658022643 304:1.0 473:1.0 474:0.9465996167497696 475:1.0 620:1.0 
-0.9738219696386231 0.3607309790166224 476:1.0 
-0.0 0.35358225186124265 141:1.0 194:1.0 209:1.0 233:1.0 335:1.0 696:1.0 703:1.0 
-0.23266796572600182 0.40729175756996494 141:1.0 478:1.0 703:1.0 
-0.0 1.0 141:1.0 334:1.0 703:1.0 
-0.0 1.0 141:1.0 363:1.0 703:1.0 
-1.0 1.0 35:1.0 
-0.8863001481588845 0.9222914319011831 47:1.0 83:1.0 91:0.9701426475816275 107:1.0 479:0.9523993617178639 623:1.0 707:1.0 
-0.6380741941627807 0.0 67:1.0 191:0.9632836538860275 480:1.0 
-1.0 1.0 
-1.0 1.0 
-1.0 1.0 
-1.0 0.9437790295572757 25:1.0 
-1.0 1.0 25:1.0 
-0.912566341516134 1.0 323:1.0 
-1.0 1.0 
-1.0 1.0 45:1.0 
-1.0 1.0 481:1.0 
-1.0 1.0 
-0.026584273755273162 0.2503073437442713 209:1.0 351:1.0 399:1.0 460:1.0 477:1.0 482:1.0 
-1.0 1.0 483:1.0 
-0.20893620373674993 0.2094673204535554 11:1.0 43:1.0 183:1.0 484:1.0 
-0.0 1.0 11:1.0 124:1.0 316:1.0 700:1.0 
-0.0 0.18314204423487046 38:1.0 340:1.0 364:1.0 485:1.0 693:1.0 702:1.0 
-1.0 1.0 16:1.0 17:1.0 242:1.0 699:1.0 705:1.0 
-0.32902078073054264 0.29990290529502883 81:1.0 352:1.0 394:1.0 472:1.0 669:1.0 
-0.179070698812606 1.407907179454923E-4 284:1.0 406:1.0 407:1.0 
-0.12595554771111353 0.0 38:1.0 47:1.0 123:1.0 156:1.0 242:1.0 393:1.0 486:1.0 693:1.0 706:1.0 707:1.0 
-0.05117586703632892 0.0 223:1.0 240:1.0 340:1.0 416:1.0 489:1.0 702:1.0 
-0.26423333885198425 0.0 340:1.0 490:1.0 702:1.0 
-1.0 1.0 
-1.0 0.19506467367238867 16:1.0 17:1.0 31:1.0 699:1.0 705:1.0 
-0.0 0.9385394908411122 73:1.0 304:1.0 316:1.0 493:1.0 494:1.0 700:1.0 
-0.4423739344185169 0.0 123:0.9453530025524058 706:1.0 
-1.0 1.0 76:1.0 495:1.0 496:1.0 
-1.0 1.0 
-1.0 0.3514429459236948 1:0.93041292506863 694:1.0 
-1.0 1.0 
-0.8129423446868429 0.0 146:1.0 148:1.0 279:1.0 335:1.0 696:1.0 
-1.0 1.0 497:1.0 
-1.0 1.0 134:1.0 655:1.0 
-0.20776490540748718 0.0 241:1.0 344:1.0 704:1.0 
-0.7352015745916638 0.0 16:1.0 17:1.0 38:1.0 254:1.0 331:1.0 678:1.0 693:1.0 699:1.0 705:1.0 
-1.0 0.5302220098945534 59:1.0 498:1.0 
-1.0 1.0 
-0.6695689181492844 0.8400953284440671 2:1.0 499:1.0 
-0.05980765598554 0.0 251:1.0 338:1.0 372:1.0 
-1.0 0.999336853729782 75:1.0 
-1.0 1.0 75:1.0 
-0.6748412126857618 0.0 45:1.0 123:0.9453530025524058 706:1.0 
-1.0 0.9091079307685428 359:1.0 
-0.9269290645092235 0.0 340:1.0 702:1.0 
-1.0 1.0 
-0.0 0.20521210944843546 148:1.0 277:1.0 279:1.0 316:1.0 334:1.0 700:1.0 
-1.0 1.0 501:1.0 
-1.0 1.0 316:1.0 700:1.0 
-0.0 0.006682155044465069 38:1.0 156:1.0 316:1.0 340:1.0 693:1.0 700:1.0 702:1.0 
-0.9481911422984338 1.0 445:1.0 492:1.0 
-0.0 0.7210150740102592 322:1.0 344:1.0 414:1.0 445:1.0 502:1.0 529:1.0 704:1.0 
-1.0 1.0 141:1.0 365:1.0 703:1.0 
-0.0 0.6137844999033162 123:1.0 248:1.0 316:1.0 504:1.0 700:1.0 706:1.0 
-0.07610708886590088 0.0 268:1.0 335:1.0 502:1.0 696:1.0 
-0.833887776558814 0.0 63:1.0 75:1.0 
-0.14751125334939616 0.6200252136694884 228:1.0 362:1.0 505:1.0 506:1.0 507:1.0 
-1.0 1.0 424:1.0 599:1.0 
-1.0 1.0 45:1.0 
-0.0 0.3802669781257988 2:1.0 356:1.0 363:1.0 495:1.0 496:1.0 
-1.0 0.7016098550011757 74:1.0 249:1.0 607:1.0 701:1.0 
-0.026611299534859537 0.0 338:1.0 372:1.0 425:1.0 489:1.0 
-0.0 1.0 495:1.0 496:1.0 
-0.006835921909504589 0.058905238525720535 347:1.0 508:1.0 509:1.0 
-1.0 1.0 89:1.0 479:1.0 
-1.0 0.9895819060456973 35:1.0 353:1.0 
-0.0 0.6735430771322297 35:1.0 123:1.0 706:1.0 
-1.0 1.0 
-1.0 1.0 
-0.16577639880244335 0.0 45:1.0 232:1.0 287:1.0 335:1.0 374:1.0 696:1.0 
-0.8676792234428682 0.0 49:1.0 99:1.0 123:1.0 139:1.0 177:1.0 706:1.0 
-1.0 1.0 5:1.0 
-0.8339383293831375 0.0 16:1.0 17:1.0 233:1.0 355:1.0 438:1.0 699:1.0 705:1.0 
-0.5748224834141088 0.0 89:1.0 362:1.0 477:1.0 
-1.0 1.0 510:1.0 
-1.0 0.39769090317998057 99:1.0 511:1.0 
-0.5766781159401695 0.27174796811428625 424:0.9162711792677062 500:1.0 
-0.0 0.04674339660058933 1:1.0 366:1.0 367:1.0 694:1.0 
-0.8975525805215301 0.0 16:1.0 332:1.0 699:1.0 
-1.0 1.0 
-1.0 1.0 368:1.0 
-1.0 1.0 
-0.9480257386420894 1.0 319:1.0 616:1.0 
-0.0 0.6634017867390447 38:1.0 99:1.0 141:1.0 410:1.0 477:1.0 495:1.0 496:1.0 693:1.0 703:1.0 
-0.021574164429647276 0.0 337:1.0 
-1.0 0.0 337:1.0 
-1.0 1.0 387:1.0 
-0.015269398856691806 6.869069384025568E-4 347:1.0 512:0.9499999874 
-0.8335028648419308 0.06616589639071542 89:1.0 347:1.0 
-0.5962478526434938 0.0 91:1.0 277:1.0 344:1.0 704:1.0 
-1.0 0.09850532452928096 8:1.0 9:1.0 16:1.0 17:1.0 147:1.0 275:1.0 513:1.0 699:1.0 705:1.0 
-0.34250739950889825 0.0 16:1.0 17:1.0 38:1.0 211:1.0 346:1.0 384:1.0 693:1.0 699:1.0 705:1.0 
-0.3146128612432209 1.0 48:1.0 242:1.0 
-0.2060213670754634 1.0 423:0.9621161620302667 514:1.0 
-1.0 1.0 
-0.48448671845533814 0.43717594068732013 5:1.0 83:1.0 484:1.0 515:1.0 516:1.0 
-0.0 0.2477351303968795 203:1.0 344:1.0 704:1.0 
-1.0 0.5352928925196849 16:1.0 17:1.0 699:1.0 705:1.0 
-1.0 1.0 
-1.0 1.0 
-0.8370952155781739 0.0 140:1.0 335:1.0 696:1.0 
-0.9029254172292825 1.0 258:1.0 
-1.0 1.0 
-0.1364470520080442 0.0 332:1.0 
-1.0 0.0 71:1.0 134:1.0 435:1.0 
-1.0 1.0 74:1.0 373:1.0 701:1.0 
-0.0 0.3325530107067591 49:1.0 74:1.0 445:1.0 477:1.0 494:1.0 502:1.0 517:1.0 701:1.0 
-1.0 1.0 48:1.0 74:1.0 701:1.0 
-1.0 1.0 16:1.0 17:1.0 74:1.0 699:1.0 701:1.0 705:1.0 
-1.0 1.0 611:1.0 
-0.5393558095910969 0.0 74:1.0 336:1.0 515:1.0 701:1.0 
-1.0 1.0 67:1.0 
-1.0 1.0 16:1.0 17:1.0 514:1.0 699:1.0 705:1.0 
-1.0 1.0 
-0.6501973537345853 0.020853816704155096 198:0.954252902026773 202:1.0 518:1.0 
-0.9225018497352698 1.0 476:1.0 
-1.0 1.0 141:1.0 478:1.0 703:1.0 
-1.0 0.37243268009689806 94:1.0 260:1.0 284:1.0 
-0.0 1.0 340:1.0 385:1.0 702:1.0 
-0.2926871524981952 0.0 59:1.0 224:1.0 351:1.0 411:1.0 431:1.0 498:1.0 
-0.0 1.0 243:1.0 338:1.0 355:1.0 507:1.0 
-1.0 1.0 316:1.0 700:1.0 
-1.0 1.0 
-0.9697292715057464 0.0 332:1.0 
-1.0 0.26862206790561177 1:0.8956193358632657 62:1.0 278:1.0 694:1.0 
-0.866147299238755 0.0 337:1.0 
-0.0 0.11605886414133813 25:1.0 354:1.0 441:1.0 445:1.0 
-1.0 1.0 
-1.0 1.0 
-1.0 1.0 518:1.0 
-1.0 1.0 519:1.0 
-1.0 1.0 
-0.0 0.14859545830651177 68:1.0 337:1.0 391:1.0 
-0.9741197413360164 0.29923188956140023 261:1.0 365:1.0 381:1.0 
-1.0 0.0 148:1.0 363:1.0 433:1.0 
-1.0 1.0 91:1.0 322:1.0 667:1.0 
-1.0 1.0 194:1.0 660:1.0 
-1.0 1.0 224:1.0 
-1.0 1.0 179:1.0 520:1.0 
-1.0 1.0 191:1.0 250:1.0 
-0.0 0.24584511357824934 74:1.0 335:1.0 696:1.0 701:1.0 
-1.0 0.1629842681134318 44:1.0 45:1.0 130:1.0 381:1.0 
-0.0 0.22209359658766512 329:1.0 344:1.0 378:1.0 522:1.0 704:1.0 
-1.0 0.64599986946093 251:1.0 252:1.0 
-1.0 0.8475372181417749 16:1.0 17:1.0 699:1.0 705:1.0 
-1.0 0.3404807532031733 71:1.0 212:1.0 405:1.0 
-0.569913774001048 0.6729596112089101 91:1.0 363:1.0 
-0.28400374085986935 0.0 161:1.0 321:1.0 359:1.0 499:1.0 
-0.18702358779028372 0.0 49:1.0 497:1.0 499:1.0 550:1.0 
-0.0 1.0 423:1.0 483:1.0 499:1.0 525:1.0 
-0.6510873973491249 1.0 224:1.0 322:1.0 493:1.0 507:1.0 
-1.0 1.0 13:1.0 141:1.0 242:1.0 703:1.0 708:1.0 
-1.0 0.5018601868983122 76:1.0 503:1.0 
-1.0 1.0 33:1.0 521:1.0 
-0.295050427376916 0.4376459649814672 444:1.0 517:1.0 695:1.0 
-0.7677419172101977 -0.26154850636996285 6:1.0 83:1.0 354:1.0 527:1.0 
-1.0 -1.0 13:1.0 708:1.0 
-0.04174534927968926 -0.07920297101489493 532:1.0 
-0.254060379038347 -0.0 38:1.0 532:1.0 693:1.0 
-0.013769820747174366 -0.0 533:1.0 
-1.0 -1.0 
-0.0 -0.23574188209462196 535:1.0 538:1.0 
-1.0 -0.9394370319112515 540:1.0 
-1.0 -1.0 
-1.0 -1.0 
-0.7205623881910769 -0.4697126326410297 541:1.0 542:1.0 
-1.0 -1.0 
-1.0 -1.0 
-0.9104995924827063 -0.024384313932184567 525:1.0 544:1.0 545:1.0 
-0.0 -0.058663202555373876 26:1.0 100:1.0 194:1.0 508:1.0 509:1.0 514:1.0 546:0.9557624022993108 547:1.0 548:1.0 
-1.0 -1.0 
-1.0 -0.9577894421607345 549:1.0 
-1.0 -0.0021126563804129187 306:1.0 
-1.0 -1.0 385:1.0 
-0.0 -0.5186142419468545 74:1.0 141:1.0 278:1.0 701:1.0 703:1.0 
-0.5282823191102592 -0.0 13:1.0 149:1.0 524:1.0 698:1.0 708:1.0 
-0.0 -0.4149676284412338 13:1.0 47:1.0 102:1.0 242:1.0 517:1.0 550:1.0 707:1.0 708:1.0 
-1.0 -1.0 
-9.208553601451896E-4 -1.0 316:1.0 700:1.0 
-1.0 -0.1100756608443637 91:1.0 193:1.0 526:1.0 
-1.0 -0.19295340732728494 35:1.0 551:1.0 
-0.17863055441118467 -0.0 33:1.0 108:1.0 203:1.0 544:1.0 554:1.0 
-0.8940169188708222 -0.17658627750228298 13:1.0 45:1.0 76:1.0 292:1.0 555:1.0 708:1.0 
-0.16124491881271613 -0.0 91:1.0 416:1.0 543:1.0 
-0.48769417415407285 -0.36246581402645484 91:1.0 555:1.0 
-0.0 -0.272000614449682 91:1.0 216:1.0 553:1.0 556:1.0 
-1.0 -1.0 91:0.9701426475816275 
-0.23789726721670446 -0.40149027225687633 91:1.0 258:1.0 557:1.0 
-1.0 -1.0 
-0.13246267217389535 -0.555970071701817 438:1.0 530:1.0 
-0.17945533934144675 -0.15817301320840343 532:1.0 
-1.0 -0.9395865942813616 558:1.0 
-1.0 -1.0 
-1.0 -1.0 
-1.0 -0.0 83:1.0 277:1.0 559:1.0 
-0.998513918086248 -0.0 560:1.0 
-1.0 -1.0 251:1.0 561:1.0 
-1.0 -1.0 
-0.8364712739438163 -0.0 533:1.0 
-1.0 -0.7815862265098318 562:1.0 
-0.25373400857830053 -0.15807669743253883 414:1.0 562:1.0 563:1.0 
-1.0 -1.0 
-1.0 -0.0 514:1.0 
-0.7614837522151326 -0.0 564:1.0 
-1.0 -0.0 35:1.0 306:1.0 
-0.0 -0.8123626594087 16:1.0 17:1.0 78:1.0 329:1.0 566:1.0 699:1.0 705:1.0 
-0.0 -0.5484777053733668 16:1.0 17:1.0 19:1.0 35:1.0 203:1.0 565:1.0 569:1.0 699:1.0 705:1.0 
-0.37432797280446306 -1.0 16:1.0 17:1.0 157:1.0 573:1.0 574:1.0 575:1.0 699:1.0 705:1.0 
-0.1206445768572747 -0.0 425:1.0 576:1.0 577:1.0 578:1.0 
-1.0 -0.0 267:1.0 535:1.0 
-1.0 -1.0 
-0.36210982201159836 -0.0 204:1.0 327:1.0 580:1.0 
-0.0 -0.04660342728329852 63:1.0 327:1.0 522:1.0 
-1.0 -0.0 225:1.0 536:1.0 
-1.0 -1.0 
-0.760392328036263 -0.8630003318763182 424:0.9581355531685978 531:1.0 583:1.0 
-0.0 -1.0 258:1.0 363:1.0 392:1.0 536:1.0 
-0.0 -0.30005178180012615 38:1.0 73:1.0 157:1.0 395:1.0 445:1.0 524:1.0 693:1.0 698:1.0 
-1.0 -1.0 203:1.0 
-0.35238986669123123 -0.0 73:1.0 157:1.0 524:1.0 548:1.0 574:1.0 698:1.0 
-0.7505116665205523 -0.343091005591345 585:1.0 586:1.0 
-0.6449916431799988 -1.0 333:1.0 548:1.0 566:1.0 
-0.5709641963474833 -0.30040694333226525 205:1.0 216:1.0 255:1.0 385:1.0 476:1.0 590:1.0 
-1.0 -1.0 
-1.0 -0.9394284393426854 591:1.0 
-0.3604776490656908 -0.23541287407203265 201:1.0 224:1.0 557:1.0 592:1.0 
-1.0 -1.0 67:1.0 140:0.9591040300577447 209:1.0 250:1.0 
-0.9999066741449932 -1.0 194:1.0 258:1.0 560:1.0 
-0.0 -0.6070715790032698 83:1.0 242:1.0 338:1.0 539:1.0 697:1.0 
-0.9635554792188148 -1.0 83:1.0 495:1.0 496:1.0 
-0.37738091773725363 -0.6162890512533065 438:1.0 598:1.0 599:1.0 600:1.0 
-0.8003536862006632 -0.0 94:1.0 305:1.0 
-0.46755182671678136 -0.9220920478770938 107:1.0 549:1.0 
-1.0 -1.0 
-0.7617993614353223 -0.9091951478039043 258:1.0 514:1.0 
-0.23819679011236758 -0.0 209:1.0 565:1.0 602:1.0 
-1.0 -0.0 82:1.0 532:1.0 
-0.8807470513671132 -0.4696317042049244 567:1.0 603:1.0 
-1.0 -0.0 62:1.0 204:1.0 604:1.0 
-1.0 -1.0 224:1.0 440:1.0 
-1.0 -0.4926564440515557 16:1.0 17:1.0 71:0.9643026183465505 275:1.0 524:1.0 698:1.0 699:1.0 705:1.0 
-1.0 -1.0 74:1.0 701:1.0 
-1.0 -1.0 74:1.0 701:1.0 
-1.0 -1.0 50:1.0 51:1.0 74:1.0 76:1.0 701:1.0 
-0.10490197252873468 -0.0207781146544438 74:1.0 546:1.0 701:1.0 
-1.0 -1.0 74:1.0 701:1.0 
-1.0 -1.0 74:1.0 701:1.0 
-1.0 -0.0 74:1.0 248:1.0 288:1.0 553:1.0 701:1.0 
-1.0 -1.0 74:1.0 701:1.0 
-0.626006393551751 -0.3383370491781063 74:1.0 108:1.0 277:1.0 322:1.0 701:1.0 
-1.0 -1.0 74:1.0 430:1.0 701:1.0 
-1.0 -1.0 74:1.0 701:1.0 
-0.0 -0.04815217432106551 74:1.0 495:1.0 496:1.0 701:1.0 
-0.05396644416587742 -0.0 74:1.0 591:1.0 609:1.0 701:1.0 
-0.2603754861212992 -0.25373274835371373 74:1.0 610:1.0 701:1.0 
-1.0 -1.0 74:1.0 701:1.0 
-0.2072714514606042 -0.452747612065635 457:1.0 502:1.0 516:1.0 611:1.0 613:1.0 614:1.0 
-1.0 -0.471056033075679 74:1.0 109:1.0 701:1.0 
-0.0 -0.19341015852366308 49:1.0 67:1.0 74:1.0 338:1.0 524:1.0 572:1.0 615:1.0 616:1.0 698:1.0 701:1.0 
-1.0 -1.0 13:1.0 411:1.0 708:1.0 
-1.0 -1.0 621:1.0 
-1.0 -1.0 74:1.0 701:1.0 
-0.5974477852579799 -0.12497633426699811 83:1.0 89:1.0 482:1.0 577:1.0 622:1.0 623:1.0 
-0.9397800594906257 -0.37228259891599386 446:1.0 608:1.0 
-1.0 -1.0 38:1.0 157:1.0 693:1.0 
-0.0 -0.07505112227710167 45:1.0 240:1.0 534:1.0 537:1.0 627:1.0 
-0.6047347746748077 -0.5537378934069005 11:1.0 43:1.0 224:1.0 243:1.0 329:1.0 557:1.0 
-1.0 -1.0 530:1.0 
-1.0 -1.0 
-1.0 -0.9067376751330578 63:1.0 534:1.0 
-0.21732408205358736 -1.0 33:1.0 45:1.0 499:1.0 605:1.0 
-1.0 -1.0 
-1.0 -1.0 
-0.1194034625806232 -0.12884357949172376 74:1.0 438:1.0 631:1.0 701:1.0 
-0.2616859516587103 -0.3080651001853832 416:1.0 526:1.0 631:1.0 
-1.0 -0.3534419581383177 598:1.0 599:1.0 
-0.6725185816681376 -0.0 533:1.0 
-5.645754738068352E-7 -0.0 378:1.0 514:1.0 
-1.0 -1.0 38:1.0 74:1.0 693:1.0 701:1.0 
-0.0 -0.14214619462709152 76:1.0 539:1.0 697:1.0 
-0.02699234046086778 -0.0 292:1.0 539:1.0 637:1.0 638:1.0 697:1.0 
-0.20239832448400044 -0.0 62:1.0 555:1.0 604:1.0 626:1.0 
-0.0 -0.11218922736120335 5:1.0 522:1.0 639:1.0 640:1.0 
-1.0 -0.0 109:1.0 285:1.0 
-1.0 -0.3673073776449256 45:1.0 641:1.0 
-0.6561668503321527 -0.1130132789871275 330:1.0 642:1.0 
-1.0 -1.0 363:1.0 
-0.0 -0.21901914914412948 322:1.0 445:1.0 514:1.0 623:1.0 
-0.6986586647604891 -1.0 25:1.0 191:1.0 643:1.0 644:1.0 
-0.4073118301007816 -0.0 83:1.0 645:1.0 646:1.0 
-0.11267436916403821 -0.7295646073545898 645:1.0 648:1.0 
-0.0 -0.6084281494736248 123:1.0 517:1.0 604:1.0 649:1.0 650:1.0 706:1.0 
-1.0 -1.0 
-1.0 -0.9376040195974892 306:1.0 
-0.44908190378475904 -0.7135465198041959 502:1.0 642:1.0 
-0.7686253193691894 -0.02103462621087988 522:1.0 
-0.0 -0.39818875557275196 511:1.0 522:1.0 
-0.0 -0.583308510269021 522:1.0 
-0.01576329154332549 -0.0 292:1.0 522:1.0 652:1.0 
-0.03808874352101744 -0.0 292:1.0 522:1.0 652:1.0 
-0.7616799234612754 -0.998944192586259 451:1.0 
-1.0 -0.940608154778772 451:1.0 
-0.11676722219866274 -0.0 566:1.0 
-0.7503744293683682 -0.34293628282891636 610:1.0 654:1.0 
-1.0 -0.9795811174304392 349:1.0 584:1.0 
-0.29570452890951127 -0.5499793192569155 11:1.0 475:1.0 532:0.9674297828517266 
-0.664999033592874 -0.0 141:1.0 540:1.0 703:1.0 
-0.0 -0.022462717125204878 141:1.0 201:1.0 216:1.0 553:1.0 590:1.0 703:1.0 
-0.0 -1.0 48:1.0 141:1.0 514:1.0 703:1.0 
-1.0 -1.0 48:1.0 141:1.0 703:1.0 
-1.0 -1.0 141:1.0 703:1.0 
-0.0 -0.6529474690346679 141:1.0 288:1.0 553:1.0 703:1.0 
-0.0 -0.05720928749600907 48:1.0 141:1.0 288:1.0 292:1.0 553:1.0 703:1.0 
-0.0 -0.5877563152581531 141:1.0 496:1.0 703:1.0 
-0.5335744668640353 -0.6904858696195058 141:1.0 410:1.0 482:1.0 703:1.0 
-1.0 -1.0 141:1.0 703:1.0 
-0.3595942806465496 -0.7094926312582218 141:1.0 292:1.0 323:1.0 661:1.0 703:1.0 
-0.46798134181593054 -1.0 340:1.0 341:1.0 479:1.0 551:1.0 702:1.0 
-1.0 -0.0 98:1.0 514:1.0 
-1.0 -0.5274009520234935 13:0.9733166011317542 32:1.0 427:1.0 708:1.0 
-0.6368723982272055 -0.0 553:1.0 
-1.0 -1.0 123:1.0 706:1.0 
-1.0 -1.0 
-1.0 -0.21012915699147683 645:1.0 
-0.0 -1.0 495:1.0 496:1.0 
-1.0 -1.0 
-1.0 -0.6677942257546241 647:1.0 
-0.4152821774858317 -0.2717657246936748 45:1.0 647:1.0 664:1.0 
-1.0 -1.0 
-0.0 -0.7292612171887584 483:1.0 525:1.0 
-1.0 -1.0 91:1.0 
-1.0 -1.0 11:1.0 666:0.9465996167497696 
-1.0 -1.0 267:1.0 
-0.8599162738231363 -0.8529238378992222 37:1.0 75:1.0 76:1.0 487:1.0 663:1.0 
-1.0 -0.24308875315712408 49:1.0 139:1.0 550:1.0 
-0.500678419535109 -0.03825743875091825 531:1.0 628:1.0 
-1.0 -1.0 422:1.0 
-1.0 -0.0 575:1.0 
-0.9391850067505255 -0.0 486:1.0 522:1.0 
-0.9862756399422414 -0.6912002663261266 154:1.0 632:1.0 
-0.4255660917227512 -0.0 525:1.0 606:1.0 
-0.0 -0.3619754894575183 47:1.0 430:1.0 507:1.0 623:1.0 635:1.0 707:1.0 
-1.0 -1.0 2:1.0 74:1.0 701:1.0 
-0.2915922403630623 -0.5136408399830972 228:1.0 304:1.0 
-1.0 -1.0 
-0.9270775709002724 -0.6527207738202819 83:1.0 559:1.0 
-0.7632963606241209 -0.0 560:1.0 
-1.0 -0.39114797139050683 565:1.0 
-1.0 -0.0 292:1.0 565:1.0 
-0.9748550644326157 -0.8369614042301895 179:1.0 616:1.0 
-1.0 -1.0 179:1.0 
-1.0 -0.24086015288936716 228:1.0 
-1.0 -0.4508148411022375 24:1.0 183:1.0 211:1.0 
-0.0 -0.13724128962312745 525:1.0 606:1.0 669:1.0 
-0.7621399395443427 -0.005820305108222026 582:1.0 
-1.0 -1.0 38:1.0 693:1.0 
-1.0 -1.0 
-1.0 -0.41479117059695736 193:1.0 653:1.0 
-1.0 -1.0 507:1.0 
-0.23519713486046326 -1.0 13:1.0 243:1.0 493:1.0 507:1.0 708:1.0 
-0.2214762343859676 -0.0 140:1.0 228:1.0 507:1.0 516:1.0 670:1.0 
-1.0 -1.0 507:1.0 
-1.0 -0.5041872276264331 34:1.0 305:1.0 379:1.0 
-1.0 -1.0 338:1.0 659:1.0 
-1.0 -0.983288435596025 529:1.0 
-0.0 -0.12965128923619276 316:1.0 367:1.0 581:1.0 633:1.0 700:1.0 
-0.9482497697794325 -1.0 316:1.0 700:1.0 
-1.0 -1.0 316:1.0 700:1.0 
-0.0 -0.287795589293921 316:1.0 547:1.0 700:1.0 
-0.931554780577105 -1.0 316:1.0 700:1.0 
-0.0 -0.8169282827621132 141:1.0 316:1.0 700:1.0 703:1.0 
-1.0 -1.0 445:1.0 
-0.0 -0.6837075143462621 445:1.0 533:1.0 
-0.8806815467245112 -0.46970562495951074 601:1.0 634:1.0 
-0.0 -1.0 316:1.0 655:1.0 700:1.0 
-0.0 -0.020092110006169055 322:1.0 532:1.0 673:0.9465996167497696 
-0.25369431182134555 -0.8446279710047357 423:1.0 629:1.0 641:1.0 
-1.0 -1.0 322:1.0 
-0.23866807895866676 -0.0742519058716641 93:1.0 533:1.0 669:1.0 
-0.2538193353640701 -0.47668703627499076 445:1.0 625:1.0 680:1.0 
-1.0 -1.0 35:1.0 483:1.0 
-0.3203380057391975 -0.0 35:1.0 145:1.0 154:1.0 158:1.0 538:1.0 541:1.0 
-0.0 -0.08243341504085781 13:1.0 38:1.0 183:1.0 338:1.0 438:1.0 532:1.0 693:1.0 708:1.0 
-1.0 -0.0 38:0.9716068859975728 605:1.0 693:1.0 
-1.0 -0.0 566:1.0 
-0.9995319917027228 -0.9337885247006474 346:1.0 582:1.0 
-0.6297902851252628 -0.7137509315251676 91:1.0 248:1.0 354:1.0 570:1.0 
-0.07698560246958501 -0.0 260:1.0 524:1.0 569:1.0 698:1.0 
-0.880850095702229 -1.0 344:1.0 704:1.0 
-1.0 -0.9395551067461496 315:1.0 
-1.0 -0.9396111496340447 658:1.0 
-1.0 -0.0 684:1.0 
-0.0 -1.0 494:1.0 514:1.0 
-0.12898027431748094 -0.0 3:1.0 243:1.0 557:1.0 648:1.0 662:1.0 
-1.0 -0.9395065078963816 671:1.0 
-0.44353104059863946 -1.0 304:1.0 322:1.0 667:1.0 
-0.0 -0.1256111206417093 109:1.0 322:1.0 592:1.0 
-1.0 -0.0 50:1.0 51:1.0 242:1.0 
-1.0 -0.6769619914074108 233:1.0 529:1.0 660:1.0 
-0.26705828551536764 -0.0 47:1.0 255:1.0 534:1.0 707:1.0 
-0.9977176893033092 -0.0 683:1.0 
-0.7639446036330177 -0.9395558886535182 683:1.0 
-1.0 -0.6575069963239177 49:1.0 139:1.0 624:1.0 
-0.6676218298529965 -0.0 3:0.9570354377473717 139:1.0 141:1.0 651:1.0 703:1.0 
-0.2527023055590857 -0.0 139:1.0 557:1.0 
-0.9102616897041529 -0.17800819596701611 108:1.0 223:1.0 618:1.0 
-1.0 -1.0 16:1.0 17:1.0 205:1.0 394:1.0 681:1.0 699:1.0 705:1.0 
-1.0 -0.939621930674988 593:1.0 
-0.003389487900688354 -0.0 565:1.0 685:1.0 
-0.9057630507993573 -0.5198544392790038 1:1.0 546:1.0 597:1.0 686:1.0 694:1.0 
-1.0 -0.0 38:1.0 392:1.0 517:1.0 693:1.0 
-1.0 -0.9396867418809202 687:1.0 
-0.0 -1.0 5:0.9242323033028577 495:1.0 496:1.0 
-1.0 -1.0 
-1.0 -0.939565387645289 688:1.0 
-0.262535907027251 -0.02015875086788959 385:1.0 602:1.0 
-0.6997324498016609 -0.0 204:1.0 635:1.0 
-1.0 -0.9395058796836498 543:1.0 
-0.2380786627702698 -0.0 239:1.0 534:1.0 627:1.0 
-1.0 -1.0 
-0.7015737131914699 -0.0 44:1.0 45:1.0 130:1.0 291:1.0 593:1.0 687:1.0 
-0.5871456420874123 -1.0 391:1.0 437:1.0 682:1.0 
-0.0 -1.0 16:1.0 17:1.0 35:1.0 242:1.0 258:1.0 385:1.0 699:1.0 705:1.0 
-1.0 -1.0 5:1.0 203:1.0 319:1.0 
-1.0 -1.0 
-1.0 -1.0 
-1.0 -1.0 364:1.0 
-1.0 -0.9403788374757291 89:1.0 564:1.0 
-0.6432230930666466 -0.846508748424308 94:1.0 446:1.0 
-1.0 -1.0 525:1.0 
-0.12474368023287334 -0.0 74:1.0 203:1.0 288:1.0 553:1.0 589:1.0 701:1.0 
-0.26024687744350755 -0.25355529798548926 74:1.0 585:1.0 701:1.0 
-1.0 -1.0 
-0.5275076505591011 -0.0 554:1.0 649:1.0 650:1.0 
-0.6379932102169602 -0.0 539:1.0 697:1.0 
-0.21590556079032347 -0.0 265:1.0 539:1.0 697:1.0 
-1.0 -0.939559634789913 576:1.0 
-0.0 -0.40440533628730135 351:1.0 414:1.0 555:1.0 
-1.0 -1.0 
-1.0 -0.5922617768155983 141:1.0 285:1.0 703:1.0 
-0.1955195091563283 -0.0 500:1.0 551:1.0 689:1.0 
-1.0 -1.0 
-0.0 -0.0717528764526641 288:1.0 553:1.0 616:1.0 668:1.0 
-0.2214878673032606 -0.17340404449115732 141:1.0 587:1.0 588:1.0 668:1.0 703:1.0 
-1.0 -1.0 250:1.0 
-1.0 -1.0 
-0.9931407548703687 -0.0 579:1.0 
-0.25655529128780963 -0.0 534:1.0 
-0.0 -0.004470694865109499 13:1.0 383:1.0 534:1.0 633:1.0 708:1.0 
-0.0 -0.31902181511222394 204:1.0 483:1.0 
-1.0 -1.0 
-1.0 -1.0 204:1.0 
-0.0 -0.0546412525758694 316:1.0 622:1.0 640:1.0 700:1.0 
-1.0 -0.939542364986067 684:1.0 
-0.0 -0.06731565968231049 41:1.0 74:1.0 75:1.0 108:1.0 532:1.0 580:1.0 701:1.0 
-1.0 -0.939536723368738 690:1.0 
-0.25813888174954625 -0.0 565:1.0 685:1.0 
-1.0 -0.8050979047253436 228:1.0 
-1.0 -0.0 228:1.0 309:1.0 
-0.768358144532896 -0.9393188442091663 579:1.0 
-0.8049431849335027 -0.4912983593039282 485:0.9499999874 538:0.9523993617178639 
-1.0 -0.4695796560087696 3:1.0 491:1.0 
-0.0038987823646399024 -0.0 83:1.0 524:1.0 612:1.0 698:1.0 
-1.0 -1.0 261:1.0 
-1.0 -1.0 
-1.0 -0.9399607060542188 304:1.0 689:1.0 
-1.0 -0.9395144144304293 691:1.0 
-0.0 -0.19532058957715187 31:1.0 305:1.0 394:1.0 493:1.0 533:1.0 
-1.0 -0.9393035364009263 617:1.0 
-0.38082466523364084 -0.0 51:1.0 690:1.0 
-1.0 -0.39929140710840655 242:1.0 686:1.0 
-0.42716423784176966 -0.5988070672610796 242:1.0 385:1.0 
-0.19460177088467184 -1.0 48:1.0 74:1.0 75:1.0 394:1.0 701:1.0 
