svm_type c_svc
kernel_type linear
nr_class 3
total_sv 951
rho -0.922794658015532 -0.8937271317021893 -0.07484712503606562
label 0 1 2
nr_sv 375 309 267
SV
1.0 1.0 
0.8929176422827259 0.5580867373895623 1:1.0 
1.0 1.0 
0.07571078706784357 0.0 2:1.0 3:1.0 13:1.0 650:1.0 656:1.0 
1.0 1.0 
0.07198599004117968 0.0 9:1.0 14:1.0 15:1.0 16:1.0 
0.7297252641113299 0.0 2:1.0 3:1.0 467:1.0 650:1.0 656:1.0 
1.0 0.10550387925437624 22:1.0 23:1.0 
1.0 1.0 
1.0 1.0 
1.0 1.0 
1.0 0.20199534962155716 28:1.0 
0.4585782534776434 0.21259040371580287 30:1.0 31:1.0 401:1.0 600:1.0 
0.0 0.10572414987809649 35:1.0 
0.8789072258984539 0.05295376833193722 39:1.0 40:1.0 
1.0 1.0 
1.0 1.0 
0.2627698957282924 0.0 2:1.0 3:1.0 47:1.0 650:1.0 656:1.0 
0.01941351586687881 0.10607567164787599 48:1.0 
0.6946719006519717 0.26500128353506347 52:1.0 53:1.0 54:1.0 
0.27276031760261227 1.0 45:0.9452675049469591 59:1.0 60:1.0 61:1.0 62:1.0 592:1.0 
0.09217684365534103 0.31108948599829483 63:1.0 64:1.0 65:1.0 66:1.0 420:1.0 563:1.0 
0.798682422142639 0.763453657252694 63:1.0 67:1.0 68:1.0 445:1.0 651:1.0 
0.45221560472540717 0.0 33:1.0 69:1.0 70:1.0 71:1.0 409:1.0 
0.08511562398848828 0.0 2:1.0 3:1.0 38:1.0 72:1.0 73:1.0 650:1.0 656:1.0 
1.0 1.0 567:1.0 
1.0 1.0 
1.0 1.0 
1.0 0.0 2:1.0 3:1.0 650:1.0 656:1.0 
1.0 1.0 
1.0 1.0 
0.0 1.0 81:1.0 82:1.0 550:1.0 
1.0 1.0 
0.0 0.01588605250466265 2:1.0 3:1.0 5:1.0 63:1.0 69:1.0 83:1.0 650:1.0 656:1.0 
1.0 1.0 
0.6023197840622468 0.0 87:1.0 
1.0 0.10601312280591665 395:1.0 
0.12919222850176904 0.0 89:1.0 90:1.0 91:1.0 92:1.0 93:1.0 94:1.0 95:1.0 96:1.0 
1.0 1.0 
0.07711647975252583 1.0 97:1.0 
1.0 1.0 
1.0 0.0 8:1.0 421:1.0 658:1.0 
0.0 0.6114039023362114 102:1.0 103:1.0 104:1.0 
1.0 1.0 
1.0 1.0 
0.9082968943316803 0.7600912423837834 33:1.0 
1.0 1.0 67:1.0 651:1.0 
1.0 0.7115489595285233 96:1.0 118:0.9479380141019661 
0.2215109809210049 0.10564844114798955 23:1.0 119:1.0 
1.0 0.0 2:1.0 3:1.0 650:1.0 656:1.0 
1.0 1.0 
0.07721378886404467 0.10619520570790308 120:1.0 
0.15540747275178235 0.21972792450740572 9:1.0 25:1.0 91:1.0 114:1.0 121:1.0 122:1.0 652:1.0 
0.0 0.5779262366588362 20:1.0 123:0.9452675049469591 124:1.0 437:1.0 
0.06459076013994554 0.0 125:1.0 126:1.0 127:1.0 128:1.0 
0.9964434360561985 0.0 30:1.0 109:1.0 
0.6913912562263542 0.39990929779325257 63:1.0 327:1.0 
0.0 0.04650799560349673 23:1.0 49:1.0 132:1.0 133:1.0 134:1.0 135:1.0 
1.0 1.0 
0.49283196372276156 0.03547490506169351 138:1.0 139:1.0 640:1.0 
0.06088734952785965 0.5530659594801126 141:1.0 142:1.0 
1.0 1.0 
0.31396011236962434 0.0 8:1.0 57:1.0 90:1.0 357:1.0 658:1.0 
0.0 0.07555843358597739 135:1.0 148:1.0 
0.477822455555828 1.0 141:1.0 142:1.0 472:1.0 
0.15504936274126213 0.03150449978460413 23:1.0 33:1.0 69:0.9656518885229365 148:1.0 149:1.0 475:1.0 
0.5175217615454172 1.0 507:1.0 508:1.0 
1.0 1.0 
1.0 1.0 
1.0 0.10623931943539384 407:1.0 
0.09933224367748336 0.0 49:1.0 133:1.0 
0.08675223590410182 0.11950646634892045 155:0.9414806056077009 
0.20962416088952873 0.0 156:1.0 442:1.0 
0.07725633675806956 0.10603917350679853 161:1.0 
0.08143096308503618 0.35743403361432974 154:1.0 162:1.0 163:1.0 609:1.0 
0.0 0.10602888029274866 165:1.0 
0.1107082646413319 0.6669781195196884 38:1.0 166:1.0 167:1.0 
0.0 0.42311629800759154 65:1.0 
0.0 0.5430563834561188 26:1.0 
0.021027730534160547 0.0 86:1.0 168:1.0 169:1.0 
0.038695378488274146 0.009536342326058284 79:1.0 112:1.0 
0.004150314400203192 0.0 83:1.0 170:1.0 171:1.0 
1.0 1.0 60:1.0 67:1.0 166:1.0 172:1.0 173:1.0 651:1.0 657:1.0 
0.3995937019656162 0.0 174:1.0 
0.0772335460054105 0.10610795174058 175:1.0 
1.0 0.1061940903528298 42:1.0 
0.0 0.7364106451889421 176:1.0 
0.5805101171008233 0.0 177:1.0 
1.0 1.0 
0.07736474403555514 0.10611613370335155 182:1.0 
1.0 1.0 23:1.0 
1.0 1.0 
1.0 1.0 67:1.0 651:1.0 
1.0 0.0 2:1.0 3:1.0 650:1.0 656:1.0 
0.6212761033785176 0.053113017520884084 184:1.0 464:1.0 
0.0 0.1508368751661426 131:1.0 188:1.0 189:1.0 190:1.0 585:1.0 
1.0 1.0 
0.07641888594632784 0.0 2:1.0 3:1.0 191:1.0 650:1.0 656:1.0 
0.0 0.22133813641855216 135:1.0 193:1.0 
1.0 1.0 
1.0 1.0 2:1.0 3:1.0 122:1.0 139:1.0 194:1.0 195:1.0 379:1.0 537:1.0 650:1.0 652:1.0 656:1.0 
0.4666839430912913 0.0 2:1.0 3:1.0 125:1.0 126:1.0 127:1.0 128:1.0 650:1.0 656:1.0 
1.0 0.0 2:1.0 3:1.0 650:1.0 656:1.0 
1.0 1.0 
0.025769952779055066 0.0 51:1.0 196:1.0 197:1.0 198:1.0 
0.629247180886178 0.0 51:1.0 199:1.0 200:1.0 
1.0 1.0 
0.4029421159212996 0.0 201:1.0 202:1.0 
0.5385312249519364 0.0 203:1.0 535:1.0 
0.02575678207054641 1.0 204:1.0 205:1.0 
0.07280130088347313 0.0 30:1.0 206:1.0 207:1.0 
0.21044245112096263 0.5427656143755206 66:1.0 102:1.0 200:1.0 210:1.0 211:1.0 
0.015393376990490565 0.0 9:1.0 
1.0 1.0 
0.0 0.9574639757515532 144:1.0 171:1.0 356:1.0 
0.3860649883149318 0.0 2:1.0 650:1.0 
1.0 1.0 
0.2923529688488084 1.0 212:1.0 591:1.0 
0.5494759906066019 0.0 2:1.0 17:1.0 96:1.0 140:0.9553932004454203 650:1.0 
1.0 1.0 
1.0 1.0 3:1.0 215:1.0 216:1.0 656:1.0 
1.0 1.0 
1.0 0.31897432974758017 2:1.0 218:1.0 650:1.0 
0.09447736230587614 1.623393243697833E-4 35:1.0 219:1.0 
0.0032652589525050462 0.0 109:1.0 110:1.0 111:1.0 220:1.0 221:1.0 
0.31638525002117635 0.7336332685145518 67:1.0 100:1.0 222:1.0 477:1.0 629:1.0 651:1.0 
0.5651806343481994 0.0 190:1.0 223:1.0 
1.0 1.0 160:1.0 
0.23108360475828205 1.0 62:1.0 122:1.0 163:1.0 224:1.0 225:1.0 637:1.0 652:1.0 
1.0 1.0 
0.0 0.017785856130113884 1:1.0 13:1.0 18:1.0 51:1.0 69:1.0 95:1.0 137:1.0 
0.43358466485240577 0.13685398842644922 2:1.0 3:1.0 86:1.0 226:1.0 227:1.0 650:1.0 656:1.0 
0.5521387191958659 0.30699253652999425 65:1.0 208:1.0 228:1.0 
1.0 0.0 2:1.0 3:1.0 650:1.0 656:1.0 
1.0 0.20027976472544542 338:1.0 
0.0771042986531272 0.2085870918007723 104:1.0 
1.0 0.1414590846868202 69:1.0 129:1.0 229:1.0 
0.4946224829464633 0.38636389736594096 46:1.0 135:1.0 207:1.0 228:1.0 412:1.0 610:1.0 
0.0 0.10583052883827154 32:1.0 
1.0 0.0 2:1.0 3:1.0 650:1.0 656:1.0 
0.5701934149710659 1.0 102:1.0 125:1.0 225:1.0 
1.0 0.27145678163736164 49:1.0 
0.03859784024158643 0.05306259022817409 213:1.0 230:1.0 
1.0 0.5655073120305466 29:1.0 67:1.0 86:1.0 177:1.0 651:1.0 
1.0 1.0 
1.0 0.43926781601342296 231:1.0 
1.0 1.0 
0.4531937410178999 0.3801381969277413 124:1.0 233:1.0 463:1.0 
0.05770253101995258 0.0 48:1.0 49:1.0 54:1.0 149:1.0 234:1.0 
0.08987318579863748 0.17702293665344015 171:0.9033576784968668 
1.0 1.0 
0.0 1.0 163:1.0 235:1.0 
0.07717184844346689 0.10552155295490417 236:1.0 
1.0 0.0 2:1.0 3:1.0 650:1.0 656:1.0 
1.0 1.0 
1.0 1.0 
1.0 1.0 138:1.0 
1.0 0.047064529464064885 86:1.0 237:0.9479380141019661 238:1.0 443:1.0 
1.0 1.0 67:1.0 651:1.0 
0.40871339075001284 0.29603547404944275 33:1.0 85:1.0 166:1.0 167:1.0 241:0.9452675049469591 
1.0 0.0 2:1.0 3:1.0 650:1.0 656:1.0 
1.0 1.0 
1.0 1.0 
0.5109832030595777 0.7591708988386542 8:1.0 29:1.0 49:1.0 528:1.0 658:1.0 
0.7660945137595362 7.941512762795849E-5 14:1.0 15:1.0 35:1.0 
0.867602757388104 0.2113727462411738 156:1.0 
1.0 0.5564266043222952 160:1.0 245:1.0 
0.48219800140645536 1.0 30:1.0 50:1.0 63:1.0 246:1.0 406:1.0 
1.0 1.0 
0.03873798737178175 0.21470346172469074 322:1.0 339:1.0 
0.7298805356973024 0.0 2:1.0 3:1.0 243:1.0 650:1.0 656:1.0 
0.0 0.4632985401810594 248:1.0 249:1.0 
0.0 0.10641549540745249 250:1.0 
1.0 0.0 2:1.0 3:1.0 650:1.0 656:1.0 
0.0 1.0 82:1.0 200:1.0 529:1.0 
1.0 1.0 
0.7919271814024897 0.0 190:1.0 
0.08623167676778387 0.41712374002095465 160:1.0 254:1.0 
0.30457299535911214 0.11530152048739536 11:1.0 53:1.0 217:1.0 
1.0 1.0 
1.0 0.0 190:1.0 256:1.0 323:1.0 654:1.0 
0.0 0.7961753959929407 185:1.0 
1.0 1.0 
1.0 0.0 2:1.0 3:1.0 650:1.0 656:1.0 
0.02251885091822322 0.3147978066551047 49:1.0 201:1.0 202:1.0 579:1.0 
0.07693613269667243 1.0 214:1.0 
0.0 0.10619458305476237 257:1.0 
0.43763142791889786 0.0 30:1.0 
1.0 1.0 
1.0 1.0 67:1.0 651:1.0 
0.25929383394259364 0.0 238:1.0 249:1.0 
0.0 0.10609343639578411 16:1.0 
0.20877467993667673 0.0 2:1.0 3:1.0 14:1.0 15:1.0 27:1.0 110:1.0 650:1.0 656:1.0 
1.0 1.0 
1.0 1.0 67:1.0 651:1.0 
1.0 1.0 
0.07720273099317881 0.10604062782501275 262:1.0 
0.02618755259946214 0.05313224103937231 75:1.0 264:1.0 
0.07713032215396659 1.0 248:1.0 
0.07697738179122286 0.21168476475909573 183:1.0 
0.36753015447013443 0.0 34:1.0 103:1.0 177:1.0 188:1.0 223:1.0 266:1.0 
0.21270699432630558 0.36273963084052174 67:1.0 147:1.0 263:1.0 651:1.0 
1.0 0.7830305838035246 163:1.0 
0.0023367243875420485 0.0 2:1.0 3:1.0 108:1.0 178:0.9499999874 179:1.0 267:1.0 650:1.0 656:1.0 
1.0 0.08821955211625827 67:1.0 69:1.0 113:1.0 125:1.0 332:1.0 651:1.0 
0.0 0.28314602747516304 69:1.0 70:1.0 
1.0 0.0 2:1.0 3:1.0 333:1.0 650:1.0 656:1.0 
2.959661582233389E-4 0.0 2:1.0 3:1.0 80:1.0 108:1.0 260:1.0 268:1.0 269:1.0 270:1.0 271:1.0 650:1.0 656:1.0 
1.0 0.02220070446973597 47:0.9499999874 130:1.0 272:1.0 
1.0 1.0 
1.0 1.0 
1.0 1.0 
1.0 0.7176092045457915 195:1.0 273:1.0 349:1.0 632:1.0 
0.0 0.5529897020812916 109:1.0 110:1.0 
0.8347692475236619 7.00329955804E-5 32:1.0 240:1.0 274:1.0 
0.003203609822194753 0.0 2:1.0 3:1.0 78:1.0 108:1.0 275:1.0 650:1.0 656:1.0 
0.0 4.1215740499161795E-4 236:1.0 256:1.0 
0.4573577376490098 0.0 9:1.0 32:1.0 89:1.0 221:1.0 276:1.0 
1.0 0.45650573655936133 163:1.0 
0.9058484120401507 0.7345601051458555 8:1.0 658:1.0 
0.20110553623596794 0.02652692906546174 24:1.0 145:1.0 209:1.0 278:1.0 
1.0 1.0 
0.0 0.18634075749037232 100:1.0 173:1.0 
1.0 1.0 231:1.0 
0.45185930724463697 0.7341154993356371 98:1.0 224:1.0 
0.7852950149763164 0.9651634290231057 33:1.0 
0.01801884849869845 0.0 2:1.0 3:1.0 36:1.0 37:1.0 38:1.0 650:1.0 656:1.0 
1.0 1.0 
1.0 1.0 
1.0 1.0 
0.0 0.6704612308435355 279:1.0 
0.0 0.3207280537366184 194:1.0 
0.9751791565495835 1.0 8:1.0 658:1.0 
0.07728746415090286 0.10602226307409299 255:1.0 
1.0 1.0 
1.0 1.0 
3.341098472645354E-4 3.4559959509999905E-4 190:1.0 280:1.0 
1.0 0.0 2:1.0 3:1.0 32:1.0 59:1.0 115:1.0 162:1.0 218:1.0 650:1.0 656:1.0 
1.0 1.0 
0.9717281456870794 1.0 8:1.0 658:1.0 
1.0 1.0 
1.0 1.0 
0.08535921480167828 0.0 41:1.0 281:1.0 
0.9600608098400493 0.10612193890578638 390:1.0 
1.0 1.0 
1.0 1.0 7:1.0 215:1.0 
0.5405653389136085 0.31858375725616417 49:1.0 163:1.0 235:1.0 
1.0 1.0 
0.2120417262895837 0.0 199:1.0 200:1.0 
1.0 1.0 
1.0 1.0 226:1.0 
1.0 0.10619727833174344 366:1.0 
1.0 1.0 
0.08835451484261299 0.5334159595727931 190:1.0 
1.0 1.0 
1.0 1.0 49:1.0 67:1.0 204:1.0 234:1.0 281:1.0 651:1.0 
0.0986474162455103 0.13595787073204257 283:0.8829612006302086 
1.0 0.0 2:1.0 3:1.0 650:1.0 656:1.0 
0.0 0.34576735241346984 140:1.0 160:1.0 233:1.0 514:1.0 
1.0 1.0 
0.729818470313718 0.0 2:1.0 3:1.0 232:1.0 330:1.0 650:1.0 656:1.0 
1.0 1.0 284:0.9033576784968668 
1.0 1.0 
0.07692807090696617 1.0 583:1.0 
1.0 0.9076491646532782 51:1.0 
0.2654681383851495 1.0 394:1.0 
0.5080836056784821 0.5529954516267576 285:1.0 457:1.0 
0.8658511721418451 0.0 82:1.0 286:1.0 
0.06403131327791575 0.0 2:1.0 3:1.0 80:1.0 108:1.0 260:1.0 268:1.0 269:1.0 270:1.0 271:1.0 650:1.0 656:1.0 
0.3266033645320182 0.04195733376852094 130:1.0 277:1.0 
0.0 0.17938578339285308 97:0.843813852934726 196:1.0 249:1.0 
1.0 1.0 
0.07714691519364623 0.10626732050595579 253:1.0 
1.0 0.0 96:1.0 287:1.0 
0.008039501804389651 3.3809083063648937E-4 288:1.0 
0.07695958739020552 0.43579530059313676 279:1.0 
0.2441354637077431 1.0 163:1.0 615:1.0 
0.025043065584856666 0.0 2:1.0 3:1.0 74:1.0 75:1.0 650:1.0 656:1.0 
1.0 0.0 2:1.0 3:1.0 39:1.0 123:1.0 229:1.0 650:1.0 656:1.0 
0.48048770656155804 0.0 32:1.0 163:1.0 289:1.0 
1.0 1.0 
0.14115507068302313 0.0 2:1.0 221:1.0 250:1.0 650:1.0 
0.0 0.09778319738265805 90:1.0 94:1.0 238:1.0 
0.0 0.17605193471982564 69:1.0 87:1.0 193:1.0 
1.0 0.0 2:1.0 3:1.0 11:1.0 172:1.0 650:1.0 656:1.0 657:1.0 
1.0 1.0 
0.44697009044637137 0.08526793516902793 53:1.0 290:1.0 
0.0 1.0 64:1.0 
0.9199531867770372 0.8861872231249454 9:1.0 
1.0 1.0 
0.48720095108210365 1.0 246:1.0 560:1.0 
0.2216059101069745 0.30976634452140295 23:1.0 185:1.0 
1.0 0.7032866119162364 96:1.0 102:1.0 289:1.0 384:1.0 595:1.0 
0.0769724660872931 0.10605250334753229 44:1.0 
0.07690082640079356 0.1062107838373209 292:1.0 
1.0 1.0 2:1.0 122:1.0 650:1.0 652:1.0 
0.16000485931335148 0.7754682903647357 26:1.0 
1.0 1.0 
0.0 0.28123664208251387 174:1.0 293:1.0 634:1.0 
0.3328837644622789 0.1060797191281083 428:1.0 
0.17410635022422014 0.0 8:1.0 201:1.0 294:1.0 326:1.0 658:1.0 
0.0771160468868311 0.10621302670123259 159:1.0 
0.1902343449560617 0.7856248891523144 63:1.0 168:1.0 194:1.0 273:1.0 371:1.0 
1.0 1.0 
0.35629773898588807 0.035434970881502534 239:1.0 295:1.0 296:1.0 
1.0 0.220956481311285 61:1.0 160:1.0 298:1.0 
0.29086579752384234 0.0 2:1.0 3:1.0 46:1.0 134:1.0 650:1.0 656:1.0 
0.11673127878238591 0.0 9:1.0 89:1.0 491:1.0 
0.0 0.2214829507144415 41:1.0 69:1.0 122:1.0 192:1.0 281:1.0 652:1.0 
1.0 1.0 9:1.0 67:1.0 651:1.0 
0.03380887419586112 0.0 2:1.0 3:1.0 6:1.0 42:1.0 650:1.0 656:1.0 
0.0 0.0870281076742816 112:1.0 265:1.0 294:1.0 482:1.0 
0.0 1.0 135:1.0 
1.0 1.0 
0.0 0.4212746711519827 36:1.0 69:1.0 203:1.0 301:1.0 581:1.0 
0.2732558068628246 0.3924899500167836 67:1.0 105:1.0 106:1.0 238:1.0 302:1.0 651:1.0 
0.4923106151288724 0.0 2:1.0 3:1.0 100:1.0 160:1.0 212:1.0 242:1.0 650:1.0 656:1.0 
1.0 1.0 
0.08072849093442454 0.0 131:1.0 258:1.0 361:1.0 
0.07703935644012735 0.10610004192644969 303:1.0 
1.0 0.023754863707183733 86:1.0 
0.6749648370798391 0.0 38:1.0 69:1.0 77:1.0 245:1.0 416:1.0 
1.0 0.0 2:1.0 3:1.0 274:1.0 650:1.0 656:1.0 
1.0 1.0 
0.07710330873251041 0.0 293:1.0 
1.0 1.0 
0.0 0.026645200301779533 287:1.0 305:1.0 306:1.0 543:1.0 
1.0 1.0 
0.06894167899531689 0.10572744105704796 288:1.0 
0.27290483817776956 0.0 16:1.0 67:1.0 144:1.0 145:1.0 146:1.0 165:1.0 651:1.0 
1.0 1.0 
0.4721507131516853 0.1806181502145001 5:1.0 51:1.0 266:1.0 307:0.9414806056077009 
0.21270699432630605 0.3625971824415444 67:1.0 147:1.0 291:1.0 651:1.0 
1.0 1.0 
1.0 1.0 
1.0 1.0 
1.0 0.7667763797964259 308:1.0 649:1.0 
1.0 1.0 
0.890519153413261 0.2128278713619375 2:1.0 3:1.0 192:1.0 210:1.0 418:1.0 650:1.0 656:1.0 
5.614088967997737E-4 0.0 2:1.0 3:1.0 13:1.0 181:1.0 650:1.0 656:1.0 
3.712264763126137E-4 0.0 174:1.0 247:1.0 
1.0 0.10600267023289085 297:1.0 
1.0 1.0 
0.07712891773816136 0.7330739151121693 536:1.0 
1.0 1.0 
1.0 1.0 
0.4309040709829789 0.0 257:1.0 392:1.0 
1.0 1.0 33:1.0 
1.0 1.0 
1.0 1.0 
0.497196648016588 1.0 122:1.0 163:1.0 364:1.0 557:1.0 652:1.0 
0.07712462686773063 0.10594449985225195 88:1.0 
0.0769979607735022 0.10611537200677786 309:1.0 
0.0 0.004369324491064197 310:1.0 
1.0 1.0 
1.0 0.042520076011789566 299:1.0 453:1.0 
0.056241773714944786 1.0 169:1.0 
0.8449787158666288 0.04789949874551797 2:1.0 3:1.0 335:1.0 446:1.0 650:1.0 656:1.0 
0.06781540248416706 0.0 35:1.0 38:1.0 219:1.0 223:1.0 469:1.0 513:1.0 
0.1781948422747781 0.02126003800589473 299:1.0 300:1.0 456:1.0 
0.008697450468986066 0.0 2:1.0 3:1.0 42:1.0 69:1.0 261:1.0 296:1.0 305:1.0 306:1.0 650:1.0 656:1.0 
0.06702551114114709 0.0 2:1.0 3:1.0 36:1.0 37:1.0 38:1.0 650:1.0 656:1.0 
1.0 1.0 122:1.0 652:1.0 
0.08874472841454156 0.0 32:1.0 125:1.0 160:1.0 177:1.0 276:1.0 298:1.0 
0.26620598251856625 0.4793138646882156 227:1.0 273:1.0 
0.9997473632041836 0.0 2:1.0 3:1.0 4:1.0 8:1.0 20:1.0 21:1.0 650:1.0 656:1.0 658:1.0 
1.0 0.0 2:1.0 3:1.0 650:1.0 656:1.0 
1.0 0.14148984126963868 69:1.0 312:1.0 381:1.0 
0.02569712779228303 0.0 205:1.0 387:1.0 
0.07646528989619855 0.0 2:1.0 3:1.0 282:1.0 650:1.0 656:1.0 
0.9526095902489503 1.0 33:1.0 
0.07732841762323492 1.0 176:1.0 
0.07719891520147974 0.10626794087941632 311:1.0 
1.0 0.0 8:1.0 21:1.0 125:1.0 258:1.0 658:1.0 
0.07710158573848949 0.10164413144338114 310:1.0 
-1.0 0.0 2:1.0 3:1.0 29:1.0 312:1.0 313:1.0 650:1.0 656:1.0 
-1.0 1.0 
-0.3441145643390368 0.9248749308217247 314:1.0 
-0.5896037326956345 0.0 2:1.0 3:1.0 125:1.0 127:1.0 128:1.0 274:1.0 650:1.0 656:1.0 
-0.4122462798841961 0.0 172:1.0 657:1.0 
-1.0 1.0 
-1.0 1.0 
-1.0 1.0 102:1.0 
-1.0 1.0 69:1.0 
-1.0 0.06031324937130367 2:1.0 3:1.0 14:1.0 15:1.0 42:1.0 234:1.0 325:1.0 650:1.0 656:1.0 
-1.0 1.0 215:1.0 
-0.6403596421423742 1.0 67:1.0 207:1.0 281:1.0 328:1.0 578:1.0 651:1.0 
-0.0017201544694649407 0.0 329:1.0 
-1.0 1.0 
-1.0 1.0 109:1.0 334:1.0 
-0.0 0.4599104955290288 51:1.0 215:1.0 273:1.0 316:1.0 339:1.0 554:1.0 653:1.0 
-0.456475564906388 0.0 318:0.959004616151081 
-0.28208561912277585 0.0 33:1.0 124:1.0 316:1.0 653:1.0 
-1.0 1.0 86:1.0 167:1.0 
-0.2898606080809185 0.0 188:1.0 345:1.0 
-0.1493525959752486 0.0 32:1.0 67:1.0 323:1.0 651:1.0 654:1.0 
-0.0 0.10578444094186933 349:1.0 350:1.0 
-0.14910526448307104 0.0 316:1.0 351:1.0 595:1.0 653:1.0 
-0.9614462948721813 0.810649864334488 352:1.0 353:1.0 
-0.0 0.07548401578776644 347:1.0 354:1.0 355:1.0 356:1.0 
-0.0 0.8352537246077618 46:1.0 122:1.0 163:1.0 362:1.0 363:1.0 364:1.0 365:1.0 652:1.0 
-0.8779877404440093 0.7981957106184663 366:1.0 367:1.0 
-1.0 1.0 567:1.0 
-0.0 0.574443276154645 229:1.0 328:1.0 
-1.0 0.0 2:1.0 3:1.0 650:1.0 656:1.0 
-1.0 0.09965628462227197 2:1.0 67:1.0 349:1.0 650:1.0 651:1.0 
-1.0 0.25319502268452876 46:1.0 369:1.0 
-0.5236737834280395 0.16818258909524664 221:1.0 373:1.0 374:1.0 375:1.0 
-0.5066205353503593 0.7574286534050201 35:1.0 167:1.0 219:1.0 370:1.0 633:1.0 
-1.0 0.0 2:1.0 3:1.0 381:1.0 650:1.0 656:1.0 
-0.23067197709670564 0.9603961287459518 382:1.0 383:1.0 384:1.0 556:1.0 
-0.0 0.4707775464602059 226:1.0 316:1.0 592:1.0 653:1.0 
-1.0 1.0 160:1.0 
-1.0 0.9248785190992269 389:1.0 
-0.2190775143104175 0.0 2:1.0 3:1.0 14:1.0 15:1.0 221:1.0 244:1.0 325:1.0 650:1.0 656:1.0 
-1.0 0.0 9:1.0 125:1.0 330:1.0 390:0.8829612006302086 
-0.3688438062191123 0.0 190:1.0 210:1.0 229:1.0 258:0.9553932004454203 372:1.0 
-1.0 1.0 67:1.0 145:1.0 651:1.0 
-1.0 1.0 
-1.0 1.0 
-0.7845121106743613 0.1730443090255449 350:1.0 391:1.0 392:1.0 
-0.18834226515416697 0.0332569449004268 33:0.967645277100553 229:1.0 393:0.951678891664494 394:1.0 
-1.0 0.0 2:1.0 3:1.0 650:1.0 656:1.0 
-0.019006553722341366 0.0 2:1.0 3:1.0 229:1.0 359:1.0 650:1.0 656:1.0 
-1.0 1.0 
-1.0 1.0 8:1.0 122:1.0 273:1.0 652:1.0 658:1.0 
-0.0 0.16163596246879797 26:1.0 29:1.0 122:1.0 245:1.0 323:1.0 652:1.0 654:1.0 
-0.9901225874299682 0.0 348:1.0 
-1.0 1.0 
-1.0 1.0 
-0.8614886613329753 0.0 2:1.0 3:1.0 130:1.0 163:1.0 395:1.0 396:1.0 650:1.0 656:1.0 
-1.0 1.0 
-0.0 1.0 122:1.0 345:1.0 652:1.0 
-0.002742947597564993 0.0 333:1.0 
-1.0 1.0 11:1.0 33:0.967645277100553 63:1.0 266:1.0 289:0.9479380141019661 600:1.0 
-0.0 1.0 102:1.0 172:1.0 657:1.0 
-0.05306469906486561 1.0 67:1.0 398:1.0 399:1.0 651:1.0 
-0.0 0.08878054571520276 67:1.0 139:1.0 352:1.0 365:1.0 400:1.0 401:1.0 402:1.0 651:1.0 
-1.0 1.0 
-0.17241903604660233 0.20716607550848654 122:1.0 403:1.0 652:1.0 
-1.0 0.7668465620699568 195:1.0 335:1.0 
-1.0 1.0 118:0.9479380141019661 
-0.5790811949673749 0.037535006018598736 379:0.9061882158657607 411:1.0 
-0.018459482637215842 0.0 229:1.0 642:1.0 
-1.0 1.0 
-0.0 0.3006410236605606 67:1.0 122:1.0 172:1.0 391:1.0 651:1.0 652:1.0 657:1.0 
-0.4531935296062368 0.3011463473228113 8:1.0 33:1.0 67:1.0 281:1.0 315:1.0 351:1.0 415:1.0 651:1.0 658:1.0 
-0.11388251917196364 0.0 38:1.0 177:1.0 416:1.0 417:1.0 418:1.0 419:1.0 
-1.0 1.0 
-0.37024976256524467 0.0 2:1.0 3:1.0 30:1.0 50:1.0 86:1.0 419:1.0 420:1.0 650:1.0 656:1.0 
-1.0 0.0 2:1.0 3:1.0 650:1.0 656:1.0 
-1.0 0.0 2:1.0 333:1.0 650:1.0 
-0.0 0.18298398435028473 32:1.0 124:1.0 215:1.0 274:1.0 276:1.0 
-1.0 0.0 2:1.0 3:1.0 224:1.0 379:1.0 650:1.0 656:1.0 
-1.0 0.0 368:1.0 
-0.7105825907679479 0.0 33:1.0 345:1.0 
-1.0 1.0 
-0.1631829446040388 0.0 331:1.0 424:0.9414806056077009 
-0.011853575659883653 0.0 425:1.0 426:1.0 
-0.25594202095546503 0.4448971966233174 87:1.0 398:1.0 427:1.0 428:1.0 539:1.0 636:1.0 
-0.44422587587980633 0.0 40:1.0 125:1.0 160:1.0 285:1.0 323:1.0 654:1.0 
-0.0 0.023740889762337892 224:1.0 316:1.0 653:1.0 
-0.9813445950550798 0.0 317:1.0 
-0.0 0.11063795777319511 308:1.0 429:1.0 430:1.0 649:1.0 
-0.0036726038354370264 0.01092840935295739 229:1.0 431:0.9414806056077009 432:1.0 433:1.0 434:1.0 435:1.0 
-0.5345289065136303 0.8326419451591932 96:1.0 125:1.0 437:1.0 
-0.5822832983236053 0.7836449897065851 218:1.0 
-1.0 0.9626668315998574 242:1.0 439:1.0 
-0.923112017639829 0.9248456472103457 231:1.0 
-1.0 1.0 
-0.0 0.3058746464420972 122:1.0 316:1.0 618:1.0 652:1.0 653:1.0 
-0.16720772380865964 0.229148167459249 67:1.0 225:1.0 332:1.0 366:1.0 442:1.0 651:1.0 
-1.0 0.0 2:1.0 3:1.0 650:1.0 656:1.0 
-0.5551486916354949 0.05778280094302288 67:1.0 414:1.0 443:1.0 651:1.0 
-0.9140214418647534 0.6286518271755203 228:1.0 444:0.9378432177689741 
-1.0 1.0 163:1.0 349:1.0 
-1.0 0.1803061663094317 366:1.0 445:1.0 
-1.0 1.0 122:1.0 421:1.0 652:1.0 
-1.0 0.0 229:1.0 
-1.0 0.0 21:1.0 
-0.9613589065958567 0.0 308:1.0 649:1.0 
-0.036675321826839496 0.0 333:1.0 
-1.0 1.0 218:1.0 
-1.0 1.0 644:1.0 
-0.3520966807358127 1.0 60:1.0 354:0.9587391161179 
-0.521146587573805 1.0 284:1.0 347:1.0 
-1.0 0.47367164373657417 22:1.0 102:1.0 450:1.0 
-0.0 0.3950399992785107 120:1.0 352:1.0 381:1.0 
-0.3833438760515653 0.2827738651531856 67:1.0 245:1.0 330:1.0 651:1.0 
-0.9760941244233435 0.0 23:1.0 331:1.0 
-1.0 1.0 
-1.0 0.9250018716819763 451:1.0 
-0.5008650950708504 1.0 67:1.0 396:1.0 651:1.0 
-1.0 0.8503428526828415 21:1.0 
-0.07887703247218159 0.0 11:1.0 113:1.0 163:1.0 172:1.0 258:1.0 273:1.0 440:1.0 657:1.0 
-0.7145053639823873 0.0 49:1.0 130:1.0 238:1.0 274:1.0 
-0.07152626863548274 0.0 49:1.0 357:1.0 381:1.0 452:1.0 
-1.0 0.0 32:1.0 345:1.0 453:1.0 
-0.0 0.6664792399812347 316:1.0 346:1.0 454:1.0 525:1.0 653:1.0 
-0.23245053102101446 0.0 139:1.0 160:1.0 318:1.0 
-1.0 0.9250887193819174 357:1.0 
-1.0 1.0 67:1.0 138:1.0 651:1.0 
-1.0 1.0 
-0.016656336021226195 0.0 170:1.0 317:1.0 457:1.0 
-0.6483234902415138 0.20643575047913498 67:1.0 194:1.0 229:1.0 651:1.0 
-1.0 1.0 
-0.8455137505374211 0.0 177:1.0 226:1.0 406:1.0 458:1.0 
-0.1728816921601519 0.0 51:1.0 172:1.0 657:1.0 
-0.0 0.22943459045177939 51:1.0 172:1.0 459:1.0 657:1.0 
-0.0 0.5742893750946323 168:1.0 312:1.0 349:1.0 406:1.0 
-0.0 0.8954546199228257 67:1.0 317:1.0 651:1.0 
-0.0 0.7134344510609236 204:1.0 215:1.0 339:1.0 402:1.0 458:1.0 
-0.19633259011278845 0.0 2:1.0 3:1.0 8:1.0 340:1.0 341:1.0 342:1.0 650:1.0 656:1.0 658:1.0 
-1.0 0.0 2:1.0 3:1.0 274:1.0 650:1.0 656:1.0 
-0.6182577142998302 0.32371050913646265 347:1.0 438:1.0 
-0.0 1.0 362:1.0 363:1.0 
-0.9889574095137058 1.0 33:1.0 49:1.0 454:1.0 460:1.0 
-1.0 1.0 69:1.0 362:1.0 363:1.0 
-0.8126414193060242 1.0 314:1.0 
-0.08295165507478655 0.05313882566003029 11:1.0 26:1.0 59:1.0 122:1.0 258:1.0 323:1.0 461:0.9452675049469591 652:1.0 654:1.0 
-1.0 1.0 
-1.0 0.9249110603359391 441:1.0 
-1.0 1.0 2:1.0 3:1.0 67:1.0 650:1.0 651:1.0 656:1.0 
-0.32303019232573194 0.48870350897824816 174:1.0 343:1.0 386:1.0 418:1.0 419:1.0 
-0.16544999612740666 0.2025500871063331 139:1.0 347:1.0 464:1.0 635:1.0 
-1.0 0.06568905798892301 125:0.9594109370702693 465:1.0 
-1.0 1.0 215:1.0 
-0.6426128724325697 0.0 69:1.0 354:1.0 377:1.0 
-0.0 0.2908962010256283 284:1.0 345:1.0 362:1.0 363:1.0 466:1.0 
-0.93285735082228 0.924855242955328 348:1.0 
-1.0 0.6007329444081908 274:1.0 
-1.0 0.8523312487609611 2:1.0 3:1.0 60:1.0 296:1.0 650:1.0 656:1.0 
-1.0 1.0 53:1.0 54:1.0 
-1.0 0.8285115122770341 28:1.0 414:1.0 
-0.1363983442230325 0.0 47:1.0 229:1.0 299:1.0 647:1.0 
-1.0 1.0 
-1.0 0.7225417585281024 464:1.0 
-0.8160486150326771 0.5089233866427043 1:1.0 53:1.0 67:1.0 199:1.0 420:1.0 651:1.0 
-1.0 1.0 
-1.0 1.0 
-1.0 0.0 32:1.0 272:1.0 276:1.0 323:1.0 654:1.0 
-0.6504903377651272 0.10218720010538361 237:1.0 360:1.0 361:1.0 
-1.0 0.6373382964319808 61:1.0 535:1.0 
-1.0 1.0 49:1.0 142:1.0 195:1.0 528:1.0 
-1.0 0.35889816418457804 69:1.0 470:1.0 
-0.38648969838235925 1.0 218:1.0 
-0.017497964772968506 0.0 354:1.0 
-1.0 1.0 21:1.0 
-0.0 0.5472020808739084 67:1.0 333:1.0 651:1.0 
-1.0 0.0 333:1.0 
-1.0 0.0 333:0.8835000331907257 
-1.0 1.0 
-0.0 0.14125332787540407 122:1.0 131:1.0 274:1.0 471:1.0 652:1.0 
-0.0 0.023856236296279552 248:1.0 316:1.0 653:1.0 
-0.4784123553373098 0.4079867656481223 49:1.0 113:1.0 163:1.0 229:1.0 457:1.0 472:1.0 
-0.9541753600233471 0.0 51:1.0 218:1.0 
-1.0 1.0 
-1.0 1.0 
-1.0 1.0 8:1.0 658:1.0 
-1.0 1.0 231:1.0 
-0.2515897635587342 0.2638681430057315 63:1.0 228:1.0 335:1.0 443:1.0 474:1.0 
-1.0 0.9248552429553278 475:1.0 
-0.3614193826452127 0.0499915507138568 166:1.0 172:1.0 215:1.0 446:1.0 657:1.0 
-0.0 0.44727527634244213 49:1.0 210:1.0 229:1.0 457:1.0 
-1.0 0.0 297:1.0 477:1.0 478:1.0 
-1.0 0.0 156:1.0 423:1.0 
-1.0 0.0 39:1.0 
-1.0 0.3101735680488823 190:1.0 299:1.0 463:1.0 
-1.0 0.46272150839012577 38:1.0 416:1.0 
-1.0 1.0 9:1.0 
-0.0 0.9007523933279626 226:1.0 345:1.0 
-0.04286639659753393 0.0 229:1.0 442:1.0 469:1.0 480:1.0 
-0.43267656453244374 0.27874813575719753 337:1.0 349:1.0 
-1.0 1.0 
-1.0 0.9248692955035868 409:1.0 
-1.0 0.9250066441409143 481:1.0 
-0.0 0.0746422258271042 21:1.0 352:1.0 370:1.0 388:1.0 
-0.0 0.534705904176634 172:1.0 226:1.0 352:1.0 406:1.0 446:1.0 482:1.0 657:1.0 
-1.0 0.8632704882172606 332:0.9107864008908406 
-1.0 0.7422634750706398 160:1.0 212:1.0 298:1.0 338:1.0 
-1.0 1.0 96:1.0 
-0.0 0.16168078918962003 67:1.0 323:1.0 651:1.0 654:1.0 
-1.0 1.0 
-0.8198786149484348 0.0 2:1.0 3:1.0 89:1.0 163:1.0 448:1.0 607:1.0 650:1.0 656:1.0 
-0.0 0.31212792142731943 122:1.0 317:1.0 652:1.0 
-0.07215824326249794 0.09726721289035148 331:1.0 484:1.0 485:1.0 
-1.0 1.0 160:1.0 
-0.9251210752232859 0.0 354:1.0 
-0.0 0.04603183049712636 67:1.0 174:1.0 313:1.0 323:1.0 412:1.0 651:1.0 654:1.0 
-0.9467410313389266 0.0 8:1.0 61:1.0 312:1.0 658:1.0 
-1.0 0.2835823889491201 59:1.0 190:1.0 486:1.0 
-0.9977916313900483 0.0 2:1.0 3:1.0 8:1.0 429:1.0 430:1.0 650:1.0 656:1.0 658:1.0 
-0.9579132009368676 0.9455073724497572 379:1.0 508:1.0 
-0.005268322833928842 0.0 2:1.0 3:1.0 324:1.0 340:1.0 429:1.0 650:1.0 656:1.0 
-1.0 0.02078172536780684 381:1.0 418:1.0 
-0.0 1.0 226:1.0 316:1.0 352:1.0 400:1.0 422:1.0 550:1.0 653:1.0 
-0.0 0.18157641287771442 67:1.0 124:1.0 204:1.0 210:1.0 323:1.0 428:1.0 651:1.0 654:1.0 
-1.0 0.0 318:0.959004616151081 
-0.376031692865421 1.0 318:1.0 401:1.0 
-1.0 1.0 
-1.0 1.0 2:1.0 3:1.0 273:1.0 650:1.0 656:1.0 
-0.7664214062819367 0.0 2:1.0 3:1.0 314:1.0 650:1.0 656:1.0 
-1.0 1.0 231:1.0 
-0.05758388828786472 1.0 224:1.0 313:1.0 337:1.0 
-1.0 0.9249718927798982 344:1.0 
-1.0 0.8255010755937628 122:1.0 139:1.0 163:1.0 488:1.0 652:1.0 
-0.9249307394131172 0.0 317:1.0 
-0.8722355154184364 0.0 2:1.0 3:1.0 8:1.0 96:1.0 332:1.0 650:1.0 656:1.0 658:1.0 
-0.0034043598097415677 0.0 38:1.0 122:1.0 139:1.0 163:1.0 488:1.0 652:1.0 
-1.0 1.0 
-0.37923133178427143 0.4532059958047612 246:1.0 404:1.0 405:1.0 406:1.0 407:1.0 
-0.28308730811610394 0.0 331:1.0 395:1.0 
-1.0 1.0 560:1.0 
-0.3668907758332424 0.11682601193461803 319:1.0 340:1.0 397:1.0 
-0.2740186696931675 0.3424439246113643 235:1.0 397:1.0 450:1.0 489:1.0 
-1.0 0.0 20:1.0 39:0.9563541023737309 
-1.0 1.0 67:1.0 204:1.0 651:1.0 
-0.37945378769620125 0.08210340764845303 9:1.0 61:1.0 270:1.0 474:1.0 
-1.0 0.0 2:1.0 3:1.0 284:1.0 650:1.0 656:1.0 
-0.9226675149925723 0.9346710051921631 368:1.0 
-1.0 1.0 355:1.0 
-1.0 1.0 67:1.0 241:1.0 651:1.0 
-1.0 0.925084351799363 177:1.0 
-1.0 0.925133357872256 447:1.0 
-0.6690030602562514 0.0 86:0.9600354648688038 96:1.0 385:1.0 
-0.11972174160849697 0.46273854528272823 477:1.0 478:1.0 
-0.9628864276836369 1.0 63:1.0 423:1.0 
-0.0703915783521336 0.08409129454762329 373:1.0 374:1.0 375:1.0 492:1.0 493:1.0 
-1.0 1.0 
-1.0 0.9249956408622841 494:1.0 
-0.0 0.6605236597344877 333:1.0 343:1.0 
-0.36058330749991163 0.0 173:1.0 323:1.0 421:1.0 456:0.8905349466099685 654:1.0 
-1.0 0.12520752327476373 2:1.0 3:1.0 650:1.0 656:1.0 
-1.0 0.3021870519415388 245:1.0 574:1.0 
-1.0 1.0 231:1.0 
-1.0 0.5785059210268105 47:1.0 495:1.0 
-0.2803229393582956 1.0 9:1.0 39:1.0 215:1.0 
-1.0 0.9250759969923712 86:1.0 
-1.0 0.0 229:1.0 
-0.0 0.0013102300103517463 425:1.0 426:1.0 
-1.0 0.0 30:1.0 96:1.0 
-1.0 1.0 
-1.0 1.0 
-1.0 1.0 
-1.0 1.0 67:1.0 487:1.0 651:1.0 
-1.0 0.9251260487734203 30:1.0 
-0.935850026986687 0.0 172:1.0 657:1.0 
-1.0 1.0 
-0.6534713868456108 0.0 2:1.0 3:1.0 86:1.0 96:1.0 243:1.0 266:1.0 467:1.0 650:1.0 656:1.0 
-1.0 0.7270983272986354 329:1.0 
-1.0 1.0 228:1.0 
-1.0 1.0 407:0.8661797057969409 518:1.0 
-1.0 0.6184583833694266 210:1.0 237:1.0 238:1.0 
-1.0 1.0 
-0.7663782679837072 0.0 23:1.0 365:1.0 407:1.0 
-0.9495404889817738 0.8794172101699053 425:1.0 426:1.0 
-0.346447000502871 0.23196658085235708 8:1.0 340:1.0 341:1.0 342:1.0 658:1.0 
-1.0 0.0 2:1.0 3:1.0 650:1.0 656:1.0 
-1.0 1.0 215:1.0 
-0.9209326336964814 1.0 329:1.0 
-1.0 0.0 382:1.0 384:1.0 
-0.28377870120168525 0.0 2:1.0 3:1.0 87:0.9479380141019661 113:1.0 331:1.0 371:1.0 422:1.0 650:1.0 656:1.0 
-1.0 1.0 
-1.0 0.3619449729432216 245:1.0 
-1.0 0.0 2:1.0 3:1.0 8:1.0 486:1.0 650:1.0 656:1.0 658:1.0 
-1.0 0.0 2:1.0 3:1.0 650:1.0 656:1.0 
-1.0 1.0 122:1.0 403:1.0 652:1.0 
-1.0 0.4760491052933854 162:1.0 200:1.0 308:1.0 649:1.0 
-1.0 0.0 2:1.0 3:1.0 218:1.0 650:1.0 656:1.0 
-1.0 0.9252506948354371 483:1.0 
-1.0 1.0 33:1.0 226:1.0 
-0.0 1.0 122:1.0 138:1.0 331:1.0 652:1.0 
-1.0 0.0 2:1.0 3:1.0 286:1.0 650:1.0 656:1.0 
-1.0 0.009821979726131245 23:1.0 289:1.0 
-1.0 0.0 172:1.0 657:1.0 
-1.0 0.0 51:1.0 409:1.0 
-1.0 1.0 558:1.0 
-1.0 1.0 398:1.0 
-0.654471842541227 0.0 82:1.0 316:1.0 327:1.0 653:1.0 
-1.0 0.6708892557899339 2:1.0 3:1.0 650:1.0 656:1.0 
-1.0 1.0 67:1.0 138:1.0 651:1.0 
-1.0 1.0 
-1.0 0.319121982094738 201:0.9479380141019661 223:1.0 598:1.0 
-0.9614502353092008 1.0 118:1.0 555:1.0 
-1.0 -1.0 
-0.0033497111063603147 -0.015107013506814954 497:1.0 
-0.44448730840958567 -0.827788946796828 53:1.0 54:1.0 498:1.0 499:1.0 
-1.0 -1.0 
-1.0 -0.0 62:1.0 163:1.0 
-1.0 -1.0 328:1.0 
-1.0 -1.0 506:1.0 
-0.5786770169807814 -0.0 313:1.0 507:1.0 508:1.0 
-0.46822044751798075 -0.0 509:1.0 
-1.0 -0.15573595990482436 163:1.0 510:1.0 
-0.4468777224922443 -0.0 511:1.0 512:1.0 
-1.0 -1.0 67:1.0 651:1.0 
-0.24272655010979408 -0.0 8:1.0 62:1.0 234:1.0 515:1.0 658:1.0 
-0.0029130380061911675 -0.0 500:1.0 655:1.0 
-1.0 -1.0 26:1.0 96:1.0 167:1.0 195:0.9530941445745874 
-0.3824257650991694 -0.0 60:1.0 176:1.0 516:1.0 517:1.0 
-1.0 -1.0 518:1.0 
-0.0 -0.08832839109183006 160:1.0 442:1.0 521:1.0 522:1.0 523:1.0 
-0.0 -0.9857052823572412 67:1.0 122:1.0 162:1.0 651:1.0 652:1.0 
-0.4169252103958111 -0.705488704388982 400:1.0 524:1.0 
-0.4521263829108353 -0.0 194:1.0 530:1.0 
-1.0 -0.042429294517223236 23:1.0 531:1.0 
-0.0 -0.27343122952771365 215:1.0 430:1.0 511:1.0 532:1.0 
-0.0 -1.0 122:1.0 215:1.0 652:1.0 
-1.0 -1.0 
-1.0 -1.0 248:1.0 
-0.6424931967713261 -0.8480543404508256 63:1.0 538:1.0 
-1.0 -1.0 49:1.0 163:1.0 
-1.0 -1.0 540:1.0 
-0.21214856352924283 -0.0 26:1.0 537:1.0 541:1.0 
-1.0 -1.0 167:1.0 
-1.0 -1.0 
-1.0 -1.0 
-1.0 -1.0 33:1.0 231:1.0 530:1.0 
-1.0 -1.0 67:1.0 651:1.0 
-1.0 -1.0 545:1.0 
-0.5767609781222669 -0.27793761087291813 102:1.0 355:1.0 549:1.0 
-1.0 -1.0 550:1.0 
-1.0 -1.0 
-0.0 -1.0 2:1.0 3:1.0 102:1.0 231:1.0 273:1.0 328:1.0 650:1.0 656:1.0 
-1.0 -1.0 
-0.07367386296677814 -0.8363886303789316 67:1.0 426:1.0 480:1.0 651:1.0 
-1.0 -1.0 554:1.0 
-1.0 -1.0 
-0.6029840387929692 -0.3010994505519826 2:1.0 3:1.0 62:1.0 190:0.9594109370702693 234:1.0 548:1.0 650:1.0 656:1.0 
-0.0 -0.050464021178575486 281:1.0 510:1.0 533:1.0 555:1.0 
-1.0 -1.0 556:1.0 
-0.05272086177140173 -0.0 8:1.0 471:1.0 522:1.0 532:1.0 658:1.0 
-1.0 -0.0 122:1.0 557:1.0 652:1.0 
-0.7681276193768389 -0.0 62:1.0 168:1.0 
-0.05269429787522059 -0.2025613243572769 459:1.0 560:1.0 561:1.0 562:1.0 
-1.0 -0.9163560336478583 384:1.0 562:1.0 
-1.0 -1.0 537:0.9086339123175923 
-0.07250097507867634 -0.0 67:1.0 563:1.0 651:1.0 
-1.0 -0.11310726204126956 8:1.0 69:1.0 135:1.0 160:1.0 534:1.0 658:1.0 
-0.10027381511467184 -0.06208801900263548 160:1.0 506:1.0 516:1.0 
-0.9075777033651226 -0.16001320938275518 64:1.0 67:1.0 564:1.0 651:1.0 
-0.9468303858813638 -0.5374710295852749 565:1.0 566:1.0 
-1.0 -1.0 567:1.0 
-1.0 -1.0 507:1.0 508:1.0 
-0.8937893023330633 -1.0 531:1.0 
-1.0 -1.0 
-1.0 -0.1664810509642952 537:1.0 
-1.0 -1.0 235:1.0 
-0.4354331825211923 -0.0 63:1.0 569:1.0 570:1.0 
-1.0 -1.0 571:1.0 
-0.0 -0.509161826083921 67:1.0 572:1.0 651:1.0 
-1.0 -1.0 525:1.0 
-1.0 -0.05989855366161445 497:1.0 
-0.06619837289122152 -0.45805466174319887 417:1.0 422:1.0 534:1.0 
-1.0 -0.3941826050803226 102:1.0 356:1.0 
-1.0 -1.0 367:1.0 
-0.8080832477221479 -0.13201007061702386 82:1.0 459:1.0 524:1.0 
-1.0 -0.07499526076863064 520:1.0 
-0.8916147828848977 -0.4561992078704176 2:1.0 3:1.0 102:1.0 176:1.0 207:1.0 576:1.0 650:1.0 656:1.0 
-1.0 -1.0 
-1.0 -1.0 577:1.0 
-1.0 -1.0 67:1.0 284:1.0 651:1.0 
-1.0 -0.6758562182795604 51:1.0 522:1.0 
-0.0 -0.8206579110099123 69:1.0 500:1.0 655:1.0 
-0.42450735327427513 -0.03468463470562879 235:1.0 578:1.0 579:1.0 
-1.0 -0.8125534026135013 580:1.0 
-0.9457641296787069 -0.8627657582986838 204:1.0 581:1.0 
-0.36180746379572304 -0.0 64:1.0 224:1.0 242:1.0 582:1.0 
-0.22736371442396236 -0.0 49:1.0 62:1.0 339:1.0 560:1.0 561:1.0 
-0.0011025194500231539 -1.0 362:1.0 363:1.0 
-0.9467728873181375 -1.0 316:1.0 653:1.0 
-1.0 -1.0 
-1.0 -1.0 
-1.0 -0.7654322158187186 142:1.0 519:1.0 
-1.0 -1.0 314:1.0 457:1.0 
-0.0 -1.0 67:1.0 138:1.0 218:1.0 398:1.0 651:1.0 
-0.014596088732707516 -0.0 135:1.0 525:1.0 587:1.0 
-1.0 -1.0 67:1.0 651:1.0 
-1.0 -1.0 226:1.0 
-0.0 -1.0 352:1.0 503:1.0 
-0.0463587705953237 -0.10758804738076942 33:1.0 564:1.0 588:1.0 
-0.22371614737120327 -0.1624960149850057 440:1.0 525:1.0 
-0.9559459200858156 -0.07481340238979474 509:1.0 
-0.35287773174200343 -0.0 225:1.0 452:1.0 513:1.0 
-0.9991384228456726 -0.11315977406669517 589:1.0 
-0.7139318789186 -0.8587995073138666 69:1.0 104:1.0 218:1.0 431:1.0 568:1.0 
-0.8703501102717113 -0.8586208097901809 246:1.0 349:1.0 590:1.0 
-0.0 -0.3968318997307714 62:1.0 402:1.0 454:1.0 
-0.22385984454506597 -0.4160871169002535 369:1.0 525:1.0 
-1.0 -0.24444888744724333 204:1.0 246:1.0 
-1.0 -0.6455648464398386 591:1.0 
-1.0 -1.0 215:1.0 
-1.0 -0.03746687500920881 185:1.0 593:1.0 
-0.9469095912974594 -0.2828827742552666 572:1.0 594:1.0 
-1.0 -1.0 
-0.8077482907171244 -0.2819986302772324 67:1.0 526:1.0 595:1.0 651:1.0 
-1.0 -1.0 398:1.0 
-0.09401689867515547 -0.24590905963758272 60:1.0 212:1.0 338:1.0 554:1.0 
-0.7882478900441295 -0.0 503:1.0 
-1.0 -0.5439241691416067 141:1.0 142:1.0 273:1.0 
-1.0 -1.0 337:1.0 
-0.1390175595936153 -0.18325721530405475 60:1.0 134:1.0 174:1.0 245:1.0 484:1.0 485:1.0 499:0.9530941445745874 560:1.0 596:1.0 
-0.49249335632417907 -0.6304480244161835 419:1.0 550:1.0 
-0.0 -0.4316140180729993 109:1.0 168:1.0 343:1.0 535:1.0 549:1.0 
-0.15096669895911916 -0.8081323518202714 226:1.0 563:1.0 
-1.0 -1.0 
-1.0 -1.0 224:1.0 
-1.0 -1.0 599:1.0 
-0.945930402732095 -1.0 362:1.0 363:1.0 
-1.0 -0.6610008230517517 210:1.0 233:1.0 
-0.0 -1.0 60:1.0 226:1.0 352:1.0 600:1.0 
-1.0 -0.1961776719847607 163:0.967645277100553 601:1.0 
-0.0 -0.3721408315968556 8:1.0 163:1.0 270:1.0 313:1.0 349:1.0 505:1.0 658:1.0 
-0.0 -0.08103074621661097 33:1.0 62:1.0 67:1.0 163:1.0 281:1.0 366:1.0 603:1.0 604:1.0 605:1.0 606:1.0 607:1.0 608:1.0 651:1.0 
-1.0 -1.0 33:0.967645277100553 
-0.0 -0.23203016636128596 47:1.0 122:1.0 207:1.0 510:1.0 610:1.0 652:1.0 
-0.0 -0.11985904435113164 60:0.93065269818666 122:1.0 652:1.0 
-1.0 -0.0 60:1.0 248:1.0 
-0.07356862180869891 -1.0 160:1.0 242:1.0 347:1.0 601:1.0 
-0.519409362818534 -0.31321820991988225 579:1.0 613:1.0 
-1.0 -0.7101493142668123 102:1.0 583:1.0 
-0.6030725646000817 -0.0 480:1.0 585:1.0 614:1.0 
-0.28105929444654787 -0.26247110723991995 2:1.0 3:1.0 49:1.0 528:1.0 561:1.0 580:1.0 650:1.0 656:1.0 
-1.0 -1.0 
-0.9085656284904157 -0.30265719590402906 29:1.0 550:1.0 574:1.0 
-0.6266518121949686 -0.0 62:1.0 238:1.0 536:1.0 
-1.0 -0.7557390495956735 273:1.0 615:1.0 
-1.0 -1.0 
-0.2698024337725887 -0.26386430706884506 67:1.0 616:1.0 617:1.0 651:1.0 
-1.0 -1.0 
-1.0 -1.0 618:1.0 
-0.024432394258956415 -0.0 122:1.0 135:1.0 329:0.951678891664494 619:1.0 620:1.0 652:1.0 
-0.7158979760209258 -0.0 67:1.0 166:1.0 281:1.0 510:1.0 651:1.0 
-0.7596092090804427 -0.0 60:1.0 346:1.0 
-0.0 -0.606346908371443 172:1.0 401:1.0 529:1.0 621:1.0 622:1.0 657:1.0 
-1.0 -1.0 
-1.0 -1.0 
-0.23619730652982468 -0.5075876020331008 2:1.0 3:1.0 176:1.0 398:1.0 576:1.0 650:1.0 656:1.0 
-0.9669063965570304 -1.0 204:1.0 226:1.0 
-1.0 -0.21246630094949584 169:1.0 246:1.0 
-1.0 -1.0 67:1.0 651:1.0 
-1.0 -0.0 97:1.0 563:1.0 
-0.4832733878459997 -0.8020806654989302 122:1.0 135:1.0 329:1.0 620:1.0 652:1.0 
-1.0 -1.0 
-0.5370797089949271 -1.0 266:1.0 556:1.0 
-0.469918677589598 -1.0 1:1.0 2:1.0 3:1.0 454:1.0 509:1.0 650:1.0 656:1.0 
-0.7059450554236908 -0.0 225:1.0 502:1.0 
-1.0 -1.0 
-1.0 -0.0 82:1.0 200:1.0 225:1.0 529:1.0 
-1.0 -1.0 67:1.0 651:1.0 
-1.0 -1.0 118:1.0 224:1.0 228:1.0 
-0.0 -0.36482095217470745 64:1.0 67:1.0 124:1.0 226:1.0 651:1.0 
-0.29082797563885826 -0.0 193:1.0 505:1.0 
-1.0 -1.0 122:1.0 138:1.0 652:1.0 
-0.20805668717827386 -0.0 135:1.0 525:1.0 587:1.0 
-0.4342030762978277 -0.7094471562009168 215:1.0 629:1.0 
-1.0 -0.5373882196022571 171:1.0 473:1.0 
-1.0 -1.0 49:1.0 528:1.0 
-0.5478736170891647 -0.0 194:1.0 530:1.0 
-0.8948436175111201 -0.9618716336911447 589:1.0 
-0.7592894325816141 -0.22291783108597105 60:1.0 358:1.0 
-0.015425746823459372 -0.0 537:1.0 631:1.0 
-0.2515479806967865 -0.6209103146023486 335:1.0 400:1.0 482:1.0 558:1.0 573:1.0 612:1.0 
-1.0 -1.0 215:1.0 
-1.0 -0.9179865600659559 122:1.0 364:1.0 592:1.0 652:1.0 
-1.0 -1.0 
-0.7134959331892265 -0.09797573616794214 308:1.0 499:1.0 615:1.0 632:1.0 649:1.0 
-1.0 -0.5058568009339434 225:1.0 
-1.0 -1.0 406:1.0 
-0.7345014836677987 -1.0 578:1.0 602:1.0 
-0.9121674858832862 -1.0 67:1.0 343:1.0 651:1.0 
-1.0 -1.0 552:1.0 
-0.0 -0.18162356678812963 62:1.0 67:1.0 96:1.0 139:1.0 349:1.0 515:1.0 555:1.0 597:1.0 651:1.0 
-0.0 -0.26250886410146346 215:1.0 592:1.0 
-0.0 -0.5677638414252121 228:0.9160254103189668 232:1.0 362:1.0 363:1.0 
-0.15760714046621802 -0.6772698290847616 313:1.0 518:1.0 
-0.7290904973012974 -0.9162426824440069 569:1.0 633:1.0 
-0.735928443527212 -0.0 522:1.0 
-0.5984765746052314 -0.0 23:1.0 63:1.0 592:1.0 600:1.0 629:1.0 634:1.0 
-0.0 -1.0 316:1.0 346:1.0 520:1.0 539:1.0 653:1.0 
-0.14529335397119256 -0.3816043335378919 8:1.0 11:1.0 273:1.0 401:1.0 445:1.0 635:1.0 658:1.0 
-0.10233034197666752 -0.29811477017855303 335:1.0 534:1.0 567:1.0 
-0.10565947048962517 -0.026455151591231976 183:1.0 503:1.0 636:1.0 
-0.17811255753863448 -0.0 510:1.0 
-1.0 -1.0 638:1.0 
-1.0 -1.0 215:1.0 
-0.45631964225886484 -0.0 411:1.0 581:1.0 583:1.0 
-1.0 -1.0 67:1.0 651:1.0 
-0.0 -0.9823981262879777 63:1.0 362:1.0 363:1.0 
-0.7707149153325566 -0.36046590811234064 33:1.0 166:1.0 370:1.0 639:1.0 
-0.09600302447401891 -0.7897108199199138 28:1.0 49:1.0 62:1.0 163:1.0 339:1.0 352:1.0 399:1.0 
-0.12008624164802519 -0.009317058708105893 176:1.0 207:1.0 328:1.0 368:1.0 501:1.0 610:1.0 
-1.0 -0.48373933389536716 214:1.0 588:1.0 
-0.9053145578559672 -0.45377434393569355 437:1.0 586:1.0 
-1.0 -1.0 
-1.0 -1.0 172:1.0 657:1.0 
-1.0 -0.8044659238886573 527:1.0 
-1.0 -1.0 512:1.0 
-1.0 -0.6100501450560294 8:1.0 222:1.0 394:1.0 658:1.0 
-1.0 -1.0 109:1.0 555:1.0 
-0.0 -0.3242518287071233 11:1.0 501:1.0 522:1.0 
-0.6774260537126257 -0.4293819904592985 160:1.0 212:1.0 298:1.0 591:1.0 624:1.0 
-1.0 -1.0 
-0.0 -0.7618334470883122 67:1.0 281:1.0 510:1.0 651:1.0 
-0.5361927598150737 -0.0 162:1.0 520:1.0 609:1.0 
-0.0 -0.3943043743689766 67:1.0 313:1.0 614:1.0 651:1.0 
-1.0 -1.0 641:1.0 
-1.0 -0.7928151750572283 97:1.0 122:1.0 652:1.0 
-0.0 -0.9406871654607627 60:1.0 122:1.0 138:1.0 652:1.0 
-0.28072959832362754 -0.32004633063806487 328:1.0 541:1.0 
-1.0 -1.0 160:1.0 
-1.0 -1.0 8:1.0 658:1.0 
-1.0 -0.04861490285633546 503:1.0 
-0.9439704078167863 -0.0 500:1.0 655:1.0 
-1.0 -0.0 67:1.0 173:1.0 651:1.0 
-1.0 -1.0 33:1.0 
-0.3470776624971891 -0.0 61:1.0 62:1.0 259:1.0 273:1.0 
-1.0 -1.0 9:1.0 644:0.9414806056077009 
-0.6668029617146446 -1.0 21:1.0 86:1.0 553:1.0 645:1.0 
-0.7455029301440855 -0.0 163:1.0 505:1.0 
-0.0 -0.22790770236556765 67:1.0 122:1.0 526:1.0 651:1.0 652:1.0 
-0.9351654875167801 -0.6599357375590273 63:1.0 65:1.0 370:1.0 
-1.0 -1.0 406:1.0 
-1.0 -1.0 122:1.0 652:1.0 
-1.0 -0.3546878399340751 163:1.0 401:1.0 472:1.0 
-1.0 -1.0 
-1.0 -1.0 575:1.0 
-0.10540022688721448 -0.0 156:1.0 521:1.0 522:1.0 
-0.31690501897543505 -0.01878874567953326 200:1.0 529:1.0 534:1.0 628:1.0 
-0.2759568987851605 -0.2706710721181165 408:1.0 422:1.0 527:1.0 
-0.3331784890374203 -1.0 231:1.0 345:1.0 472:1.0 593:1.0 
-1.0 -0.9322199658182393 9:1.0 505:0.9638884439365196 
-0.1292105836215266 -0.7979769255075422 225:1.0 355:1.0 
-0.37272252419681595 -0.2645375569786102 122:1.0 547:1.0 617:1.0 652:1.0 
-1.0 -1.0 279:1.0 
-1.0 -1.0 
-0.3710763047377991 -0.0 537:1.0 631:1.0 
-0.9578970141267578 -0.0 63:1.0 124:1.0 538:1.0 
-0.6610344452032787 -1.0 210:1.0 437:1.0 
-0.9257546068012952 -0.0 356:1.0 630:1.0 
-0.5105062155955048 -0.0 582:1.0 621:1.0 622:1.0 
-0.16019374314539686 -0.5264082817176122 215:1.0 596:1.0 
-0.7882256247061369 -0.4375733911522361 613:0.9452675049469591 647:0.9414806056077009 
-1.0 -0.6791210846610193 139:1.0 194:1.0 635:1.0 
-0.0 -0.3915180946902922 356:1.0 630:1.0 636:1.0 
-1.0 -1.0 
-0.1617683783067096 -0.0 33:1.0 480:1.0 575:1.0 
-1.0 -1.0 557:1.0 
-1.0 -1.0 
-0.8903779397711776 -1.0 497:1.0 
-1.0 -1.0 173:1.0 
