svm_type c_svc
kernel_type linear
nr_class 3
total_sv 993
rho -0.8509998267241116 -0.7386360238620119 0.0336641635370242
label 0 1 2
nr_sv 378 309 306
SV
1.0 1.0 
1.0 0.3235154330252589 1:1.0 
1.0 1.0 
0.010840645539174118 0.0 2:1.0 3:1.0 13:1.0 14:1.0 15:1.0 669:1.0 675:1.0 
1.0 1.0 
1.0 0.0 2:1.0 3:1.0 483:1.0 669:1.0 675:1.0 
1.0 0.9995180204864229 24:1.0 25:1.0 
1.0 1.0 
1.0 1.0 
1.0 1.0 
1.0 0.2612483235196135 30:1.0 
0.19596223062556642 0.2773130347641758 32:1.0 33:1.0 34:1.0 617:1.0 648:1.0 
0.0 0.1706825701181458 38:1.0 
1.0 0.1307059901335369 42:1.0 43:1.0 
1.0 1.0 
0.1907890319589273 0.0 44:1.0 45:1.0 46:1.0 47:1.0 
0.3433581888321259 0.0 33:1.0 48:1.0 49:1.0 
1.0 1.0 
0.13522986306789375 0.0 2:1.0 3:1.0 50:1.0 669:1.0 675:1.0 
0.0 0.18787928639263163 51:1.0 52:1.0 
0.0 0.2223020483098247 37:1.0 53:1.0 
0.1488862732169136 0.0 54:1.0 55:1.0 
0.5652200313571153 0.39739722355062623 56:1.0 57:1.0 58:1.0 
0.0 1.0 48:0.94340246432784 63:1.0 64:1.0 65:1.0 66:1.0 395:1.0 
0.0 0.6307862048525505 67:1.0 68:1.0 69:1.0 70:1.0 71:1.0 428:1.0 
0.54537208134052 0.5240903047207545 67:1.0 72:1.0 73:1.0 74:1.0 670:1.0 
0.47812807463355406 0.0 36:1.0 75:1.0 76:1.0 77:1.0 418:1.0 
1.0 1.0 580:1.0 
1.0 1.0 
1.0 1.0 
1.0 0.0 2:1.0 3:1.0 669:1.0 675:1.0 
1.0 1.0 
1.0 1.0 
0.0 1.0 88:1.0 89:1.0 562:1.0 
1.0 1.0 
0.12319163689990177 0.0 91:1.0 92:1.0 408:1.0 
1.0 1.0 
0.795372900945378 0.0629329823526737 93:1.0 
1.0 1.0 402:1.0 
3.2410636161314004E-4 0.0 95:1.0 96:1.0 97:1.0 98:1.0 99:1.0 100:1.0 101:1.0 
1.0 1.0 
1.0 1.0 
1.0 1.0 
1.0 0.0 8:1.0 429:1.0 677:1.0 
0.31185170213055025 0.0 9:1.0 42:1.0 102:1.0 
0.0 0.6154504305723538 106:1.0 107:1.0 108:1.0 
1.0 1.0 
1.0 1.0 
0.0 0.9305341098412743 36:1.0 
0.0 0.09723514541896199 22:1.0 119:1.0 120:1.0 121:1.0 
1.0 1.0 72:1.0 670:1.0 
1.0 0.5027575710047286 101:1.0 122:0.9482726796868418 
0.19018933643865318 0.0 25:1.0 123:1.0 
1.0 0.0 2:1.0 3:1.0 669:1.0 675:1.0 
1.0 1.0 
0.5050453843938502 0.26141603512230943 124:1.0 
0.13535216923140123 0.19094801226748667 9:1.0 27:1.0 97:1.0 118:1.0 125:1.0 126:1.0 671:1.0 
0.41711046213743785 0.5914670219913175 22:1.0 127:0.939504638093022 128:1.0 442:1.0 
0.5493476356767074 0.0 129:1.0 130:1.0 131:1.0 132:1.0 
0.9253307546155622 0.0 33:1.0 113:1.0 
0.0 0.10384587917828736 46:1.0 119:1.0 134:1.0 135:1.0 
1.0 1.0 
1.0 0.38922417569186685 143:1.0 144:1.0 469:1.0 
0.14846261748705913 0.0 39:1.0 
0.5696616486701789 1.0 146:1.0 147:1.0 
1.0 1.0 
0.36277283179296255 5.551115123125783E-17 8:1.0 61:1.0 96:1.0 366:1.0 677:1.0 
0.0 0.20364754525371656 141:1.0 153:1.0 
0.004679249798839105 1.0 146:1.0 147:1.0 464:1.0 
0.018452590670733272 0.0 25:1.0 36:1.0 75:0.9643714236507132 153:1.0 154:1.0 490:1.0 
0.0 0.33322779191074553 75:1.0 159:1.0 
0.07461337162973329 1.0 514:1.0 515:1.0 
1.0 1.0 
1.0 1.0 
1.0 0.26121600038364745 416:1.0 
0.34532878719493443 0.2223606178002532 53:1.0 139:1.0 
0.14877498352518095 0.0 159:1.0 
0.16867611571801225 0.2960693311564012 160:0.939504638093022 
0.4937489709218808 0.0014639262447597341 161:1.0 162:1.0 
0.14891639280463115 0.26112082804394776 167:1.0 
0.0 0.12593746507405873 159:1.0 168:1.0 169:1.0 170:1.0 
0.0 0.00672460455384204 145:0.9514561266245171 171:1.0 172:1.0 
0.03257170543365913 0.0 2:1.0 3:1.0 13:1.0 80:1.0 669:1.0 675:1.0 
4.462422193515965E-4 0.12026831062317724 173:1.0 
0.10820543724584353 0.47718415027973166 41:1.0 174:1.0 175:1.0 
0.0 1.0 28:1.0 
0.07442694758011993 0.07879355991176296 86:1.0 116:1.0 
0.0 0.0330448988369698 90:1.0 178:1.0 179:1.0 
1.0 1.0 64:1.0 72:1.0 174:1.0 180:1.0 181:1.0 670:1.0 676:1.0 
0.07610736874329851 0.0 182:1.0 
0.14908817901335433 0.2610578491911456 183:1.0 
0.9580648632013121 0.26139315383405015 45:1.0 
0.0 0.9107523613882538 184:1.0 
0.8876293396378399 1.0 185:1.0 
1.0 1.0 
0.14898983255541204 0.26109796045864453 190:1.0 
1.0 0.9783667327670321 25:1.0 
1.0 1.0 
1.0 1.0 72:1.0 670:1.0 
1.0 0.0 2:1.0 3:1.0 669:1.0 675:1.0 
3.0801706905808635E-4 0.0 191:1.0 
0.6432690743333467 0.1306843333007695 192:1.0 481:1.0 
0.0 0.2611545953685501 193:1.0 
0.0 0.30442049647460856 135:1.0 196:1.0 197:1.0 198:1.0 602:1.0 
1.0 1.0 
0.0867097451135364 0.0 2:1.0 3:1.0 199:1.0 669:1.0 675:1.0 
0.0 1.0 141:1.0 201:1.0 
1.0 1.0 
0.8513305087004353 1.0 2:1.0 3:1.0 126:1.0 144:1.0 202:1.0 203:1.0 388:1.0 548:1.0 643:1.0 669:1.0 671:1.0 675:1.0 
1.0 0.0 2:1.0 3:1.0 669:1.0 675:1.0 
1.0 1.0 
0.07455370060963222 0.13059350626586003 55:1.0 204:1.0 205:1.0 
1.0 0.0 55:1.0 206:1.0 
1.0 1.0 
0.14674185399061362 0.0 207:1.0 208:1.0 
0.5744681770954171 0.02463417508455689 209:1.0 210:1.0 
0.6846700970892055 0.7087096382528494 211:1.0 406:1.0 
0.10874003908556552 0.4097280153732131 71:1.0 106:1.0 206:1.0 217:1.0 218:1.0 
1.0 1.0 
0.0 1.0 149:1.0 179:1.0 365:1.0 
0.33283304442714085 0.0 2:1.0 669:1.0 
1.0 0.2612700640067665 659:1.0 
0.14868984808948998 0.26121793325704196 219:1.0 
0.32624166487197437 0.0 2:1.0 19:1.0 101:1.0 145:0.9514561266245171 669:1.0 
1.0 1.0 
0.0 0.17693280369552625 22:1.0 220:1.0 221:1.0 
1.0 1.0 3:1.0 222:1.0 333:1.0 675:1.0 
1.0 1.0 
1.0 0.0 2:1.0 224:1.0 669:1.0 
0.6028172217309252 0.0 38:1.0 225:1.0 
0.07427025042131534 0.0 113:1.0 114:1.0 115:1.0 226:1.0 227:1.0 
0.21692498268418606 0.21806170729929925 72:1.0 104:1.0 228:1.0 492:1.0 657:1.0 670:1.0 
0.29150455029361194 0.0 198:1.0 229:1.0 
0.8366464613140923 0.006081852184199321 166:1.0 
0.3562674637098063 1.0 66:1.0 126:1.0 169:1.0 230:1.0 231:1.0 335:1.0 633:1.0 671:1.0 
1.0 1.0 
0.0 0.049331061843496934 1:1.0 13:1.0 20:1.0 55:1.0 75:1.0 100:1.0 142:1.0 
0.6539744172150467 0.0 2:1.0 3:1.0 92:1.0 232:1.0 233:1.0 352:1.0 669:1.0 675:1.0 
0.5201924182413189 0.25647035218880715 70:1.0 214:1.0 234:1.0 
1.0 0.0 2:1.0 3:1.0 669:1.0 675:1.0 
1.0 0.2615236503894753 347:1.0 
0.14889463738055692 0.5794835213707007 108:1.0 
1.0 0.5774786536049044 75:1.0 133:1.0 323:1.0 
0.6824530911852905 0.4867893195050278 49:1.0 141:1.0 213:1.0 234:1.0 240:1.0 
0.0 0.26091930497059296 35:1.0 
1.0 0.0 2:1.0 3:1.0 669:1.0 675:1.0 
0.8709051499769339 1.0 106:1.0 129:1.0 231:1.0 
1.0 1.0 53:1.0 
0.07448873446377133 0.04205053487476048 220:1.0 241:1.0 
0.8272277604220667 0.7045196240289637 31:1.0 72:1.0 92:1.0 185:1.0 670:1.0 
1.0 1.0 
1.0 1.0 242:1.0 
1.0 1.0 
1.0 0.0 2:1.0 3:1.0 669:1.0 675:1.0 
0.5210576654646547 0.7347931970249061 128:1.0 480:1.0 616:1.0 
0.4404965799355804 0.2318950925610493 52:1.0 53:1.0 58:1.0 154:1.0 332:1.0 
0.1837627048837197 1.0 179:0.9000000062999999 
1.0 1.0 
0.0 1.0 169:1.0 243:1.0 
0.042798922395519745 0.0 244:1.0 
1.0 0.0 2:1.0 3:1.0 669:1.0 675:1.0 
1.0 1.0 
1.0 1.0 
1.0 0.8718145409336213 143:1.0 
1.0 0.0 92:1.0 245:0.9482726796868418 246:1.0 247:1.0 
1.0 1.0 72:1.0 670:1.0 
1.0 0.0 2:1.0 3:1.0 669:1.0 675:1.0 
1.0 1.0 72:1.0 670:1.0 
0.0 0.33614327107837644 165:1.0 244:1.0 250:1.0 251:1.0 252:1.0 
0.0 0.16192014021934023 253:1.0 
0.004680073616113482 0.0 256:1.0 
0.010814952487567175 0.0 2:1.0 3:1.0 13:1.0 15:1.0 254:1.0 669:1.0 675:1.0 
1.0 1.0 
0.07449608563884619 0.1306872564140726 84:1.0 85:1.0 
0.6566569814659307 1.0 72:1.0 243:1.0 670:1.0 
0.0 0.10012567225375775 48:1.0 257:1.0 258:1.0 
0.8460529756541868 1.0 247:1.0 
0.009965875344213785 1.0 36:1.0 
0.36125008195971553 1.0 72:1.0 259:1.0 670:1.0 
1.0 1.0 
1.7846182539121E-4 0.32804770295661156 39:1.0 40:1.0 251:1.0 252:1.0 
0.0 0.13255109910628882 4:1.0 50:1.0 207:1.0 229:1.0 609:1.0 
0.23555020141330116 0.37567525201293844 69:0.9499999874 101:0.9591961847798816 232:0.9461507336503839 
0.008297032015686382 0.3084807143469547 32:1.0 72:1.0 166:1.0 523:1.0 670:1.0 
1.0 1.0 
1.0 1.0 
1.0 1.0 
0.41087318373423654 0.05510478787895667 16:1.0 17:1.0 41:1.0 189:1.0 262:1.0 364:1.0 
0.14915145884241035 0.26146581947533054 78:1.0 
1.0 1.0 
0.0900142790048285 0.0 2:1.0 3:1.0 42:1.0 172:1.0 263:1.0 669:1.0 675:1.0 
1.0 0.0 36:1.0 420:1.0 
0.0 0.10923003908345173 246:1.0 264:1.0 
0.10407524876831177 0.0 74:1.0 182:1.0 265:1.0 266:1.0 
1.0 1.0 72:1.0 224:1.0 267:1.0 670:1.0 
1.0 1.0 
1.0 1.0 67:1.0 
0.7702143107133782 0.0 101:1.0 170:1.0 
0.3172249648273324 0.0 71:1.0 134:1.0 
0.18843797985160665 0.5777375667296126 72:1.0 136:1.0 137:1.0 670:1.0 
1.0 1.0 
0.47641058175951884 1.0 216:1.0 337:1.0 
0.013332395814545882 0.3456307853583841 274:1.0 445:1.0 
0.3876682958678878 0.19157975998578566 36:1.0 91:1.0 174:1.0 175:1.0 275:0.94340246432784 
1.0 0.0 2:1.0 3:1.0 669:1.0 675:1.0 
1.0 1.0 
0.10622412212977951 0.0 104:1.0 124:1.0 244:1.0 276:1.0 
1.0 1.0 
0.0 0.25459676775067897 145:1.0 
0.6845055930287336 0.6803746436359006 8:1.0 31:1.0 53:1.0 539:1.0 677:1.0 
0.4383861239358115 0.0 16:1.0 17:1.0 38:1.0 
0.6554144303855551 0.5191249099434914 161:1.0 
1.0 0.5520938733356544 166:1.0 279:1.0 
0.0 1.0 33:1.0 54:1.0 67:1.0 280:1.0 415:1.0 
1.0 1.0 
1.0 0.0 2:1.0 3:1.0 277:1.0 669:1.0 675:1.0 
0.42604341592153716 0.0 182:1.0 260:1.0 
0.04976284119913106 0.22396356346407004 270:1.0 271:1.0 281:1.0 
1.0 1.0 
1.0 0.0 2:1.0 3:1.0 669:1.0 675:1.0 
0.0 1.0 89:1.0 206:1.0 540:1.0 
1.0 1.0 
0.0 0.37424679457863735 70:1.0 
1.0 1.0 166:1.0 
0.898937065531783 1.0 89:1.0 
0.4424597254884557 0.28058414191581993 11:1.0 57:1.0 223:1.0 
1.0 1.0 
1.0 0.0 198:1.0 283:1.0 329:1.0 673:1.0 
0.0 1.0 193:1.0 
1.0 1.0 
1.0 0.0 2:1.0 3:1.0 669:1.0 675:1.0 
0.19614374606330065 0.35942165848920515 53:1.0 207:1.0 208:1.0 595:1.0 
0.14886283493747887 1.0 221:1.0 
0.13154321774817787 0.0 36:1.0 53:1.0 285:1.0 381:1.0 
0.684470012339959 0.0 33:1.0 
1.0 1.0 
1.0 1.0 72:1.0 670:1.0 
1.0 0.23664221446236033 2:1.0 669:1.0 
0.0 0.1201211263200021 18:1.0 
0.07855252878320657 0.0 2:1.0 3:1.0 16:1.0 17:1.0 29:1.0 114:1.0 669:1.0 675:1.0 
1.0 1.0 
1.0 1.0 72:1.0 670:1.0 
1.0 1.0 
0.14887413316316708 0.26130999685880396 272:1.0 
0.07451795323513657 0.1306687602396634 81:1.0 289:1.0 
1.0 1.0 281:1.0 
0.1486032130453351 0.5231155886571934 191:1.0 
0.37625235575095656 0.0 37:1.0 107:1.0 185:1.0 196:1.0 229:1.0 291:1.0 
0.18062235235872412 0.5778642741307536 72:1.0 152:1.0 288:1.0 670:1.0 
0.14433179523100742 0.5506744404220074 169:1.0 256:1.0 
0.13014602092598307 0.0 135:1.0 
0.8382009948248119 0.11785467084489902 72:1.0 75:1.0 117:1.0 129:1.0 342:1.0 670:1.0 
0.0 0.45945677445213184 75:1.0 76:1.0 
0.0064847272908894905 0.03511086452793128 97:1.0 194:1.0 
0.14890130878477248 0.2612228511562633 7:1.0 
1.0 0.0 2:1.0 3:1.0 343:1.0 669:1.0 675:1.0 
0.18206947842932195 0.2088449430460084 2:1.0 3:1.0 87:1.0 112:1.0 286:1.0 620:1.0 669:1.0 675:1.0 
1.0 0.44475755274609124 50:0.9514561266245171 134:1.0 292:1.0 
0.0 0.21231452117538419 179:1.0 185:1.0 
1.0 1.0 
1.0 1.0 
1.0 1.0 
1.0 0.9790504998801213 203:1.0 293:1.0 358:1.0 
0.0 0.6630797572968824 113:1.0 114:1.0 
1.0 2.308646534473841E-4 35:1.0 249:1.0 294:1.0 
0.2639134390765433 0.0 9:1.0 35:1.0 95:1.0 227:1.0 296:1.0 
0.26998392837940544 0.0 18:1.0 46:1.0 282:1.0 
1.0 1.0 169:1.0 
0.0 0.9751811771783039 8:1.0 677:1.0 
0.25028348507038706 0.0300525209985054 26:1.0 150:1.0 215:1.0 297:1.0 
1.0 1.0 
0.0 1.0 104:1.0 181:1.0 
1.0 1.0 242:1.0 
0.24041940613805723 0.9239040804293526 102:1.0 230:1.0 
0.7626135204618532 1.0 36:1.0 
1.0 1.0 
1.0 1.0 
1.0 1.0 
0.04481175894255228 1.0 265:1.0 
0.0 1.0 202:1.0 
0.23300151769046096 1.0 8:1.0 677:1.0 
0.1489092446012866 0.2611179462471569 269:1.0 
1.0 1.0 
1.0 1.0 
0.668023913529005 0.39173504866255426 198:1.0 
0.9621392821485146 0.0 2:1.0 3:1.0 35:1.0 63:1.0 119:1.0 168:1.0 224:1.0 669:1.0 675:1.0 
1.0 1.0 
0.0 1.0 8:1.0 677:1.0 
0.0 0.19836511166945794 75:1.0 93:1.0 201:1.0 
1.0 0.0 2:1.0 3:1.0 11:1.0 180:1.0 669:1.0 675:1.0 676:1.0 
0.14883789478307663 0.8474951774926295 598:1.0 
0.0815306717394541 0.0 104:1.0 228:1.0 276:1.0 
0.5706253816045888 0.5368442327080496 57:1.0 298:1.0 
0.14883991052612233 1.0 68:1.0 
0.026535148608243065 0.0 299:1.0 
0.8129872555002141 0.0 9:1.0 
1.0 1.0 
0.6744722240879031 1.0 280:1.0 573:1.0 
0.1901445035463057 0.0 25:1.0 193:1.0 
1.0 0.8945769598635749 101:1.0 106:1.0 392:1.0 405:1.0 610:1.0 
0.0 0.2613099968588039 47:1.0 
0.1489184469735618 0.2611696448344075 300:1.0 
0.4586256538680851 0.8112077315088652 2:1.0 126:1.0 263:1.0 669:1.0 671:1.0 
0.48813953663729176 1.0 28:1.0 
1.0 1.0 
0.0 0.3696584837140656 182:1.0 301:1.0 661:1.0 
1.0 1.0 
0.09670311846956671 0.0 8:1.0 207:1.0 302:1.0 334:1.0 677:1.0 
0.1488956754122081 0.925082974071946 165:1.0 
0.3209078535238459 0.6957560701403679 67:1.0 176:1.0 202:1.0 293:1.0 380:1.0 
1.0 1.0 
0.38304604341847487 0.0871009749206417 248:1.0 303:1.0 304:1.0 
0.0 0.3162428994716331 176:1.0 305:1.0 
0.8364405757706225 0.0 65:1.0 166:1.0 306:1.0 
0.4304057226508975 0.0 2:1.0 3:1.0 49:1.0 140:1.0 669:1.0 675:1.0 
0.15811337220840502 0.6239676292966976 44:1.0 75:1.0 126:1.0 200:1.0 338:1.0 671:1.0 
1.0 1.0 9:1.0 72:1.0 670:1.0 
0.0 0.10353500976178322 116:1.0 290:1.0 302:1.0 501:1.0 
0.0 1.0 141:1.0 
1.0 1.0 
0.0 0.2768123983539402 39:1.0 75:1.0 209:1.0 309:1.0 597:1.0 
0.30304041876963944 0.3300772163698573 72:1.0 109:1.0 110:1.0 247:1.0 310:1.0 538:1.0 670:1.0 
1.0 1.0 
0.019005623441256746 0.0 135:1.0 285:1.0 370:1.0 
0.14898983255541204 1.0 311:1.0 
1.0 0.0 92:1.0 
1.0 0.0 41:1.0 75:1.0 82:1.0 279:1.0 424:1.0 
1.0 0.0 2:1.0 3:1.0 294:1.0 669:1.0 675:1.0 
1.0 1.0 
0.14914602872043917 0.0 301:1.0 
1.0 1.0 
0.049684871431340386 0.0 250:1.0 273:1.0 553:1.0 
1.0 1.0 
0.12252408474618534 0.26139331630142504 299:1.0 
0.1483463070388883 0.14090017547785333 18:1.0 72:1.0 149:1.0 150:1.0 151:1.0 173:1.0 255:1.0 670:1.0 
1.0 1.0 
0.5248726053531043 0.2521488355831828 5:1.0 55:1.0 291:1.0 313:1.0 
1.0 1.0 
1.0 1.0 
1.0 1.0 
1.0 0.28666535429321394 314:1.0 668:1.0 
1.0 1.0 
0.7461607607989512 0.09729809412781776 2:1.0 3:1.0 200:1.0 217:1.0 426:1.0 669:1.0 675:1.0 
1.5265566588595902E-16 0.0 9:1.0 212:1.0 
1.3877787807814457E-17 0.0 182:1.0 260:1.0 261:1.0 
1.0 0.9449194340155536 305:1.0 
1.0 1.0 
0.14909988029884946 1.0 547:1.0 
1.0 1.0 
0.0 2.5013244223509487E-4 24:1.0 77:1.0 305:1.0 
1.0 1.0 
0.4596508914559934 0.6306112911440223 284:1.0 400:1.0 
1.0 1.0 36:1.0 
1.0 1.0 
1.0 1.0 
0.3486843615730272 1.0 126:1.0 169:1.0 373:1.0 570:1.0 671:1.0 
0.14911162831211972 0.26119516576956 94:1.0 
0.07451084385254861 0.10949686357451519 264:1.0 315:1.0 
0.009573171711197037 0.005566019263892564 316:1.0 
1.0 1.0 
0.2582651628409529 0.0 104:1.0 278:1.0 317:0.939504638093022 
1.0 0.13070208794942015 307:1.0 458:1.0 
0.149172500890639 1.0 177:1.0 
0.6685197108486196 0.16249628299019095 2:1.0 3:1.0 345:1.0 450:1.0 669:1.0 675:1.0 
0.0 0.09055477703924959 38:1.0 41:1.0 225:1.0 229:1.0 257:1.0 262:1.0 485:1.0 521:1.0 
0.3814590574819244 0.0 274:1.0 307:1.0 308:1.0 461:1.0 
1.0 1.0 126:1.0 671:1.0 
0.0 0.7450600874141663 233:1.0 293:1.0 
0.840275615756954 0.0 2:1.0 3:1.0 4:1.0 8:1.0 22:1.0 23:1.0 669:1.0 675:1.0 677:1.0 
1.0 0.0 2:1.0 3:1.0 669:1.0 675:1.0 
0.7113402078855107 0.0992303797834393 75:1.0 253:1.0 318:1.0 390:1.0 
0.107218520265347 0.0 211:1.0 396:1.0 
0.08674820885426505 0.0 2:1.0 3:1.0 258:1.0 669:1.0 675:1.0 
1.0 1.0 36:1.0 
0.14897887642004734 0.6302460921632265 184:1.0 
0.0 0.2613011219792382 317:1.0 
1.0 0.0 8:1.0 23:1.0 129:1.0 285:1.0 677:1.0 
0.13929415117017965 0.25554360647342417 316:1.0 
-1.0 0.0 2:1.0 3:1.0 31:1.0 318:1.0 513:1.0 669:1.0 675:1.0 
-1.0 1.0 
-0.9799995372838084 1.0 319:1.0 
-0.5131790861157275 0.0 2:1.0 3:1.0 129:1.0 131:1.0 132:1.0 294:1.0 669:1.0 675:1.0 
-1.0 1.0 
-1.0 1.0 
-1.0 1.0 106:1.0 
-1.0 1.0 75:1.0 
-0.0 0.029970882368879178 184:1.0 234:1.0 311:1.0 323:1.0 330:1.0 
-1.0 0.07577395525139118 2:1.0 3:1.0 16:1.0 17:1.0 45:1.0 331:1.0 332:1.0 669:1.0 675:1.0 
-0.694969467994841 1.0 333:1.0 
-0.6632574800000559 1.0 72:1.0 213:1.0 337:1.0 338:1.0 594:1.0 670:1.0 
-0.00428197521797008 0.0 339:1.0 
-1.0 1.0 
-1.0 1.0 113:1.0 344:1.0 
-0.0 0.16590549937247634 321:1.0 333:1.0 346:1.0 672:1.0 
-0.0 0.0756212651999641 55:1.0 267:1.0 293:1.0 321:1.0 333:1.0 566:1.0 672:1.0 
-0.9992093176305982 0.7815612368145943 324:0.9580721909462412 
-0.8316214228164371 0.0 36:1.0 128:1.0 321:1.0 672:1.0 
-1.0 1.0 92:1.0 175:1.0 
-0.22752396241596493 0.02963172329879492 196:1.0 354:1.0 
-0.12563748373555236 0.16158785778368476 35:1.0 72:1.0 329:1.0 670:1.0 673:1.0 
-0.31441946414575384 0.0 200:1.0 232:1.0 356:1.0 357:1.0 
-0.22135673035328857 0.0 321:1.0 360:1.0 610:1.0 672:1.0 
-0.6905643078477453 1.0 361:1.0 362:1.0 
-0.0 1.0 356:1.0 363:1.0 364:1.0 365:1.0 
-0.14069212098998662 0.0 2:1.0 3:1.0 106:1.0 216:1.0 285:1.0 358:1.0 368:1.0 369:1.0 370:1.0 669:1.0 675:1.0 
-0.0 0.3518917960435706 49:1.0 126:1.0 169:1.0 371:1.0 372:1.0 373:1.0 374:1.0 671:1.0 
-0.25233029239542965 1.0 375:1.0 376:1.0 
-1.0 1.0 580:1.0 
-0.0 0.6428831223050002 323:1.0 337:1.0 
-1.0 0.0 2:1.0 3:1.0 669:1.0 675:1.0 
-1.0 0.0 2:1.0 72:1.0 358:1.0 669:1.0 670:1.0 
-0.8426512638808514 0.0 322:1.0 
-1.0 0.7152833158659518 49:1.0 378:1.0 
-0.4902993090372073 0.18790884128079335 227:1.0 382:1.0 383:1.0 384:1.0 
-0.7476548973635898 0.6449932224807526 38:1.0 175:1.0 225:1.0 379:1.0 
-1.0 0.0 2:1.0 3:1.0 390:1.0 669:1.0 675:1.0 
-0.2836562815670962 1.0 391:1.0 392:1.0 569:1.0 
-1.0 1.0 166:1.0 
-1.0 1.0 397:1.0 
-0.7337116328975154 0.0 9:1.0 129:1.0 340:1.0 398:1.0 
-0.187916680067741 0.0 198:1.0 217:1.0 285:0.9548096610743656 323:1.0 381:1.0 
-1.0 1.0 72:1.0 150:1.0 670:1.0 
-1.0 1.0 
-1.0 1.0 
-0.7703214096796094 0.6317400347486114 359:1.0 399:1.0 400:1.0 
-0.07562597408756755 0.0 36:0.9671737578119487 323:1.0 401:0.9499999874 634:1.0 
-1.0 0.0 2:1.0 3:1.0 669:1.0 675:1.0 
-1.0 1.0 
-0.0 0.12018475776867157 72:1.0 229:1.0 343:1.0 670:1.0 
-1.0 1.0 8:1.0 126:1.0 293:1.0 671:1.0 677:1.0 
-0.670083732493793 0.0013663459360853069 357:1.0 
-1.0 1.0 
-1.0 1.0 
-0.5943125356498534 0.0 2:1.0 3:1.0 134:1.0 169:1.0 402:1.0 403:1.0 669:1.0 675:1.0 
-1.0 1.0 
-0.0 1.0 126:1.0 354:1.0 671:1.0 
-0.0 0.030157039719391016 185:1.0 203:1.0 329:1.0 333:1.0 643:1.0 673:1.0 
-0.7842706198572057 0.8184868847022622 11:1.0 36:0.9671737578119487 67:1.0 291:1.0 405:0.9461507336503839 617:1.0 
-0.0 0.842052348888538 106:1.0 180:1.0 676:1.0 
-0.31434629071145226 0.15947260455567788 198:1.0 329:1.0 673:1.0 
-0.14564599117576266 0.7363495354330192 72:1.0 407:1.0 408:1.0 409:1.0 670:1.0 
-0.007481880863287218 0.863474763025116 72:1.0 144:1.0 361:1.0 374:1.0 410:1.0 411:1.0 648:1.0 670:1.0 
-1.0 1.0 
-0.01571218452636164 0.12248651254897158 136:1.0 329:1.0 410:1.0 673:1.0 
-0.0 0.227738537653123 8:1.0 126:1.0 354:1.0 671:1.0 677:1.0 
-0.30294678547346676 0.263398571310396 126:1.0 412:1.0 671:1.0 
-1.0 0.9547617638575303 203:1.0 345:1.0 
-1.0 1.0 122:0.9482726796868418 
-1.0 0.37475704199729326 388:0.9054281980262641 420:1.0 
-0.6641146405629892 0.0 323:1.0 
-1.0 1.0 516:1.0 
-0.0 0.09936167837341246 2:1.0 19:1.0 180:1.0 333:1.0 669:1.0 676:1.0 
-0.30249354723887834 0.2432127726065072 8:1.0 36:1.0 72:1.0 320:1.0 338:1.0 360:1.0 423:1.0 670:1.0 677:1.0 
-0.4579184316384999 0.0 41:1.0 185:1.0 424:1.0 425:1.0 426:1.0 427:1.0 
-1.0 1.0 
-1.0 0.0 2:1.0 3:1.0 669:1.0 675:1.0 
-1.0 0.0 2:1.0 343:1.0 669:1.0 
-0.0 0.17903476199863366 35:1.0 128:1.0 294:1.0 296:1.0 333:1.0 
-1.0 1.0 2:1.0 3:1.0 230:1.0 388:1.0 669:1.0 675:1.0 
-0.97357349159683 0.03361054941679393 377:1.0 
-0.7724760375840348 0.4434939114422756 36:1.0 354:1.0 
-1.0 1.0 
-0.04104422301390921 0.0 341:1.0 432:1.0 
-5.838177758602959E-4 0.0 433:1.0 434:1.0 
-0.28457131952290365 0.917590414695071 93:1.0 407:1.0 550:1.0 663:1.0 
-0.5267786640387824 0.0 43:1.0 129:1.0 166:1.0 329:1.0 673:1.0 
-0.0 0.6793720587233747 230:1.0 321:1.0 672:1.0 
-1.0 0.0 322:1.0 
-1.0 0.9967606158216497 101:1.0 129:1.0 442:1.0 
-0.040043864396848566 0.0 2:1.0 3:1.0 224:1.0 408:1.0 669:1.0 675:1.0 
-0.2692776216671769 0.0 224:1.0 
-1.0 1.0 276:1.0 444:1.0 
-1.0 1.0 242:1.0 
-1.0 1.0 
-0.0 0.4253551447773759 126:1.0 321:1.0 646:1.0 671:1.0 672:1.0 
-0.44473906984694966 0.1275067641809364 72:1.0 162:1.0 231:1.0 342:1.0 375:1.0 447:1.0 448:1.0 670:1.0 
-1.0 0.0 2:1.0 3:1.0 669:1.0 675:1.0 
-0.7723349694760845 0.6339932761764465 72:1.0 246:1.0 422:1.0 670:1.0 
-1.0 1.0 234:1.0 449:0.9356091074611332 
-1.0 1.0 169:1.0 358:1.0 
-0.9016894534934782 0.1760126876395824 74:1.0 375:1.0 
-1.0 0.8694540473664089 126:1.0 429:1.0 671:1.0 
-0.28055677895406883 0.0 323:1.0 
-1.0 0.0 23:1.0 
-0.9253991734311836 0.2033920984909751 314:1.0 668:1.0 
-1.0 0.8631870890122795 224:1.0 
-1.0 1.0 
-0.031300704241533826 0.0 166:1.0 168:1.0 306:1.0 343:0.9205795469857552 446:1.0 
-0.14787130191645076 1.0 64:1.0 363:0.957262846390748 
-0.0 0.6088205825287717 356:1.0 454:1.0 
-1.0 0.8603765892048185 24:1.0 106:1.0 455:1.0 
-0.4622152274994982 0.5199433119395094 124:1.0 361:1.0 390:1.0 
-0.0 0.18850280732298033 72:1.0 279:1.0 340:1.0 670:1.0 
-0.9232641083892896 0.0 25:1.0 341:1.0 
-0.0 0.09012055780026972 25:1.0 86:1.0 101:1.0 126:1.0 169:1.0 329:1.0 373:1.0 385:1.0 420:1.0 430:1.0 671:1.0 673:1.0 
-1.0 1.0 
-1.0 1.0 456:1.0 
-1.0 1.0 72:1.0 403:1.0 670:1.0 
-1.0 0.03579456347102019 23:1.0 
-0.2508028852091031 0.0 11:1.0 117:1.0 169:1.0 180:1.0 285:1.0 293:1.0 445:1.0 676:1.0 
-1.0 0.0 53:1.0 134:1.0 247:1.0 294:1.0 
-0.08874167221975915 0.0 53:1.0 366:1.0 390:1.0 457:1.0 
-1.0 0.0 35:1.0 354:1.0 458:1.0 
-0.0 1.0 321:1.0 355:1.0 459:1.0 534:1.0 672:1.0 
-0.974518520105424 0.0 144:1.0 166:1.0 324:1.0 
-1.0 1.0 366:1.0 
-1.0 1.0 72:1.0 143:1.0 670:1.0 
-1.0 1.0 
-0.3817953737993125 0.0 323:1.0 461:1.0 
-0.0 0.15907670199650553 178:1.0 322:1.0 462:1.0 
-0.1603806292256626 0.3135129949254765 72:1.0 202:1.0 323:1.0 670:1.0 
-1.0 1.0 
-0.48450889646563056 1.0 185:1.0 352:1.0 415:1.0 463:1.0 
-0.24470389549716995 0.0 55:1.0 180:1.0 676:1.0 
-0.0 0.08055113866454797 55:1.0 180:1.0 557:1.0 676:1.0 
-1.0 1.0 465:1.0 
-0.799806784165644 0.0 49:1.0 82:1.0 144:1.0 180:1.0 202:1.0 676:1.0 
-0.0 0.2791126708750419 169:1.0 285:1.0 323:1.0 333:1.0 
-1.0 0.5593736019811824 245:1.0 
-1.0 0.9526134905437722 279:1.0 
-0.3399059645136423 0.0 8:1.0 342:0.9054281980262641 348:1.0 349:1.0 350:1.0 677:1.0 
-0.750180105963452 1.0 72:1.0 89:1.0 335:1.0 396:1.0 564:1.0 670:1.0 
-1.0 0.0 2:1.0 3:1.0 278:1.0 330:1.0 669:1.0 675:1.0 
-0.4606088729357428 1.0 143:1.0 293:1.0 
-1.0 1.0 
-1.0 0.3880353648006326 281:1.0 347:1.0 429:1.0 
-1.0 1.0 
-1.0 1.0 
-1.0 0.0 2:1.0 3:1.0 46:1.0 470:1.0 669:1.0 675:1.0 
-1.0 1.5632302389605667E-4 2:1.0 3:1.0 435:1.0 669:1.0 675:1.0 
-0.0 0.7324469561212182 169:1.0 323:1.0 472:1.0 473:1.0 
-1.0 1.0 
-0.3272549563988031 0.7024436472351402 406:1.0 474:1.0 475:0.939504638093022 476:1.0 
-0.0 0.16274410664955746 126:1.0 242:0.961717381576092 357:0.9612659840383982 385:0.9482726796868418 671:1.0 
-0.0 1.0 126:1.0 294:1.0 671:1.0 
-0.0 0.3553235957602206 231:1.0 314:1.0 447:1.0 448:1.0 668:1.0 
-1.0 1.0 307:1.0 538:1.0 
-0.05996057966039496 0.2455795445762174 28:1.0 340:1.0 374:1.0 395:1.0 425:1.0 471:1.0 
-1.0 1.0 224:1.0 
-1.0 1.0 
-1.0 0.32624688767119225 143:1.0 
-0.42578248942179614 0.49991719668074985 242:1.0 260:1.0 452:1.0 
-0.008439995620140089 0.03333850302999439 72:1.0 203:1.0 274:1.0 322:1.0 460:1.0 567:1.0 670:1.0 
-0.26149327190782967 0.0 8:1.0 198:1.0 353:1.0 358:1.0 472:1.0 677:1.0 
-1.0 0.0 416:0.8695469337318609 
-0.0 1.0 176:1.0 318:1.0 358:1.0 415:1.0 
-0.0 1.0 72:1.0 322:1.0 670:1.0 
-0.0 0.6441089837258839 267:1.0 333:1.0 406:1.0 411:1.0 463:1.0 
-0.23882747443808722 0.0 2:1.0 3:1.0 8:1.0 348:1.0 349:1.0 350:1.0 669:1.0 675:1.0 677:1.0 
-1.0 0.0 2:1.0 3:1.0 294:1.0 669:1.0 675:1.0 
-0.6996917309812326 0.2124281492199688 356:1.0 443:1.0 
-0.0 1.0 371:1.0 372:1.0 
-0.9014472476590619 1.0 36:1.0 53:1.0 459:1.0 478:1.0 
-1.0 1.0 75:1.0 371:1.0 372:1.0 
-0.8709072158416178 1.0 319:1.0 
-0.27944790167146744 0.0 11:1.0 28:1.0 63:1.0 126:1.0 285:1.0 329:1.0 474:0.9482726796868418 671:1.0 673:1.0 
-1.0 1.0 
-1.0 1.0 446:1.0 
-1.0 1.0 2:1.0 3:1.0 72:1.0 669:1.0 670:1.0 675:1.0 
-0.4575738757801799 0.6366674890355689 182:1.0 351:1.0 394:1.0 426:1.0 427:1.0 
-0.13746932738726264 0.0 144:1.0 356:1.0 481:1.0 662:1.0 
-1.0 0.041625612079808604 129:0.957262846390748 482:1.0 
-0.0 0.32979014996239675 257:1.0 324:1.0 479:1.0 
-1.0 1.0 333:1.0 
-0.6375581371598444 0.0 75:1.0 363:1.0 386:1.0 
-0.0 0.6038679341226115 354:1.0 371:1.0 372:1.0 454:1.0 468:1.0 
-0.8667031642483816 0.8754822334512248 357:1.0 
-1.0 0.0 294:1.0 
-1.0 1.0 2:1.0 3:1.0 64:1.0 304:1.0 669:1.0 675:1.0 
-1.0 1.0 57:1.0 58:1.0 
-1.0 0.199854441710844 30:1.0 422:1.0 
-1.0 1.0 
-1.0 1.0 481:1.0 
-1.0 1.0 1:1.0 57:1.0 72:1.0 428:1.0 670:1.0 
-1.0 1.0 
-1.0 1.0 
-0.7382556224498877 0.0 35:1.0 292:1.0 296:1.0 329:1.0 673:1.0 
-0.17899069501671047 1.485356976305141E-17 245:1.0 369:1.0 370:1.0 
-0.0 0.20157583123479073 321:1.0 600:1.0 672:1.0 
-1.0 1.0 65:1.0 210:1.0 
-1.0 1.0 53:1.0 147:1.0 203:1.0 539:1.0 
-1.0 0.6234316481747172 75:1.0 486:1.0 
-1.0 0.9734685704628083 224:1.0 
-1.0 0.07608884537384486 363:1.0 
-1.0 0.9975898481753783 23:1.0 
-0.0 1.0 72:1.0 343:1.0 670:1.0 
-0.9416817038781701 0.0 343:1.0 
-1.0 0.0 343:0.8808692684931188 
-1.0 1.0 
-0.0 0.046452169499396345 126:1.0 135:1.0 294:1.0 487:1.0 671:1.0 
-0.04658891812284307 0.0 198:1.0 323:1.0 347:1.0 381:1.0 
-0.004397840921658635 0.4709049216914407 53:1.0 117:1.0 169:1.0 323:1.0 462:1.0 464:1.0 
-0.5035056506866339 0.0 55:1.0 224:1.0 
-1.0 1.0 
-1.0 1.0 
-1.0 1.0 8:1.0 677:1.0 
-1.0 1.0 242:1.0 
-0.09409429376079992 0.0 67:1.0 234:1.0 246:1.0 345:1.0 489:1.0 
-1.0 1.0 490:1.0 
-0.15639667074214264 0.26148727643886654 174:1.0 180:1.0 333:1.0 450:1.0 676:1.0 
-0.0 0.05243835260435004 53:1.0 217:1.0 323:1.0 462:1.0 466:1.0 467:1.0 
-1.0 0.57865488510512 305:1.0 492:1.0 493:1.0 
-1.0 0.027960568739848184 161:1.0 431:1.0 
-1.0 0.0 42:1.0 
-1.0 0.10951579357473483 198:1.0 307:1.0 480:1.0 
-1.0 0.516675859511721 41:1.0 424:1.0 
-0.0 0.36825552400913986 184:1.0 321:1.0 672:1.0 
-1.0 1.0 9:1.0 
-0.01770558104657907 0.0 291:1.0 342:1.0 344:1.0 
-0.0 0.699294968671935 352:1.0 354:1.0 
-0.04939205121352877 0.05505821038544446 162:1.0 255:1.0 323:1.0 485:1.0 554:1.0 
-0.22433900630760278 0.6864739218265529 346:1.0 358:1.0 
-1.0 1.0 
-1.0 1.0 418:1.0 
-1.0 1.0 495:1.0 
-0.19996404447069016 0.6482807635962682 280:1.0 413:1.0 414:1.0 415:1.0 416:1.0 
-0.4469606168896897 0.9652902995150552 341:1.0 402:1.0 
-1.0 1.0 573:1.0 
-0.3256854838484799 0.46703842854584526 325:1.0 348:1.0 404:1.0 
-0.2953810776904336 0.1944560295605044 243:1.0 404:1.0 455:1.0 496:1.0 
-1.0 0.4443881962548389 22:1.0 42:0.9538213143436547 
-1.0 1.0 72:1.0 406:1.0 670:1.0 
-0.0 0.13863480624939778 144:1.0 242:1.0 251:1.0 323:1.0 400:1.0 439:1.0 497:1.0 498:1.0 
-0.6414566965102831 0.35550006430444125 9:1.0 65:1.0 489:1.0 620:1.0 
-1.0 0.0 2:1.0 3:1.0 454:1.0 669:1.0 675:1.0 
-0.8774018846179988 1.0 377:1.0 
-1.0 1.0 364:1.0 
-1.0 0.7341308570055891 72:1.0 275:1.0 659:1.0 670:1.0 
-1.0 1.0 185:1.0 
-1.0 1.0 451:1.0 
-0.9437475155359244 0.039751313238159794 92:0.957262846390748 101:1.0 393:1.0 
-0.03382614805697453 0.0 492:1.0 493:1.0 
-0.9195899388345664 0.977667192242739 67:1.0 431:1.0 
-0.07600503722296036 0.09400136615884229 382:1.0 383:1.0 384:1.0 499:1.0 500:1.0 
-1.0 1.0 
-1.0 1.0 502:1.0 
-0.0 0.22753594663801824 343:1.0 351:1.0 
-1.0 0.10765650987289796 2:1.0 3:1.0 669:1.0 675:1.0 
-0.9255626615470086 0.0 279:1.0 587:1.0 
-1.0 1.0 242:1.0 
-1.0 0.7542874288902145 50:1.0 503:1.0 
-0.0 0.9903527084901239 9:1.0 42:1.0 333:1.0 
-1.0 0.0 92:1.0 
-1.0 0.0 323:1.0 
-1.0 0.25643884448114546 33:1.0 101:1.0 
-1.0 1.0 
-1.0 1.0 
-1.0 0.0 166:1.0 180:1.0 676:1.0 
-1.0 1.0 
-1.0 1.0 72:1.0 528:1.0 670:1.0 
-1.0 0.8557483133839531 33:1.0 
-1.0 1.0 
-1.0 0.0 2:1.0 3:1.0 92:1.0 101:1.0 277:1.0 291:1.0 483:1.0 669:1.0 675:1.0 
-0.882574618445419 0.774920320637052 339:1.0 
-1.0 1.0 234:1.0 
-0.7718622786888789 0.9850332302908984 416:0.8695469337318609 526:1.0 
-1.0 0.4740155319478277 217:1.0 245:1.0 247:1.0 
-1.0 1.0 
-0.5007020290037405 0.0 25:1.0 374:1.0 416:1.0 
-0.9247773128460675 0.8846429730398747 433:1.0 434:1.0 
-0.0 0.4378833147696185 8:1.0 348:1.0 349:1.0 350:1.0 677:1.0 
-1.0 0.0 2:1.0 3:1.0 669:1.0 675:1.0 
-1.0 1.0 333:1.0 
-0.9642307515273593 1.0 339:1.0 
-1.0 0.011252315879601169 391:1.0 392:1.0 
-0.3826299968073151 0.0 2:1.0 3:1.0 93:0.9461507336503839 117:1.0 341:1.0 380:1.0 430:1.0 669:1.0 675:1.0 
-1.0 1.0 
-1.0 1.0 279:1.0 
-1.0 0.0 2:1.0 3:1.0 8:1.0 669:1.0 675:1.0 677:1.0 
-1.0 0.0 2:1.0 3:1.0 669:1.0 675:1.0 
-1.0 0.9939430609145168 126:1.0 412:1.0 671:1.0 
-1.0 0.30769273838967326 168:1.0 206:1.0 314:1.0 668:1.0 
-1.0 0.0 2:1.0 3:1.0 224:1.0 669:1.0 675:1.0 
-0.01614320104652507 0.06845192605137713 25:1.0 341:1.0 
-1.0 1.0 
-1.0 1.0 36:1.0 352:1.0 651:1.0 
-1.0 0.7192326655748463 2:1.0 3:1.0 669:1.0 675:1.0 
-1.0 1.0 25:1.0 405:1.0 
-0.47395426973083515 0.0 180:1.0 676:1.0 
-1.0 0.9035687405796732 55:1.0 418:1.0 
-1.0 1.0 571:1.0 
-1.0 1.0 407:1.0 
-1.0 1.0 2:1.0 3:1.0 669:1.0 675:1.0 
-1.0 1.0 72:1.0 143:1.0 670:1.0 
-1.0 1.0 
-0.6676905350392265 0.0 207:0.9482726796868418 229:1.0 465:1.0 
-0.9254243210749973 0.8694084144110571 122:1.0 568:1.0 
-1.0 -1.0 
-4.2014437470461186E-4 -0.0 505:1.0 
-0.49019644451309546 -0.6824950818582599 57:1.0 58:1.0 335:1.0 506:1.0 507:1.0 
-0.328096835652697 -0.0 216:1.0 508:1.0 509:1.0 674:1.0 
-1.0 -1.0 
-0.003989301443502902 -0.0 511:1.0 
-1.0 -1.0 337:1.0 
-1.0 -0.9664319226016097 512:1.0 
-0.39131220819767487 -0.30881793509165023 513:1.0 514:1.0 515:1.0 516:1.0 
-0.4141344388689763 -0.0 517:1.0 
-0.3692510680604982 -0.0 519:1.0 520:1.0 
-0.0 -0.2926359579142973 126:1.0 141:1.0 143:1.0 338:1.0 518:1.0 671:1.0 
-1.0 -1.0 72:1.0 670:1.0 
-0.011888089006156271 -0.0 508:1.0 674:1.0 
-1.0 -1.0 28:1.0 101:1.0 175:1.0 203:0.9548096610743656 
-0.0667272508259038 -0.0 64:1.0 184:1.0 264:1.0 524:1.0 525:1.0 
-1.0 -1.0 526:1.0 
-9.365349194336559E-4 -0.03298310816351168 162:1.0 166:1.0 530:1.0 531:1.0 532:1.0 
-0.15986561448736478 -0.6156586509609684 72:1.0 126:1.0 168:1.0 670:1.0 671:1.0 
-0.356585213672465 -0.7415581599428744 410:1.0 533:1.0 
-1.0 -0.9599296422139709 25:1.0 543:1.0 
-0.0 -0.12749020074944642 333:1.0 519:1.0 544:1.0 
-0.0 -0.09191151896473138 113:1.0 307:1.0 427:1.0 545:1.0 546:1.0 
-0.0 -1.0 126:1.0 333:1.0 671:1.0 
-1.0 -1.0 
-0.0 -0.4780627415246365 2:1.0 3:1.0 106:1.0 210:1.0 230:1.0 547:1.0 548:1.0 669:1.0 675:1.0 
-1.0 -1.0 281:1.0 
-0.8706854794893603 -0.9947232877104782 67:1.0 549:1.0 
-1.0 -1.0 53:1.0 169:1.0 
-0.3751565113118298 -0.10261434024976257 293:1.0 337:1.0 550:1.0 
-1.0 -0.9663341680714825 551:1.0 
-0.9423886711355978 -0.0 28:1.0 548:1.0 
-1.0 -1.0 175:1.0 
-1.0 -1.0 
-0.5459404147033879 -0.0 66:1.0 
-1.0 -1.0 
-0.6159512829946987 -0.0 36:1.0 242:1.0 542:1.0 
-1.0 -1.0 72:1.0 670:1.0 
-1.0 -0.9665308402421424 556:1.0 
-0.3862855332642057 -0.7865299024119964 106:1.0 364:1.0 561:1.0 
-1.0 -0.9666272459706575 562:1.0 
-1.0 -1.0 
-0.5041687383161984 -1.0 2:1.0 3:1.0 106:1.0 242:1.0 293:1.0 337:1.0 669:1.0 675:1.0 
-1.0 -1.0 
-0.0 -0.2437578905750806 2:1.0 8:1.0 72:1.0 518:0.966154875386503 669:1.0 670:1.0 677:1.0 
-0.12277287525717823 -0.7358387093988478 72:1.0 434:1.0 554:1.0 670:1.0 
-0.49109191610281966 -0.1478226392210779 565:1.0 566:1.0 
-0.8567066380157184 -0.625368614496147 257:1.0 567:1.0 
-0.4540876655350101 -0.37872061046994165 2:1.0 3:1.0 66:1.0 198:0.9579536646649862 332:1.0 560:1.0 669:1.0 675:1.0 
-0.0 -0.2707572995127011 338:1.0 518:1.0 545:1.0 568:1.0 
-1.0 -1.0 569:1.0 
-0.13021266802042794 -0.06060878707198987 8:1.0 487:1.0 531:1.0 544:1.0 677:1.0 
-0.9278621435779135 -0.0 126:1.0 570:1.0 671:1.0 
-0.0 -0.13835365016157894 66:1.0 571:1.0 572:1.0 
-1.0 -0.9887580273269261 392:1.0 575:1.0 
-1.0 -0.6465842896532916 548:0.9076425031458595 
-7.46585736007499E-4 -0.0 518:1.0 
-0.8318372749496836 -0.0 69:1.0 72:1.0 670:1.0 
-1.0 -0.0 8:1.0 75:1.0 141:1.0 166:1.0 546:1.0 677:1.0 
-0.4666788810924479 -0.0 166:1.0 512:1.0 524:1.0 
-0.8693114108905259 -0.48313237833279354 578:1.0 579:1.0 
-1.0 -0.0 580:1.0 
-1.0 -0.17424545909828218 514:1.0 515:1.0 
-0.7388596497330477 -0.006564753566776032 543:1.0 
-1.0 -0.10533636031438026 251:1.0 
-1.0 -1.0 243:1.0 
-0.13144354718210566 -0.02773158195319397 67:1.0 582:1.0 583:1.0 
-1.0 -0.9664441505223824 584:1.0 
-0.0 -0.09799346477153621 72:1.0 585:1.0 670:1.0 
-1.0 -1.0 534:1.0 
-1.0 -0.0 505:1.0 
-0.6426171898540434 -0.11822609912789218 510:1.0 
-0.0 -0.028971471953366287 425:1.0 430:1.0 546:1.0 
-0.7385010648387598 -1.0 376:1.0 
-0.7939901353058055 -0.008030855587536467 89:1.0 533:1.0 557:1.0 
-1.0 -0.0 529:1.0 
-1.0 -0.5385228405181397 2:1.0 3:1.0 106:1.0 184:1.0 213:1.0 591:1.0 669:1.0 675:1.0 
-1.0 -1.0 
-1.0 -0.9663774010958355 592:1.0 
-0.8442132310251076 -1.0 72:1.0 454:1.0 670:1.0 
-0.43187796385757504 -0.9235974653638069 55:1.0 531:1.0 
-0.0 -0.4667907206749944 75:1.0 508:1.0 674:1.0 
-0.8266138468775884 -0.07121105161613439 243:1.0 594:1.0 595:1.0 
-1.0 -0.4480070583521325 596:1.0 
-1.0 -0.9754820470389373 406:1.0 597:1.0 
-0.5864315249293159 -0.0 68:1.0 230:1.0 276:1.0 598:1.0 599:1.0 
-0.5739871542625202 -0.0 53:1.0 66:1.0 267:1.0 573:1.0 574:1.0 
-0.00682275295952924 -1.0 371:1.0 372:1.0 
-0.8694510197706777 -1.0 321:1.0 672:1.0 
-1.0 -1.0 
-1.0 -1.0 
-0.369381749285316 -0.05695276521205739 147:1.0 527:1.0 
-0.5795888102702529 -1.0 319:1.0 462:1.0 604:1.0 
-0.0 -1.0 72:1.0 143:1.0 224:1.0 407:1.0 670:1.0 
-0.0020178812099852428 -0.0 141:1.0 534:1.0 605:1.0 
-1.0 -1.0 72:1.0 670:1.0 
-1.0 -1.0 352:1.0 
-1.0 -0.9962586529163238 36:1.0 576:1.0 
-0.42956564070386205 -0.034246916990609624 445:1.0 534:1.0 
-1.0 -0.0 517:1.0 
-0.3813538150789839 -0.0 231:1.0 457:1.0 521:1.0 
-0.9968454899624336 -0.0 606:1.0 
-0.9337397291554252 -0.8033441291371566 75:1.0 108:1.0 224:1.0 436:1.0 581:1.0 
-1.0 -1.0 280:1.0 358:1.0 
-0.0 -0.19568523392483334 66:1.0 411:1.0 459:1.0 
-0.08393485534547805 -0.7491394870539827 378:1.0 534:1.0 
-0.03265429436969982 -0.3620099939947218 280:1.0 406:1.0 
-1.0 -1.0 
-0.0 -1.0 333:1.0 
-1.0 -0.0 193:1.0 607:1.0 
-0.8694697403835667 -0.4341472807614549 585:1.0 608:1.0 
-1.0 -0.9664908149925618 609:1.0 
-0.8694802834710654 -0.26580655941502296 72:1.0 535:1.0 610:1.0 670:1.0 
-1.0 -1.0 407:1.0 
-0.8342824464712111 -0.5421075222181122 510:1.0 
-1.0 -0.0 146:1.0 147:1.0 293:1.0 
-1.0 -1.0 346:1.0 
-0.0 -0.30229935169703404 72:1.0 557:1.0 564:1.0 670:1.0 
-0.0 -0.10734054471647367 64:1.0 140:1.0 182:1.0 279:1.0 507:0.9499999874 573:1.0 611:1.0 
-0.06503970088010104 -0.0 113:1.0 176:1.0 210:1.0 351:1.0 561:1.0 
-1.0 -1.0 
-1.0 -1.0 230:1.0 
-0.8692538993623503 -0.4338191953182479 614:1.0 615:1.0 
-0.8034696560510401 -1.0 371:1.0 372:1.0 
-0.49027846828941085 -0.0 217:1.0 616:1.0 
-0.0 -0.4298587731695594 64:1.0 352:1.0 361:1.0 617:1.0 
-1.0 -0.0 169:0.966154875386503 618:1.0 
-0.0 -0.12261510096308186 8:1.0 169:1.0 358:1.0 511:1.0 513:1.0 620:1.0 677:1.0 
-0.0 -0.11175534539925654 36:1.0 66:1.0 72:1.0 169:1.0 338:1.0 375:1.0 621:1.0 622:1.0 623:1.0 624:1.0 625:1.0 626:1.0 670:1.0 
-0.038532623780977514 -0.0 518:1.0 
-1.0 -1.0 36:0.9671737578119487 
-0.0 -0.28588577215417565 50:1.0 126:1.0 213:1.0 518:1.0 671:1.0 
-0.16489640679294232 -0.0 66:1.0 247:1.0 547:1.0 
-0.4105845945154941 -0.0 64:1.0 281:1.0 
-0.0 -0.22181723080408206 42:1.0 293:1.0 337:1.0 508:1.0 674:1.0 
-1.0 -1.0 8:1.0 427:1.0 677:1.0 
-1.0 -0.547928370704824 22:1.0 134:1.0 620:1.0 
-1.0 -0.9665465314871956 631:1.0 
-1.0 -1.0 72:1.0 670:1.0 
-1.0 -0.4981496777771699 36:1.0 221:1.0 602:1.0 
-1.0 -1.0 
-0.0 -0.061441556140411885 126:1.0 338:1.0 518:1.0 671:1.0 
-1.0 -0.02111201706932827 8:1.0 66:1.0 311:1.0 677:1.0 
-1.0 -0.0 106:1.0 181:1.0 
-0.30924924343728794 -0.07750007980764156 126:1.0 545:1.0 558:1.0 559:1.0 671:1.0 
-0.3704326652972577 -1.0 8:1.0 176:1.0 415:1.0 463:1.0 677:1.0 
-0.0 -0.08513513923729152 55:1.0 457:1.0 534:1.0 
-1.0 -0.4413840620459351 365:1.0 
-1.0 -1.0 
-1.0 -1.0 
-1.0 -0.0 280:1.0 
-1.0 -1.0 169:1.0 
-0.11780387612654158 -0.6985649907337333 126:1.0 372:1.0 671:1.0 
-0.7613457925211231 -0.3702262144323928 636:1.0 637:1.0 
-1.0 -1.0 365:1.0 
-1.0 -1.0 72:1.0 670:1.0 
-0.0 -0.21870832679671223 364:1.0 365:1.0 
-2.858255743100428E-4 -0.0 365:1.0 638:1.0 
-0.0 -0.17821478653806114 11:1.0 351:1.0 415:1.0 509:1.0 617:1.0 
-1.0 -1.0 
-1.0 -0.6553551845592999 165:1.0 428:1.0 616:1.0 
-1.0 -1.0 185:1.0 400:1.0 
-0.7565984807234554 -0.7462598006540838 388:0.952714099013132 566:1.0 639:1.0 
-0.02876544540837065 -0.0 141:1.0 508:1.0 627:1.0 640:1.0 674:1.0 
-1.0 -1.0 57:1.0 641:1.0 
-0.8691896860151642 -1.0 363:1.0 642:1.0 
-0.9945199527286385 -0.0 582:1.0 
-1.0 -1.0 
-1.0 -0.9657197407683712 402:1.0 520:1.0 
-1.0 -1.0 
-0.8695129189506797 -0.4831187995266678 536:1.0 589:1.0 
-0.7779306746577618 -0.10233417660844833 144:1.0 202:1.0 506:1.0 
-0.13776703064320617 -1.0 166:1.0 276:1.0 356:1.0 618:1.0 
-0.16190468219328172 -0.0 595:1.0 644:1.0 
-0.4283219134325587 -0.0 106:1.0 600:1.0 
-0.321227758078885 -0.0 554:1.0 602:1.0 
-0.10341584123203149 -0.5186730823522147 2:1.0 3:1.0 53:1.0 539:1.0 574:1.0 596:1.0 669:1.0 675:1.0 
-1.0 -1.0 
-1.0 -0.0 31:1.0 562:1.0 587:1.0 
-1.0 -0.0 66:1.0 247:1.0 547:1.0 
-1.0 -0.5169575000258888 293:1.0 645:1.0 
-1.0 -1.0 
-1.0 -1.0 
-1.0 -1.0 646:1.0 
-0.5166475043467449 -0.0 126:1.0 141:1.0 339:0.952714099013132 647:1.0 671:1.0 
-0.6992778345287681 -0.05130699409114778 72:1.0 174:1.0 338:1.0 518:1.0 670:1.0 
-0.0024051985273489396 -0.0 64:1.0 355:1.0 
-0.4763810357178897 -0.6770665045397135 180:1.0 540:1.0 648:1.0 649:1.0 650:1.0 676:1.0 
-1.0 -1.0 
-1.0 -1.0 
-0.21292761806836655 -0.6583185955740243 2:1.0 3:1.0 184:1.0 407:1.0 591:1.0 669:1.0 675:1.0 
-0.12365724665037163 -1.0 352:1.0 406:1.0 651:1.0 
-1.0 -0.0 177:1.0 280:1.0 
-1.0 -1.0 72:1.0 670:1.0 
-1.0 -0.9666155883536015 69:1.0 
-0.0 -0.7415125116852038 126:1.0 141:1.0 339:1.0 647:1.0 671:1.0 
-1.0 -1.0 
-0.495564220308702 -0.8922896410540172 291:1.0 569:1.0 
-0.11135517256950649 -1.0 1:1.0 2:1.0 3:1.0 459:1.0 517:1.0 669:1.0 675:1.0 
-0.3438620815741822 -0.0 231:1.0 509:1.0 
-1.0 -1.0 
-1.0 -0.0 89:1.0 206:1.0 231:1.0 540:1.0 
-1.0 -1.0 72:1.0 670:1.0 
-1.0 -1.0 122:1.0 230:1.0 234:1.0 
-0.04384701133907358 -0.23989874642978848 68:1.0 72:1.0 128:1.0 352:1.0 670:1.0 
-1.0 -0.0 201:1.0 511:1.0 
-1.0 -1.0 126:1.0 143:1.0 671:1.0 
-0.13929011410117753 -0.0 141:1.0 534:1.0 605:1.0 
-0.19795241423905974 -0.0 72:1.0 507:1.0 670:1.0 
-0.0 -0.03995386949977547 333:1.0 657:1.0 658:1.0 
-1.0 -0.4799922175457921 179:1.0 488:1.0 
-1.0 -1.0 53:1.0 539:1.0 
-0.742180347938926 -0.9664822826265694 606:1.0 
-0.1864920444735093 -0.0 64:1.0 367:1.0 
-0.23166842397543722 -0.46084980240064854 345:1.0 410:1.0 501:1.0 571:1.0 586:1.0 628:1.0 
-0.8671852730535402 -1.0 333:1.0 
-1.0 -0.615647062866189 126:1.0 373:1.0 395:1.0 671:1.0 
-1.0 -1.0 
-0.15594843733198469 -0.3494372731104859 314:1.0 507:1.0 645:1.0 668:1.0 
-1.0 -0.45384548893426085 231:1.0 
-1.0 -1.0 415:1.0 
-0.45606182344769663 -0.9474943056059525 594:1.0 619:1.0 
-0.779815352737555 -1.0 72:1.0 351:1.0 670:1.0 
-1.0 -1.0 564:1.0 
-0.0 -0.38285236066587625 66:1.0 72:1.0 101:1.0 144:1.0 358:1.0 523:1.0 568:1.0 613:1.0 670:1.0 
-0.3976066917732127 -0.28456878539484665 72:1.0 537:1.0 670:1.0 
-0.0 -1.0 234:0.9145256927814961 371:1.0 372:1.0 
-0.1737757874560777 -0.260110509526052 513:1.0 526:1.0 
-0.6128460252954246 -0.9389467699746517 582:1.0 
-0.9162183900024109 -0.0 531:1.0 
-0.7165903300142499 -0.19878154216382768 25:1.0 67:1.0 395:1.0 617:1.0 657:1.0 661:1.0 
-0.0 -1.0 321:1.0 355:1.0 529:1.0 550:1.0 672:1.0 
-0.024336320237334945 -0.33410933097525114 8:1.0 11:1.0 74:1.0 293:1.0 477:1.0 648:1.0 662:1.0 677:1.0 
-0.26157458368554665 -0.305839130614345 191:1.0 510:1.0 663:1.0 
-1.0 -0.0 518:1.0 
-1.0 -0.9663317618912163 664:1.0 
-1.0 -1.0 333:1.0 
-1.0 -0.5465370125618061 67:1.0 70:1.0 379:1.0 635:1.0 
-1.0 -1.0 415:1.0 
-1.0 -1.0 126:1.0 671:1.0 
-1.0 -0.0 169:1.0 464:1.0 648:1.0 
-1.0 -1.0 
-1.0 -0.9667052692456481 590:1.0 
-0.2595401161224039 -0.0 161:1.0 530:1.0 531:1.0 
-0.4067984117171004 -0.0 511:1.0 
-0.44706769609645564 -0.24766284481295905 417:1.0 430:1.0 537:1.0 
-0.0 -1.0 242:1.0 354:1.0 464:1.0 607:1.0 
-0.34087561145030515 -1.0 9:1.0 476:1.0 511:0.9612659840383982 
-0.3412487978614307 -0.9951896209466847 231:1.0 364:1.0 
-0.0 -0.14732177872095337 126:1.0 559:1.0 637:1.0 671:1.0 
-1.0 -0.9666272459706575 265:1.0 
-1.0 -1.0 
-1.0 -0.0 67:1.0 128:1.0 549:1.0 
-1.0 -1.0 217:1.0 442:1.0 
-0.36911706303187536 -0.0 365:1.0 638:1.0 
-0.0665859870120047 -0.0 599:1.0 649:1.0 650:1.0 
-0.0 -0.20842820171133228 333:1.0 611:1.0 
-0.7736260013683931 -0.8867961729942513 473:0.94340246432784 644:0.9461507336503839 
-1.0 -0.4512561373932576 144:1.0 202:1.0 662:1.0 
-0.0 -0.3060307115903017 365:1.0 638:1.0 663:1.0 
-1.0 -1.0 
-0.27785261477327705 -0.0 36:1.0 554:1.0 590:1.0 
-1.0 -0.9665131014130288 570:1.0 
-1.0 -1.0 
-0.7382817616031639 -0.9665585768668545 505:1.0 
-1.0 -0.0 181:1.0 
-0.541644116113586 -1.0 333:1.0 
-1.0 -1.0 354:1.0 
-0.32994091991735874 -1.0 333:1.0 538:1.0 
-1.0 -0.006757111162517838 126:1.0 179:0.9499999874 202:1.0 666:1.0 671:1.0 
-1.0 -0.875360281897437 36:1.0 546:1.0 
-0.2130832982106695 -0.9208701135108014 418:1.0 517:1.0 573:1.0 
-1.0 -0.0 64:1.0 
-1.0 -1.0 72:1.0 670:1.0 
-0.13055719962528883 -0.0 401:1.0 584:1.0 661:1.0 
-0.6954808199186235 -1.0 323:1.0 348:1.0 405:1.0 600:1.0 
-0.273953227754333 -0.1891853404338912 50:1.0 185:1.0 542:1.0 612:1.0 
-0.3459380664708395 -0.0 52:1.0 542:1.0 
-0.0 -0.03656092403679323 234:1.0 534:1.0 593:1.0 658:1.0 
-0.7388089883668402 -0.0 576:1.0 
-0.5768035792055692 -0.8539142199014692 9:1.0 65:1.0 176:1.0 185:1.0 459:1.0 542:1.0 
-0.5004796959129625 -0.0 508:1.0 674:1.0 
-0.5520466475015083 -1.0 242:1.0 279:1.0 580:1.0 
-0.25816302958497767 -0.2620001126751352 203:1.0 280:1.0 345:1.0 415:1.0 643:1.0 
-1.0 -1.0 113:1.0 
-0.9600314103341058 -0.2605197761003727 68:1.0 255:1.0 577:1.0 
-0.0 -0.027161108218807357 534:1.0 666:1.0 
-0.18416722180342757 -0.0 64:1.0 355:1.0 
-0.9462474040094676 -0.0 141:1.0 548:1.0 
-0.0 -0.09840974476582319 72:1.0 614:1.0 670:1.0 
-1.0 -0.9666254880984048 580:1.0 
-1.0 -1.0 472:1.0 
-1.0 -1.0 
-1.0 -1.0 72:1.0 169:1.0 670:1.0 
-0.1867311100680074 -1.0 64:1.0 411:1.0 
-1.0 -0.9791809543126424 89:1.0 181:1.0 
-1.0 -1.0 361:1.0 
-0.21590798875889955 -0.07879128834555935 33:1.0 54:1.0 106:1.0 257:1.0 636:1.0 644:1.0 
-1.0 -0.9665228530533756 376:1.0 
-1.0 -1.0 251:1.0 
-0.5148363329011154 -0.7611045020721598 64:1.0 242:1.0 
-1.0 -0.9096894631112015 527:1.0 
-0.3693919998081763 -0.9600528267855077 361:1.0 541:1.0 
-1.0 -0.9427784495200385 72:1.0 75:1.0 146:1.0 147:1.0 670:1.0 
-1.0 -1.0 
-1.0 -0.7023215591619165 24:1.0 64:1.0 305:1.0 
