svm_type c_svc
kernel_type linear
nr_class 3
total_sv 948
rho -0.9745498856865298 -0.7489746632973703 0.12994906379595578
label 0 1 2
nr_sv 360 290 298
SV
1.0 1.0 
0.5679214768648981 0.8234961156061977 1:1.0 
1.0 1.0 
2.3349179970131307E-4 0.0 2:1.0 3:1.0 13:1.0 14:1.0 15:1.0 659:1.0 665:1.0 
1.0 1.0 
0.5320117482339058 0.05324793820171901 2:1.0 4:1.0 19:1.0 20:1.0 21:1.0 22:1.0 440:1.0 659:1.0 
1.0 0.0 2:1.0 3:1.0 659:1.0 665:1.0 
0.0 0.18142177333220208 23:1.0 
1.0 1.0 
1.0 1.0 
1.0 1.0 
1.0 0.5183775068132888 28:1.0 
0.2077951444310755 0.13543104569155898 30:1.0 31:1.0 32:1.0 399:1.0 600:1.0 
0.0 0.0692922062782972 33:1.0 34:1.0 35:1.0 
0.0 0.2500774513935708 36:1.0 
0.5240323096082042 0.12559305363006332 40:1.0 41:1.0 
1.0 1.0 
0.16849580558799404 0.0 42:1.0 43:1.0 44:1.0 45:1.0 
0.08173381231602883 0.0 31:1.0 46:1.0 47:1.0 
1.0 1.0 
0.05047699232158666 0.0 2:1.0 3:1.0 48:1.0 659:1.0 665:1.0 
0.0 0.12542676594110674 49:1.0 50:1.0 
0.35720833726492096 0.0 52:1.0 53:1.0 
0.7087452420825735 0.3491566129525815 54:1.0 55:1.0 56:1.0 
0.12295023694222719 1.0 46:0.9461371018913787 60:1.0 61:1.0 62:1.0 63:1.0 380:1.0 658:1.0 
0.12055554323944367 0.6111916585715669 64:1.0 65:1.0 66:1.0 67:1.0 68:1.0 416:1.0 
1.0 0.8064504272982057 64:1.0 69:1.0 70:1.0 661:1.0 
0.3499006497952633 0.0687332479756134 34:1.0 71:1.0 72:1.0 406:1.0 
5.648209232133803E-4 0.0 2:1.0 3:1.0 39:1.0 73:1.0 74:1.0 659:1.0 665:1.0 
1.0 1.0 564:1.0 
1.0 1.0 
1.0 1.0 
1.0 0.0 2:1.0 3:1.0 659:1.0 665:1.0 
1.0 1.0 
1.0 1.0 
0.0 1.0 84:1.0 85:1.0 547:1.0 
1.0 1.0 
0.2760801944415847 0.0 88:1.0 89:1.0 396:1.0 
1.0 1.0 
0.39586803098036594 0.0 90:1.0 
1.0 1.0 391:1.0 
1.0 1.0 
0.016567337894499233 0.0 91:1.0 92:1.0 93:1.0 94:1.0 95:1.0 96:1.0 97:1.0 98:1.0 
1.0 1.0 
0.025234696333161354 1.0 99:1.0 
1.0 1.0 
1.0 0.20027469855733215 8:1.0 417:1.0 668:1.0 
0.49876528083713007 0.0 9:1.0 40:1.0 100:1.0 
0.0 0.6046458902528791 104:1.0 105:1.0 106:1.0 
1.0 1.0 
1.0 1.0 
0.3321235556239125 1.0 34:1.0 
1.0 1.0 69:1.0 661:1.0 
1.0 0.5532338928065514 98:1.0 120:0.9461371018913787 
0.30384415046879254 1.0 23:1.0 
1.0 0.0 2:1.0 3:1.0 659:1.0 665:1.0 
1.0 1.0 
0.02541180192715159 0.2510429249156446 121:1.0 
0.2184187645365116 0.24895653098591647 9:1.0 25:1.0 93:1.0 116:1.0 122:1.0 123:1.0 663:1.0 
0.039745138622196446 0.6674656209927678 22:1.0 124:0.9433789077969592 125:1.0 432:1.0 
0.5455743362649877 0.0 126:1.0 127:1.0 128:1.0 129:1.0 
0.30948543966832553 0.0 31:1.0 111:1.0 
0.0 0.08696606959362754 44:1.0 117:1.0 131:1.0 132:1.0 
1.0 1.0 
1.0 0.5067703647811143 141:1.0 142:1.0 461:1.0 
0.025281437580588963 0.0 37:1.0 
0.08614181611098624 0.6253702178500268 144:1.0 145:1.0 
1.0 1.0 
0.10501413112272778 0.0 18:1.0 122:1.0 146:1.0 147:1.0 
0.32795641325542746 0.06674013986086255 8:1.0 58:1.0 92:1.0 352:1.0 668:1.0 
0.42654007615882983 1.0 144:1.0 145:1.0 457:1.0 
0.0 0.08155551367209454 23:1.0 34:1.0 71:0.9633742461915922 149:1.0 150:1.0 
0.46536690448822143 1.0 503:1.0 504:1.0 
1.0 1.0 
1.0 1.0 
1.0 0.2509565817726195 404:1.0 
0.06373123717829249 0.05178000671056655 51:1.0 136:1.0 
0.02884770052527388 0.28422171794142337 156:0.9394668844633882 
0.03561907866566031 0.0 157:1.0 158:1.0 
0.025361509176670276 0.25092766531754623 161:1.0 
0.0 0.4502630935838021 155:1.0 162:1.0 163:1.0 164:1.0 653:1.0 
1.953538228204993E-4 0.0 2:1.0 3:1.0 13:1.0 75:1.0 659:1.0 665:1.0 
1.0 1.0 
0.0 0.6769405203833516 39:1.0 167:1.0 168:1.0 
0.0 0.09893924864826381 67:1.0 
0.0 0.5 26:1.0 
0.010799889523807435 0.07283843961392929 82:1.0 114:1.0 
1.0 1.0 61:1.0 69:1.0 167:1.0 172:1.0 173:1.0 661:1.0 666:1.0 
0.4900927591463984 0.0 174:1.0 
0.02532986635127804 0.2507683675188469 175:1.0 
0.8569937024573047 0.25069734953092077 43:1.0 
0.0254898336364746 1.0 318:1.0 
0.6998188127359406 0.40446352609496583 176:1.0 
1.0 1.0 
0.025513047662733445 0.25096859519784187 181:1.0 
1.0 0.9878538545736415 23:1.0 
1.0 1.0 
1.0 1.0 69:1.0 661:1.0 
1.0 0.0 2:1.0 3:1.0 659:1.0 665:1.0 
0.5714131166100189 0.12544041596374883 183:1.0 474:1.0 
0.0 0.2506819118832425 184:1.0 
0.0 0.22839120741066885 132:1.0 187:1.0 188:1.0 189:1.0 585:1.0 
1.0 1.0 
5.250265639080193E-4 0.0 2:1.0 3:1.0 190:1.0 659:1.0 665:1.0 
0.0 0.7388652281156828 138:1.0 192:1.0 
1.0 1.0 
1.0 1.0 2:1.0 3:1.0 123:1.0 142:1.0 193:1.0 194:1.0 372:1.0 533:1.0 659:1.0 663:1.0 665:1.0 
1.0 0.0 2:1.0 3:1.0 659:1.0 665:1.0 
1.0 1.0 
0.008717585710748918 0.0 53:1.0 195:1.0 196:1.0 197:1.0 
0.030100098316944407 0.0 53:1.0 198:1.0 199:1.0 
1.0 1.0 
0.5082719873365971 0.0 202:1.0 203:1.0 
0.7538154486290088 1.0 204:1.0 
0.09058869392638659 0.0 31:1.0 205:1.0 
0.0 0.49463742085091855 68:1.0 104:1.0 199:1.0 209:1.0 386:1.0 
1.0 1.0 
0.0 1.0 146:1.0 171:1.0 351:1.0 
0.43881679627620374 0.0 2:1.0 659:1.0 
1.0 1.0 
0.261670319608716 1.0 210:1.0 591:1.0 
0.046312585468713655 0.0 2:1.0 19:1.0 98:1.0 143:0.9527237458813239 659:1.0 
1.0 1.0 
0.1512122243869966 0.5101166412678394 22:1.0 211:1.0 212:1.0 
1.0 1.0 3:1.0 213:1.0 214:1.0 660:1.0 665:1.0 
1.0 1.0 
1.0 0.053252086526532655 2:1.0 216:1.0 659:1.0 
0.35664580273148544 5.615895337283282E-4 36:1.0 217:1.0 
0.017938026177789747 0.0 111:1.0 112:1.0 113:1.0 218:1.0 
0.20823740034226543 0.5872222650325819 69:1.0 102:1.0 219:1.0 480:1.0 637:1.0 661:1.0 
0.9593966367337858 1.0 160:1.0 
0.3525882710318976 1.0 63:1.0 123:1.0 163:1.0 221:1.0 222:1.0 322:1.0 615:1.0 653:1.0 658:1.0 663:1.0 
1.0 1.0 
0.0 1.0511701401155432E-4 1:1.0 13:1.0 20:1.0 53:1.0 71:1.0 97:1.0 140:1.0 
0.06549540399413259 0.0 2:1.0 3:1.0 89:1.0 223:1.0 224:1.0 225:1.0 659:1.0 665:1.0 
0.19900953815246328 0.3047246762913803 67:1.0 206:1.0 226:1.0 
1.0 0.0 2:1.0 3:1.0 659:1.0 665:1.0 
1.0 0.2507728757871785 333:1.0 
0.025362825447774604 0.5743715422579357 106:1.0 
1.0 0.04908890685033826 71:1.0 130:1.0 232:1.0 662:1.0 
0.45770822394578203 0.3908124973606055 47:1.0 138:1.0 205:1.0 226:1.0 233:1.0 609:1.0 
0.0 0.18158894810480133 33:1.0 
1.0 0.0 2:1.0 3:1.0 659:1.0 665:1.0 
0.9744515467214361 1.0 104:1.0 126:1.0 222:1.0 
1.0 1.0 51:1.0 
1.0 0.8468336716328898 29:1.0 69:1.0 89:1.0 176:1.0 661:1.0 
1.0 1.0 
1.0 0.7678859997698543 235:1.0 
0.23536439815590215 1.0 8:1.0 668:1.0 
1.0 1.0 
0.5004538247407524 0.7271923819779315 125:1.0 237:1.0 473:1.0 
0.03115859779890117 0.36652594333227345 171:0.9000000630000035 
1.0 1.0 
0.0 1.0 163:1.0 239:1.0 653:1.0 
0.025375290980741233 0.0 240:1.0 
1.0 0.0 2:1.0 3:1.0 659:1.0 665:1.0 
1.0 1.0 
1.0 1.0 
1.0 1.0 141:1.0 
1.0 0.0 89:1.0 241:0.9461371018913787 242:1.0 243:1.0 
1.0 1.0 69:1.0 661:1.0 
1.0 0.0 2:1.0 3:1.0 659:1.0 665:1.0 
1.0 1.0 69:1.0 661:1.0 
0.0 0.31722888443803055 159:1.0 240:1.0 246:1.0 247:1.0 
1.0 1.0 
0.0 0.7578544891186241 8:1.0 64:1.0 668:1.0 
1.0537005211202002E-4 0.0 2:1.0 3:1.0 13:1.0 15:1.0 248:1.0 659:1.0 665:1.0 
1.0 1.0 
0.0 0.5453858808496452 225:1.0 590:1.0 
0.012750849165525761 0.1255417381686402 80:1.0 81:1.0 
0.0 1.0 69:1.0 239:1.0 661:1.0 
0.0 0.05095924443791584 243:1.0 
1.0 1.0 34:1.0 
0.2740415512585077 1.0 69:1.0 251:1.0 661:1.0 
1.0 1.0 
1.1623761332444661E-4 0.024104901803704407 37:1.0 38:1.0 246:1.0 247:1.0 
0.0 0.1427529559551362 4:1.0 48:1.0 200:1.0 220:1.0 594:1.0 
0.2468930152278663 0.49865481478015605 66:0.9500000472500026 98:0.9597936338874915 223:0.9461371018913787 
0.020223053485018298 0.574009032565735 30:1.0 69:1.0 160:1.0 511:1.0 661:1.0 
1.0 1.0 
1.0 1.0 
1.0 1.0 
0.581011532403735 0.049351979888552416 16:1.0 17:1.0 39:1.0 180:1.0 350:1.0 
1.0 1.0 
0.0 0.007721868453586497 2:1.0 3:1.0 11:1.0 13:1.0 227:1.0 228:1.0 229:1.0 230:1.0 231:1.0 659:1.0 665:1.0 667:1.0 
0.008818449868421884 0.0 2:1.0 3:1.0 27:1.0 59:1.0 203:1.0 233:1.0 659:1.0 665:1.0 
1.0 1.0 34:1.0 408:1.0 
0.32616559142295687 0.3385387138111227 242:1.0 640:1.0 
1.0 1.0 69:1.0 216:1.0 258:1.0 661:1.0 
1.0 1.0 
0.0 1.0 64:1.0 
0.10422288160456075 0.0 68:1.0 131:1.0 
0.13707721206573192 0.5029511714750289 69:1.0 133:1.0 134:1.0 661:1.0 
0.9948649656644362 0.009468975956591186 189:1.0 
0.025379560545879365 0.2506921831081006 264:1.0 
0.05383142594161276 0.0 49:1.0 155:1.0 217:1.0 265:1.0 
0.0 0.2017902478770301 130:1.0 
0.45319557190516563 1.0 208:1.0 323:1.0 
0.025426240225273972 1.0 435:1.0 
0.3120338789945807 0.42083788755058393 34:1.0 88:1.0 167:1.0 168:1.0 266:0.9433789077969592 
1.0 0.0 2:1.0 3:1.0 659:1.0 665:1.0 
1.0 1.0 
1.0 1.0 
0.5193616632844975 0.6567809387733077 8:1.0 29:1.0 51:1.0 525:1.0 668:1.0 
0.35100664096164513 0.0 16:1.0 17:1.0 36:1.0 
0.9899161880456626 0.46449310283380757 157:1.0 
0.07760644816977706 0.0 2:1.0 3:1.0 4:1.0 9:1.0 24:1.0 384:1.0 659:1.0 665:1.0 
1.0 0.451623169883439 160:1.0 269:1.0 
0.3481708717892361 1.0 31:1.0 52:1.0 64:1.0 270:1.0 403:1.0 
1.0 1.0 
4.7270444700750805E-4 0.0 2:1.0 3:1.0 268:1.0 659:1.0 665:1.0 
2.8745883333544664E-4 0.0 174:1.0 252:1.0 
0.008451795948403286 0.32382765255430596 262:1.0 263:1.0 271:1.0 
0.025386033740676897 0.2506726827223477 272:1.0 
1.0 0.0 2:1.0 3:1.0 659:1.0 665:1.0 
0.0 1.0 85:1.0 199:1.0 526:1.0 
1.0 1.0 
0.0 3.063599587439772E-4 189:1.0 257:1.0 
0.0 0.23058073852707908 160:1.0 276:1.0 
0.7263864618571133 0.0825095141333615 85:1.0 
0.13920720439002376 0.4885716915386693 11:1.0 55:1.0 215:1.0 667:1.0 
1.0 1.0 
1.0 0.0 189:1.0 277:1.0 317:1.0 656:1.0 
0.02535181975090639 1.0 184:1.0 
1.0 1.0 
1.0 0.0 2:1.0 3:1.0 659:1.0 665:1.0 
0.021301541567371324 0.3072728123324059 51:1.0 200:1.0 201:1.0 578:1.0 
0.0 1.0 212:1.0 
1.0 1.0 
0.0 0.060425904778136905 34:1.0 51:1.0 278:1.0 366:1.0 
1.0 1.0 
1.0 1.0 69:1.0 661:1.0 
0.0 0.07661610350283798 2:1.0 279:1.0 659:1.0 
0.0 0.2507270554234505 18:1.0 
1.0 1.0 
1.0 1.0 69:1.0 661:1.0 
1.0 1.0 
0.0 0.25088274125448035 265:1.0 
0.025295932206316395 0.2507983068762951 76:1.0 
1.0 1.0 271:1.0 
0.02555988868219392 0.5007981499933866 182:1.0 
0.26728099238046843 0.0 35:1.0 105:1.0 176:1.0 187:1.0 220:1.0 394:1.0 
0.13694121398171966 0.503125209033321 69:1.0 148:1.0 281:1.0 661:1.0 
0.3808921974618215 0.25069770196551 163:1.0 249:1.0 653:1.0 
1.0 0.0346932470126106 69:1.0 71:1.0 115:1.0 126:1.0 327:1.0 661:1.0 
0.0 0.279950712414523 71:1.0 72:1.0 
0.0 8.356437259299243E-4 93:1.0 185:1.0 
1.0 0.0 2:1.0 3:1.0 328:1.0 659:1.0 665:1.0 
1.0 0.18595034948682956 48:0.9500000472500026 131:1.0 288:1.0 
1.0 1.0 
1.0 1.0 
1.0 1.0 
1.0 0.6795736887882257 194:1.0 289:1.0 344:1.0 639:1.0 
0.33996293423887125 0.6451696806072263 111:1.0 112:1.0 
1.0 0.0 33:1.0 245:1.0 290:1.0 
0.6079562749257781 0.0 9:1.0 33:1.0 91:1.0 218:1.0 418:1.0 
0.17581531046948848 0.0 18:1.0 44:1.0 274:1.0 291:1.0 
1.0 1.0 163:1.0 653:1.0 
1.0 1.0 8:1.0 668:1.0 
0.21081585283811183 0.06272875502986852 24:1.0 147:1.0 207:1.0 292:1.0 
1.0 1.0 
0.0 0.657355558989889 102:1.0 173:1.0 
1.0 0.9798076792136318 235:1.0 
0.0 0.8426118220343258 100:1.0 221:1.0 
1.0 1.0 34:1.0 
1.0 1.0 
1.0 1.0 
1.0 1.0 
0.010885048416551354 1.0 256:1.0 
0.0 1.0 193:1.0 
1.0 1.0 8:1.0 668:1.0 
0.025615787979673732 0.2508563777976075 261:1.0 
1.0 1.0 
1.0 1.0 
0.7997379733502956 0.0 2:1.0 3:1.0 33:1.0 60:1.0 117:1.0 162:1.0 216:1.0 659:1.0 665:1.0 
1.0 1.0 
1.0 1.0 8:1.0 668:1.0 
1.0 1.0 
1.0 1.0 
0.9039853897455912 0.2510429249156446 385:1.0 
0.0 0.023102091293163537 2:1.0 3:1.0 10:1.0 11:1.0 12:1.0 659:1.0 665:1.0 667:1.0 
1.0 1.0 
1.0 1.0 7:1.0 213:1.0 660:1.0 
0.7642507348468552 0.0 51:1.0 163:1.0 239:1.0 653:1.0 
1.0 1.0 
0.2540167068180087 0.022428538581487596 198:1.0 199:1.0 
1.0 1.0 
1.0 1.0 224:1.0 
1.0 0.25069767649197744 361:1.0 
1.0 1.0 
0.39511465815400093 0.5246321636320636 189:1.0 
1.0 1.0 
1.0 1.0 51:1.0 69:1.0 204:1.0 238:1.0 294:1.0 661:1.0 
0.032504169509287466 0.3248273744520894 295:0.8789338325587588 
1.0 0.0 2:1.0 3:1.0 659:1.0 665:1.0 
0.0 0.5956468917493568 143:1.0 160:1.0 237:1.0 510:1.0 622:1.0 
1.0 1.0 
1.0 0.0 2:1.0 3:1.0 236:1.0 325:1.0 659:1.0 665:1.0 
1.0 1.0 296:0.9029224033095238 
1.0 1.0 
0.02536756134664977 1.0 583:1.0 
1.0 1.0 53:1.0 
0.16055841066997473 1.0 390:1.0 
0.17323478325427347 0.41707170415171796 253:1.0 424:1.0 453:1.0 
0.08823109940545551 0.13258093268963256 2:1.0 3:1.0 83:1.0 110:1.0 280:1.0 284:1.0 285:1.0 286:1.0 287:1.0 659:1.0 665:1.0 
0.04911123712879437 0.4888669046752803 131:1.0 291:1.0 
0.0 0.2793231117980448 99:0.8384110316697437 195:1.0 263:1.0 
1.0 1.0 
0.025460923997294122 0.25079126961850584 275:1.0 
1.0 0.0 98:1.0 
0.012061248377458481 0.002263354225463393 298:1.0 
0.014312847386476868 0.25122276193759924 256:1.0 
0.3808567068341259 1.0 163:1.0 626:1.0 653:1.0 
1.0 0.0 2:1.0 3:1.0 40:1.0 124:1.0 232:1.0 260:1.0 659:1.0 662:1.0 665:1.0 
2.2048496092121343E-4 0.0 2:1.0 3:1.0 73:1.0 254:1.0 659:1.0 665:1.0 
0.16609874827274967 0.0 33:1.0 163:1.0 299:1.0 653:1.0 
1.0 1.0 
0.0 0.3047598723230006 71:1.0 90:1.0 192:1.0 
1.0 0.023118982611369774 2:1.0 3:1.0 11:1.0 172:1.0 659:1.0 665:1.0 666:1.0 667:1.0 
0.025204368422685752 0.6772883698329304 581:1.0 
0.30265329968386756 0.37072265649530217 55:1.0 300:1.0 
0.0 1.0 65:1.0 
0.01323415840540687 0.24869746829804254 298:1.0 
0.6091960689393258 0.3162409693836799 9:1.0 
1.0 1.0 
0.565220314333588 1.0 270:1.0 558:1.0 
0.8204970666518844 0.6702891952345061 98:1.0 104:1.0 299:1.0 377:1.0 595:1.0 
0.0 0.2509434821616991 45:1.0 
0.02536212829059832 0.25124271060390135 301:1.0 
0.9957306343770872 0.9514167593740435 2:1.0 123:1.0 255:1.0 659:1.0 663:1.0 
0.15658028747044825 0.7679819199767914 26:1.0 
1.0 1.0 
0.0 0.7362191676222161 174:1.0 641:1.0 
0.39583211329410173 0.25093507297690565 423:1.0 
0.02556194294889865 0.9337766287758749 159:1.0 
0.7472575639127484 1.0 64:1.0 169:1.0 193:1.0 289:1.0 
1.0 1.0 
0.11495366682086561 0.0 60:1.0 300:1.0 467:1.0 
0.025056413049132954 0.2509190533156564 244:1.0 
0.0 0.05281429371943454 169:1.0 427:1.0 
1.0 0.0 62:1.0 160:1.0 445:1.0 
0.5726770570306552 0.0 2:1.0 3:1.0 47:1.0 137:1.0 659:1.0 665:1.0 
0.1967188233953093 0.0 9:1.0 91:1.0 
0.3185108149870623 0.49469221554432 42:1.0 71:1.0 123:1.0 191:1.0 294:1.0 663:1.0 
1.0 0.0 2:1.0 3:1.0 150:1.0 456:1.0 659:1.0 665:1.0 
1.0 1.0 9:1.0 69:1.0 661:1.0 
0.0037537533063417266 0.10555105495683242 114:1.0 282:1.0 302:1.0 485:1.0 
0.0 1.0 138:1.0 
1.0 1.0 
0.0 0.5201948396700966 37:1.0 71:1.0 202:1.0 303:1.0 580:1.0 
0.06854002632378729 0.251778182107492 69:1.0 107:1.0 108:1.0 243:1.0 304:1.0 661:1.0 
0.501920171570114 0.0 2:1.0 3:1.0 102:1.0 160:1.0 210:1.0 267:1.0 659:1.0 665:1.0 
1.0 1.0 
0.2963146922447837 0.0 132:1.0 278:1.0 356:1.0 
0.02521100844484645 1.0 614:1.0 
2.220446049250313E-16 0.0 2:1.0 3:1.0 190:1.0 234:1.0 659:1.0 665:1.0 
1.0 0.08871404502169053 89:1.0 
1.0 0.0 39:1.0 71:1.0 78:1.0 269:1.0 412:1.0 
1.0 0.0 2:1.0 3:1.0 290:1.0 659:1.0 665:1.0 
1.0 1.0 
-1.0 0.0 2:1.0 3:1.0 29:1.0 305:1.0 306:1.0 659:1.0 665:1.0 
-1.0 1.0 
-0.0036226843701297473 1.0 307:1.0 
-0.47859341060945587 0.0 2:1.0 3:1.0 126:1.0 128:1.0 129:1.0 290:1.0 659:1.0 665:1.0 
-0.24643826548381953 0.0 172:1.0 666:1.0 
-1.0 1.0 
-1.0 1.0 
-1.0 1.0 104:1.0 
-1.0 1.0 71:1.0 
-1.0 0.057694717114990864 2:1.0 3:1.0 16:1.0 17:1.0 43:1.0 238:1.0 320:1.0 659:1.0 665:1.0 
-1.0 1.0 213:1.0 660:1.0 
-0.8809503382447244 1.0 69:1.0 205:1.0 294:1.0 323:1.0 577:1.0 661:1.0 
-1.0 1.0 324:1.0 
-1.0 1.0 
-1.0 1.0 111:1.0 329:1.0 
-0.0 0.3770180568618073 53:1.0 213:1.0 258:1.0 289:1.0 309:1.0 551:1.0 660:1.0 664:1.0 
-0.5155676045151032 0.0 34:1.0 125:1.0 309:1.0 664:1.0 
-1.0 1.0 89:1.0 168:1.0 
-0.24244724317114066 0.0 187:1.0 340:1.0 
-0.0 0.12510663201016922 309:1.0 341:1.0 617:1.0 664:1.0 
-0.9949492189677949 0.0 33:1.0 69:1.0 317:1.0 656:1.0 661:1.0 
-0.12411654613703618 0.0 309:1.0 346:1.0 595:1.0 664:1.0 
-0.9235994363147972 0.9790545783912445 347:1.0 348:1.0 
-0.0 0.04733354609022404 141:1.0 349:0.9579818605446004 
-0.0 0.6089302847535458 342:1.0 349:1.0 350:1.0 351:1.0 
-0.0 0.7194203106782643 47:1.0 123:1.0 163:1.0 357:1.0 358:1.0 359:1.0 360:1.0 653:1.0 663:1.0 
-0.9872094967454019 0.9942293138304765 361:1.0 362:1.0 
-1.0 1.0 564:1.0 
-0.0 0.3221923120094023 232:1.0 323:1.0 662:1.0 
-1.0 0.0 2:1.0 3:1.0 659:1.0 665:1.0 
-1.0 0.0 2:1.0 69:1.0 344:1.0 659:1.0 661:1.0 
-0.01233739767311065 0.0 310:1.0 
-1.0 0.40980974340040405 47:1.0 364:1.0 
-0.6433892561141714 0.205338029958643 218:1.0 367:1.0 368:1.0 369:1.0 
-0.546214481101941 0.7157090192128104 36:1.0 168:1.0 217:1.0 365:1.0 640:1.0 
-1.0 0.0 2:1.0 3:1.0 374:1.0 659:1.0 665:1.0 
-0.6663856863003865 0.9741565451956761 375:1.0 376:1.0 377:1.0 554:1.0 
-1.0 1.0 160:1.0 
-1.0 1.0 383:1.0 
-0.27880735289625774 0.0 23:1.0 174:1.0 309:1.0 664:1.0 
-1.0 0.0 9:1.0 126:1.0 325:1.0 385:0.8789338325587588 
-0.130692255691804 0.0 189:1.0 232:1.0 278:0.9514611492278245 366:1.0 386:1.0 662:1.0 
-1.0 1.0 69:1.0 147:1.0 661:1.0 
-1.0 1.0 
-1.0 1.0 
-0.6582191251713251 0.7100638103871176 345:1.0 387:1.0 388:1.0 
-0.13531331975454397 0.0 34:0.9669886803663925 232:1.0 389:0.948266488040238 390:1.0 662:1.0 
-1.0 0.0 2:1.0 3:1.0 659:1.0 665:1.0 
-0.09665563411124536 0.0 2:1.0 3:1.0 232:1.0 354:1.0 659:1.0 662:1.0 665:1.0 
-1.0 1.0 
-0.0 0.005722562954750796 69:1.0 220:1.0 328:1.0 661:1.0 
-0.7817410615986237 1.0 8:1.0 123:1.0 289:1.0 663:1.0 668:1.0 
-1.0 0.13470621678825573 343:1.0 
-1.0 1.0 
-1.0 1.0 
-0.3530169674944298 0.0 2:1.0 3:1.0 131:1.0 163:1.0 391:1.0 392:1.0 653:1.0 659:1.0 665:1.0 
-1.0 1.0 
-0.026725722221350723 0.0 328:1.0 
-1.0 1.0 11:1.0 34:0.9669886803663925 64:1.0 299:0.9433789077969592 394:1.0 600:1.0 667:1.0 
-0.0 1.0 104:1.0 172:1.0 666:1.0 
-0.5438179222143646 1.0 69:1.0 395:1.0 396:1.0 397:1.0 661:1.0 
-0.12753197960508866 0.0 69:1.0 142:1.0 347:1.0 360:1.0 398:1.0 399:1.0 400:1.0 661:1.0 
-1.0 1.0 
-0.0 1.0 8:1.0 123:1.0 340:1.0 663:1.0 668:1.0 
-1.0 1.0 123:1.0 663:1.0 
-0.040620104953470744 0.0 2:1.0 3:1.0 8:1.0 137:1.0 226:1.0 317:1.0 656:1.0 659:1.0 665:1.0 668:1.0 
-1.0 0.5372057967762074 194:1.0 330:1.0 
-1.0 1.0 120:0.9461371018913787 
-1.0 0.4415008315928835 372:0.9076695985029124 408:1.0 
-0.07210842639545742 0.0 232:1.0 647:1.0 662:1.0 
-1.0 1.0 
-0.5223775154154494 0.496023306477455 8:1.0 34:1.0 69:1.0 294:1.0 308:1.0 346:1.0 411:1.0 661:1.0 668:1.0 
-0.12049925648048682 0.0 39:1.0 176:1.0 412:1.0 413:1.0 414:1.0 415:1.0 
-1.0 1.0 
-0.6795259772810863 0.0 2:1.0 3:1.0 31:1.0 52:1.0 89:1.0 415:1.0 416:1.0 659:1.0 665:1.0 
-1.0 0.0 2:1.0 3:1.0 659:1.0 665:1.0 
-1.0 0.0 2:1.0 328:1.0 659:1.0 
-0.0 0.10056026229616025 33:1.0 125:1.0 213:1.0 290:1.0 418:1.0 660:1.0 
-0.7224584993888352 0.047609803495219954 2:1.0 3:1.0 221:1.0 372:1.0 659:1.0 665:1.0 
-1.0 0.4045289311981467 363:1.0 
-0.852460081958645 0.628654996724361 34:1.0 340:1.0 
-1.0 1.0 
-0.10155573085257916 6.293629479017527E-4 326:1.0 421:0.9433789077969592 
-1.0 1.0 
-0.370368746131575 0.5775103501106582 90:1.0 395:1.0 422:1.0 423:1.0 535:1.0 643:1.0 
-0.0 0.4533160747744273 221:1.0 309:1.0 664:1.0 
-0.9620593052308254 0.0 310:1.0 
-0.018611541343952258 0.018829847576811064 232:1.0 428:0.9394668844633882 429:1.0 430:1.0 431:1.0 662:1.0 
-0.7401947896752094 0.6400392473644433 98:1.0 126:1.0 432:1.0 
-1.0 0.20988000591262534 216:1.0 
-1.0 1.0 267:1.0 434:1.0 
-1.0 1.0 235:1.0 
-1.0 1.0 
-0.0 0.621166747096765 123:1.0 309:1.0 627:1.0 663:1.0 664:1.0 
-1.0 0.5775966409605885 2:1.0 3:1.0 659:1.0 665:1.0 
-0.9717660548390594 0.26327557454982425 69:1.0 242:1.0 410:1.0 661:1.0 
-1.0 1.0 226:1.0 439:1.0 
-1.0 1.0 163:1.0 344:1.0 653:1.0 
-1.0 0.1547753046791577 70:1.0 361:1.0 
-0.9793793679161245 1.0 123:1.0 417:1.0 663:1.0 
-1.0 0.0 232:1.0 662:1.0 
-0.5066380755077642 0.1301427559376003 440:1.0 
-0.5450912267902858 0.13649060457771608 311:1.0 654:1.0 
-1.0 1.0 216:1.0 
-1.0 1.0 649:1.0 
-0.20612672998920753 1.0 61:1.0 349:0.9579818605446004 
-0.5254374496550833 1.0 296:1.0 342:1.0 
-1.0 1.0 104:1.0 446:1.0 
-0.0 0.4825328846241734 121:1.0 347:1.0 374:1.0 
-0.5942644742796073 0.0 69:1.0 269:1.0 325:1.0 661:1.0 
-1.0 0.006968597034014435 23:1.0 326:1.0 
-1.0 1.0 
-1.0 1.0 447:1.0 
-1.0 1.0 69:1.0 392:1.0 661:1.0 
-1.0 1.0 440:1.0 
-1.0 0.2554709138900149 51:1.0 131:1.0 243:1.0 290:1.0 
-0.0 0.01417261887708375 51:1.0 352:1.0 374:1.0 448:1.0 
-0.3128814434947909 0.0 33:1.0 340:1.0 449:1.0 
-0.0 0.5237139505681728 309:1.0 341:1.0 450:1.0 521:1.0 664:1.0 
-0.45591755831383796 0.0 142:1.0 160:1.0 312:1.0 655:1.0 
-1.0 1.0 352:1.0 
-1.0 1.0 69:1.0 141:1.0 661:1.0 
-1.0 1.0 
-0.07227730884361172 0.0 232:1.0 452:1.0 662:1.0 
-0.0 0.07660150564321333 170:1.0 310:1.0 453:1.0 
-0.9282108054485991 0.0971393633443941 69:1.0 193:1.0 232:1.0 661:1.0 662:1.0 
-1.0 1.0 
-0.8212567229315573 1.0 176:1.0 224:1.0 403:1.0 454:1.0 
-0.6226296555767318 0.0 53:1.0 172:1.0 666:1.0 
-0.48711337197106447 0.0 2:1.0 3:1.0 312:1.0 655:1.0 659:1.0 665:1.0 
-0.0 0.7175210858063554 53:1.0 172:1.0 455:1.0 666:1.0 
-0.3126352719696361 0.29388631077690397 224:1.0 325:1.0 380:1.0 404:0.9096533738938642 
-1.0 1.0 598:1.0 
-0.0352239302207774 0.0 142:1.0 232:1.0 458:1.0 459:1.0 662:1.0 
-0.6431430845814221 0.0 47:1.0 78:1.0 142:1.0 172:1.0 193:1.0 666:1.0 
-0.0 0.632476311337627 120:0.8922740667805611 213:1.0 326:1.0 660:1.0 
-1.0 1.0 241:1.0 
-1.0 1.0 269:1.0 
-0.7011633988131761 1.0 69:1.0 85:1.0 322:1.0 381:1.0 549:1.0 661:1.0 
-1.0 0.0 2:1.0 3:1.0 319:1.0 384:1.0 659:1.0 665:1.0 
-0.5915816840902833 0.0 2:1.0 3:1.0 340:1.0 659:1.0 665:1.0 
-0.9700103602594821 1.0 141:1.0 289:1.0 
-1.0 1.0 
-1.0 0.3311126393704014 271:1.0 333:1.0 417:1.0 
-1.0 1.0 
-1.0 1.0 
-1.0 0.0 2:1.0 3:1.0 44:1.0 462:1.0 659:1.0 665:1.0 
-0.0 0.009464258078168041 123:1.0 324:1.0 404:1.0 463:1.0 520:1.0 540:1.0 663:1.0 
-0.6581110991989447 0.0 2:1.0 3:1.0 425:1.0 464:1.0 659:1.0 665:1.0 
-1.0 1.0 
-0.5446704600682665 0.4561255680097505 204:1.0 467:1.0 468:0.9394668844633882 469:1.0 648:1.0 
-0.0 1.0 123:1.0 290:1.0 663:1.0 
-0.4422895392085448 0.4354283174734753 222:1.0 311:1.0 437:1.0 438:1.0 654:1.0 
-1.0 1.0 456:1.0 
-0.13114358551627536 0.3739816459147456 26:1.0 325:1.0 360:1.0 380:1.0 413:1.0 463:1.0 
-1.0 1.0 216:1.0 
-1.0 1.0 
-1.0 1.0 141:1.0 
-0.0670521769667316 0.0 328:1.0 
-0.0 0.04328090440300319 235:1.0 252:1.0 443:1.0 
-0.0 0.3031481667720765 69:1.0 194:1.0 310:1.0 451:1.0 552:1.0 625:1.0 661:1.0 
-0.23388638346174234 0.0 8:1.0 189:1.0 338:1.0 344:1.0 465:1.0 668:1.0 
-1.0 0.49797740297785864 404:0.8644800712925301 
-0.0 0.9118859434546889 169:1.0 305:1.0 344:1.0 403:1.0 
-0.0 1.0 69:1.0 310:1.0 661:1.0 
-0.1835376637132075 0.6173196466453933 204:1.0 213:1.0 258:1.0 400:1.0 454:1.0 660:1.0 
-0.5552985385551273 0.0 2:1.0 3:1.0 8:1.0 334:1.0 335:1.0 336:1.0 659:1.0 665:1.0 668:1.0 
-1.0 0.0 2:1.0 3:1.0 290:1.0 659:1.0 665:1.0 
-0.6658790432455775 0.2606176358465541 342:1.0 433:1.0 
-0.0 1.0 357:1.0 358:1.0 
-0.9806554545952311 1.0 34:1.0 51:1.0 450:1.0 471:1.0 
-1.0 1.0 71:1.0 357:1.0 358:1.0 
-0.9710732667698962 1.0 307:1.0 
-1.0 1.0 
-0.47505742592295597 0.0 172:1.0 666:1.0 
-0.0 0.38647291354025565 8:1.0 334:1.0 335:1.0 336:1.0 668:1.0 
-1.0 1.0 436:1.0 
-1.0 1.0 2:1.0 3:1.0 69:1.0 659:1.0 661:1.0 665:1.0 
-0.18632330935616112 0.7661254357812282 174:1.0 337:1.0 379:1.0 414:1.0 415:1.0 
-0.11772628378196145 0.0 142:1.0 342:1.0 474:1.0 642:1.0 
-1.0 0.270843540589495 126:0.9557223127785023 475:1.0 
-1.0 1.0 213:1.0 660:1.0 
-0.3000250899884715 0.0 71:1.0 349:1.0 371:1.0 
-0.0 0.22700412279826065 296:1.0 340:1.0 357:1.0 358:1.0 460:1.0 
-0.974613966259323 0.995109223900196 343:1.0 
-1.0 0.0 290:1.0 
-1.0 1.0 2:1.0 3:1.0 61:1.0 659:1.0 665:1.0 
-1.0 1.0 55:1.0 56:1.0 
-1.0 0.7247803235654163 28:1.0 410:1.0 
-1.0 1.0 
-1.0 1.0 474:1.0 
-0.5425238016709848 0.9229779985403895 1:1.0 55:1.0 69:1.0 198:1.0 416:1.0 661:1.0 
-1.0 1.0 
-1.0 1.0 
-0.9281775768267925 0.0 33:1.0 288:1.0 317:1.0 418:1.0 656:1.0 
-0.7388835792695362 0.043307996344765926 241:1.0 355:1.0 356:1.0 
-1.0 0.6112691099584201 62:1.0 203:1.0 
-1.0 1.0 51:1.0 145:1.0 194:1.0 525:1.0 
-1.0 1.0 71:1.0 
-1.0 1.0 216:1.0 
-0.47723836033781974 0.0 349:1.0 
-1.0 0.9996432019030409 440:1.0 
-0.0 1.0 69:1.0 328:1.0 661:1.0 
-1.0 0.0 328:1.0 
-1.0 0.0 328:0.880977742812382 
-1.0 1.0 
-0.0 0.02785423872751239 123:1.0 132:1.0 290:1.0 477:1.0 663:1.0 
-0.4260880058311142 0.41082002680237995 51:1.0 115:1.0 163:1.0 232:1.0 453:1.0 457:1.0 653:1.0 662:1.0 
-0.773757860530355 0.0 53:1.0 216:1.0 
-1.0 1.0 
-1.0 1.0 
-1.0 1.0 8:1.0 668:1.0 
-1.0 1.0 235:1.0 
-0.10884335840732433 0.18942573152265008 64:1.0 226:1.0 242:1.0 330:1.0 479:1.0 
-1.0 1.0 
-0.0 0.1406786855363867 167:1.0 172:1.0 213:1.0 441:1.0 660:1.0 666:1.0 
-0.0 0.1265767093441374 51:1.0 232:1.0 386:1.0 453:1.0 458:1.0 459:1.0 662:1.0 
-0.060863009325433585 0.0 427:1.0 480:1.0 481:1.0 
-1.0 0.06489082692428771 157:1.0 420:1.0 
-1.0 0.0 40:1.0 
-1.0 0.0 189:1.0 456:1.0 473:1.0 
-1.0 0.5648231700623934 39:1.0 412:1.0 
-0.0 0.26876141021289646 309:1.0 318:1.0 664:1.0 
-1.0 1.0 9:1.0 
-0.0 0.5854301038602556 224:1.0 340:1.0 
-0.03598310473470332 0.0 158:1.0 232:1.0 476:1.0 483:1.0 662:1.0 
-0.3233888292814151 0.22588027735946783 332:1.0 344:1.0 
-1.0 1.0 
-1.0 1.0 406:1.0 
-1.0 1.0 484:1.0 
-0.0 0.3914803501789416 172:1.0 224:1.0 347:1.0 403:1.0 441:1.0 485:1.0 666:1.0 
-1.0 1.0 327:0.9096533738938642 
-1.0 0.22694411810720017 160:1.0 210:1.0 333:1.0 445:1.0 
-1.0 1.0 98:1.0 
-0.0 0.7204445872691998 69:1.0 317:1.0 656:1.0 661:1.0 
-1.0 1.0 
-0.8214620869714216 0.0 2:1.0 3:1.0 91:1.0 163:1.0 443:1.0 607:1.0 653:1.0 659:1.0 665:1.0 
-0.0 0.0598936233495237 123:1.0 310:1.0 663:1.0 
-0.04509239641192632 0.48504359444936795 326:1.0 486:1.0 487:1.0 
-1.0 1.0 160:1.0 
-1.0 0.5178384881344971 349:1.0 
-0.2530406266942841 0.0 8:1.0 62:1.0 305:1.0 668:1.0 
-1.0 0.7031851587624488 60:1.0 189:1.0 
-0.6831466254611006 0.20158522560927233 2:1.0 3:1.0 8:1.0 425:1.0 426:1.0 659:1.0 665:1.0 668:1.0 
-0.9050156084017296 1.0 372:1.0 504:1.0 
-0.3339253738254462 0.0 374:1.0 414:1.0 
-0.04325701824207853 0.0 296:1.0 375:1.0 376:1.0 377:1.0 
-0.0 0.5752253750056389 224:1.0 309:1.0 347:1.0 398:1.0 419:1.0 547:1.0 664:1.0 
-0.06804986268885835 0.0 69:1.0 71:1.0 317:1.0 331:1.0 424:1.0 656:1.0 661:1.0 
-0.05632770074040279 0.690596397733192 312:1.0 399:1.0 655:1.0 
-1.0 1.0 
-1.0 0.32949238204271214 2:1.0 3:1.0 289:1.0 659:1.0 665:1.0 
-1.0 0.0 2:1.0 3:1.0 307:1.0 659:1.0 665:1.0 
-1.0 1.0 235:1.0 
-0.09387398072949371 1.0 221:1.0 306:1.0 332:1.0 
-1.0 1.0 339:1.0 
-0.16050267734307508 0.9598074479321019 123:1.0 142:1.0 163:1.0 488:1.0 653:1.0 663:1.0 
-1.0 0.0 310:1.0 
-1.0 0.0 2:1.0 3:1.0 8:1.0 98:1.0 327:1.0 659:1.0 665:1.0 668:1.0 
-0.4613221536370526 0.0 39:1.0 123:1.0 142:1.0 163:1.0 488:1.0 653:1.0 663:1.0 
-1.0 1.0 
-1.0 0.0 172:1.0 666:1.0 
-0.4531770606952022 0.5993568576357978 270:1.0 401:1.0 402:1.0 403:1.0 404:1.0 
-0.7376622397180298 0.003991231112294095 326:1.0 391:1.0 
-1.0 1.0 558:1.0 
-0.3580800593550113 0.16755970281121654 313:1.0 334:1.0 393:1.0 
-0.34512062683999073 0.2406507056463893 239:1.0 393:1.0 446:1.0 489:1.0 
-1.0 0.5005861808196678 22:1.0 40:0.9548267078503996 
-1.0 1.0 69:1.0 204:1.0 661:1.0 
-0.6165082881360554 0.2588705997265576 9:1.0 62:1.0 286:1.0 479:1.0 
-1.0 0.0 2:1.0 3:1.0 296:1.0 659:1.0 665:1.0 
-0.9747045272480104 0.8197220229628288 363:1.0 
-1.0 1.0 350:1.0 
-1.0 1.0 69:1.0 266:1.0 661:1.0 
-0.0936979676084269 0.0 69:1.0 220:1.0 269:1.0 309:1.0 461:1.0 482:1.0 661:1.0 664:1.0 
-1.0 1.0 176:1.0 
-1.0 1.0 442:1.0 
-1.0 0.0 89:0.9572884911755322 98:1.0 378:1.0 
-1.0 0.5648325411809877 480:1.0 481:1.0 
-1.0 1.0 64:1.0 420:1.0 
-0.008910118088331365 0.10282084190480989 367:1.0 368:1.0 369:1.0 490:1.0 491:1.0 
-1.0 1.0 
-1.0 1.0 492:1.0 
-0.0 0.4291363889275997 328:1.0 337:1.0 
-1.0 1.0 2:1.0 3:1.0 659:1.0 665:1.0 
-1.0 0.457652565848029 269:1.0 571:1.0 
-0.9748613444635498 1.0 235:1.0 
-1.0 0.5649971837359974 48:1.0 493:1.0 
-0.5669038169404608 0.7442631721448426 9:1.0 40:1.0 213:1.0 660:1.0 
-1.0 1.0 89:1.0 
-1.0 -1.0 
-0.0 -7.147719994203411E-4 494:1.0 
-0.3279686616502897 -0.653478602976647 55:1.0 56:1.0 322:1.0 495:1.0 496:1.0 
-1.0 -1.0 
-1.0 -1.0 323:1.0 
-1.0 -0.5724114484145042 502:1.0 
-0.500475541613624 -0.0 306:1.0 503:1.0 504:1.0 
-0.477799752552799 -0.0 505:1.0 
-0.0 -0.12852115694132332 49:1.0 65:1.0 69:1.0 216:1.0 501:1.0 509:1.0 661:1.0 
-1.0 -1.0 69:1.0 661:1.0 
-0.29773967236176485 -0.0 8:1.0 63:1.0 238:1.0 465:1.0 511:1.0 658:1.0 668:1.0 
-1.0 -1.0 26:1.0 98:1.0 168:1.0 194:0.9538347783281514 
-0.1542342061574434 -0.0 61:1.0 318:1.0 512:1.0 513:1.0 
-1.0 -0.870153700824378 514:1.0 
-0.0 -0.04793993483666548 158:1.0 160:1.0 517:1.0 518:1.0 519:1.0 
-0.0 -0.2495176162999366 69:1.0 123:1.0 162:1.0 661:1.0 663:1.0 
-0.3366115827976575 -0.18236659902065186 398:1.0 520:1.0 
-2.7339056123565353E-4 -0.0 193:1.0 527:1.0 
-1.0 -0.006443547140683324 23:1.0 528:1.0 
-0.0 -0.20563706721505626 213:1.0 426:1.0 507:1.0 529:1.0 660:1.0 
-0.0 -0.1447878310512764 111:1.0 415:1.0 456:1.0 530:1.0 531:1.0 
-0.0 -1.0 123:1.0 213:1.0 660:1.0 663:1.0 
-1.0 -1.0 
-0.0 -0.25934507821763675 2:1.0 3:1.0 104:1.0 203:1.0 221:1.0 532:1.0 533:1.0 659:1.0 665:1.0 
-1.0 -1.0 271:1.0 
-0.9487111093644265 -0.7034540752533249 64:1.0 534:1.0 
-1.0 -1.0 51:1.0 163:1.0 653:1.0 
-0.029693106491896167 -0.0 289:1.0 323:1.0 535:1.0 
-1.0 -0.8700315360505813 536:1.0 
-0.017018333092109705 -0.0 26:1.0 533:1.0 537:1.0 
-1.0 -1.0 168:1.0 
-1.0 -1.0 
-1.0 -1.0 
-1.0 -1.0 34:1.0 235:1.0 527:1.0 
-1.0 -1.0 69:1.0 661:1.0 
-1.0 -0.8701198582576032 542:1.0 
-0.4821214887490013 -0.49820702777432296 104:1.0 350:1.0 546:1.0 
-1.0 -1.0 547:1.0 
-1.0 -1.0 
-0.1631541012162226 -1.0 2:1.0 3:1.0 104:1.0 235:1.0 289:1.0 323:1.0 659:1.0 665:1.0 
-1.0 -1.0 
-0.9938557477094151 -0.5592505481778556 69:1.0 483:1.0 661:1.0 
-1.0 -0.43349282094059016 551:1.0 
-1.0 -1.0 552:1.0 
-0.5336373585444352 -0.2880402228660189 2:1.0 3:1.0 63:1.0 189:0.9597936338874915 238:1.0 545:1.0 658:1.0 659:1.0 665:1.0 
-1.0 -0.8448087672268135 554:1.0 
-0.006977669906124941 -0.0 8:1.0 477:1.0 518:1.0 529:1.0 668:1.0 
-0.2652441636346286 -0.0 63:1.0 169:1.0 658:1.0 
-1.0 -0.9221578259439587 377:1.0 560:1.0 
-1.0 -0.7753384606817798 533:0.9054474917626478 
-1.0 -0.0996665391639891 66:1.0 69:1.0 661:1.0 
-1.0 -0.41410216631597313 8:1.0 71:1.0 138:1.0 160:1.0 531:1.0 668:1.0 
-0.30771882766480757 -0.29796121938380105 160:1.0 502:1.0 512:1.0 
-0.9925777048188985 -0.21545730088132173 65:1.0 69:1.0 561:1.0 661:1.0 
-0.8746387854222962 -0.43498804743344893 562:1.0 563:1.0 
-1.0 -1.0 564:1.0 
-1.0 -0.9351603675601209 503:1.0 504:1.0 
-0.7493219073689799 -0.8639330149000726 528:1.0 
-1.0 -0.8700422542099574 246:1.0 
-1.0 -0.0 533:1.0 
-1.0 -1.0 239:1.0 
-0.2869336272103549 -0.0 64:1.0 566:1.0 567:1.0 
-1.0 -0.8698826656396849 568:1.0 
-0.23925077071656184 -0.2484185980205407 69:1.0 569:1.0 661:1.0 
-0.5418075147795629 -0.8165372873608306 521:1.0 
-1.0 -0.0 494:1.0 
-0.05942097402214266 -0.34771393066408385 413:1.0 419:1.0 531:1.0 
-1.0 -1.0 362:1.0 
-0.8315724267969593 -0.710578527797674 85:1.0 455:1.0 520:1.0 
-1.0 -0.0 516:1.0 
-0.728589299405727 -0.933140458935309 2:1.0 3:1.0 104:1.0 205:1.0 318:1.0 575:1.0 659:1.0 665:1.0 
-1.0 -1.0 
-1.0 -0.8698932186498789 576:1.0 
-1.0 -1.0 69:1.0 296:1.0 661:1.0 
-0.9635966827170648 -0.7718439026644062 53:1.0 518:1.0 
-0.0 -0.7960146884123899 71:1.0 497:1.0 657:1.0 
-0.779098459444419 -0.0 239:1.0 577:1.0 578:1.0 
-1.0 -0.41935224528459214 579:1.0 
-1.0 -0.8696552404814938 204:1.0 580:1.0 
-0.42611245160037087 -0.0 65:1.0 221:1.0 267:1.0 581:1.0 582:1.0 
-0.4509975201353392 -0.0 51:1.0 63:1.0 258:1.0 558:1.0 559:1.0 658:1.0 
-0.0 -1.0 357:1.0 358:1.0 
-0.8744870354425907 -1.0 309:1.0 664:1.0 
-1.0 -1.0 
-1.0 -1.0 
-1.0 -0.6230748221088424 145:1.0 515:1.0 
-1.0 -1.0 307:1.0 453:1.0 
-0.17027693113528344 -1.0 69:1.0 141:1.0 216:1.0 395:1.0 661:1.0 
-0.008841058143617759 -0.0 138:1.0 521:1.0 587:1.0 
-1.0 -1.0 69:1.0 661:1.0 
-1.0 -1.0 224:1.0 
-0.0 -0.9290091000718659 347:1.0 499:1.0 
-0.9999999999999999 -0.0 435:1.0 521:1.0 
-0.6986050108411753 -0.0 505:1.0 
-0.3115341302905881 -0.0 222:1.0 448:1.0 509:1.0 
-0.9959156005810055 -0.0010051604833678368 589:1.0 
-0.9282931269388492 -0.9517265396398722 71:1.0 106:1.0 216:1.0 428:1.0 565:1.0 
-0.8399260575606659 -0.9040484771724716 270:1.0 344:1.0 590:1.0 
-0.0 -0.06036958295307642 63:1.0 400:1.0 450:1.0 658:1.0 
-0.0 -0.40935069622615755 364:1.0 521:1.0 
-0.45446541196059814 -0.20423001663418333 204:1.0 270:1.0 
-1.0 -0.870045251938659 591:1.0 
-0.9942127775951339 -1.0 213:1.0 660:1.0 
-1.0 -0.0 184:1.0 592:1.0 
-0.7547990718292608 -0.3109885529622659 569:1.0 593:1.0 
-1.0 -0.8701371409183113 594:1.0 
-0.8063541059345951 -0.2795497338658549 69:1.0 522:1.0 595:1.0 661:1.0 
-1.0 -1.0 395:1.0 
-0.0 -0.0904773523974374 61:1.0 210:1.0 333:1.0 551:1.0 
-0.7059515908742173 -0.0 499:1.0 
-1.0 -0.6238217309390429 144:1.0 145:1.0 289:1.0 
-1.0 -1.0 332:1.0 
-0.0 -0.28312244182058843 69:1.0 455:1.0 549:1.0 661:1.0 
-0.22128875243862284 -0.4846849551061803 61:1.0 137:1.0 174:1.0 269:1.0 486:1.0 487:1.0 496:0.9514611492278245 558:1.0 596:1.0 
-0.0389800440238456 -0.09225168964064825 111:1.0 169:1.0 203:1.0 337:1.0 546:1.0 
-0.0 -0.4596034490475454 66:1.0 224:1.0 
-1.0 -1.0 
-1.0 -1.0 221:1.0 
-1.0 -0.870215928500467 599:1.0 
-0.0 -1.0 357:1.0 358:1.0 
-1.0 -0.0 237:1.0 386:1.0 
-0.0 -0.6975551574619088 61:1.0 224:1.0 347:1.0 600:1.0 
-1.0 -0.0 163:1.0 601:1.0 653:1.0 
-0.0 -0.27162259185739773 8:1.0 163:1.0 286:1.0 306:1.0 344:1.0 501:1.0 653:1.0 668:1.0 
-0.0 -0.013600666922655831 34:1.0 63:1.0 69:1.0 163:1.0 294:1.0 361:1.0 603:1.0 604:1.0 605:1.0 606:1.0 607:1.0 608:1.0 653:1.0 658:1.0 661:1.0 
-1.0 -1.0 34:0.9669886803663925 
-0.007267061186307637 -0.0 63:1.0 243:1.0 532:1.0 658:1.0 
-0.0 -0.06979721555923088 61:0.9281715109295683 123:1.0 663:1.0 
-1.0 -0.0 61:1.0 271:1.0 
-1.0 -1.0 8:1.0 415:1.0 668:1.0 
-1.0 -0.5377623085316037 22:1.0 131:1.0 286:1.0 
-1.0 -0.8701152612196886 613:1.0 
-1.0 -1.0 69:1.0 661:1.0 
-1.0 -0.0820912496226264 34:1.0 212:1.0 585:1.0 
-1.0 -1.0 
-0.0 -0.9293789143042247 123:1.0 294:1.0 506:1.0 663:1.0 
-0.8525793035811111 -0.0 8:1.0 63:1.0 614:1.0 658:1.0 668:1.0 
-1.0 -0.0 104:1.0 173:1.0 
-0.25095833477720697 -0.13837056260874667 123:1.0 530:1.0 543:1.0 544:1.0 663:1.0 
-0.49895783530952154 -1.0 8:1.0 169:1.0 403:1.0 454:1.0 668:1.0 
-0.0 -0.16815051722977728 53:1.0 448:1.0 521:1.0 
-9.203499236780322E-4 -0.0 163:1.0 501:1.0 653:1.0 
-0.00812460130017669 -0.0 69:1.0 221:1.0 294:1.0 506:1.0 615:1.0 661:1.0 
-1.0 -0.0 351:1.0 
-1.0 -1.0 
-1.0 -1.0 
-1.0 -0.02565806783816549 270:1.0 
-1.0 -1.0 163:1.0 653:1.0 
-0.0 -0.35535879180000024 123:1.0 358:1.0 663:1.0 
-0.8746082787817587 -0.46228162492368674 617:1.0 618:1.0 
-1.0 -0.9369086458918144 351:1.0 
-1.0 -1.0 69:1.0 661:1.0 
-0.0 -0.29941551058483395 350:1.0 351:1.0 
-0.0 -0.40811025118454375 11:1.0 337:1.0 403:1.0 498:1.0 600:1.0 667:1.0 
-1.0 -1.0 
-1.0 -0.597721982251759 159:1.0 237:1.0 416:1.0 
-1.0 -1.0 176:1.0 388:1.0 
-0.5851089180299485 -0.723191990071031 372:0.9538347783281514 551:1.0 620:1.0 
-0.10362430743019015 -0.0 138:1.0 497:1.0 610:1.0 621:1.0 657:1.0 
-1.0 -1.0 55:1.0 622:0.8789338325587588 
-0.37455840416133845 -1.0 349:1.0 623:1.0 
-1.0 -0.15507932357918167 566:1.0 
-1.0 -1.0 
-0.9996394379915935 -0.0034508897047528663 391:1.0 508:1.0 
-1.0 -1.0 
-0.8744536361789795 -0.43512324709183664 523:1.0 573:1.0 
-1.0 -0.05740391205964342 142:1.0 193:1.0 495:1.0 
-0.11444392741356398 -1.0 160:1.0 267:1.0 342:1.0 601:1.0 
-0.2335815982803575 -0.2724835750888647 578:1.0 624:1.0 
-1.0 -0.5897042341605561 104:1.0 583:1.0 
-0.15901757760211838 -0.4509719515316598 2:1.0 3:1.0 51:1.0 525:1.0 559:1.0 579:1.0 659:1.0 665:1.0 
-1.0 -1.0 
-1.0 -0.30083584399586566 29:1.0 547:1.0 571:1.0 
-0.0447699138460871 -0.0 63:1.0 243:1.0 532:1.0 658:1.0 
-1.0 -0.8636642064055545 289:1.0 626:1.0 
-1.0 -1.0 
-1.0 -1.0 
-1.0 -1.0 627:1.0 
-1.0 -0.0 69:1.0 167:1.0 294:1.0 506:1.0 661:1.0 
-0.7580064004947171 -0.0 61:1.0 341:1.0 
-0.0 -0.6236699093210817 172:1.0 399:1.0 526:1.0 630:1.0 631:1.0 666:1.0 
-1.0 -1.0 
-1.0 -1.0 
-0.01570179835875305 -0.0 2:1.0 3:1.0 318:1.0 395:1.0 575:1.0 659:1.0 665:1.0 
-1.0 -1.0 204:1.0 224:1.0 
-1.0 -0.33534298457053524 270:1.0 
-1.0 -1.0 69:1.0 661:1.0 
-1.0 -0.0 66:1.0 99:1.0 
-0.4799646921630588 -0.3853123882552469 123:1.0 138:1.0 324:1.0 629:1.0 663:1.0 
-1.0 -1.0 
-0.3743731082980398 -0.9996685130891042 394:1.0 554:1.0 
-0.5729436919100934 -1.0 1:1.0 2:1.0 3:1.0 450:1.0 505:1.0 659:1.0 665:1.0 
-0.6232848257711419 -0.0 222:1.0 498:1.0 
-1.0 -1.0 
-1.0 -0.0 85:1.0 199:1.0 222:1.0 526:1.0 
-1.0 -1.0 69:1.0 661:1.0 
-1.0 -1.0 120:1.0 221:1.0 226:1.0 
-0.19360370306105307 -0.0 65:1.0 69:1.0 125:1.0 224:1.0 661:1.0 
-1.0 -0.0 192:1.0 501:1.0 
-1.0 -1.0 123:1.0 141:1.0 663:1.0 
-0.19840794491512037 -0.0 138:1.0 521:1.0 587:1.0 
-0.09719266759182246 -0.0 69:1.0 496:1.0 661:1.0 
-0.0 -0.41529874149720697 213:1.0 637:1.0 660:1.0 
-1.0 -0.43497237455450755 171:1.0 478:1.0 
-0.13130883846092198 -0.0 34:1.0 63:1.0 69:1.0 138:1.0 210:1.0 294:1.0 658:1.0 661:1.0 
-1.0 -1.0 51:1.0 525:1.0 
-0.8486326218012225 -0.0 193:1.0 527:1.0 
-0.7532595906881755 -0.8689472780899292 589:1.0 
-0.7582819852559703 -0.26613517534351216 61:1.0 353:1.0 
-0.012699928231078314 -0.0 533:1.0 638:1.0 
-0.24424869149199735 -0.37949538570974506 330:1.0 398:1.0 485:1.0 556:1.0 570:1.0 611:1.0 
-1.0 -1.0 213:1.0 660:1.0 
-0.37631694517811903 -0.8644156036931494 123:1.0 359:1.0 380:1.0 663:1.0 
-1.0 -1.0 
-0.35855974396460394 -0.00702788251536112 311:1.0 496:1.0 626:1.0 639:1.0 654:1.0 
-1.0 -0.4949854667151842 222:1.0 
-1.0 -1.0 403:1.0 
-0.48498741698253284 -0.9349601935509642 577:1.0 602:1.0 
-0.9546878362692921 -1.0 69:1.0 337:1.0 661:1.0 
-1.0 -1.0 549:1.0 
-0.0 -0.21872253232226616 213:1.0 380:1.0 660:1.0 
-0.0 -0.15146714584635224 226:0.9114446255570047 236:1.0 357:1.0 358:1.0 
-0.0011140590941354591 -0.0 306:1.0 514:1.0 
-0.3747051100985166 -0.7152300093796681 566:1.0 640:1.0 
-1.0 -0.0 23:1.0 64:1.0 380:1.0 600:1.0 637:1.0 641:1.0 
-0.0 -1.0 309:1.0 341:1.0 516:1.0 535:1.0 664:1.0 
-0.0 -0.16030368888710306 8:1.0 11:1.0 70:1.0 289:1.0 399:1.0 470:1.0 642:1.0 667:1.0 668:1.0 
-0.05229444376991901 -0.10359007292838507 330:1.0 531:1.0 564:1.0 
-0.2501016279820145 -0.09192840249298746 182:1.0 499:1.0 643:1.0 
-0.7410227596620574 -0.0 506:1.0 
-1.0 -0.8701397535351033 644:1.0 
-0.880182840344436 -1.0 213:1.0 660:1.0 
-0.7563055589840411 -0.0 408:1.0 580:1.0 583:1.0 
-1.0 -1.0 69:1.0 661:1.0 
-0.9744145424540759 -1.0 64:1.0 357:1.0 358:1.0 
-0.6712157592850122 -0.34047521580962764 34:1.0 167:1.0 365:1.0 645:1.0 
-0.26713742742403296 -0.5833042694945443 28:1.0 51:1.0 63:1.0 163:1.0 258:1.0 347:1.0 396:1.0 653:1.0 658:1.0 
-0.2435301017378487 -0.09421476988825046 205:1.0 208:1.0 318:1.0 323:1.0 363:1.0 609:1.0 
-1.0 -0.3941017427194497 212:1.0 588:1.0 
-0.0 -0.05822776044035591 64:1.0 289:1.0 344:1.0 497:1.0 657:1.0 
-0.973980246818167 -0.4612076764396481 432:1.0 586:1.0 
-1.0 -1.0 
-1.0 -1.0 172:1.0 666:1.0 
-1.0 -0.756657747331536 524:1.0 
-0.7497345328487095 -0.8668457746294569 508:1.0 
-1.0 -0.3365763671814688 8:1.0 219:1.0 390:1.0 668:1.0 
-1.0 -0.8165859188691119 111:1.0 553:1.0 
-0.6016175527316477 -0.20469235209658748 11:1.0 208:1.0 518:1.0 667:1.0 
-0.40945635865432595 -0.0 160:1.0 210:1.0 445:1.0 591:1.0 613:1.0 
-1.0 -1.0 
-0.0 -0.09170817412952771 69:1.0 294:1.0 506:1.0 661:1.0 
-0.5498762222090611 -0.0 162:1.0 164:1.0 516:1.0 
-0.24617006459087254 -0.7952637814299063 69:1.0 306:1.0 625:1.0 661:1.0 
-1.0 -0.8699857773829475 646:1.0 
-0.9870183593340508 -0.5603921232378768 99:1.0 123:1.0 663:1.0 
-0.09889538190735625 -1.0 61:1.0 123:1.0 141:1.0 663:1.0 
-0.05120026681310986 -0.0 169:1.0 171:1.0 527:1.0 595:1.0 628:1.0 640:1.0 
-0.0013316542495747231 -0.0 63:1.0 64:1.0 557:1.0 658:1.0 
-0.647675219417219 -0.04909319024150691 323:1.0 537:1.0 
-1.0 -0.16845249890218825 160:1.0 623:1.0 
-1.0 -1.0 8:1.0 668:1.0 
-0.7930738234214265 -0.0 499:1.0 
-0.7709585000091458 -0.0 497:1.0 657:1.0 
-0.6512106106929711 -0.0 69:1.0 173:1.0 661:1.0 
-1.0 -1.0 34:1.0 
-0.1215881708734144 -0.0 62:1.0 63:1.0 279:1.0 289:1.0 658:1.0 
-1.0 -1.0 9:1.0 649:0.9394668844633882 
-0.6844120007428164 -1.0 89:1.0 440:1.0 550:1.0 650:1.0 
-0.4327688966371252 -0.0 163:1.0 501:1.0 653:1.0 
-0.7642012879087156 -0.39317785934469834 64:1.0 67:1.0 365:1.0 616:1.0 
-1.0 -1.0 403:1.0 
-1.0 -1.0 123:1.0 663:1.0 
-1.0 -0.15754207765894163 163:1.0 399:1.0 457:1.0 653:1.0 
-1.0 -1.0 
-1.0 -0.8698995665360347 574:1.0 
-0.2136571233734149 -0.0 157:1.0 517:1.0 518:1.0 
-0.012708054534674886 -0.0 501:1.0 
-0.2885121154919217 -0.0 199:1.0 526:1.0 531:1.0 636:1.0 
-0.2297892082214614 -0.11361665117584734 405:1.0 419:1.0 524:1.0 
-0.33333463116151296 -1.0 235:1.0 340:1.0 457:1.0 592:1.0 
-0.31450415293354494 -0.6407359788243168 9:1.0 469:1.0 501:0.9633742461915922 
-0.1907644111543286 -0.8107981851117776 222:1.0 350:1.0 
-1.0 -0.8702088971200839 256:1.0 
-1.0 -1.0 
-0.0 -0.07036021962396649 347:0.9613054743850472 501:1.0 598:1.0 617:1.0 627:1.0 
-0.4004065128238873 -0.0 533:1.0 638:1.0 
-1.0 -0.10056026229616023 64:1.0 125:1.0 534:1.0 
-0.46840481285325936 -0.5877086837544131 386:1.0 432:1.0 
-0.3744819463467464 -0.0 351:1.0 619:1.0 
-0.44083117711214004 -0.0 582:1.0 630:1.0 631:1.0 
-0.8587659302119921 -0.3445113012658526 466:0.9433789077969592 624:0.9433789077969592 
-1.0 -0.55053181717908 142:1.0 193:1.0 642:1.0 
-0.0 -0.24284448381869503 351:1.0 619:1.0 643:1.0 
-1.0 -1.0 
-1.0 -0.8702532251674922 555:1.0 
-1.0 -1.0 
-0.7489780057552611 -0.8694177013863784 494:1.0 
-1.0 -0.8700527452755868 173:1.0 
