svm_type c_svc
kernel_type linear
nr_class 3
total_sv 981
rho -0.8953981509453521 -0.7527620763960685 0.10526519746512288
label 0 1 2
nr_sv 381 300 300
SV
1.0 1.0 
1.0 0.24708334256345454 1:1.0 
1.0 1.0 
0.04051727110104697 0.0 2:1.0 3:1.0 13:1.0 14:1.0 15:1.0 675:1.0 681:1.0 
1.0 1.0 
0.753560585663614 0.0 2:1.0 3:1.0 477:1.0 675:1.0 681:1.0 
0.22348865683356742 1.0 24:1.0 25:1.0 
1.0 1.0 
1.0 1.0 
1.0 1.0 
1.0 0.048218332516941464 30:1.0 
0.0 0.5471320847771645 31:1.0 616:1.0 
0.2885114189545811 0.0029336235442235306 32:1.0 33:1.0 34:1.0 415:1.0 628:1.0 
0.0 0.24714896763316466 38:1.0 
0.5402002185716045 0.12364332020629926 42:1.0 43:1.0 
1.0 1.0 
0.19663762452154848 0.0 44:1.0 45:1.0 46:1.0 47:1.0 
0.32621558942922874 0.0 33:1.0 48:1.0 49:1.0 
1.0 1.0 
0.5464765727048675 0.0 2:1.0 3:1.0 50:1.0 675:1.0 681:1.0 
0.019819539303475357 0.24725670363381064 51:1.0 
0.0 0.0501913723859415 37:1.0 52:1.0 
0.1050232903300197 0.0 53:1.0 54:1.0 
0.5260709096102796 0.0 55:1.0 56:1.0 
0.2863452285419857 1.0 48:0.9203899810884694 61:1.0 62:1.0 63:1.0 400:1.0 519:1.0 
0.0038533229402066757 0.5147827460820672 64:1.0 65:1.0 66:1.0 67:1.0 68:1.0 432:1.0 
0.4238948790417165 0.7721026224515001 64:1.0 69:1.0 70:1.0 71:1.0 676:1.0 
0.5357979662527909 0.0 36:1.0 72:1.0 73:1.0 74:1.0 423:1.0 
0.0 0.2471556266987734 55:1.0 
0.07527997152841287 0.0 2:1.0 3:1.0 41:1.0 75:1.0 76:1.0 675:1.0 681:1.0 
1.0 1.0 587:1.0 
1.0 1.0 
1.0 1.0 
1.0 0.0 2:1.0 3:1.0 675:1.0 681:1.0 
1.0 1.0 
1.0 1.0 
0.0 1.0 86:1.0 87:1.0 568:1.0 
1.0 1.0 
0.7351432586023818 0.0 90:1.0 91:1.0 412:1.0 
1.0 1.0 
0.5384805970242956 0.0 92:1.0 
1.0 1.0 409:1.0 
0.21785635693952785 0.0 94:1.0 95:1.0 96:1.0 97:1.0 98:1.0 99:1.0 100:1.0 
1.0 1.0 
0.09474276650007799 1.0 101:1.0 
1.0 1.0 
1.0 0.08350736973371153 8:1.0 433:1.0 683:1.0 
0.0 1.0 106:1.0 107:1.0 
1.0 1.0 
1.0 1.0 
0.013407037043698408 0.0 31:1.0 
0.0 0.02047372081860053 22:1.0 117:1.0 118:1.0 119:1.0 
1.0 1.0 69:1.0 676:1.0 
1.0 0.4415105537216571 100:1.0 120:0.9236015431248279 
0.22310249903723436 3.3306690738754696E-16 25:1.0 121:1.0 
1.0 0.0 2:1.0 3:1.0 675:1.0 681:1.0 
1.0 1.0 
0.1045165579099252 0.24725670363381064 122:1.0 
0.10893743513579261 0.31201331442886815 9:1.0 27:1.0 96:1.0 116:1.0 123:1.0 124:1.0 677:1.0 
0.05566543947042408 1.0 22:1.0 125:0.9162210943935785 353:1.0 450:1.0 
0.9046890778718902 0.12344903586333496 33:1.0 112:1.0 
0.0 0.032196803306094764 46:1.0 117:1.0 131:1.0 132:1.0 
0.05996091101799072 0.0 2:1.0 3:1.0 9:1.0 57:1.0 139:1.0 675:1.0 681:1.0 
0.0 0.04602209104511408 112:1.0 113:1.0 
1.0 1.0 
1.0 0.7491796247354766 140:1.0 367:1.0 457:1.0 
0.10878215415296624 0.4155759962015459 142:1.0 143:1.0 
1.0 1.0 
0.0 0.027961240986500626 8:1.0 59:1.0 95:1.0 370:1.0 683:1.0 
0.0 0.1865452432683189 138:1.0 149:1.0 
0.4434460005788459 1.0 142:1.0 143:1.0 483:1.0 
0.21161550447389205 0.0 25:1.0 36:1.0 72:0.9472690155343105 149:1.0 150:1.0 486:1.0 
0.0 5.806484991571408E-4 72:1.0 155:1.0 
0.5521144799525238 1.0 521:1.0 522:1.0 
1.0 1.0 
1.0 1.0 
0.2238094819738173 0.0 2:1.0 3:1.0 141:1.0 675:1.0 681:1.0 
1.0 0.2469363990380669 421:1.0 
0.039836845251525456 0.050154051377696886 52:1.0 136:1.0 
0.12602105271999925 0.29827075740509834 156:0.9102903030221137 
0.2238867211266728 0.0 2:1.0 3:1.0 59:1.0 675:1.0 681:1.0 
0.10401475752210507 0.0 157:1.0 158:1.0 
0.10435640000681401 0.24706868743672297 163:1.0 
0.10059024606745647 0.44909196185259426 155:1.0 164:1.0 165:1.0 166:1.0 
0.021028740814628386 0.0 2:1.0 3:1.0 13:1.0 77:1.0 675:1.0 681:1.0 
0.2505259569241985 0.8838066701817213 41:1.0 170:1.0 171:1.0 
0.10098767403162259 0.2797044729023289 67:1.0 
0.0 0.5 28:1.0 
0.3990681447486277 0.0 91:1.0 172:1.0 173:1.0 
0.052191091139696555 0.06715707272064282 84:1.0 114:1.0 
0.034851487081995515 0.1967379041759209 88:1.0 174:1.0 175:1.0 
0.99296283334805 1.0 62:1.0 69:1.0 170:1.0 176:1.0 177:1.0 676:1.0 682:1.0 
0.26919448044822386 0.0 178:1.0 
0.10436236272240178 0.24715055090034652 179:1.0 
0.7388027502565139 0.24695312564395638 45:1.0 
0.3246429272861605 0.9655097091193654 180:1.0 
0.7891493854496905 1.0 181:1.0 
1.0 1.0 
0.10431931543404552 0.24719214528782424 186:1.0 
1.0 0.8001733655050167 25:1.0 
1.0 1.0 
1.0 1.0 69:1.0 676:1.0 
1.0 0.0 2:1.0 3:1.0 675:1.0 681:1.0 
0.6451756784058302 0.12370278017048804 188:1.0 475:1.0 
2.151799215238202E-4 0.0 9:1.0 190:0.9102903030221137 191:1.0 
0.007179071403998918 0.29687367555591593 132:1.0 192:1.0 193:1.0 194:1.0 608:1.0 
1.0 1.0 
0.22391558596385097 0.0 2:1.0 3:1.0 195:1.0 675:1.0 681:1.0 
0.0 0.9233056099849098 138:1.0 197:1.0 
1.0 1.0 
0.9983120975625193 1.0 2:1.0 3:1.0 124:1.0 140:1.0 198:1.0 199:1.0 392:1.0 554:1.0 635:1.0 675:1.0 677:1.0 681:1.0 
0.7583471135903234 0.0 2:1.0 3:1.0 126:1.0 127:1.0 128:1.0 129:1.0 675:1.0 681:1.0 
1.0 0.0 2:1.0 3:1.0 675:1.0 681:1.0 
1.0 1.0 
0.033963719371682646 0.0 54:1.0 203:1.0 204:1.0 
1.0 1.0 
0.0 0.19912217500313273 30:1.0 34:1.0 72:1.0 
0.2702717614541713 0.0 205:1.0 206:1.0 
0.45756779778911266 0.0 207:1.0 208:1.0 
0.1673918418723994 0.49201710724797604 209:1.0 210:1.0 
0.40143093138548197 0.0 33:1.0 211:1.0 597:1.0 
0.11877594206990011 0.41545815846381634 68:1.0 106:1.0 204:1.0 215:1.0 216:1.0 
1.0 0.0 2:1.0 3:1.0 675:1.0 681:1.0 
1.0 1.0 69:1.0 676:1.0 
0.0 0.34973893981830634 161:1.0 217:1.0 218:1.0 219:1.0 220:1.0 
0.0 0.14559336448467772 221:1.0 
0.6102278467978204 1.0 8:1.0 64:1.0 683:1.0 
0.04058625687385155 0.0 2:1.0 3:1.0 13:1.0 15:1.0 222:1.0 675:1.0 681:1.0 
1.0 1.0 
0.0 0.39933140575346365 225:1.0 615:1.0 
0.05228375290025014 0.12373015799779036 82:1.0 83:1.0 
0.4033892081410132 1.0 69:1.0 226:1.0 676:1.0 
0.0 0.09855515351644113 48:1.0 227:1.0 228:1.0 
0.6588282563011312 0.7791078099139175 229:1.0 
0.5175040886891238 0.6181792772525686 36:1.0 
0.2751741163164191 1.0 69:1.0 230:1.0 676:1.0 
1.0 1.0 
0.0 0.3004623524021212 39:1.0 40:1.0 218:1.0 219:1.0 
0.630638884833748 0.2305622063128126 66:0.9236015431248279 100:0.9416741041400937 234:0.9162210943935785 
0.03319245059409329 0.7059769337717318 32:1.0 69:1.0 162:1.0 530:1.0 676:1.0 
1.0 1.0 
1.0 1.0 
1.0 1.0 
0.3904995517517026 0.06063529971924449 16:1.0 17:1.0 41:1.0 185:1.0 235:1.0 368:1.0 
1.0 1.0 
0.18917724774659697 0.0 2:1.0 3:1.0 29:1.0 60:1.0 208:1.0 425:1.0 675:1.0 681:1.0 
1.0 1.0 36:1.0 
0.0 0.056478968979647486 2:1.0 3:1.0 10:1.0 11:1.0 12:1.0 36:1.0 90:1.0 170:1.0 171:1.0 239:0.9102903030221137 675:1.0 681:1.0 
1.0 0.0 2:1.0 3:1.0 675:1.0 681:1.0 
0.044094158301158565 0.0 2:1.0 3:1.0 81:1.0 148:1.0 675:1.0 681:1.0 
1.0 1.0 
1.0 1.0 
0.9123613679767671 0.7600971267320078 8:1.0 31:1.0 52:1.0 545:1.0 683:1.0 
0.5593470797613691 0.0 16:1.0 17:1.0 38:1.0 
1.0 0.3811394264821789 157:1.0 
0.01769525206708153 0.0 2:1.0 3:1.0 4:1.0 9:1.0 26:1.0 242:1.0 675:1.0 681:1.0 
1.0 1.0 162:1.0 243:1.0 
0.0 1.0 33:1.0 53:1.0 64:1.0 244:1.0 420:1.0 
1.0 1.0 
0.7535844527091045 0.0 2:1.0 3:1.0 241:1.0 675:1.0 681:1.0 
5.812897511091702E-4 0.0 178:1.0 231:1.0 
0.0 0.24706804029127843 249:1.0 
1.0 0.0 2:1.0 3:1.0 675:1.0 681:1.0 
0.0 0.8998025387841169 87:1.0 204:1.0 546:1.0 
1.0 1.0 
0.18415063987973787 0.27189186904678986 162:1.0 254:1.0 
0.0 1.0 87:1.0 
0.5263233050555183 0.957547253369473 11:1.0 56:1.0 
1.0 1.0 
1.0 0.0 194:1.0 256:1.0 328:1.0 679:1.0 
0.0 0.24720182927530354 189:1.0 
1.0 1.0 
1.0 0.0 2:1.0 3:1.0 675:1.0 681:1.0 
0.0 0.32866941748008865 52:1.0 205:1.0 206:1.0 601:1.0 
0.10426496332198341 1.0 619:1.0 
0.03534875306618461 0.0 36:1.0 52:1.0 258:1.0 384:1.0 
0.18387625013579983 0.0 33:1.0 
1.0 1.0 
0.006195048904644656 0.0 2:1.0 3:1.0 95:1.0 675:1.0 681:1.0 
1.0 1.0 69:1.0 676:1.0 
0.10510925929795112 0.0 2:1.0 259:1.0 675:1.0 
0.009996380406512998 0.0 2:1.0 3:1.0 16:1.0 17:1.0 29:1.0 113:1.0 675:1.0 681:1.0 
1.0 1.0 
1.0 1.0 69:1.0 676:1.0 
1.0 1.0 
0.019601131642912644 0.24705311398976842 262:1.0 
0.0019293967418091442 0.12354319990561773 78:1.0 264:1.0 
0.9375472717181469 1.0 246:1.0 
0.10432810804469003 0.4936734272093731 187:1.0 
0.45586309973155026 0.0 37:1.0 107:1.0 181:1.0 192:1.0 233:1.0 266:1.0 
0.11560789553206524 0.6950206588147855 69:1.0 148:1.0 263:1.0 676:1.0 
0.3404692372406445 0.2476151188679249 165:1.0 224:1.0 
0.02961719725923752 0.0 2:1.0 3:1.0 111:1.0 182:0.9203899810884694 183:1.0 267:1.0 675:1.0 681:1.0 
1.0 0.5121152215355863 69:1.0 72:1.0 115:1.0 126:1.0 342:1.0 676:1.0 
0.0 0.4496892491356699 72:1.0 73:1.0 
1.0 0.0 2:1.0 3:1.0 343:1.0 675:1.0 681:1.0 
4.3436406038176075E-4 0.0 2:1.0 3:1.0 85:1.0 111:1.0 260:1.0 268:1.0 269:1.0 270:1.0 271:1.0 675:1.0 681:1.0 
0.7316968703446732 0.38724529923202317 50:0.9262114562279249 131:1.0 272:1.0 
0.0 1.0 175:1.0 181:1.0 
1.0 1.0 
1.0 1.0 
1.0 1.0 
1.0 0.8005612343190526 199:1.0 273:1.0 361:1.0 656:1.0 
0.09505648140134483 0.9951326786087964 112:1.0 113:1.0 
1.0 0.12365889537883512 35:1.0 274:1.0 
0.21617554407259046 0.0 9:1.0 35:1.0 94:1.0 276:1.0 277:1.0 
0.17407405140229615 0.0 18:1.0 46:1.0 251:1.0 278:1.0 
1.0 1.0 165:1.0 
1.0 1.0 8:1.0 683:1.0 
0.23116396474373113 0.0 26:1.0 146:1.0 213:1.0 279:1.0 
1.0 1.0 
0.0 1.0 104:1.0 177:1.0 
1.0 1.0 335:1.0 
0.46242425781936247 0.7073695555588717 102:1.0 434:1.0 
1.0 0.9860923824503988 36:1.0 
1.0 1.0 
1.0 1.0 
1.0 1.0 
0.0 0.2471999315755653 280:1.0 
0.0 1.0 198:1.0 
1.0 1.0 8:1.0 683:1.0 
0.10453789384230937 0.24718585011462862 255:1.0 
1.0 1.0 
1.0 1.0 
1.0 1.0 
0.9538993690013301 0.0 2:1.0 3:1.0 35:1.0 61:1.0 117:1.0 164:1.0 282:1.0 675:1.0 681:1.0 
1.0 1.0 
1.0 1.0 8:1.0 683:1.0 
1.0 1.0 
1.0 1.0 
0.23638094118191993 0.0 44:1.0 283:1.0 
0.9249873756522287 0.24714971824674214 404:1.0 
0.20153277640991651 0.0 132:1.0 
1.0 1.0 
1.0 1.0 7:1.0 333:1.0 
0.5198341431050929 0.6935744746423267 52:1.0 165:1.0 226:1.0 
1.0 1.0 
0.9589896265676039 0.003058856309909088 203:1.0 204:1.0 
1.0 1.0 
1.0 1.0 354:1.0 
1.0 1.0 
1.0 1.0 
0.9060688438164567 0.0 194:1.0 
1.0 1.0 
1.0 1.0 52:1.0 69:1.0 209:1.0 283:1.0 332:1.0 676:1.0 
1.0 0.36697282783536844 285:0.8205806496326152 
1.0 0.0 2:1.0 3:1.0 675:1.0 681:1.0 
0.0 0.5232020603805441 141:1.0 162:1.0 286:1.0 529:1.0 632:1.0 
1.0 1.0 
1.0 0.0 2:1.0 3:1.0 340:1.0 675:1.0 681:1.0 
1.0 1.0 287:0.8524228372906556 
1.0 1.0 
0.2443360194448193 1.0 606:1.0 
1.0 1.0 54:1.0 
0.4954012722756485 1.0 408:1.0 
0.18247183376122278 0.311827108732835 236:1.0 288:1.0 482:1.0 
0.9478544990072324 0.06987747144092755 87:1.0 289:1.0 
0.08954969015785727 0.1301459709081406 2:1.0 3:1.0 85:1.0 111:1.0 260:1.0 268:1.0 269:1.0 270:1.0 271:1.0 675:1.0 681:1.0 
0.04915487715995059 0.4139709131034779 131:1.0 278:1.0 
0.0127266574956909 0.3158206446063781 101:0.7611697813238891 200:1.0 248:1.0 
1.0 1.0 
0.10440115844346502 0.24732504963386448 252:1.0 
0.9217523651213063 0.0 100:1.0 290:1.0 
0.0 0.006561853040534897 291:1.0 
0.0 1.0 280:1.0 
0.34060576750607596 1.0 165:1.0 639:1.0 
1.0 0.0 2:1.0 3:1.0 42:1.0 125:1.0 292:1.0 324:1.0 675:1.0 681:1.0 
0.07432078368108844 0.0 2:1.0 3:1.0 75:1.0 237:1.0 675:1.0 681:1.0 
0.3941241994506688 0.0 35:1.0 165:1.0 293:1.0 
1.0 1.0 
0.214527120020585 0.0 2:1.0 249:1.0 277:1.0 675:1.0 
0.0 0.2632550177724469 72:1.0 92:1.0 197:1.0 
1.0 0.0 2:1.0 3:1.0 11:1.0 176:1.0 675:1.0 681:1.0 682:1.0 
0.10443773657217195 1.0 604:1.0 
0.5260709096102796 0.14474993077726606 56:1.0 294:1.0 
0.10090005676292196 1.0 65:1.0 
0.8737021504762068 0.9768252124190043 9:1.0 
1.0 1.0 
0.08962430837352156 0.0 2:1.0 19:1.0 272:1.0 675:1.0 
0.6930726516758894 1.0 244:1.0 580:1.0 
0.22322198172027038 0.0 25:1.0 189:1.0 
1.0 0.9969318376349674 100:1.0 106:1.0 293:1.0 397:1.0 
0.0 0.24721590192749593 47:1.0 
0.10440116551046555 0.24720706759489974 295:1.0 
0.7586228498171086 0.6632506717586281 2:1.0 124:1.0 238:1.0 675:1.0 677:1.0 
0.5098281882900895 0.746901819684493 28:1.0 
1.0 1.0 
0.0 0.30915730660296875 178:1.0 296:1.0 659:1.0 
0.29923291118683476 0.24702095435942145 441:1.0 
0.12354507437095542 0.0 8:1.0 205:1.0 297:1.0 334:1.0 683:1.0 
0.0 0.8975345179824289 161:1.0 
0.07365953283204159 0.4506744961667922 64:1.0 172:1.0 198:1.0 273:1.0 383:1.0 
1.0 1.0 
0.5276115774063288 0.12361730955129135 298:1.0 299:1.0 
0.0 0.45923544673371597 172:1.0 300:1.0 
1.0 0.195915364212492 63:1.0 162:1.0 301:1.0 
0.8142781153030346 0.0 2:1.0 3:1.0 49:1.0 137:1.0 675:1.0 681:1.0 
0.28330347535147826 0.0 9:1.0 94:1.0 503:1.0 
0.0 0.4503874626549264 44:1.0 72:1.0 124:1.0 196:1.0 283:1.0 677:1.0 
0.15406818714860052 0.0 2:1.0 3:1.0 150:1.0 302:1.0 303:1.0 675:1.0 681:1.0 
1.0 1.0 9:1.0 69:1.0 676:1.0 
0.1193710759592284 0.0 2:1.0 3:1.0 6:1.0 45:1.0 675:1.0 681:1.0 
0.0 0.11286557609860721 114:1.0 265:1.0 297:1.0 494:1.0 
0.10432914058214629 1.0 138:1.0 
1.0 1.0 
0.0 0.34616181059654855 39:1.0 72:1.0 207:1.0 304:1.0 603:1.0 
0.29274049622011417 0.38120822439944324 69:1.0 108:1.0 109:1.0 229:1.0 305:1.0 543:1.0 676:1.0 
0.706322146727018 0.037325704003628626 2:1.0 3:1.0 104:1.0 162:1.0 240:1.0 654:1.0 675:1.0 681:1.0 
1.0 1.0 
0.05245180965493251 0.0 2:1.0 201:1.0 202:1.0 675:1.0 
0.10445763513724138 1.0 306:1.0 
1.0 0.9768744952953983 91:1.0 
1.0 0.0 41:1.0 72:1.0 80:1.0 243:1.0 428:1.0 
1.0 0.0 2:1.0 3:1.0 274:1.0 675:1.0 681:1.0 
1.0 1.0 
0.10424333276358866 0.0 296:1.0 
1.0 1.0 
0.02011513638939963 0.0 2:1.0 3:1.0 81:1.0 111:1.0 275:1.0 675:1.0 681:1.0 
1.0 1.0 
0.10448743441110661 0.2406380785350304 291:1.0 
0.16230164326225988 0.39841064461512476 18:1.0 69:1.0 145:1.0 146:1.0 147:1.0 169:1.0 223:1.0 676:1.0 
1.0 1.0 
0.4167413149844927 0.2200346528254121 5:1.0 54:1.0 266:1.0 309:0.9102903030221137 
0.11991959850180683 0.0 2:1.0 3:1.0 161:1.0 178:1.0 675:1.0 681:1.0 
1.0 1.0 
1.0 1.0 
0.0 8.686955132382074E-5 26:1.0 38:1.0 144:1.0 310:1.0 
1.0 1.0 
1.0 1.0 311:1.0 674:1.0 
1.0 1.0 
1.0 0.015088541637772866 2:1.0 3:1.0 196:1.0 215:1.0 430:1.0 675:1.0 681:1.0 
0.0 2.907830226606123E-16 9:1.0 211:1.0 
1.0 0.7876674648478641 300:1.0 
1.0 1.0 
0.10447830126208314 1.0 553:1.0 
1.0 1.0 
1.0 1.0 
0.4416856387162702 0.623702780170488 257:1.0 406:1.0 
1.0 1.0 36:1.0 
1.0 1.0 
1.0 1.0 
0.49689298223409134 1.0 124:1.0 165:1.0 377:1.0 577:1.0 677:1.0 
0.1042689376847638 0.24707306860551734 93:1.0 
0.0 2.3660702526200655E-4 312:1.0 313:1.0 
0.006796851871276673 0.0 314:1.0 
1.0 1.0 
0.11904464103966879 0.0 104:1.0 242:1.0 315:0.9102903030221137 
1.0 0.2471924092875038 302:1.0 
0.0 1.0 173:1.0 
0.638759721871982 0.3386698794423345 2:1.0 3:1.0 345:1.0 487:1.0 675:1.0 681:1.0 
0.014415799625957905 0.0 38:1.0 41:1.0 227:1.0 233:1.0 235:1.0 310:1.0 479:1.0 528:1.0 
0.27504247720245895 0.0 302:1.0 303:1.0 316:1.0 507:1.0 
0.049700800229135915 0.0 2:1.0 3:1.0 45:1.0 72:1.0 217:1.0 261:1.0 299:1.0 308:1.0 675:1.0 681:1.0 
0.11239290302335748 0.0 2:1.0 3:1.0 39:1.0 40:1.0 41:1.0 675:1.0 681:1.0 
1.0 1.0 124:1.0 677:1.0 
0.11204797491237954 0.0 35:1.0 126:1.0 162:1.0 181:1.0 276:1.0 301:1.0 
0.6910893167007575 0.055798676377767344 225:1.0 273:1.0 
0.6733104893671495 0.13358509100796456 2:1.0 3:1.0 4:1.0 8:1.0 22:1.0 23:1.0 675:1.0 681:1.0 683:1.0 
1.0 0.0 2:1.0 3:1.0 675:1.0 681:1.0 
1.0 0.10147670791283464 72:1.0 221:1.0 318:1.0 394:1.0 
0.3386730834892953 0.0 210:1.0 401:1.0 
0.2238600319447372 0.0 2:1.0 3:1.0 228:1.0 675:1.0 681:1.0 
1.0 0.9664571702985623 36:1.0 
0.0 1.0 180:1.0 
0.0 0.2471586220675793 315:1.0 
1.0 0.05602994558370468 8:1.0 23:1.0 126:1.0 258:1.0 683:1.0 
0.0974546387484348 0.2472549421974154 314:1.0 
0.24669558143019713 0.5238974248383621 312:1.0 658:1.0 
0.11549522149554581 0.0 71:1.0 178:1.0 253:1.0 280:1.0 
1.0 1.0 69:1.0 245:1.0 282:1.0 676:1.0 
1.0 1.0 
1.0 1.0 64:1.0 
0.10053061356091093 0.0 68:1.0 131:1.0 
0.13759457028999883 0.6950185673808238 69:1.0 133:1.0 134:1.0 676:1.0 
1.0 0.5680344132393144 194:1.0 
0.10066104403412111 0.0 2:1.0 3:1.0 77:1.0 78:1.0 675:1.0 681:1.0 
0.10445763513724138 0.2472018292753035 284:1.0 
0.08474918008687206 0.0 51:1.0 155:1.0 262:1.0 310:1.0 
0.10441479006706597 0.24698031094024334 130:1.0 
0.6111026457684172 1.0 214:1.0 338:1.0 
0.0 0.6500341479844944 316:1.0 
-0.8212358539526835 0.0 2:1.0 3:1.0 31:1.0 318:1.0 319:1.0 675:1.0 681:1.0 
-1.0 1.0 
-0.9396461221077617 1.0 320:1.0 
-0.7802328956049495 0.0 2:1.0 3:1.0 126:1.0 128:1.0 129:1.0 274:1.0 675:1.0 681:1.0 
-0.30748791128775815 0.0 176:1.0 682:1.0 
-1.0 1.0 
-1.0 1.0 
-1.0 1.0 106:1.0 
-1.0 1.0 72:1.0 
-0.0 0.02776769664713292 180:1.0 306:1.0 324:1.0 329:1.0 330:1.0 
-1.0 0.039344183235966675 2:1.0 3:1.0 16:1.0 17:1.0 45:1.0 331:1.0 332:1.0 675:1.0 681:1.0 
-0.7166267742461437 1.0 333:1.0 
-0.8028929200058719 1.0 69:1.0 283:1.0 338:1.0 597:1.0 600:1.0 676:1.0 
-1.0 1.0 
-1.0 1.0 112:1.0 344:1.0 
-0.0 0.18603135012103972 54:1.0 245:1.0 273:1.0 322:1.0 333:1.0 573:1.0 678:1.0 
-1.0 0.0 325:0.9351947544503547 
-0.05496467405724423 0.0 36:1.0 322:1.0 353:1.0 678:1.0 
-1.0 1.0 91:1.0 171:1.0 
-0.5821334037196451 0.11591026833266316 192:1.0 357:1.0 
-1.0 0.0 35:1.0 69:1.0 328:1.0 676:1.0 679:1.0 
-0.21484499474371785 0.0 196:1.0 234:1.0 359:1.0 360:1.0 
-0.855875426257801 1.0 364:1.0 365:1.0 
-0.0 1.0 359:1.0 366:1.0 368:1.0 369:1.0 
-0.0 0.06108983117034581 282:1.0 370:1.0 
-0.3150808353588176 0.04599892700683233 2:1.0 3:1.0 106:1.0 214:1.0 258:1.0 361:1.0 372:1.0 373:1.0 374:1.0 675:1.0 681:1.0 
-0.0 0.5784832064001386 49:1.0 124:1.0 165:1.0 375:1.0 376:1.0 377:1.0 378:1.0 677:1.0 
-1.0 1.0 379:1.0 
-1.0 1.0 587:1.0 
-0.0 1.0 324:1.0 338:1.0 
-1.0 0.0 2:1.0 3:1.0 675:1.0 681:1.0 
-1.0 0.3953817785642621 2:1.0 69:1.0 361:1.0 675:1.0 676:1.0 
-1.0 0.26331946211310503 49:1.0 381:1.0 
-0.5401956058678368 0.2009677487088542 277:1.0 386:1.0 387:1.0 388:1.0 
-0.38847476063300207 0.6687918696742549 38:1.0 171:1.0 310:1.0 382:1.0 658:1.0 
-1.0 0.0 2:1.0 3:1.0 394:1.0 675:1.0 681:1.0 
-0.19113119610282372 0.8946885727564291 395:1.0 396:1.0 397:1.0 576:1.0 
-1.0 1.0 162:1.0 
-1.0 1.0 403:1.0 
-1.0 0.0 9:1.0 126:1.0 340:1.0 404:0.8205806496326152 
-0.4242412048245931 0.0 194:1.0 215:1.0 258:0.93197053499246 324:1.0 384:1.0 
-1.0 1.0 69:1.0 146:1.0 676:1.0 
-1.0 1.0 
-1.0 1.0 
-0.7790766390389594 0.5751076215172152 362:1.0 405:1.0 406:1.0 
-0.3911194521701962 0.13060629555747555 36:0.9522922748829317 324:1.0 407:0.9284083476140795 408:1.0 
-1.0 0.0 2:1.0 3:1.0 675:1.0 681:1.0 
-1.0 1.0 
-0.0 0.3734616261535762 69:1.0 233:1.0 343:1.0 676:1.0 
-1.0 1.0 8:1.0 124:1.0 273:1.0 677:1.0 683:1.0 
-0.8005850010277005 0.005782064381322315 360:1.0 
-1.0 1.0 
-1.0 1.0 
-1.0 0.8558428072816852 2:1.0 3:1.0 131:1.0 165:1.0 409:1.0 675:1.0 681:1.0 
-1.0 1.0 
-0.0 1.0 124:1.0 357:1.0 677:1.0 
-0.2293945367866611 0.0 343:1.0 
-1.0 0.812201509442801 11:1.0 36:0.9522922748829317 64:1.0 266:1.0 293:0.9236015431248279 628:1.0 
-0.0 1.0 106:1.0 176:1.0 682:1.0 
-0.3240771160009353 1.0 69:1.0 411:1.0 412:1.0 413:1.0 676:1.0 
-0.0604621404484155 0.314919547573604 69:1.0 140:1.0 364:1.0 378:1.0 414:1.0 415:1.0 416:1.0 676:1.0 
-1.0 1.0 
-0.0 1.0 8:1.0 124:1.0 357:1.0 677:1.0 683:1.0 
-0.2644056765523951 0.35736800771382354 124:1.0 417:1.0 677:1.0 
-1.0 0.7228266890033858 199:1.0 345:1.0 
-1.0 1.0 120:0.9236015431248279 
-1.0 1.0 392:0.860607976658379 
-0.13370789432144378 0.0 324:1.0 667:1.0 
-1.0 1.0 523:1.0 
-0.0 0.23429397855273218 69:1.0 124:1.0 176:1.0 405:1.0 676:1.0 677:1.0 682:1.0 
-0.7618952972517348 0.46588923758771117 8:1.0 36:1.0 69:1.0 283:1.0 321:1.0 363:1.0 676:1.0 683:1.0 
-0.19810286872376284 0.0 41:1.0 181:1.0 428:1.0 429:1.0 430:1.0 431:1.0 
-1.0 1.0 
-1.0 0.0 2:1.0 3:1.0 675:1.0 681:1.0 
-0.05442504030207562 0.21971685682617068 8:1.0 36:1.0 181:1.0 335:1.0 433:1.0 683:1.0 
-0.16112244477609294 0.0 2:1.0 343:1.0 675:1.0 
-0.0 0.19376571414512675 35:1.0 274:1.0 276:1.0 333:1.0 353:1.0 
-0.5557345991253873 0.0 2:1.0 3:1.0 392:1.0 434:1.0 675:1.0 681:1.0 
-1.0 0.8025842012012381 380:1.0 
-1.0 0.0027144089976932715 36:1.0 357:1.0 
-1.0 1.0 
-0.20514044368560688 0.17961352318339271 341:1.0 437:0.9162210943935785 
-0.0012134493371152761 0.0 438:1.0 439:1.0 
-0.19493437476048298 0.3924658384868451 92:1.0 411:1.0 440:1.0 441:1.0 556:1.0 661:1.0 
-0.9752479420769108 0.0 323:1.0 
-0.027690018097208082 0.05466971577726142 324:1.0 444:0.9102903030221137 445:1.0 446:1.0 447:1.0 448:1.0 
-0.6434696057666343 0.8497718813770321 100:1.0 126:1.0 450:1.0 
-0.2924878492555553 0.0 2:1.0 3:1.0 282:1.0 412:1.0 675:1.0 681:1.0 
-1.0 1.0 282:1.0 
-1.0 1.0 240:1.0 452:1.0 
-0.025855830879053784 1.0 335:1.0 
-1.0 1.0 453:1.0 
-0.05653531281150793 0.0 140:1.0 324:1.0 454:1.0 455:1.0 
-0.730656514349888 0.0 49:1.0 80:1.0 140:1.0 176:1.0 198:1.0 682:1.0 
-0.0 0.05169294877312981 165:1.0 258:1.0 324:1.0 333:1.0 
-1.0 0.7000842591871456 385:1.0 
-1.0 0.878586828481062 243:1.0 
-0.7400198625893939 1.0 69:1.0 87:1.0 336:1.0 401:1.0 570:1.0 676:1.0 
-0.9563700400695935 0.0 2:1.0 3:1.0 242:1.0 330:1.0 675:1.0 681:1.0 
-0.07495960942649656 0.0 2:1.0 3:1.0 357:1.0 675:1.0 681:1.0 
-0.3090423969034191 1.0 273:1.0 367:1.0 
-1.0 1.0 
-0.833026929698286 0.4864943683166121 246:1.0 348:1.0 433:1.0 
-0.0023321774757106045 0.0 8:1.0 349:1.0 350:1.0 351:1.0 683:1.0 
-1.0 1.0 
-1.0 1.0 
-0.0 0.1972894554895939 122:1.0 357:1.0 458:1.0 
-1.0 0.0 2:1.0 3:1.0 46:1.0 459:1.0 675:1.0 681:1.0 
-0.5841990571561205 0.0 2:1.0 3:1.0 442:1.0 461:1.0 675:1.0 681:1.0 
-0.0 0.5806072314894734 165:1.0 324:1.0 462:1.0 463:1.0 
-1.0 1.0 
-0.3901166027807649 0.3801306098681448 209:1.0 464:1.0 465:0.9102903030221137 466:1.0 668:1.0 
-0.0 0.1052949724771086 124:1.0 335:0.9431335532587596 360:0.9416741041400937 389:0.9162210943935785 677:1.0 
-0.35756067965208577 1.0 124:1.0 274:1.0 677:1.0 
-0.631664885644131 1.0 311:1.0 613:1.0 674:1.0 
-1.0 1.0 302:1.0 543:1.0 
-0.40547029335582974 0.42561412437635576 28:1.0 340:1.0 378:1.0 400:1.0 429:1.0 460:1.0 
-1.0 1.0 282:1.0 
-1.0 1.0 
-1.0 1.0 367:1.0 
-0.6872991980458121 0.0 343:1.0 
-0.0 0.43155086699710643 231:1.0 335:1.0 467:1.0 
-0.0205213733708142 0.26542145184503324 69:1.0 199:1.0 316:1.0 323:1.0 468:1.0 574:1.0 638:1.0 676:1.0 
-0.38417204620678663 0.17873869422149627 8:1.0 194:1.0 355:1.0 361:1.0 462:1.0 683:1.0 
-0.0 0.1457558383268855 106:1.0 176:1.0 406:1.0 471:1.0 682:1.0 
-1.0 0.0 421:0.8043941924762441 
-0.018371496015991265 1.0 172:1.0 318:1.0 361:1.0 420:1.0 
-0.0 1.0 69:1.0 323:1.0 676:1.0 
-0.17910839916314983 1.0 209:1.0 245:1.0 333:1.0 416:1.0 621:1.0 
-1.0 0.0 2:1.0 3:1.0 274:1.0 675:1.0 681:1.0 
-0.747371365467967 0.5527797515379065 359:1.0 451:1.0 
-0.0 1.0 375:1.0 376:1.0 
-1.0 1.0 36:1.0 52:1.0 458:1.0 472:1.0 
-1.0 1.0 72:1.0 375:1.0 376:1.0 
-0.9559958160642873 1.0 320:1.0 
-1.0 1.0 
-0.0 0.0010629508005349946 8:1.0 349:1.0 350:1.0 351:1.0 683:1.0 
-1.0 1.0 469:1.0 
-1.0 1.0 2:1.0 3:1.0 69:1.0 675:1.0 676:1.0 681:1.0 
-0.4008408530203776 0.5161607908137896 178:1.0 352:1.0 399:1.0 430:1.0 431:1.0 
-0.18587154809396686 0.0 140:1.0 359:1.0 475:1.0 660:1.0 
-1.0 0.16444965342351997 126:0.9371404678346288 476:1.0 
-0.0 0.3357228180305011 227:1.0 325:1.0 473:1.0 
-1.0 1.0 333:1.0 
-0.39284306787665124 0.0 72:1.0 366:1.0 390:1.0 
-0.0 0.5900992021432363 287:1.0 357:1.0 375:1.0 376:1.0 456:1.0 
-0.8802567349297855 1.0 360:1.0 
-1.0 0.0 274:1.0 
-1.0 1.0 2:1.0 3:1.0 62:1.0 299:1.0 675:1.0 681:1.0 
-1.0 1.0 56:1.0 
-1.0 0.8876811194274581 30:1.0 427:1.0 
-1.0 1.0 
-1.0 1.0 475:1.0 
-1.0 0.9874939105043218 1:1.0 56:1.0 69:1.0 203:1.0 432:1.0 676:1.0 
-1.0 1.0 
-1.0 1.0 
-0.8060592264680401 0.0 35:1.0 272:1.0 276:1.0 328:1.0 679:1.0 
-0.1397253340398764 0.2676117187784796 322:1.0 606:1.0 678:1.0 
-1.0 0.9391861321426839 63:1.0 208:1.0 
-1.0 1.0 52:1.0 143:1.0 199:1.0 545:1.0 
-1.0 0.5432896070899875 72:1.0 480:1.0 
-1.0 1.0 282:1.0 
-0.7570640056060309 0.014445664171514709 366:1.0 
-0.7156960713587814 0.0 285:1.0 322:1.0 678:1.0 
-1.0 1.0 23:1.0 
-0.0 1.0 69:1.0 343:1.0 676:1.0 
-1.0 0.0 343:1.0 
-1.0 0.0 343:0.8174165004447607 
-1.0 1.0 
-0.10417136103919629 0.05720475585761782 124:1.0 132:1.0 274:1.0 481:1.0 677:1.0 
-0.44289433181700755 0.6667104371461049 52:1.0 115:1.0 165:1.0 324:1.0 482:1.0 483:1.0 
-0.5560947342902011 0.0 54:1.0 282:1.0 
-1.0 1.0 
-1.0 1.0 
-1.0 1.0 8:1.0 683:1.0 
-1.0 1.0 335:1.0 
-0.7696021460718794 0.0 23:1.0 71:1.0 421:1.0 
-0.053380284330730776 0.8490892714186128 64:1.0 329:1.0 345:1.0 485:1.0 
-1.0 1.0 486:1.0 
-0.0 0.23866368081817962 170:1.0 176:1.0 333:1.0 487:1.0 682:1.0 
-0.0 0.12598001414155344 52:1.0 215:1.0 324:1.0 454:1.0 455:1.0 482:1.0 
-0.9650532014299694 0.0 300:1.0 489:1.0 490:1.0 
-1.0 0.05261815812841876 157:1.0 436:1.0 
-1.0 0.0 42:1.0 
-1.0 0.0 194:1.0 302:1.0 474:1.0 
-1.0 0.5526407713621886 41:1.0 428:1.0 
-0.038293123543215096 1.0 180:1.0 322:1.0 678:1.0 
-1.0 1.0 9:1.0 
-0.1190202657271863 0.08316673688814386 354:1.0 357:1.0 
-0.10356289553577351 0.11339145797828672 158:1.0 223:1.0 324:1.0 479:1.0 492:1.0 
-0.18763247845637843 0.0 347:1.0 361:1.0 664:1.0 
-1.0 1.0 
-1.0 1.0 423:1.0 
-1.0 1.0 493:1.0 
-0.12352780281508664 0.4842376519135528 23:1.0 364:1.0 382:1.0 402:1.0 
-0.0 0.6454526894141849 176:1.0 354:1.0 364:1.0 420:1.0 487:1.0 494:1.0 682:1.0 
-1.0 1.0 342:0.860607976658379 
-0.9336840432613517 0.4263908431738526 162:1.0 301:1.0 348:1.0 654:1.0 
-1.0 1.0 100:1.0 
-0.0 0.8734131972315464 69:1.0 328:1.0 676:1.0 679:1.0 
-1.0 1.0 
-1.0 0.0 2:1.0 3:1.0 94:1.0 165:1.0 467:1.0 675:1.0 681:1.0 
-0.0 0.09213567456049464 124:1.0 323:1.0 677:1.0 
-0.08607991220763807 0.07558571596503809 341:1.0 496:1.0 497:1.0 
-1.0 1.0 162:1.0 
-0.7457851772172558 0.9417567280292923 366:1.0 
-0.95500643136588 0.0 8:1.0 63:1.0 318:1.0 683:1.0 
-1.0 0.46671461335116216 61:1.0 194:1.0 498:1.0 
-0.6074663196209454 0.0 2:1.0 3:1.0 8:1.0 442:1.0 443:1.0 675:1.0 681:1.0 683:1.0 
-1.0 1.0 392:1.0 522:1.0 
-0.0 0.021817409469800732 2:1.0 3:1.0 330:1.0 349:1.0 442:1.0 461:1.0 675:1.0 681:1.0 
-1.0 0.2946294443600676 394:1.0 430:1.0 
-0.0435540295455118 0.0 287:1.0 395:1.0 396:1.0 397:1.0 
-0.0 0.556166307312101 322:1.0 354:1.0 364:1.0 414:1.0 435:1.0 568:1.0 678:1.0 
-1.0 0.02523996451155463 325:0.9351947544503547 
-0.12660343782524752 0.8221027678404562 325:1.0 415:1.0 
-1.0 1.0 
-1.0 0.29889154372425253 2:1.0 3:1.0 273:1.0 675:1.0 681:1.0 
-1.0 1.0 335:1.0 
-0.26452874957030903 1.0 319:1.0 347:1.0 434:1.0 
-1.0 1.0 356:1.0 
-0.33992579944612933 1.0 124:1.0 140:1.0 165:1.0 500:1.0 677:1.0 
-0.8998095751165026 0.0 323:1.0 
-1.0 0.0 2:1.0 3:1.0 8:1.0 100:1.0 342:1.0 675:1.0 681:1.0 683:1.0 
-0.6455050821942936 0.0 41:1.0 124:1.0 140:1.0 165:1.0 500:1.0 677:1.0 
-1.0 1.0 
-0.2812555382580321 0.658799753382443 244:1.0 418:1.0 419:1.0 420:1.0 421:1.0 
-0.17226192348191452 0.2948168405476882 341:1.0 409:1.0 
-1.0 1.0 580:1.0 
-0.2281326948032137 0.38362664994791373 326:1.0 349:1.0 410:1.0 
-0.6476717094749488 0.4318525810850259 226:1.0 410:1.0 471:1.0 501:1.0 
-1.0 0.532214469092774 22:1.0 42:0.9334570779241737 
-1.0 1.0 69:1.0 209:1.0 676:1.0 
-0.4556981185996357 0.10337625459560597 9:1.0 63:1.0 270:1.0 485:1.0 
-1.0 0.40981810888831305 2:1.0 3:1.0 287:1.0 675:1.0 681:1.0 
-0.895598841556535 1.0 380:1.0 
-1.0 1.0 368:1.0 
-0.8623668419772195 0.8733126662731185 69:1.0 239:1.0 653:1.0 676:1.0 
-1.0 1.0 181:1.0 
-1.0 1.0 
-0.37745971666017697 0.0 91:0.9360193380593931 100:1.0 398:1.0 
-0.0 0.5526029389283231 489:1.0 490:1.0 
-0.9768707913127204 1.0 64:1.0 436:1.0 
-0.05501718619673816 0.1004838743544271 386:1.0 387:1.0 388:1.0 504:1.0 505:1.0 
-1.0 1.0 
-1.0 1.0 
-0.34539763933468504 0.0 177:1.0 328:1.0 433:1.0 507:0.8205806496326152 679:1.0 
-1.0 0.0 2:1.0 3:1.0 675:1.0 681:1.0 
-0.9478774373442991 0.22636759697529346 243:1.0 592:1.0 
-0.8150428597636756 1.0 335:1.0 
-1.0 0.5900105521987351 50:1.0 508:1.0 
-0.0 0.9694686471741768 9:1.0 42:1.0 333:1.0 
-1.0 1.0 91:1.0 
-1.0 0.0 324:1.0 
-1.0 0.0 33:1.0 100:1.0 
-0.0 0.908993913127661 69:1.0 322:1.0 358:1.0 676:1.0 678:1.0 
-1.0 1.0 
-1.0 1.0 
-1.0 1.0 
-1.0 1.0 69:1.0 499:1.0 676:1.0 
-1.0 1.0 33:1.0 
-0.9023386783758459 0.0 176:1.0 682:1.0 
-1.0 1.0 
-0.5297630874963116 0.0 2:1.0 3:1.0 91:1.0 100:1.0 241:1.0 266:1.0 477:1.0 675:1.0 681:1.0 
-0.8955268403446192 0.9577125367453442 339:1.0 
-1.0 1.0 329:1.0 
-0.7331772650501043 1.0 421:0.8043941924762441 533:1.0 
-0.8470090705149466 0.4050082154789576 215:1.0 229:1.0 385:1.0 
-1.0 1.0 
-0.9466101542573127 0.815997113346667 438:1.0 439:1.0 
-0.5612326320235088 0.5 8:1.0 349:1.0 350:1.0 351:1.0 683:1.0 
-1.0 0.0 2:1.0 3:1.0 675:1.0 681:1.0 
-1.0 1.0 333:1.0 
-1.0 1.0 339:1.0 
-1.0 0.14072857037865782 395:1.0 397:1.0 
-0.25971450795250955 0.0 2:1.0 3:1.0 92:0.9203899810884694 115:1.0 341:1.0 383:1.0 435:1.0 675:1.0 681:1.0 
-1.0 1.0 
-1.0 1.0 243:1.0 
-0.7992482722234037 0.0 2:1.0 3:1.0 8:1.0 498:1.0 675:1.0 681:1.0 683:1.0 
-1.0 0.0 2:1.0 3:1.0 675:1.0 681:1.0 
-0.9778105589912144 1.0 124:1.0 417:1.0 677:1.0 
-1.0 0.0 164:1.0 204:1.0 311:1.0 674:1.0 
-1.0 0.40432332271092625 25:1.0 341:1.0 
-0.18183901693577106 0.0 8:1.0 162:1.0 180:1.0 324:1.0 370:1.0 683:1.0 
-1.0 1.0 495:1.0 
-1.0 1.0 36:1.0 354:1.0 645:1.0 
-1.0 0.0 2:1.0 3:1.0 289:1.0 675:1.0 681:1.0 
-1.0 1.0 25:1.0 293:1.0 
-1.0 0.0 176:1.0 682:1.0 
-1.0 0.9367618844926349 54:1.0 423:1.0 
-1.0 1.0 578:1.0 
-1.0 1.0 411:1.0 
-0.042277052236637906 0.0 42:1.0 273:1.0 486:1.0 510:1.0 
-0.05137805848872579 0.0 87:1.0 322:1.0 337:1.0 678:1.0 
-1.0 0.5649553832353127 2:1.0 3:1.0 675:1.0 681:1.0 
-1.0 1.0 69:1.0 367:1.0 676:1.0 
-1.0 1.0 
-0.34997823322066784 0.3073548606104846 2:1.0 3:1.0 69:1.0 332:1.0 361:1.0 675:1.0 676:1.0 681:1.0 
-0.6060356977585039 0.0 205:0.9236015431248279 233:1.0 453:1.0 
-0.9477206475616455 1.0 120:1.0 575:1.0 
-1.0 -1.0 
-0.0 -0.5981339120613579 56:1.0 336:1.0 512:1.0 513:1.0 
-1.0 -1.0 
-1.0 -1.0 338:1.0 
-1.0 -0.6416706618061141 520:1.0 
-0.39312765055130283 -0.678966327650405 319:1.0 521:1.0 522:1.0 523:1.0 
-0.9784466906012044 -0.0 524:1.0 
-0.0 -0.01705404416583963 51:1.0 65:1.0 69:1.0 282:1.0 518:1.0 528:1.0 676:1.0 
-1.0 -1.0 69:1.0 676:1.0 
-0.09368485042321091 -0.0 514:1.0 680:1.0 
-1.0 -1.0 28:1.0 100:1.0 171:1.0 199:0.9334570779241737 
-0.27737073799251327 -0.0 62:1.0 180:1.0 312:1.0 531:1.0 532:1.0 
-1.0 -1.0 533:1.0 
-0.0 -0.12331285727657383 158:1.0 162:1.0 536:1.0 537:1.0 
-0.0 -0.0011243044743436115 69:1.0 124:1.0 164:1.0 676:1.0 677:1.0 
-0.34459319684640866 -0.29723725129955314 414:1.0 538:1.0 
-0.03642691069681122 -0.0 198:1.0 548:1.0 
-1.0 -1.0 25:1.0 549:1.0 
-0.0 -0.11810236333040086 333:1.0 443:1.0 526:1.0 550:1.0 
-0.0 -1.0 124:1.0 333:1.0 677:1.0 
-1.0 -1.0 
-0.0 -0.507979087084977 2:1.0 3:1.0 106:1.0 208:1.0 434:1.0 553:1.0 554:1.0 675:1.0 681:1.0 
-1.0 -1.0 246:1.0 
-0.7907716153795346 -0.4964766003791567 64:1.0 555:1.0 
-1.0 -1.0 52:1.0 165:1.0 
-0.3391097191451422 -0.0 273:1.0 338:1.0 556:1.0 
-1.0 -0.8948176274761203 557:1.0 
-1.0 -1.0 171:1.0 
-1.0 -1.0 
-1.0 -1.0 
-0.0 -0.8774479123334574 36:1.0 335:1.0 548:1.0 
-1.0 -1.0 69:1.0 676:1.0 
-1.0 -0.8946894010434995 563:1.0 
-1.0 -1.0 106:1.0 368:1.0 
-1.0 -1.0 568:1.0 
-0.007624285252353324 -0.0 518:1.0 
-1.0 -1.0 
-0.0 -1.0 2:1.0 3:1.0 106:1.0 273:1.0 335:1.0 338:1.0 675:1.0 681:1.0 
-1.0 -1.0 
-4.6275856787131395E-5 -0.5265657438338844 69:1.0 439:1.0 492:1.0 676:1.0 
-0.49477013192677444 -0.060391323961606326 572:1.0 573:1.0 
-0.8828955625454729 -0.7478191837974086 227:1.0 574:1.0 
-0.6577658896476297 -0.5041205712017005 2:1.0 3:1.0 194:0.939138854698809 332:1.0 519:1.0 567:1.0 675:1.0 681:1.0 
-1.0 -0.97774840700135 576:1.0 
-0.02536600580654071 -0.007810303263972634 8:1.0 481:1.0 537:1.0 550:1.0 683:1.0 
-0.5051088594612394 -0.0 124:1.0 577:1.0 677:1.0 
-1.0 -0.9652556082484273 397:1.0 582:1.0 
-1.0 -0.6050974550485392 554:0.8669140278631812 
-0.4180649127525308 -0.0 525:1.0 
-0.33777989732361485 -0.11555489782855721 66:1.0 69:1.0 676:1.0 
-0.6752592889149296 -0.042494371670145345 8:1.0 72:1.0 138:1.0 162:1.0 552:1.0 683:1.0 
-0.22531041093973586 -0.25315834205980225 162:1.0 520:1.0 531:1.0 
-0.876440929332587 -0.44722424024195695 585:1.0 586:1.0 
-1.0 -5.92117673671011E-4 587:1.0 
-1.0 -0.2684423935496607 521:1.0 522:1.0 
-0.7530845942900406 -0.0 549:1.0 
-1.0 -0.0 218:1.0 
-0.8860067208932675 -0.0 554:1.0 
-1.0 -1.0 226:1.0 
-1.0 -0.0 64:1.0 589:1.0 
-1.0 -0.8948419620878152 590:1.0 
-1.0 -1.0 69:1.0 676:1.0 
-0.5795501234392649 -4.0191985256119117E-4 539:1.0 
-0.9983785824575114 -0.0 511:1.0 
-0.558035848774956 -0.0 516:1.0 
-0.0 -0.3914215216797005 429:1.0 435:1.0 552:1.0 
-1.0 -1.0 379:1.0 
-0.7925559385298783 -0.2987106885738278 87:1.0 538:1.0 564:1.0 
-1.0 -0.0 535:1.0 
-0.12095362491194292 -0.06636357966895527 2:1.0 3:1.0 106:1.0 180:1.0 596:1.0 597:1.0 675:1.0 681:1.0 
-1.0 -1.0 
-1.0 -0.8949466989756854 598:1.0 
-1.0 -1.0 69:1.0 287:1.0 676:1.0 
-0.9944670294371452 -0.8833585999781097 54:1.0 537:1.0 
-0.0 -0.12400863055766774 72:1.0 514:1.0 680:1.0 
-0.6411844998669277 -0.15156869585084132 226:1.0 600:1.0 601:1.0 
-1.0 -0.48568870042251094 602:1.0 
-1.0 -1.0 209:1.0 603:1.0 
-0.316999323171389 -0.0 65:1.0 240:1.0 434:1.0 604:1.0 605:1.0 
-0.5056167503938461 -0.0 52:1.0 245:1.0 519:1.0 580:1.0 581:1.0 
-0.0 -1.0 375:1.0 376:1.0 
-0.8763729341237313 -1.0 322:1.0 678:1.0 
-1.0 -1.0 
-1.0 -1.0 
-0.5841511547767986 -0.18548399310291808 143:1.0 534:1.0 
-0.6881905608879135 -1.0 320:1.0 482:1.0 610:1.0 
-0.0 -1.0 69:1.0 282:1.0 367:1.0 411:1.0 676:1.0 
-0.0021665250613104314 -0.0 138:1.0 539:1.0 611:1.0 
-1.0 -1.0 69:1.0 676:1.0 
-1.0 -1.0 354:1.0 
-0.0 -0.8267948589437424 364:1.0 516:1.0 
-0.08235726531245184 -0.0 36:1.0 583:1.0 612:1.0 
-1.0 -0.7745874569034163 539:1.0 
-0.527560771175654 -0.0 524:1.0 
-0.9937861171220865 -0.0 614:1.0 
-0.8499792853696048 -1.0 72:1.0 282:1.0 444:1.0 588:1.0 
-0.6073238747960035 -0.26626365745670727 361:1.0 369:1.0 604:1.0 615:1.0 616:1.0 
-1.0 -1.0 8:1.0 431:1.0 683:1.0 
-1.0 -0.795396351482807 22:1.0 131:1.0 270:1.0 
-1.0 -0.4380417174962772 618:1.0 
-1.0 -1.0 69:1.0 676:1.0 
-1.0 -0.28936521559550593 36:1.0 608:1.0 619:1.0 
-1.0 -1.0 
-0.0 -0.9637543775843614 124:1.0 283:1.0 525:1.0 677:1.0 
-0.9106907461987361 -0.0 8:1.0 306:1.0 519:1.0 683:1.0 
-0.9793469242413078 -0.0 106:1.0 177:1.0 
-0.16830375328970917 -0.21420185426140606 124:1.0 551:1.0 565:1.0 566:1.0 677:1.0 
-0.21089092017208888 -0.9476945130357378 8:1.0 172:1.0 420:1.0 621:1.0 683:1.0 
-0.11294579818008456 -0.11985595661105033 54:1.0 539:1.0 544:1.0 
-0.7744145798203602 -0.379331270804611 369:1.0 
-1.0 -1.0 
-1.0 -1.0 
-1.0 -1.0 244:1.0 
-1.0 -1.0 165:1.0 
-0.0 -0.8110716465526275 124:1.0 376:1.0 677:1.0 
-0.8336690060780484 -0.447224917089226 625:1.0 626:1.0 
-0.371273434927756 -1.0 369:1.0 
-1.0 -1.0 69:1.0 676:1.0 
-0.0 -0.10564726626565428 368:1.0 369:1.0 
-0.0 -0.28248734035378603 11:1.0 352:1.0 420:1.0 515:1.0 628:1.0 
-1.0 -1.0 
-1.0 -0.6273693358741215 161:1.0 286:1.0 432:1.0 
-1.0 -1.0 181:1.0 406:1.0 
-0.7636023130710659 -0.9602531283371987 392:0.930303918798954 573:1.0 629:1.0 
-0.03022225174807041 -0.0 138:1.0 514:1.0 630:1.0 631:1.0 680:1.0 
-1.0 -1.0 56:1.0 632:0.8205806496326152 
-0.25091178324910185 -0.8511363695321519 366:1.0 633:1.0 634:1.0 
-0.2290909604043311 -0.22564150066436445 589:1.0 
-1.0 -1.0 
-0.9994563837368419 -1.0 409:1.0 527:1.0 
-1.0 -1.0 
-0.8764719881533296 -0.44732225031738 541:1.0 594:1.0 
-1.0 -0.13889617837273205 140:1.0 198:1.0 512:1.0 
-0.45584009219350885 -1.0 162:1.0 240:1.0 359:1.0 636:1.0 
-0.2943473922947749 -0.0 601:1.0 637:1.0 
-1.0 -0.0 106:1.0 606:1.0 
-0.21984454294246994 -0.12974789081875515 492:1.0 608:1.0 638:1.0 
-0.18014292327533066 -0.40933414712631777 2:1.0 3:1.0 52:1.0 545:1.0 581:1.0 602:1.0 675:1.0 681:1.0 
-0.0 -0.12998586260857187 209:1.0 525:1.0 
-1.0 -1.0 
-1.0 -0.2258388275914469 31:1.0 568:1.0 592:1.0 
-0.913273366727287 -0.0 229:1.0 519:1.0 553:1.0 
-1.0 -0.5437526174751529 273:1.0 639:1.0 
-1.0 -1.0 
-1.0 -1.0 
-1.0 -0.8948187954141292 640:1.0 
-0.019119679724530908 -0.0 124:1.0 138:1.0 339:0.930303918798954 641:1.0 642:1.0 677:1.0 
-0.6692845834844511 -0.0 69:1.0 170:1.0 283:1.0 525:1.0 676:1.0 
-0.003006364422472001 -0.0 62:1.0 358:1.0 
-0.0 -0.6693758507272521 176:1.0 415:1.0 546:1.0 643:1.0 644:1.0 682:1.0 
-1.0 -1.0 
-1.0 -1.0 
-1.0 -1.0 2:1.0 3:1.0 180:1.0 411:1.0 596:1.0 675:1.0 681:1.0 
-0.7365458484957527 -1.0 209:1.0 354:1.0 645:1.0 
-1.0 -0.11467145595790025 173:1.0 244:1.0 
-1.0 -1.0 69:1.0 676:1.0 
-1.0 -0.13735935636064162 66:1.0 101:1.0 
-0.2645102806741817 -0.8525425451686408 124:1.0 138:1.0 339:1.0 642:1.0 677:1.0 
-1.0 -1.0 
-0.48653278955870877 -0.8118259357493182 266:1.0 576:1.0 
-0.0 -0.9775745691330002 1:1.0 2:1.0 3:1.0 458:1.0 524:1.0 675:1.0 681:1.0 
-1.0 -1.0 
-1.0 -0.0 87:1.0 204:1.0 546:1.0 613:1.0 
-1.0 -1.0 69:1.0 676:1.0 
-0.007615717434947573 -0.0 62:1.0 246:1.0 578:1.0 
-0.8502204458736079 -1.0 120:1.0 329:1.0 434:1.0 
-0.035299297030229645 -0.031274472002967395 65:1.0 69:1.0 353:1.0 354:1.0 676:1.0 
-1.0 -0.0 197:1.0 518:1.0 
-1.0 -1.0 124:1.0 367:1.0 677:1.0 
-0.05809765933685229 -0.0 138:1.0 539:1.0 611:1.0 
-0.0 -0.054292623667266185 333:1.0 651:1.0 652:1.0 
-1.0 -0.4474316250298659 175:1.0 484:1.0 
-1.0 -1.0 52:1.0 545:1.0 
-0.04316569317946006 -0.0 198:1.0 548:1.0 
-0.7591058288940368 -0.8949768303386187 614:1.0 
-0.2866274420556011 -0.0 62:1.0 371:1.0 
-0.27134096914242667 -0.872349736612001 345:1.0 414:1.0 494:1.0 578:1.0 591:1.0 
-0.03721495559444277 -1.0 333:1.0 
-0.9759631986457536 -0.6964884344627329 124:1.0 377:1.0 400:1.0 677:1.0 
-1.0 -1.0 
-0.9106041214185313 -0.35055173841505893 311:1.0 513:1.0 639:1.0 656:1.0 674:1.0 
-0.7527559825612551 -1.0 613:1.0 
-1.0 -0.8034030678257306 420:1.0 
-0.5557963117721317 -0.8715941834241444 600:1.0 657:1.0 
-0.6084720532560136 -0.48723971474835304 69:1.0 352:1.0 676:1.0 
-1.0 -1.0 570:1.0 
-0.0 -0.2581452630853372 69:1.0 100:1.0 140:1.0 361:1.0 519:1.0 530:1.0 575:1.0 623:1.0 676:1.0 
-0.0 -1.0 329:0.8639411233863877 375:1.0 376:1.0 
-0.18000609677866197 -0.5737906946512856 319:1.0 533:1.0 
-0.5237705189258713 -0.6690242300306463 589:1.0 658:1.0 
-0.5530789013221813 -0.2535479613416596 25:1.0 64:1.0 400:1.0 628:1.0 651:1.0 659:1.0 
-0.0 -1.0 322:1.0 358:1.0 535:1.0 556:1.0 678:1.0 
-0.15718972303475326 -0.26909590980201653 8:1.0 11:1.0 71:1.0 273:1.0 415:1.0 470:1.0 660:1.0 683:1.0 
-0.24661396886179476 -0.1056700007200844 187:1.0 516:1.0 661:1.0 
-0.6656856005947147 -0.0 525:1.0 
-1.0 -0.8949921259714333 662:1.0 
-0.3339096897922911 -1.0 333:1.0 
-0.23521639081728693 -0.0 603:1.0 606:1.0 
-1.0 -1.0 69:1.0 676:1.0 
-0.8780100634260708 -1.0 64:1.0 375:1.0 376:1.0 
-0.9074191866339486 -0.6745195684390091 36:1.0 170:1.0 382:1.0 663:1.0 
-0.0 -0.6697807350390435 30:1.0 52:1.0 165:1.0 245:1.0 364:1.0 412:1.0 519:1.0 
-0.32025789522694775 -0.6976605171200093 180:1.0 214:1.0 338:1.0 380:1.0 597:1.0 
-0.8353742216762924 -0.30257838125598485 612:1.0 619:1.0 
-0.0 -0.6045967599273632 64:1.0 273:1.0 361:1.0 514:1.0 680:1.0 
-0.876348029410208 -0.4046029380646025 450:1.0 609:1.0 
-1.0 -1.0 
-1.0 -1.0 176:1.0 682:1.0 
-1.0 -0.8126798614116845 542:1.0 
-0.7536240780168131 -0.0 527:1.0 
-1.0 -1.0 8:1.0 408:1.0 683:1.0 
-0.9586317340851569 -0.8183171369530651 112:1.0 575:1.0 
-0.7119010976225657 -0.0 11:1.0 214:1.0 537:1.0 
-0.40277769250520595 -0.4569327502967544 162:1.0 301:1.0 316:1.0 618:1.0 654:1.0 
-1.0 -1.0 
-0.5502515079771629 -0.0 164:1.0 166:1.0 535:1.0 
-0.0 -0.06804995259296458 69:1.0 319:1.0 638:1.0 676:1.0 
-1.0 -0.8946013083232307 666:1.0 
-0.0 -0.051022573142068206 36:1.0 525:1.0 597:1.0 667:1.0 
-0.7454870404260607 -0.5049308214289194 101:1.0 124:1.0 677:1.0 
-0.0013552167348979565 -0.0 170:1.0 226:1.0 309:1.0 352:1.0 518:1.0 561:1.0 668:1.0 
-0.0 -0.5058311685413367 62:1.0 124:1.0 367:1.0 677:1.0 
-0.5466042886347284 -0.09856436227058629 338:1.0 558:1.0 
-1.0 -0.29716119418179127 162:1.0 634:1.0 
-1.0 -1.0 8:1.0 683:1.0 
-0.9482735935005429 -0.0 516:1.0 
-1.0 -1.0 36:1.0 
-0.018478860161477317 -0.06785783536493256 63:1.0 259:1.0 273:1.0 519:1.0 
-1.0 -1.0 9:1.0 669:1.0 
-0.7297158732278191 -1.0 23:1.0 91:1.0 571:1.0 670:1.0 
-0.39072818939397436 -0.0 165:1.0 518:1.0 
-0.0 -9.772365561970288E-4 69:1.0 124:1.0 540:1.0 676:1.0 677:1.0 
-0.5475798754646937 -0.3793462591831953 64:1.0 67:1.0 382:1.0 624:1.0 
-0.0 -0.13778625443976347 354:1.0 518:1.0 529:0.9162210943935785 
-1.0 -0.8411901881990416 420:1.0 
-1.0 -1.0 124:1.0 677:1.0 
-1.0 -0.27450670551716083 165:1.0 415:1.0 483:1.0 
-1.0 -1.0 
-1.0 -0.8946517779834804 595:1.0 
-0.13405066079324307 -0.0 157:1.0 536:1.0 537:1.0 
-0.028338821594361227 -0.17278667573965018 518:1.0 
-0.07390277740849704 -0.0 204:1.0 546:1.0 552:1.0 650:1.0 
-0.25086489699383924 -0.08218338864804728 422:1.0 435:1.0 542:1.0 
-0.23286334262475347 -1.0 335:1.0 357:1.0 483:1.0 
-0.34340480223774567 -0.6004407411907605 9:1.0 466:1.0 518:0.9450634588554336 
-0.0 -0.8944974530201342 368:1.0 613:1.0 
-1.0 -0.8947003763700981 280:1.0 
-1.0 -1.0 
-0.9649402250343098 -0.16274561250913472 64:1.0 353:1.0 555:1.0 
-1.0 -0.9354231812767696 215:1.0 450:1.0 
-0.478580968859749 -0.0 605:1.0 643:1.0 644:1.0 
-1.0 -1.0 333:1.0 
-0.8319936000772274 -0.8459382524229838 463:0.9162210943935785 637:0.9203899810884694 
-1.0 -0.4682201470128683 140:1.0 198:1.0 660:1.0 
-0.0 -0.1433897948435643 369:1.0 627:1.0 661:1.0 
-1.0 -1.0 
-0.3901611844092465 -0.0 36:1.0 492:1.0 595:1.0 
-1.0 -0.8947506331568602 577:1.0 
-1.0 -1.0 
-0.7546326539406145 -0.894782772562317 511:1.0 
-1.0 -0.193392418265581 177:1.0 
-0.08035365395439327 -0.0 69:1.0 355:1.0 553:1.0 636:1.0 676:1.0 
-1.0 -1.0 333:1.0 
-1.0 -1.0 357:1.0 
-0.3814563610165401 -1.0 333:1.0 543:1.0 
-0.3708681348926359 -0.0 124:1.0 175:0.9236015431248279 198:1.0 672:1.0 677:1.0 
-1.0 -0.5774871712118126 36:1.0 552:1.0 
-0.2471084327367959 -0.9512855458226528 423:1.0 524:1.0 580:1.0 
-1.0 -0.0 62:1.0 
-1.0 -1.0 69:1.0 676:1.0 
-0.1271337076630213 -0.0 407:1.0 590:1.0 659:1.0 664:1.0 
-0.6286695706143965 -1.0 293:1.0 324:1.0 349:1.0 606:1.0 
-0.32998317181015907 -0.07488957984174822 50:1.0 181:1.0 548:1.0 
-0.6448421328983645 -0.0 548:1.0 
-1.0 -0.8948067174949815 583:1.0 
-0.6983899208624006 -0.3010066408087436 9:1.0 63:1.0 172:1.0 181:1.0 458:1.0 548:1.0 
-0.752462872234605 -0.0 514:1.0 680:1.0 
-0.7328237310935203 -1.0 243:1.0 335:1.0 587:1.0 
-0.4952410044150461 -0.32456714192876013 199:1.0 244:1.0 345:1.0 420:1.0 635:1.0 
-1.0 -1.0 112:1.0 
-1.0 -0.31999026541813885 65:1.0 223:1.0 584:1.0 
-0.28362107763312944 -0.0 62:1.0 358:1.0 
-1.0 -0.0 138:1.0 554:1.0 
-1.0 -1.0 69:1.0 676:1.0 
-1.0 -0.8943574704745287 587:1.0 
-1.0 -1.0 462:1.0 
-1.0 -1.0 
-1.0 -1.0 69:1.0 165:1.0 676:1.0 
-0.28670396987945296 -1.0 62:1.0 416:1.0 
-1.0 -0.701428704770455 87:1.0 177:1.0 
-1.0 -1.0 364:1.0 
-0.08548548525438494 -0.0 33:1.0 53:1.0 106:1.0 227:1.0 625:1.0 637:1.0 
-0.752789601802509 -0.8951200305677456 379:1.0 
-1.0 -0.8947056153957165 218:1.0 
-0.3211527621913892 -0.6308894455148631 62:1.0 335:1.0 
-1.0 -0.7091211656442177 534:1.0 
-0.2509519909197573 -0.4663249888023861 364:1.0 547:1.0 665:1.0 
-1.0 -0.8147138091151728 69:1.0 72:1.0 142:1.0 143:1.0 676:1.0 
-1.0 -1.0 
-1.0 -0.0 24:1.0 62:1.0 300:1.0 
