svm_type c_svc
kernel_type linear
nr_class 3
total_sv 988
rho -0.9649777496301687 -0.8049084680980919 0.03495741645421849
label 0 1 2
nr_sv 380 308 300
SV
1.0 1.0 
1.0 1.0 
1.0 1.0 
0.007447129157209766 0.0 1:1.0 2:1.0 12:1.0 13:1.0 14:1.0 656:1.0 663:1.0 
1.0 1.0 
0.13744811038877697 0.0 8:1.0 15:1.0 16:1.0 17:1.0 
0.0 0.10224322689072475 1:1.0 3:1.0 18:1.0 19:1.0 20:1.0 21:1.0 22:1.0 656:1.0 
0.7165289982270323 0.0 1:1.0 2:1.0 475:1.0 656:1.0 663:1.0 
1.0 1.0 23:1.0 24:1.0 
1.0 1.0 
1.0 1.0 
1.0 1.0 
1.0 0.0 29:1.0 
0.18799795304429226 0.0 31:1.0 32:1.0 33:1.0 405:1.0 602:1.0 
0.0 0.1005395305884928 37:1.0 
0.08244939571900951 0.19486531282689273 41:1.0 
1.0 1.0 
0.5000872033356949 0.0 42:1.0 43:1.0 44:1.0 
0.11819350403081783 0.0 32:1.0 45:1.0 46:1.0 
1.0 1.0 
0.0 0.24140756703964392 48:1.0 49:1.0 
0.08246128463234201 0.0 51:1.0 52:1.0 
0.7348899115076333 0.36866491337144736 53:1.0 54:1.0 55:1.0 
0.3243805970053291 1.0 45:0.9461552315544749 60:1.0 61:1.0 62:1.0 63:1.0 389:1.0 
0.0 0.685494527591395 64:1.0 65:1.0 66:1.0 67:1.0 420:1.0 507:1.0 
0.5713495192983279 0.7065988606833268 64:1.0 68:1.0 69:1.0 70:1.0 657:1.0 
0.5383607357317205 0.0 35:1.0 71:1.0 72:1.0 73:1.0 411:1.0 
0.06871169343703663 0.0 1:1.0 2:1.0 40:1.0 74:1.0 75:1.0 656:1.0 663:1.0 
1.0 1.0 565:1.0 
1.0 1.0 
1.0 1.0 
1.0 0.0 1:1.0 2:1.0 656:1.0 663:1.0 
1.0 1.0 
1.0 1.0 
0.0 0.9998689000140988 85:1.0 86:1.0 546:1.0 
1.0 1.0 
0.20794515296233712 0.0 89:1.0 90:1.0 402:1.0 
1.0 1.0 
0.48044564881028307 0.19485252871597727 427:1.0 
1.0 1.0 
0.138847919739983 0.0 92:1.0 93:1.0 94:1.0 95:1.0 96:1.0 97:1.0 98:1.0 99:1.0 
1.0 1.0 
0.034850717517327226 1.0 100:1.0 
1.0 1.0 
1.0 0.11662095917190066 7:1.0 421:1.0 665:1.0 
0.23088964345070098 0.9067438264223598 105:1.0 106:1.0 107:1.0 
1.0 1.0 
1.0 1.0 
0.0 1.0 35:1.0 
0.0 0.09929569779664868 21:1.0 118:1.0 
1.0 1.0 68:1.0 657:1.0 
1.0 0.7895718142029721 99:1.0 119:0.9482746308249311 
0.1868479023690201 0.0 24:1.0 120:1.0 
1.0 0.0 1:1.0 2:1.0 656:1.0 663:1.0 
1.0 1.0 
0.0 0.19479224559253405 121:1.0 
0.23191506935017528 0.3108612876184582 8:1.0 26:1.0 94:1.0 117:1.0 122:1.0 123:1.0 658:1.0 
0.0 0.3119075954876508 21:1.0 124:0.9434101046229979 125:1.0 437:1.0 
0.9350263667323895 0.1636579840556418 32:1.0 112:1.0 
0.04843639095998896 0.0 1:1.0 2:1.0 8:1.0 56:1.0 138:1.0 656:1.0 663:1.0 
1.0 1.0 
1.0 0.06506452739807699 140:1.0 141:1.0 648:1.0 
0.20886360750389396 1.0 143:1.0 144:1.0 
1.0 1.0 
0.31535076775718646 0.014732881472364134 7:1.0 58:1.0 93:1.0 363:1.0 665:1.0 
0.0 0.1505944653314277 137:1.0 150:1.0 
0.308611729019204 0.7546509271437986 143:1.0 144:1.0 457:1.0 
0.24136869907328828 0.04375772896796264 24:1.0 35:1.0 71:0.9621335462205004 150:1.0 151:1.0 480:1.0 
0.0 0.2359911757708627 71:1.0 156:1.0 
0.39643253432948966 1.0 500:1.0 501:1.0 
1.0 1.0 
1.0 1.0 
1.0 0.19504723614981326 409:1.0 
0.03095931526513828 0.0 50:1.0 136:1.0 
0.03468361870475367 0.19485865410843345 157:1.0 
0.0618589769573588 0.1543089826547688 158:1.0 159:1.0 
0.03485483496283907 0.19508381445398498 164:1.0 
0.032184019746554125 0.2975193224183863 156:1.0 165:1.0 166:1.0 167:1.0 
0.0 0.09842820985500879 170:1.0 
0.6381882224429263 0.6070386356967606 40:1.0 171:1.0 172:1.0 
0.3745721594528835 1.0 27:1.0 
0.09204285727477657 0.37466208468227546 90:1.0 173:1.0 538:1.0 
0.017486758176495244 0.09737502772763253 83:1.0 115:1.0 
1.0 1.0 61:1.0 68:1.0 171:1.0 176:1.0 319:1.0 657:1.0 664:1.0 
0.24037044595161824 0.19479954586909196 177:1.0 
0.034838412106503125 0.1947903897972519 178:1.0 
0.5348864431995093 0.19515299179442974 43:1.0 
0.0 0.19503543718288133 42:1.0 
3.212824839371464E-4 1.0 179:1.0 
0.0 1.0 180:1.0 
1.0 1.0 
0.03507463739852956 0.19473138309642504 185:1.0 
1.0 0.9040426190665907 24:1.0 
1.0 1.0 
1.0 1.0 68:1.0 657:1.0 
1.0 0.0 1:1.0 2:1.0 656:1.0 663:1.0 
0.0 0.39508765215609204 186:1.0 
0.5811599507972596 0.09753828717775945 187:1.0 473:1.0 
0.0 0.1991319057174733 188:1.0 
0.048473289499597574 0.0 8:1.0 189:0.9395168905275947 190:1.0 
0.0 0.3148335989495803 132:1.0 191:1.0 192:1.0 193:1.0 585:1.0 
1.0 1.0 
1.0 0.0 1:1.0 2:1.0 656:1.0 663:1.0 
0.0 0.10736488908721038 194:1.0 
0.0 1.0 137:1.0 
1.0 1.0 
1.0 1.0 1:1.0 2:1.0 123:1.0 141:1.0 195:1.0 196:1.0 382:1.0 532:1.0 628:1.0 656:1.0 658:1.0 663:1.0 
0.2619678067821933 0.0 1:1.0 2:1.0 126:1.0 127:1.0 128:1.0 129:1.0 656:1.0 663:1.0 
1.0 0.0 1:1.0 2:1.0 656:1.0 663:1.0 
1.0 1.0 
0.03517907506092099 0.0 52:1.0 197:1.0 
0.45936794141765863 0.0 52:1.0 198:1.0 199:1.0 
1.0 1.0 
0.0 0.2665724891473224 29:1.0 33:1.0 71:1.0 
0.33802101540208507 0.0 200:1.0 201:1.0 
1.0 0.1948909259787451 202:1.0 
0.0 0.4321685214119125 203:1.0 204:1.0 
0.12064087033708616 0.0 32:1.0 205:1.0 206:1.0 
0.38230571198865604 0.3429733649704852 67:1.0 105:1.0 199:1.0 210:1.0 211:1.0 
1.0 0.6307711868749615 8:1.0 
1.0 1.0 
0.0 1.0 146:1.0 175:1.0 362:1.0 
1.0 0.8512140716461117 1:1.0 656:1.0 
0.03484351661226349 0.40572263234564215 642:1.0 
0.449596952504708 1.0 592:1.0 597:1.0 
0.594112336203911 0.0 1:1.0 18:1.0 99:1.0 142:0.952710991571208 656:1.0 
1.0 1.0 
0.0 0.549551587128594 21:1.0 212:1.0 213:1.0 
1.0 1.0 2:1.0 214:1.0 215:1.0 663:1.0 
1.0 1.0 
1.0 0.0 1:1.0 217:1.0 656:1.0 
0.36306472634264864 0.0 37:1.0 218:1.0 
0.06513457441248821 0.0035220598856454477 112:1.0 113:1.0 114:1.0 219:1.0 220:1.0 
0.0 0.7719967038539656 68:1.0 103:1.0 640:1.0 657:1.0 
0.46459656164329366 0.0 193:1.0 221:1.0 
1.0 1.0 163:1.0 
0.46341022445028907 1.0 63:1.0 123:1.0 166:1.0 222:1.0 223:1.0 332:1.0 619:1.0 658:1.0 
1.0 1.0 
0.0 0.059071402933091814 12:1.0 19:1.0 52:1.0 71:1.0 98:1.0 139:1.0 
0.648127470547088 0.0 66:1.0 207:1.0 227:1.0 
1.0 0.0 1:1.0 2:1.0 656:1.0 663:1.0 
1.0 0.19500425017013975 344:1.0 
0.0 0.17561745206991364 107:1.0 
1.0 0.6046735321405349 71:1.0 130:1.0 233:1.0 
0.61393729131922 0.5623097578180327 46:1.0 137:1.0 206:1.0 227:1.0 234:1.0 611:1.0 
1.0 0.0 1:1.0 2:1.0 656:1.0 663:1.0 
0.8270045701463681 1.0 105:1.0 126:1.0 223:1.0 
1.0 0.6861641187629348 50:1.0 
0.035025189396772106 0.0 212:1.0 
0.6177137105552477 0.9044414513731037 30:1.0 68:1.0 90:1.0 180:1.0 657:1.0 
1.0 1.0 
1.0 1.0 235:1.0 
0.0 1.0 7:1.0 665:1.0 
1.0 1.0 
0.5153954999023861 0.42750307197041043 125:1.0 237:1.0 472:1.0 
0.05764872082850062 0.0 49:1.0 50:1.0 55:1.0 151:1.0 238:1.0 
0.04291219765183053 0.997856938793753 175:0.902908822977075 
1.0 1.0 
0.0 0.6640482287163942 166:1.0 239:1.0 
1.0 0.0 1:1.0 2:1.0 656:1.0 663:1.0 
1.0 1.0 
1.0 1.0 
1.0 1.0 140:1.0 
1.0 0.0 90:1.0 241:0.9482746308249311 242:1.0 243:1.0 
1.0 1.0 68:1.0 657:1.0 
1.0 0.0 1:1.0 2:1.0 656:1.0 663:1.0 
1.0 1.0 68:1.0 657:1.0 
0.0 0.36562119838098367 162:1.0 240:1.0 245:1.0 246:1.0 247:1.0 
0.0 0.025787198016205472 248:1.0 
0.0076266908971418 0.0 1:1.0 2:1.0 12:1.0 14:1.0 249:1.0 656:1.0 663:1.0 
1.0 1.0 
0.017513581149407542 0.09743908816190289 81:1.0 82:1.0 
0.3210508689336011 1.0 68:1.0 239:1.0 657:1.0 
0.0 0.04663906050414104 45:1.0 252:1.0 253:1.0 
0.4157060218965038 1.0 243:1.0 
0.08551750887078319 1.0 35:1.0 
0.32129192708379495 1.0 68:1.0 254:1.0 657:1.0 
1.532741866456799E-4 0.0 177:1.0 255:1.0 256:1.0 
1.0 1.0 
0.0 0.36606441434645526 38:1.0 39:1.0 246:1.0 247:1.0 
0.0 0.07263738406294735 3:1.0 47:1.0 200:1.0 221:1.0 595:1.0 
0.6066063632169331 0.6702861818272909 65:0.9500000472500026 99:0.9602778969125972 224:0.9461552315544749 
0.1941312491981277 0.47386409913148064 31:1.0 68:1.0 163:1.0 510:1.0 657:1.0 
1.0 1.0 
1.0 1.0 
1.0 1.0 
0.11472369804226744 0.0 15:1.0 16:1.0 40:1.0 184:1.0 257:1.0 361:1.0 
1.0 1.0 
0.003200769571196855 0.0 1:1.0 2:1.0 10:1.0 12:1.0 228:1.0 229:1.0 230:1.0 231:1.0 232:1.0 656:1.0 663:1.0 
0.005622904024754638 0.0 1:1.0 2:1.0 41:1.0 169:1.0 656:1.0 663:1.0 
1.0 0.29134181877754317 35:1.0 413:1.0 
0.3600695482405279 0.18391415721111906 242:1.0 260:1.0 644:1.0 
0.14310102409465034 0.0 70:1.0 177:1.0 261:1.0 262:1.0 
1.0 1.0 68:1.0 217:1.0 263:1.0 657:1.0 
1.0 1.0 
0.5972617312311477 1.0 64:1.0 
0.07735857539578765 0.0 99:1.0 167:1.0 265:1.0 
0.17291454386408825 0.5515438677993189 68:1.0 133:1.0 134:1.0 657:1.0 
0.3563548044927406 0.0 193:1.0 
0.0349720151303448 0.19480170695471796 269:1.0 
0.07321750753155867 0.0 48:1.0 156:1.0 218:1.0 270:1.0 
0.47849545104455893 1.0 209:1.0 334:1.0 
0.0 0.7101493631315027 272:1.0 440:1.0 
0.0 0.34925969729088546 35:1.0 89:1.0 171:1.0 172:1.0 273:0.9395168905275947 
1.0 0.0 1:1.0 2:1.0 656:1.0 663:1.0 
1.0 1.0 
0.19372085224396518 0.0 103:1.0 121:1.0 240:1.0 400:1.0 
1.0 1.0 
0.6892220199460183 0.6261178988344648 7:1.0 30:1.0 50:1.0 523:1.0 665:1.0 
0.5426415438470301 2.78402812358643E-4 15:1.0 16:1.0 37:1.0 
0.9728506088627673 0.04095305535857968 158:1.0 
1.0 0.7928646154050182 163:1.0 383:1.0 
4.5599991471789383E-4 0.0 1:1.0 2:1.0 9:1.0 10:1.0 11:1.0 656:1.0 663:1.0 
0.3433080561288974 1.0 32:1.0 51:1.0 64:1.0 408:1.0 509:1.0 
1.0 1.0 
0.7166542794477219 0.0 1:1.0 2:1.0 274:1.0 656:1.0 663:1.0 
0.0 2.2549809951874316E-4 177:1.0 255:1.0 
0.011783755009882019 0.006894759836857496 267:1.0 268:1.0 276:1.0 
0.0 0.19490190847958347 277:1.0 
1.0 0.0 1:1.0 2:1.0 656:1.0 663:1.0 
0.0 0.9571245305623521 86:1.0 199:1.0 524:1.0 
1.0 1.0 
0.0 0.003421819362470546 193:1.0 262:1.0 
0.29002656958565853 0.039436972039609865 163:1.0 281:1.0 
0.0016783226787112082 0.9852123207370156 86:1.0 
0.5209579702850656 0.6316454824570353 10:1.0 54:1.0 216:1.0 
1.0 1.0 
1.0 1.0649215268249249E-4 193:1.0 282:1.0 328:1.0 661:1.0 
0.03486563528122301 0.9959320599542142 188:1.0 
1.0 1.0 
1.0 0.0 1:1.0 2:1.0 656:1.0 663:1.0 
0.0 0.39594136654547324 50:1.0 200:1.0 201:1.0 579:1.0 
0.0349998353101758 1.0 213:1.0 
0.7206612727177475 0.0 32:1.0 
1.0 1.0 
1.0 1.0 68:1.0 657:1.0 
0.03415069137674143 2.822817431172062E-4 1:1.0 285:1.0 656:1.0 
0.0 0.098357578226142 17:1.0 
0.09651217763663786 0.0 1:1.0 2:1.0 15:1.0 16:1.0 28:1.0 113:1.0 656:1.0 663:1.0 
0.011758121737503319 0.06499249832004818 108:1.0 109:1.0 110:1.0 
1.0 1.0 
1.0 1.0 68:1.0 657:1.0 
1.0 1.0 
0.0 0.19502100013707516 270:1.0 
2.009242969807922E-4 0.0 68:1.0 149:1.0 288:1.0 657:1.0 
0.0 0.0976490703247241 77:1.0 289:1.0 
1.0 1.0 276:1.0 
0.03482825179303648 0.7997792618792495 186:1.0 
0.2001023438055408 0.0 36:1.0 106:1.0 180:1.0 191:1.0 221:1.0 290:1.0 
0.16031259449087373 0.5515020774258621 68:1.0 149:1.0 288:1.0 657:1.0 
0.20481518444294441 0.19549134685081107 166:1.0 251:1.0 
0.009325933133673974 0.0 1:1.0 2:1.0 111:1.0 181:0.9461552315544749 182:1.0 291:1.0 656:1.0 663:1.0 
9.411920209965915E-4 0.0 132:1.0 
1.0 0.14701651565259616 68:1.0 71:1.0 116:1.0 126:1.0 338:1.0 657:1.0 
0.0 0.5333038092057567 71:1.0 72:1.0 
1.0 0.0 1:1.0 2:1.0 339:1.0 656:1.0 663:1.0 
8.711986892736653E-5 2.576757376486188E-4 1:1.0 2:1.0 84:1.0 111:1.0 286:1.0 292:1.0 293:1.0 294:1.0 295:1.0 656:1.0 663:1.0 
0.2857172676372822 0.0 1:1.0 2:1.0 7:1.0 10:1.0 656:1.0 663:1.0 665:1.0 
0.3342868545437026 0.6646140674041141 47:0.9500000472500026 131:1.0 
1.0 1.0 
1.0 1.0 
1.0 1.0 
1.0 0.8107197684404629 196:1.0 296:1.0 355:1.0 643:1.0 
0.0 1.0 112:1.0 113:1.0 
0.9978239077508061 0.0 34:1.0 244:1.0 318:1.0 
0.3864736769864124 0.0 8:1.0 34:1.0 92:1.0 220:1.0 298:1.0 
1.0 1.0 166:1.0 
0.8973091919786078 1.0 7:1.0 665:1.0 
0.2159220600555814 0.024615406000455295 25:1.0 147:1.0 208:1.0 300:1.0 
1.0 1.0 
0.0 0.32065660534183255 103:1.0 176:1.0 
1.0 1.0 235:1.0 
0.39003860983568206 0.730340267826415 101:1.0 222:1.0 
1.0 1.0 35:1.0 
1.0 1.0 
1.0 1.0 
0.09105831147730267 0.634588981424181 8:1.0 162:1.0 
1.0 1.0 
0.0 0.0024151502156154786 261:1.0 
0.0 1.0 195:1.0 
1.0 1.0 7:1.0 665:1.0 
0.03486580910256732 0.19473443334125967 266:1.0 
1.0 1.0 
1.0 1.0 
0.0 2.6434764179250614E-4 193:1.0 301:1.0 
0.9579884014130804 0.0 1:1.0 2:1.0 34:1.0 60:1.0 118:1.0 165:1.0 217:1.0 656:1.0 663:1.0 
1.0 1.0 
1.0 1.0 7:1.0 665:1.0 
1.0 1.0 
1.0 1.0 
0.913947025969422 0.19488686932087868 393:1.0 
0.01657917555825738 0.0 1:1.0 2:1.0 9:1.0 10:1.0 11:1.0 656:1.0 663:1.0 
0.03383265952351833 0.0 132:1.0 
1.0 1.0 
1.0 1.0 6:1.0 214:1.0 
1.0 1.0 
0.24107748556873956 0.0 198:1.0 199:1.0 
1.0 1.0 
1.0 1.0 225:1.0 
1.0 0.19496927034856748 372:1.0 
1.0 1.0 
0.809631108956667 0.6773261003267438 193:1.0 
1.0 1.0 
1.0 1.0 50:1.0 68:1.0 203:1.0 238:1.0 302:1.0 657:1.0 
0.46215281872882796 0.25219289058132616 303:0.8790337174261988 
1.0 0.0 1:1.0 2:1.0 656:1.0 663:1.0 
0.0 0.8304507966519938 142:1.0 163:1.0 237:1.0 625:1.0 
1.0 1.0 
0.7000230960873703 0.0 1:1.0 2:1.0 236:1.0 336:1.0 656:1.0 663:1.0 
1.0 1.0 304:0.9000000630000035 
0.03953610572294591 0.0 1:1.0 2:1.0 76:1.0 77:1.0 78:1.0 79:1.0 80:1.0 656:1.0 663:1.0 
1.0 1.0 
0.03467519179091855 1.0 583:1.0 
1.0 0.9667142709394385 52:1.0 
0.5237361571981587 1.0 397:1.0 
0.11445491476110665 0.2988157659051877 258:1.0 305:1.0 454:1.0 
0.9108231578989006 0.06998828118226574 86:1.0 
0.004446143276802678 0.10156556496064847 1:1.0 2:1.0 84:1.0 111:1.0 286:1.0 292:1.0 293:1.0 294:1.0 295:1.0 656:1.0 663:1.0 
0.3018940842504546 0.2651541302037015 131:1.0 299:1.0 
0.0 0.3297651975168438 100:0.8384656103558381 197:1.0 268:1.0 
1.0 1.0 
0.034723476811252554 0.19503543718288147 280:1.0 
1.0 0.0 99:1.0 306:1.0 
0.0 0.004590529825718226 307:1.0 
0.0 0.1923114002812779 261:1.0 
0.20488262876026797 1.0 166:1.0 631:1.0 
0.9470420270268772 0.0 1:1.0 2:1.0 41:1.0 124:1.0 233:1.0 265:1.0 656:1.0 663:1.0 
1.0 0.4358609568130353 34:1.0 166:1.0 399:1.0 
1.0 1.0 
0.29138434221983905 0.0 1:1.0 220:1.0 277:1.0 656:1.0 
0.0 0.07230731719539088 93:1.0 97:1.0 243:1.0 
1.0 1.0 
1.0 1.0 
1.0 1.0 
0.034870580270551406 0.1905440098030145 307:1.0 
0.17150028448031232 0.09647970841759211 17:1.0 68:1.0 146:1.0 147:1.0 148:1.0 170:1.0 250:1.0 657:1.0 
1.0 1.0 
0.44002921695521524 0.16910728050139892 4:1.0 52:1.0 290:1.0 308:0.9395168905275947 
1.0 1.0 
1.0 1.0 
1.0 1.0 
1.0 1.0 309:0.9225060517395688 
1.0 1.0 
0.7876003733337271 0.08749947299648929 1:1.0 2:1.0 194:1.0 210:1.0 418:1.0 656:1.0 663:1.0 
0.0 5.2692225582795515E-17 177:1.0 255:1.0 256:1.0 
1.0 1.0 310:1.0 
1.0 1.0 
0.03498392517557488 1.0 531:1.0 
1.0 1.0 
1.0 1.0 
0.413870173733899 0.597392687479242 283:1.0 395:1.0 
1.0 1.0 35:1.0 
1.0 1.0 
1.0 1.0 
0.5900229578396107 1.0 123:1.0 166:1.0 370:1.0 555:1.0 658:1.0 
0.03480002808787856 0.19498724247349028 91:1.0 
0.0 0.03245961791064502 260:1.0 311:1.0 
0.0 0.006871500015678433 312:1.0 
1.0 1.0 
0.29182505092756217 0.0 103:1.0 275:1.0 313:0.9395168905275947 
0.0 4.6523777926261545E-4 8:1.0 120:1.0 
1.0 0.09756612401511036 314:1.0 451:1.0 
0.0 0.8205500209804963 173:1.0 
1.0 0.12774083811705594 1:1.0 2:1.0 341:1.0 445:1.0 656:1.0 663:1.0 
0.012656645249561959 0.09401179431651879 37:1.0 40:1.0 218:1.0 221:1.0 252:1.0 257:1.0 477:1.0 508:1.0 
0.5430270282615701 0.0 272:1.0 314:1.0 
0.06894670196396303 0.0 1:1.0 2:1.0 38:1.0 39:1.0 40:1.0 656:1.0 663:1.0 
1.0 1.0 123:1.0 658:1.0 
0.43261950120861165 0.0 34:1.0 126:1.0 163:1.0 180:1.0 298:1.0 447:1.0 
0.6994514594180303 0.9308717096819085 226:1.0 296:1.0 
0.6687588823466383 0.032952716037677805 1:1.0 2:1.0 3:1.0 7:1.0 21:1.0 22:1.0 656:1.0 663:1.0 665:1.0 
1.0 0.0 1:1.0 2:1.0 656:1.0 663:1.0 
1.0 0.16917753689496 71:1.0 248:1.0 315:1.0 384:1.0 
0.45623848038051973 0.0 204:1.0 390:1.0 
0.040721313795944895 0.0 1:1.0 2:1.0 253:1.0 656:1.0 663:1.0 
1.0 1.0 35:1.0 
0.03436433108673414 0.798515635448259 179:1.0 
0.0 0.19512482997660757 313:1.0 
1.0 0.0 7:1.0 22:1.0 126:1.0 284:1.0 665:1.0 
0.03496521322188865 0.18802853671077455 312:1.0 
-1.0 0.0 1:1.0 2:1.0 30:1.0 315:1.0 316:1.0 656:1.0 663:1.0 
-1.0 1.0 
-0.5514624707431054 1.0 317:1.0 
-0.354818622138808 0.0 1:1.0 2:1.0 126:1.0 128:1.0 129:1.0 318:1.0 656:1.0 663:1.0 
-0.05137175572459392 0.0 319:1.0 664:1.0 
-1.0 1.0 
-1.0 1.0 
-1.0 1.0 105:1.0 
-1.0 1.0 71:1.0 
-0.45445703700188333 0.0 323:1.0 660:1.0 
-1.0 0.08379475141234155 1:1.0 2:1.0 15:1.0 16:1.0 43:1.0 238:1.0 330:1.0 656:1.0 663:1.0 
-1.0 1.0 214:1.0 
-0.8546836345141537 1.0 68:1.0 206:1.0 302:1.0 334:1.0 578:1.0 657:1.0 
-0.013822616950328936 0.0 335:1.0 
-1.0 1.0 
-1.0 1.0 112:1.0 340:1.0 
-0.0 0.16736391550474336 52:1.0 214:1.0 263:1.0 296:1.0 321:1.0 551:1.0 659:1.0 
-0.0 0.3005413296491351 339:1.0 348:1.0 
-0.5111978970678337 0.0 35:1.0 125:1.0 321:1.0 659:1.0 
-1.0 1.0 90:1.0 172:1.0 
-0.16565168736569508 0.0 191:1.0 351:1.0 
-1.0 0.0 34:1.0 68:1.0 328:1.0 657:1.0 661:1.0 
-0.9542141293280281 1.0 358:1.0 359:1.0 
-0.0 0.9500676531971032 353:1.0 360:1.0 361:1.0 362:1.0 
-0.0671229421866891 0.0 1:1.0 2:1.0 105:1.0 209:1.0 284:1.0 355:1.0 365:1.0 366:1.0 367:1.0 656:1.0 663:1.0 
-0.0 0.5218724173549488 46:1.0 123:1.0 166:1.0 368:1.0 369:1.0 370:1.0 371:1.0 658:1.0 
-0.9826068626788623 1.0 372:1.0 373:1.0 
-1.0 1.0 565:1.0 
-0.0 0.8013022147001758 233:1.0 334:1.0 
-1.0 0.0 1:1.0 2:1.0 656:1.0 663:1.0 
-1.0 0.1544499053461068 1:1.0 68:1.0 355:1.0 656:1.0 657:1.0 
-1.0 0.5369981167402563 46:1.0 375:1.0 
-1.0 1.0 220:1.0 
-0.6660674390225882 0.6218890767610148 37:1.0 172:1.0 218:1.0 376:1.0 644:1.0 
-0.010035246792778263 0.0 180:1.0 321:1.0 381:1.0 659:1.0 
-1.0 0.0 1:1.0 2:1.0 384:1.0 656:1.0 663:1.0 
-0.0 0.9645512226780049 385:1.0 386:1.0 387:1.0 554:1.0 
-1.0 1.0 163:1.0 
-1.0 1.0 392:1.0 
-1.0 0.0 8:1.0 126:1.0 336:1.0 393:0.8790337174261988 
-0.3553173021438365 0.0 193:1.0 210:1.0 233:1.0 284:0.9538168317473894 378:1.0 
-1.0 1.0 68:1.0 147:1.0 657:1.0 
-1.0 1.0 
-1.0 1.0 
-0.7929771332598474 0.6158165021675183 356:1.0 394:1.0 395:1.0 
-0.07513448326916262 0.271633296182083 35:0.967154159574889 233:1.0 396:0.9514543276048837 397:1.0 
-1.0 0.0 1:1.0 2:1.0 656:1.0 663:1.0 
-1.0 1.0 
-0.0 0.14466961549338572 68:1.0 221:1.0 339:1.0 657:1.0 
-1.0 1.0 7:1.0 123:1.0 296:1.0 658:1.0 665:1.0 
-0.9985216567069515 0.0 354:1.0 
-1.0 1.0 
-1.0 1.0 
-0.5222851534549777 0.0 1:1.0 2:1.0 131:1.0 166:1.0 398:1.0 656:1.0 663:1.0 
-1.0 1.0 
-0.0 1.0 123:1.0 351:1.0 658:1.0 
-0.006297005038660401 0.0 319:1.0 664:1.0 
-0.7573812441853568 1.0 10:1.0 35:0.967154159574889 64:1.0 290:1.0 399:0.9461552315544749 602:1.0 
-0.0 1.0 105:1.0 319:1.0 664:1.0 
-0.23167064367351062 1.0 68:1.0 401:1.0 402:1.0 403:1.0 657:1.0 
-0.024897864694647116 0.4347674911301231 68:1.0 141:1.0 358:1.0 371:1.0 404:1.0 405:1.0 406:1.0 657:1.0 
-1.0 1.0 
-0.024435219726415717 0.0 133:1.0 328:1.0 404:1.0 661:1.0 
-0.0 1.0 7:1.0 123:1.0 351:1.0 658:1.0 665:1.0 
-0.002798756455884761 0.32016130128233866 123:1.0 407:1.0 658:1.0 
-0.0 0.6182993489242653 172:1.0 408:1.0 409:1.0 
-1.0 1.0 196:1.0 341:1.0 
-1.0 1.0 119:0.9482746308249311 
-1.0 0.308073873469032 382:0.907633705342104 413:1.0 
-0.004092933116803999 0.0 233:1.0 
-1.0 1.0 502:1.0 
-0.0 0.18749318561156753 68:1.0 123:1.0 319:1.0 394:1.0 657:1.0 658:1.0 664:1.0 
-0.4732660470374304 0.47085493883735 7:1.0 35:1.0 68:1.0 302:1.0 320:1.0 357:1.0 415:1.0 657:1.0 665:1.0 
-0.0 0.08539564876303739 40:1.0 180:1.0 416:1.0 417:1.0 418:1.0 419:1.0 
-1.0 1.0 
-0.3910343498800333 0.0 1:1.0 2:1.0 32:1.0 51:1.0 90:1.0 419:1.0 420:1.0 656:1.0 663:1.0 
-1.0 0.0 1:1.0 2:1.0 656:1.0 663:1.0 
-0.20713180900539963 0.0 7:1.0 35:1.0 180:1.0 235:1.0 421:1.0 665:1.0 
-0.9162333058862966 0.0 1:1.0 339:1.0 656:1.0 
-0.0 0.17710842524369663 34:1.0 125:1.0 214:1.0 298:1.0 318:1.0 
-0.9386511990795627 0.3666573636077001 1:1.0 2:1.0 222:1.0 382:1.0 656:1.0 663:1.0 
-0.008955278904178873 0.0 323:1.0 660:1.0 
-1.0 1.0 374:1.0 
-0.8338663160142517 0.0 35:1.0 351:1.0 
-1.0 1.0 
-0.1703063379203631 0.1857150782579565 337:1.0 424:0.9434101046229979 
-0.016963725083327517 0.0 425:1.0 426:1.0 
-0.1919293705709381 0.513918919872549 401:1.0 427:1.0 428:1.0 429:1.0 533:1.0 
-0.0 0.24755229910987012 222:1.0 321:1.0 659:1.0 
-0.913894428758206 0.0 322:1.0 
-0.0 0.03190986444636898 233:1.0 432:0.9395168905275947 433:1.0 434:1.0 435:1.0 
-0.8307284270393724 0.6181774040665734 99:1.0 126:1.0 437:1.0 
-0.941115539965647 0.0 217:1.0 
-1.0 1.0 400:1.0 439:1.0 
-1.0 1.0 235:1.0 
-1.0 1.0 
-1.0 0.0 1:1.0 2:1.0 656:1.0 663:1.0 
-0.6597629764906092 0.23161769064045956 68:1.0 242:1.0 414:1.0 657:1.0 
-0.8040036231604856 0.7560010154309079 227:1.0 444:0.935623112568598 
-1.0 1.0 166:1.0 355:1.0 
-1.0 0.27376222177760196 70:1.0 372:1.0 
-0.7829918510179043 1.0 123:1.0 421:1.0 658:1.0 
-0.42419506235474735 0.0 233:1.0 
-1.0 0.0 22:1.0 
-1.0 0.9277779012058028 309:0.9225060517395688 
-0.1963287375249277 0.0 345:1.0 409:1.0 
-1.0 0.9136131958991945 217:1.0 
-1.0 1.0 652:1.0 
-0.40847068258416974 1.0 61:1.0 360:0.9572545262452778 
-1.0 0.853829168789512 304:1.0 353:1.0 
-1.0 1.0 23:1.0 105:1.0 448:1.0 
-0.03169007954706627 0.5172657421062017 121:1.0 358:1.0 384:1.0 
-0.019367706745520324 0.15323456087732323 68:1.0 336:1.0 383:1.0 657:1.0 
-0.29895389098891734 0.0 24:1.0 337:1.0 
-1.0 1.0 
-1.0 1.0 449:1.0 
-1.0 1.0 68:1.0 398:1.0 657:1.0 
-1.0 0.8454198764390894 22:1.0 
-0.0630187793022276 0.0 10:1.0 116:1.0 166:1.0 284:1.0 296:1.0 319:1.0 440:1.0 664:1.0 
-0.3806198096582351 0.21584108009039565 50:1.0 131:1.0 243:1.0 318:1.0 
-0.08438922227670993 0.0 50:1.0 363:1.0 384:1.0 450:1.0 
-1.0 0.0 34:1.0 351:1.0 451:1.0 
-0.0 0.8437986643569068 321:1.0 352:1.0 452:1.0 518:1.0 659:1.0 
-0.30806869318559094 0.0 141:1.0 163:1.0 323:1.0 660:1.0 
-1.0 1.0 363:1.0 
-1.0 1.0 68:1.0 140:1.0 657:1.0 
-1.0 1.0 
-1.0 0.0 233:1.0 
-0.0 0.18282883798454277 174:1.0 322:1.0 454:1.0 
-0.5564192393916998 0.6608586417394755 68:1.0 195:1.0 233:1.0 657:1.0 
-1.0 1.0 
-0.7561054560281061 1.0 180:1.0 225:1.0 408:1.0 455:1.0 
-0.03543321321058664 0.0 52:1.0 319:1.0 664:1.0 
-0.0 0.384998454554583 52:1.0 319:1.0 456:1.0 664:1.0 
-1.0 1.0 458:1.0 
-0.12735798569310866 0.0 141:1.0 233:1.0 459:1.0 460:1.0 
-0.15688498977761917 0.0 46:1.0 79:1.0 141:1.0 195:1.0 319:1.0 664:1.0 
-0.0 0.3057101866103296 166:1.0 214:1.0 233:1.0 284:1.0 
-1.0 1.0 241:1.0 
-1.0 1.0 383:1.0 
-0.8776684056642332 1.0 68:1.0 86:1.0 332:1.0 390:1.0 548:1.0 657:1.0 
-1.0 0.0 1:1.0 2:1.0 275:1.0 329:1.0 656:1.0 663:1.0 
-0.3005948530407897 1.0 140:1.0 296:1.0 
-1.0 1.0 
-1.0 0.290452954478598 276:1.0 344:1.0 421:1.0 
-0.020836009650671342 0.0 7:1.0 345:1.0 346:1.0 347:1.0 665:1.0 
-1.0 1.0 
-1.0 1.0 
-1.0 2.3461383714769827E-4 1:1.0 2:1.0 44:1.0 462:1.0 656:1.0 663:1.0 
-0.6417700735093481 0.0 1:1.0 2:1.0 430:1.0 464:1.0 656:1.0 663:1.0 
-0.0 0.14867334386911807 166:1.0 233:1.0 465:1.0 466:1.0 
-1.0 1.0 
-0.6904671336639121 0.43349879791077023 203:1.0 467:1.0 468:1.0 469:1.0 
-0.0 0.060907260254359975 123:1.0 235:0.9612529739324382 354:0.9602778969125972 379:0.9482746308249311 658:1.0 
-0.0 0.9270697404326972 123:1.0 318:1.0 658:1.0 
-0.5929810719439826 0.3381693502657826 223:1.0 309:1.0 442:1.0 443:1.0 
-1.0 1.0 314:1.0 522:1.0 
-0.3398369300163541 0.4092472793509017 27:1.0 336:1.0 371:1.0 389:1.0 417:1.0 463:1.0 
-1.0 0.98562717490306 217:1.0 
-1.0 1.0 
-1.0 1.0 140:1.0 
-0.20711130954179832 0.0 339:1.0 
-0.0 0.3750166671656585 235:1.0 255:1.0 446:1.0 
-0.051350393697939756 0.06655020726667261 68:1.0 196:1.0 272:1.0 322:1.0 453:1.0 552:1.0 630:1.0 657:1.0 
-0.2401946120183897 0.3510428848815775 7:1.0 193:1.0 349:1.0 355:1.0 465:1.0 665:1.0 
-1.0 0.0 409:0.8644124424969797 
-0.0 0.9014435829224096 315:1.0 355:1.0 408:1.0 538:1.0 
-0.0 1.0 68:1.0 322:1.0 657:1.0 
-0.2030285937458181 1.0 203:1.0 214:1.0 263:1.0 406:1.0 455:1.0 
-1.0 0.0 1:1.0 2:1.0 318:1.0 656:1.0 663:1.0 
-0.418871269583103 0.11557868279826967 353:1.0 438:1.0 
-0.0 1.0 368:1.0 369:1.0 
-1.0 1.0 35:1.0 50:1.0 452:1.0 470:1.0 
-1.0 1.0 71:1.0 368:1.0 369:1.0 
-1.0 1.0 317:1.0 
-1.0 1.0 
-1.0 1.0 441:1.0 
-1.0 1.0 1:1.0 2:1.0 68:1.0 656:1.0 657:1.0 663:1.0 
-0.34897342138557813 0.6002667178357116 177:1.0 348:1.0 388:1.0 418:1.0 419:1.0 
-0.1275155633642778 0.0 141:1.0 353:1.0 473:1.0 646:1.0 
-1.0 0.23084015591527798 126:0.9579446205865564 474:1.0 
-0.006443043300361162 0.15297556662889064 252:1.0 323:1.0 471:1.0 660:1.0 
-1.0 1.0 214:1.0 
-0.38538895758316516 0.0 71:1.0 360:1.0 380:1.0 
-0.0 0.2616056268462877 304:1.0 351:1.0 368:1.0 369:1.0 461:1.0 
-0.966761269535955 0.9762631320510253 354:1.0 
-1.0 0.0 318:1.0 
-1.0 1.0 1:1.0 2:1.0 61:1.0 656:1.0 663:1.0 
-1.0 1.0 54:1.0 55:1.0 
-1.0 0.6680851556804623 29:1.0 414:1.0 
-1.0 1.0 
-1.0 1.0 473:1.0 
-0.7481284416630309 0.8898469641908757 54:1.0 68:1.0 198:1.0 420:1.0 657:1.0 
-1.0 1.0 
-1.0 1.0 
-1.0 0.0 34:1.0 298:1.0 328:1.0 661:1.0 
-0.2596985900993558 0.011645089385652596 241:1.0 366:1.0 367:1.0 
-0.0 0.3476863419234275 321:1.0 583:1.0 659:1.0 
-1.0 0.8585890968921172 62:1.0 202:1.0 
-1.0 1.0 50:1.0 144:1.0 196:1.0 523:1.0 
-1.0 0.47871313007205024 71:1.0 478:1.0 
-1.0 0.9978700377139246 217:1.0 
-0.18860286714930297 0.0 360:1.0 
-0.0 0.006801751847636907 8:1.0 68:1.0 81:1.0 321:1.0 657:1.0 659:1.0 
-0.36683282509555126 0.0 303:1.0 321:1.0 659:1.0 
-1.0 1.0 22:1.0 
-0.0 1.0 68:1.0 339:1.0 657:1.0 
-0.9642394138368865 0.0 339:1.0 
-1.0 0.0 339:0.8775569165151172 
-1.0 1.0 
-0.30846102792599395 0.21941214482948573 50:1.0 116:1.0 166:1.0 233:1.0 454:1.0 457:1.0 
-0.9817155869531686 0.0 52:1.0 217:1.0 
-1.0 1.0 
-1.0 1.0 
-1.0 1.0 7:1.0 665:1.0 
-1.0 1.0 235:1.0 
-0.7194549386003614 0.4584366492094576 64:1.0 227:1.0 242:1.0 341:1.0 
-1.0 1.0 480:1.0 
-0.4784542760226834 0.8104289364734181 171:1.0 214:1.0 319:1.0 445:1.0 664:1.0 
-0.0 0.13021128115807837 50:1.0 210:1.0 233:1.0 454:1.0 459:1.0 460:1.0 
-1.0 1.0 310:1.0 
-1.0 0.5175336643946823 158:1.0 423:1.0 
-1.0 1.0 41:1.0 
-1.0 0.0 193:1.0 314:1.0 472:1.0 
-1.0 0.4321916642453958 40:1.0 416:1.0 
-0.0 0.5882473637023714 179:1.0 321:1.0 659:1.0 
-1.0 1.0 8:1.0 
-0.06139016897875005 0.15143279377753527 159:1.0 233:1.0 250:1.0 477:1.0 482:1.0 
-0.07046505070001367 0.07492732152415446 343:1.0 355:1.0 649:1.0 
-1.0 1.0 
-1.0 1.0 411:1.0 
-1.0 1.0 483:1.0 
-0.0 0.18896910486494692 22:1.0 358:1.0 376:1.0 391:1.0 
-1.0 1.0 338:0.9096082810620412 
-0.8640689185789583 0.16371014311945337 163:1.0 344:1.0 447:1.0 597:1.0 
-1.0 1.0 99:1.0 
-0.0 0.7949179130944591 68:1.0 328:1.0 657:1.0 661:1.0 
-1.0 1.0 
-0.7714210953402133 0.0023066984871124223 1:1.0 2:1.0 92:1.0 166:1.0 446:1.0 609:1.0 656:1.0 663:1.0 
-0.0 0.07058299670657978 123:1.0 322:1.0 658:1.0 
-0.07563010451368089 0.20875070629203707 337:1.0 485:1.0 486:1.0 
-1.0 1.0 163:1.0 
-1.0 0.0 360:1.0 
-0.6621730621873043 0.0 7:1.0 62:1.0 315:1.0 665:1.0 
-1.0 0.3617300914389779 60:1.0 193:1.0 487:1.0 
-0.6759033298368561 0.046746765446038216 1:1.0 2:1.0 7:1.0 430:1.0 431:1.0 656:1.0 663:1.0 665:1.0 
-0.7576932152608767 1.0 382:1.0 501:1.0 
-0.0 0.07088180599091988 1:1.0 2:1.0 329:1.0 345:1.0 430:1.0 464:1.0 656:1.0 663:1.0 
-1.0 0.0 384:1.0 418:1.0 
-0.0 0.7158858731808025 225:1.0 321:1.0 358:1.0 404:1.0 422:1.0 546:1.0 659:1.0 
-0.04109884057859088 0.0 323:1.0 660:1.0 
-0.1634172492213608 0.5356783583325936 323:1.0 405:1.0 660:1.0 
-1.0 1.0 
-1.0 0.8140388399997806 1:1.0 2:1.0 296:1.0 656:1.0 663:1.0 
-1.0 1.0 235:1.0 
-0.2697732567326547 1.0 222:1.0 316:1.0 343:1.0 
-1.0 1.0 350:1.0 
-1.0 1.0 123:1.0 141:1.0 166:1.0 489:1.0 658:1.0 
-1.0 0.0 322:1.0 
-0.985333192584196 0.0 1:1.0 2:1.0 7:1.0 99:1.0 338:1.0 656:1.0 663:1.0 665:1.0 
-1.0 1.0 
-0.4134758912374511 0.0 126:1.0 317:1.0 397:1.0 
-1.0 0.0 233:1.0 
-1.0 0.0 32:1.0 99:1.0 
-1.0 1.0 
-1.0 1.0 
-1.0 1.0 
-0.007759224095468109 0.0 328:1.0 361:1.0 490:1.0 661:1.0 
-1.0 1.0 68:1.0 488:1.0 657:1.0 
-1.0 1.0 32:1.0 
-0.1909450627413571 0.0 319:1.0 664:1.0 
-1.0 1.0 
-0.6757225003380395 0.0 1:1.0 2:1.0 90:1.0 99:1.0 274:1.0 290:1.0 475:1.0 656:1.0 663:1.0 
-1.0 0.808864932790649 335:1.0 
-1.0 1.0 227:1.0 
-0.9557277199866362 1.0 409:0.8644124424969797 512:1.0 
-1.0 0.0 210:1.0 241:1.0 243:1.0 
-1.0 1.0 
-0.28084942996492285 0.0 24:1.0 371:1.0 409:1.0 
-0.9655294388621205 0.8252667736385535 425:1.0 426:1.0 
-0.5801908797921755 0.6700025514788758 7:1.0 345:1.0 346:1.0 347:1.0 665:1.0 
-1.0 0.3457391761647086 1:1.0 2:1.0 656:1.0 663:1.0 
-1.0 1.0 214:1.0 
-0.9511015580750168 1.0 335:1.0 
-0.982380715104986 0.047289137865950244 385:1.0 387:1.0 
-0.2687947446079524 0.0 1:1.0 2:1.0 116:1.0 337:1.0 377:1.0 422:1.0 427:0.9434101046229979 656:1.0 663:1.0 
-1.0 1.0 
-1.0 1.0 383:1.0 
-0.9939472407137745 0.0 1:1.0 2:1.0 7:1.0 487:1.0 656:1.0 663:1.0 665:1.0 
-1.0 0.0 1:1.0 2:1.0 656:1.0 663:1.0 
-0.9870077914134585 1.0 123:1.0 407:1.0 658:1.0 
-1.0 0.16932495721474453 165:1.0 199:1.0 309:0.883759025672007 
-1.0 0.475373411961462 24:1.0 337:1.0 
-1.0 1.0 484:1.0 
-1.0 1.0 35:1.0 225:1.0 635:1.0 
-1.0 0.0 1:1.0 2:1.0 656:1.0 663:1.0 
-0.1140104293721067 0.0 180:1.0 321:1.0 381:1.0 659:1.0 
-1.0 0.9240850633258179 24:1.0 399:1.0 
-1.0 0.0 319:1.0 664:1.0 
-1.0 0.37376596453404287 52:1.0 411:1.0 
-1.0 1.0 556:1.0 
-1.0 1.0 401:1.0 
-1.0 0.8192772809262168 1:1.0 2:1.0 656:1.0 663:1.0 
-1.0 1.0 68:1.0 140:1.0 657:1.0 
-1.0 1.0 
-0.17628983530922443 0.0 1:1.0 2:1.0 68:1.0 238:1.0 355:1.0 656:1.0 657:1.0 663:1.0 
-0.6778076075228969 0.0 200:0.9461552315544749 221:1.0 458:1.0 
-0.9826802220382359 1.0 119:1.0 553:1.0 
-1.0 -1.0 
-1.0 -0.001195446482460237 491:1.0 
-0.27134662239755125 -0.5563140787641636 54:1.0 55:1.0 332:1.0 492:1.0 493:1.0 
-1.0 -1.0 
-0.32770437355313287 -0.0 63:1.0 166:1.0 
-1.0 -1.0 334:1.0 
-1.0 -0.7123037697874821 499:1.0 
-0.3971122088514713 -0.6781268093997859 316:1.0 500:1.0 501:1.0 502:1.0 
-0.7037018924106733 -0.0 503:1.0 
-0.648906273793564 -0.0 166:1.0 504:1.0 
-0.0 -0.07009524068120569 123:1.0 137:1.0 140:1.0 302:1.0 504:1.0 658:1.0 
-1.0 -1.0 68:1.0 657:1.0 
-1.0 -1.0 27:1.0 99:1.0 172:1.0 196:0.9548041614349386 
-0.05368262616018063 -0.0 61:1.0 179:1.0 260:1.0 511:1.0 
-1.0 -1.0 512:1.0 
-0.1546977387695116 -0.16956173923634488 159:1.0 163:1.0 515:1.0 516:1.0 
-0.0 -0.2944714969605019 68:1.0 123:1.0 165:1.0 657:1.0 658:1.0 
-0.36568308432933166 -0.6144725636915092 404:1.0 517:1.0 
-1.0 -1.0 24:1.0 527:1.0 
-0.0 -0.11818464194960064 214:1.0 431:1.0 505:1.0 528:1.0 
-0.0 -1.0 123:1.0 214:1.0 658:1.0 
-1.0 -1.0 
-0.0 -0.41430698983962283 1:1.0 2:1.0 105:1.0 202:1.0 222:1.0 531:1.0 532:1.0 656:1.0 663:1.0 
-1.0 -1.0 276:1.0 
-1.0 -1.0 64:1.0 
-1.0 -1.0 50:1.0 166:1.0 
-1.0 -0.9652332868925376 534:1.0 
-1.0 -1.0 172:1.0 
-1.0 -1.0 
-0.8711303962031939 -0.0 63:1.0 
-1.0 -1.0 
-0.33736861988419076 -0.8120078567473039 35:1.0 235:1.0 526:1.0 
-1.0 -1.0 68:1.0 657:1.0 
-1.0 -0.9649093125849232 541:1.0 
-0.44886752565461197 -0.7988305528366476 105:1.0 361:1.0 545:1.0 
-1.0 -1.0 546:1.0 
-0.042763950915147175 -0.006133809399366748 498:1.0 
-1.0 -1.0 
-0.0 -1.0 1:1.0 2:1.0 105:1.0 235:1.0 296:1.0 334:1.0 656:1.0 663:1.0 
-1.0 -1.0 
-0.3192549505845051 -0.6155174913051397 68:1.0 426:1.0 482:1.0 657:1.0 
-0.5174037139581277 -0.12270137249339363 550:1.0 551:1.0 
-0.8354256763004136 -0.5359077023661526 252:1.0 552:1.0 
-0.8347035362145789 -0.4183322903635539 1:1.0 2:1.0 63:1.0 193:0.9597481425523638 238:1.0 544:1.0 656:1.0 663:1.0 
-1.0 -0.9296797527801053 554:1.0 
-0.0778417219821201 -0.0 7:1.0 515:1.0 528:1.0 665:1.0 
-1.0 -0.6798788692283111 123:1.0 555:1.0 658:1.0 
-0.9024805804990932 -0.9884216756501342 387:1.0 560:1.0 
-1.0 -0.7153602343899692 532:0.907633705342104 
-0.028657533321245383 -0.0 504:1.0 
-1.0 -0.0 65:1.0 68:1.0 657:1.0 
-0.6497498837383238 -0.09592056356815415 7:1.0 71:1.0 137:1.0 163:1.0 530:1.0 665:1.0 
-0.4532548418593882 -0.2530017670921239 163:1.0 499:1.0 511:1.0 
-0.902403805575324 -0.48261028308475756 563:1.0 564:1.0 
-1.0 -0.9651112056602467 565:1.0 
-1.0 -0.3043994518260615 500:1.0 501:1.0 
-0.8050514655208637 -0.0 527:1.0 
-1.0 -0.013539296003823035 246:1.0 
-0.6565358102544043 -0.0 532:1.0 
-1.0 -0.964999790061558 239:1.0 
-0.3183341983343539 -0.0 64:1.0 567:1.0 568:1.0 
-1.0 -0.9318549493047056 569:1.0 
-1.0 -1.0 518:1.0 
-0.8049551420921751 -0.9639417647785782 491:1.0 
-0.0012495980232086201 -0.0 496:1.0 
-0.05159407058995629 -0.6930857516572837 417:1.0 422:1.0 530:1.0 
-0.18626704248925627 -0.0761440306620528 65:1.0 408:1.0 
-0.9973526546620751 -1.0 373:1.0 
-0.8172122327759241 -0.17797690821192108 86:1.0 456:1.0 517:1.0 
-1.0 -0.0 514:1.0 
-0.58832889017862 -0.6456115899300675 1:1.0 2:1.0 105:1.0 179:1.0 206:1.0 575:1.0 656:1.0 663:1.0 
-1.0 -1.0 
-1.0 -0.9650029307864313 576:1.0 
-1.0 -1.0 68:1.0 304:1.0 657:1.0 
-1.0 -0.8609930665251565 52:1.0 515:1.0 
-0.0 -0.1792497380127988 71:1.0 494:1.0 662:1.0 
-0.4685240038531838 -0.0 239:1.0 578:1.0 579:1.0 
-1.0 -0.6091453075007504 580:1.0 
-1.0 -0.6992840102546757 203:1.0 581:1.0 
-0.26544051213825426 -0.0 222:1.0 400:1.0 507:1.0 582:1.0 
-0.278352586921383 -0.0 50:1.0 63:1.0 263:1.0 558:1.0 559:1.0 
-0.0 -1.0 368:1.0 369:1.0 
-0.9024345901329199 -1.0 321:1.0 659:1.0 
-1.0 -1.0 
-1.0 -1.0 
-0.35022319567810095 -0.033399128083487155 144:1.0 513:1.0 
-0.7012756038525425 -1.0 317:1.0 454:1.0 587:1.0 
-0.0 -1.0 68:1.0 140:1.0 217:1.0 401:1.0 657:1.0 
-1.0 -1.0 68:1.0 657:1.0 
-1.0 -1.0 225:1.0 
-0.0 -0.7788698947395906 358:1.0 496:1.0 
-0.7336214824005265 -0.02448169094283751 440:1.0 518:1.0 
-1.0 -0.0 503:1.0 
-0.39858352577555933 -0.10094311050844923 223:1.0 450:1.0 508:1.0 
-0.9997318042090868 -0.019465604359108768 590:1.0 
-0.8872440949710931 -0.8620546894976086 71:1.0 107:1.0 217:1.0 432:1.0 566:1.0 
-0.4429057791985249 -0.7333957102847846 355:1.0 509:1.0 591:1.0 
-0.0 -0.28841349350324036 63:1.0 406:1.0 452:1.0 
-0.023609814556761855 -0.5611707870177529 375:1.0 518:1.0 
-1.0 -0.9649034716765191 592:1.0 
-0.8603898426153794 -1.0 214:1.0 
-1.0 -0.48254114068489723 188:1.0 593:1.0 
-0.9025078241096949 -0.4825981735527868 570:1.0 594:1.0 
-1.0 -0.9651334127433469 595:1.0 
-0.4486576605248763 -0.20523563286820362 68:1.0 519:1.0 596:1.0 657:1.0 
-1.0 -1.0 401:1.0 
-1.0 -0.1805750550194552 143:1.0 144:1.0 296:1.0 
-1.0 -1.0 343:1.0 
-0.0 -0.30855417625080733 68:1.0 456:1.0 548:1.0 657:1.0 
-0.0 -0.12608462533170167 61:1.0 177:1.0 383:1.0 485:1.0 486:1.0 493:0.9500000472500026 558:1.0 
-0.0 -0.46139881927413 65:1.0 225:1.0 598:1.0 
-1.0 -1.0 
-1.0 -1.0 222:1.0 
-0.9024874046372127 -0.4826021931419702 600:1.0 601:1.0 
-0.0 -1.0 368:1.0 369:1.0 
-1.0 -0.2861760935466305 210:1.0 237:1.0 
-0.0 -0.06195407680023171 61:1.0 225:1.0 358:1.0 602:1.0 
-1.0 -0.0 166:0.9678483303460111 603:1.0 
-1.0 -1.0 35:0.967154159574889 
-0.0 -0.0471546422848281 63:1.0 105:1.0 250:1.0 372:1.0 605:1.0 606:1.0 607:1.0 608:1.0 609:1.0 610:1.0 
-0.05314195776311092 -0.0 63:1.0 243:1.0 531:1.0 
-0.15572912768893746 -0.0 61:1.0 276:1.0 
-1.0 -1.0 7:1.0 419:1.0 665:1.0 
-1.0 -0.3937040207264051 21:1.0 131:1.0 294:1.0 
-1.0 -0.9649887762244151 616:1.0 
-1.0 -1.0 68:1.0 657:1.0 
-1.0 -0.09930923947841211 35:1.0 213:1.0 585:1.0 
-1.0 -1.0 
-0.0 -1.0 123:1.0 302:1.0 504:1.0 658:1.0 
-0.07863795001617269 -0.0 7:1.0 63:1.0 618:1.0 665:1.0 
-0.9699754984693562 -0.0 105:1.0 176:1.0 
-0.18731500632775563 -0.2265477491322243 123:1.0 529:1.0 542:1.0 543:1.0 658:1.0 
-0.46755969560094224 -1.0 7:1.0 408:1.0 455:1.0 538:1.0 665:1.0 
-1.0 -0.7633564723468222 362:1.0 
-1.0 -1.0 
-1.0 -1.0 
-1.0 -0.0 509:1.0 
-0.12511445271782654 -0.0 35:1.0 331:1.0 397:1.0 552:1.0 559:1.0 
-1.0 -1.0 166:1.0 
-0.0 -0.7561409917133225 123:1.0 369:1.0 658:1.0 
-0.8275318829948246 -0.426289042440119 620:1.0 621:1.0 
-1.0 -1.0 362:1.0 
-1.0 -1.0 68:1.0 657:1.0 
-0.0 -0.1516657711968982 361:1.0 362:1.0 
-0.4023177035338146 -0.0 362:1.0 622:1.0 
-0.0 -0.45486001519151087 10:1.0 348:1.0 408:1.0 495:1.0 602:1.0 
-1.0 -1.0 
-1.0 -0.5229790841312923 162:1.0 237:1.0 420:1.0 
-1.0 -1.0 180:1.0 395:1.0 
-0.7703667409380381 -0.8867340158998507 382:0.9538168317473894 551:1.0 623:1.0 
-1.0399805988975109E-4 -0.0 137:1.0 494:1.0 612:1.0 624:1.0 662:1.0 
-1.0 -1.0 54:1.0 625:0.8790337174261988 
-0.2684044047426939 -0.8267572091968135 360:1.0 626:1.0 627:1.0 
-1.0 -0.3433433061198109 567:1.0 
-1.0 -1.0 
-1.0 -0.01413589616295279 506:1.0 
-1.0 -1.0 
-0.9025010947579196 -0.48252626122584735 520:1.0 574:1.0 
-1.0 -0.7312282691634402 141:1.0 195:1.0 492:1.0 
-0.0 -0.2602800856264264 172:1.0 546:1.0 547:1.0 
-0.23165031345311296 -1.0 163:1.0 353:1.0 400:1.0 603:1.0 
-0.7912729412085725 -0.42626262855145786 579:1.0 629:1.0 
-1.0 -0.1472566581970881 105:1.0 583:1.0 
-0.2586038210395608 -0.15594996911615905 482:1.0 585:1.0 630:1.0 
-0.2349635435458113 -0.3558671495811468 1:1.0 2:1.0 50:1.0 523:1.0 559:1.0 580:1.0 656:1.0 663:1.0 
-1.0 -1.0 
-1.0 -0.14009144394025136 30:1.0 546:1.0 572:1.0 
-0.9830605969820032 -0.0 63:1.0 243:1.0 531:1.0 
-1.0 -0.743665235172592 296:1.0 631:1.0 
-1.0 -1.0 
-1.0 -1.0 
-1.0 -1.0 
-0.013115434980564122 -0.0 123:1.0 137:1.0 335:0.952710991571208 632:1.0 633:1.0 658:1.0 
-0.4187397079681914 -0.0 68:1.0 171:1.0 302:1.0 504:1.0 657:1.0 
-0.0077556662353653796 -0.0 61:1.0 352:1.0 
-0.2569237348181712 -0.8470842456930878 319:1.0 405:1.0 524:1.0 634:1.0 664:1.0 
-1.0 -1.0 
-1.0 -1.0 
-0.44713809305790836 -0.5341435151121912 1:1.0 2:1.0 179:1.0 401:1.0 575:1.0 656:1.0 663:1.0 
-0.6689922613669927 -1.0 203:1.0 225:1.0 635:1.0 
-1.0 -0.0 173:1.0 509:1.0 
-1.0 -1.0 68:1.0 657:1.0 
-1.0 -0.0 65:1.0 100:1.0 
-0.26842975722909007 -0.7741987507363791 123:1.0 137:1.0 335:1.0 633:1.0 658:1.0 
-1.0 -1.0 
-0.48711778305053466 -1.0 290:1.0 554:1.0 
-0.10106139771359796 -1.0 1:1.0 2:1.0 452:1.0 503:1.0 656:1.0 663:1.0 
-0.7032712956185632 -0.0 223:1.0 495:1.0 
-1.0 -1.0 
-1.0 -0.0 86:1.0 199:1.0 223:1.0 524:1.0 
-1.0 -1.0 68:1.0 657:1.0 
-1.0 -1.0 119:1.0 222:1.0 227:1.0 
-0.23008684352463166 -0.15864773177740082 68:1.0 125:1.0 225:1.0 507:1.0 657:1.0 
-0.11329614798365073 -0.0 498:1.0 
-1.0 -1.0 123:1.0 140:1.0 658:1.0 
-0.024237016468648644 -0.0 137:1.0 518:1.0 588:1.0 
-0.009256093213124077 -0.0 214:1.0 640:1.0 641:1.0 
-1.0 -0.45341464711852886 175:1.0 479:1.0 
-0.21069089686494927 -0.0 35:1.0 63:1.0 68:1.0 137:1.0 302:1.0 597:1.0 642:1.0 657:1.0 
-1.0 -1.0 50:1.0 523:1.0 
-0.3267039890256548 -0.0 195:1.0 526:1.0 
-0.8053179921202582 -0.9454756365467052 590:1.0 
-0.14868677702415214 -0.0 61:1.0 364:1.0 
-0.6948535903715598 -0.0 532:1.0 
-0.2560068259297296 -0.7086032128022041 341:1.0 404:1.0 556:1.0 571:1.0 613:1.0 
-1.0 -1.0 214:1.0 
-0.9045553604884924 -0.688215762724227 123:1.0 370:1.0 389:1.0 658:1.0 
-1.0 -1.0 
-0.8166936013694115 -0.2221633800783963 309:1.0 493:1.0 631:1.0 643:1.0 
-1.0 -1.0 223:1.0 
-1.0 -1.0 408:1.0 
-0.6681461825046456 -0.9826353814889236 578:1.0 604:1.0 
-0.8973942034706406 -0.8563162565194895 68:1.0 348:1.0 657:1.0 
-1.0 -1.0 548:1.0 
-1.0 -0.9590035825601564 498:1.0 
-0.0 -0.24919517416215947 63:1.0 68:1.0 99:1.0 141:1.0 355:1.0 510:1.0 553:1.0 599:1.0 657:1.0 
-0.0 -0.7025560664575765 227:0.9145090107807369 236:1.0 368:1.0 369:1.0 
-0.19153966095733566 -0.6433954951137812 316:1.0 512:1.0 
-0.3353647658636282 -0.6217463934595046 567:1.0 644:1.0 
-0.7529938032736735 -0.234634720183004 24:1.0 64:1.0 389:1.0 602:1.0 640:1.0 645:1.0 
-0.0 -1.0 321:1.0 352:1.0 514:1.0 533:1.0 659:1.0 
-0.47731390408617475 -0.46545765309451165 7:1.0 10:1.0 70:1.0 296:1.0 405:1.0 646:1.0 665:1.0 
-1.0 -0.0 186:1.0 496:1.0 
-0.7086942813172982 -0.0 504:1.0 
-1.0 -0.9649729842259527 647:1.0 
-1.0 -1.0 214:1.0 
-0.13997185985893934 -0.0 413:1.0 581:1.0 583:1.0 
-1.0 -1.0 68:1.0 657:1.0 
-0.9862131114413596 -0.0045252484418311445 64:1.0 368:1.0 369:1.0 
-1.0 -1.0 35:1.0 171:1.0 376:1.0 
-0.0 -0.5326598324810654 29:1.0 50:1.0 63:1.0 166:1.0 263:1.0 358:1.0 402:1.0 
-0.5141288384217099 -0.2083492787690228 179:1.0 206:1.0 209:1.0 334:1.0 374:1.0 611:1.0 
-1.0 -0.43278635725056286 213:1.0 589:1.0 
-0.0 -0.5812930655332356 64:1.0 296:1.0 355:1.0 494:1.0 662:1.0 
-1.0 -0.7916470168503589 437:1.0 586:1.0 
-1.0 -1.0 
-1.0 -1.0 319:1.0 664:1.0 
-1.0 -0.9649423129238518 521:1.0 
-0.8049527638501868 -0.9509210244140537 506:1.0 
-1.0 -1.0 7:1.0 397:1.0 665:1.0 
-0.986228777192314 -0.8578674928195863 112:1.0 553:1.0 
-0.31979473948156345 -0.0 10:1.0 209:1.0 515:1.0 
-0.4918518302244525 -0.0 163:1.0 272:1.0 447:1.0 592:1.0 597:1.0 616:1.0 
-1.0 -1.0 
-0.4665781086162602 -0.0 165:1.0 167:1.0 514:1.0 
-0.024822767143777635 -0.0 68:1.0 316:1.0 630:1.0 657:1.0 
-1.0 -0.9652417176639381 651:1.0 
-0.838680481736491 -0.6798844171599898 100:1.0 123:1.0 658:1.0 
-0.0 -1.0 61:1.0 123:1.0 140:1.0 658:1.0 
-0.16739567371745304 -0.0 63:1.0 64:1.0 557:1.0 
-0.6455654414041574 -0.2790959055879745 334:1.0 535:1.0 
-1.0 -0.3919857709971489 163:1.0 627:1.0 
-1.0 -1.0 7:1.0 665:1.0 
-0.8038751981704926 -0.18661040945917962 496:1.0 
-0.24838421239761907 -0.0 68:1.0 176:1.0 657:1.0 
-1.0 -1.0 35:1.0 
-0.0 -0.009943651417107806 62:1.0 63:1.0 285:1.0 296:1.0 
-1.0 -1.0 8:1.0 652:0.9395168905275947 
-0.804819642324551 -0.9998067901259166 22:1.0 90:1.0 549:1.0 653:1.0 
-0.6487412677544835 -0.0 166:1.0 498:1.0 
-0.9356398773378187 -1.0 214:1.0 
-0.0029873743009512844 -0.0 262:1.0 494:1.0 662:1.0 
-1.0 -1.0 351:1.0 
-0.0 -1.0 214:1.0 522:1.0 
-0.7202049625150465 -0.061235396773548736 123:1.0 175:0.9514543276048837 195:1.0 654:1.0 658:1.0 
-0.2529509637589523 -0.0 515:1.0 
-1.0 -0.0 35:1.0 530:1.0 
-0.0 -0.4041617147128561 411:1.0 503:1.0 558:1.0 
-1.0 -0.0 61:1.0 
-1.0 -1.0 68:1.0 657:1.0 
-0.012989467963004604 -0.03301967776423962 396:1.0 569:1.0 645:1.0 649:1.0 
-0.6762998403174956 -1.0 233:1.0 345:1.0 399:1.0 583:1.0 
-0.424530875744484 -0.0 47:1.0 180:1.0 526:1.0 598:1.0 
-0.28802986207380005 -0.0 49:1.0 526:1.0 
-0.0 -0.19884637691678272 227:1.0 518:1.0 577:1.0 641:1.0 
-1.0 -0.9651623374009662 561:1.0 
-0.3817190868389268 -0.2583817539046326 8:1.0 62:1.0 180:1.0 452:1.0 526:1.0 538:1.0 
-0.8993729535760808 -0.0 494:1.0 662:1.0 
-0.7533770956239969 -1.0 235:1.0 383:1.0 565:1.0 
-0.28710997537826516 -0.41633056514537514 196:1.0 341:1.0 408:1.0 509:1.0 628:1.0 
-1.0 -1.0 112:1.0 
-0.6971702928617628 -0.3036115167291679 250:1.0 507:1.0 562:1.0 
-0.14106607622028755 -0.0 61:1.0 352:1.0 
-0.5460547215607507 -0.0 137:1.0 532:1.0 
-1.0 -0.0 565:1.0 
-1.0 -1.0 465:1.0 
-1.0 -1.0 
-1.0 -1.0 68:1.0 166:1.0 657:1.0 
-0.14904214656780823 -0.8629851654956459 61:1.0 406:1.0 
-1.0 -0.8935575350666954 86:1.0 176:1.0 
-1.0 -1.0 358:1.0 
-0.14960847933312404 -0.11266926332657737 32:1.0 51:1.0 105:1.0 252:1.0 620:1.0 629:1.0 
-0.8076885997187221 -0.9650707848656107 373:1.0 
-1.0 -0.9515694876084865 246:1.0 
-1.0 -0.33859600341876583 61:1.0 235:1.0 
-1.0 -0.9319327599268905 513:1.0 
-0.2682750979077479 -0.4828494352271083 358:1.0 525:1.0 650:1.0 
-0.8592100914297328 -0.7855475855412924 68:1.0 71:1.0 143:1.0 144:1.0 657:1.0 
-1.0 -1.0 
-1.0 -0.8584915288286022 23:1.0 61:1.0 310:1.0 
