svm_type c_svc
kernel_type linear
nr_class 3
total_sv 981
rho -0.9133688550354239 -0.7949520210417469 0.04191770249832861
label 0 1 2
nr_sv 380 301 300
SV
1.0 1.0 
0.08642703117850051 0.1831783996826467 1:1.0 
1.0 1.0 
0.027626587593927547 0.0 2:1.0 3:1.0 13:1.0 14:1.0 15:1.0 675:1.0 683:1.0 
1.0 1.0 
0.27105615487882795 0.0 9:1.0 16:1.0 17:1.0 18:1.0 
0.0 0.026847405625693956 2:1.0 4:1.0 19:1.0 20:1.0 21:1.0 22:1.0 675:1.0 
1.0 0.0 2:1.0 3:1.0 675:1.0 683:1.0 
1.0 1.0 23:1.0 24:1.0 
1.0 1.0 
1.0 1.0 
1.0 1.0 
0.08667208733723838 0.16245574931160037 29:1.0 
0.4230468570815368 0.15607794064523256 31:1.0 32:1.0 33:1.0 416:1.0 623:1.0 
0.08591217732540302 0.13427255282717776 37:1.0 
0.680985546333051 0.10236569615174261 41:1.0 42:1.0 
1.0 1.0 
0.2650756340632537 0.0 43:1.0 44:1.0 45:1.0 46:1.0 
0.7241011930339222 0.0 32:1.0 47:1.0 48:1.0 
1.0 1.0 
0.8019021464651275 0.0 2:1.0 3:1.0 49:1.0 675:1.0 683:1.0 
0.04332852325171717 0.32182816518448115 50:1.0 51:1.0 
0.0 0.2043454640034834 36:1.0 52:1.0 
1.0 0.0 53:1.0 54:1.0 
0.0 0.38109774732750745 55:1.0 56:1.0 57:1.0 
0.0 1.0 47:0.9479525034613154 62:1.0 63:1.0 64:1.0 65:1.0 399:1.0 
0.0 0.15832662323121927 66:1.0 67:1.0 68:1.0 69:1.0 70:1.0 
0.591992770015122 0.5625543965855274 66:1.0 71:1.0 72:1.0 73:1.0 676:1.0 
0.1475237788674107 0.11472657592245512 35:1.0 74:1.0 75:1.0 76:1.0 423:1.0 
0.08645281520158503 0.0 55:1.0 
0.03053819391489736 0.0 2:1.0 3:1.0 40:1.0 77:1.0 78:1.0 675:1.0 683:1.0 
1.0 1.0 582:1.0 
1.0 1.0 
1.0 1.0 
1.0 0.0 2:1.0 3:1.0 675:1.0 683:1.0 
1.0 1.0 
1.0 1.0 
0.006812020344132863 0.9438042027056532 88:1.0 89:1.0 564:1.0 
1.0 1.0 
1.0 0.0 92:1.0 413:1.0 
1.0 1.0 
0.4704208200757131 0.20489474958901185 93:1.0 
1.0 1.0 409:1.0 
0.10627481460886457 0.0 95:1.0 96:1.0 97:1.0 98:1.0 99:1.0 100:1.0 101:1.0 102:1.0 
1.0 1.0 
0.0865295363751786 1.0 103:1.0 
1.0 1.0 
1.0 0.014087204799983793 8:1.0 433:1.0 
0.5116893865363972 0.0 9:1.0 41:1.0 104:1.0 
0.059550093755237475 0.2947087419909427 108:1.0 109:1.0 110:1.0 
1.0 1.0 
1.0 1.0 
0.0 1.0 35:1.0 
1.0 1.0 71:1.0 676:1.0 
1.0 0.0 102:1.0 124:0.9479525034613154 
0.1463441262664774 0.0 24:1.0 125:1.0 
1.0 0.0 2:1.0 3:1.0 675:1.0 683:1.0 
1.0 1.0 
0.08645538570042843 0.20491384200664883 461:1.0 
0.21380691434030802 0.204802524291487 9:1.0 26:1.0 97:1.0 120:1.0 126:1.0 127:1.0 677:1.0 
0.01983117838585744 0.49329535538249125 21:1.0 128:0.9415410972642327 129:1.0 606:1.0 
1.0 0.5476825789812785 32:1.0 115:1.0 
0.08225399842350797 0.0809203653469321 45:1.0 121:1.0 135:1.0 136:1.0 
0.02688470394574438 0.0 2:1.0 3:1.0 9:1.0 58:1.0 143:1.0 675:1.0 683:1.0 
1.0 1.0 
1.0 0.4373443065831229 145:1.0 146:1.0 473:1.0 
0.049941735820715025 0.0 38:1.0 
0.0 1.0 148:1.0 149:1.0 
1.0 1.0 
0.2992017738606826 0.004694799574076575 8:1.0 60:1.0 96:1.0 374:1.0 
0.0 0.20675858115270485 142:1.0 155:1.0 
0.10958631636497167 1.0 148:1.0 149:1.0 469:1.0 
0.5092640674712766 1.0 517:1.0 518:1.0 
1.0 1.0 
1.0 1.0 
1.0 0.2047029754483012 421:1.0 
0.0 0.20456901032119917 52:1.0 140:1.0 
0.08664800461097488 0.0 161:1.0 
0.09750934656000616 0.23131002375652246 162:0.9415410972642327 
0.5175919173774536 0.14274399638615867 163:1.0 330:1.0 
0.08666188235934792 0.20492433556205097 168:1.0 
0.0 0.4406582731560928 161:1.0 169:1.0 170:1.0 171:1.0 
0.012109211370695946 0.0 2:1.0 3:1.0 13:1.0 79:1.0 675:1.0 683:1.0 
0.0 0.061016214327087745 174:1.0 
0.5805526173090797 0.6789080570951961 40:1.0 175:1.0 359:1.0 
0.0 0.5462943671462004 69:1.0 
0.0 0.7468937814059592 27:1.0 
0.03710128819924021 0.054303357283993124 86:1.0 118:1.0 
0.0 0.0736473536189866 90:1.0 178:1.0 
1.0 1.0 63:1.0 71:1.0 175:1.0 179:1.0 180:1.0 676:1.0 684:1.0 
0.08654528486509594 0.20497539198211975 182:1.0 
0.8212515873255739 0.20491074991584365 44:1.0 
0.0 0.5988307892101384 183:1.0 
0.544132161639311 1.0 184:1.0 
1.0 1.0 
0.08633917521567647 0.2048311755637977 189:1.0 
1.0 0.9242042918372737 24:1.0 
1.0 1.0 
1.0 1.0 71:1.0 676:1.0 
1.0 0.0 2:1.0 3:1.0 675:1.0 683:1.0 
0.2764298211499354 0.10245880788478913 191:1.0 489:1.0 
0.0 1.0 192:1.0 
0.0 0.22988950641860145 136:1.0 194:1.0 195:1.0 196:1.0 605:1.0 
1.0 1.0 
0.15417064579081477 0.0 2:1.0 3:1.0 197:1.0 675:1.0 683:1.0 
0.0 0.2068179355371881 142:1.0 199:1.0 
1.0 1.0 
0.867220867549632 1.0 2:1.0 3:1.0 127:1.0 146:1.0 200:1.0 201:1.0 391:1.0 551:1.0 650:1.0 675:1.0 677:1.0 683:1.0 
0.7768572424986517 0.0 2:1.0 3:1.0 130:1.0 131:1.0 132:1.0 133:1.0 675:1.0 683:1.0 
1.0 0.0 2:1.0 3:1.0 675:1.0 683:1.0 
1.0 1.0 
0.029212582771213195 0.01792816705319029 54:1.0 202:1.0 203:1.0 204:1.0 
0.2615397994521479 0.0 54:1.0 205:1.0 206:1.0 
1.0 1.0 
0.0 0.0427233732618811 29:1.0 33:1.0 74:1.0 
1.0 0.006525976235305477 207:1.0 
0.04340494993364582 0.0 208:1.0 209:1.0 
0.0019456064524767762 0.4922127792384043 210:1.0 211:1.0 
0.4345925875563043 0.12477868849871285 32:1.0 212:1.0 213:1.0 
0.5641083842920886 0.6639299244604978 70:1.0 108:1.0 206:1.0 217:1.0 
0.00684211058756123 0.044464031138237256 9:1.0 
1.0 1.0 
0.0 1.0 151:1.0 178:1.0 373:1.0 
0.41233074226496985 0.18058224310367926 2:1.0 675:1.0 
1.0 0.5553140200265199 654:1.0 
0.21051262983198304 1.0 218:1.0 613:1.0 
0.4251470949612767 0.0 2:1.0 19:1.0 102:1.0 147:0.9542866452692822 675:1.0 
1.0 1.0 
0.00940221168822514 0.8284626736911662 21:1.0 219:1.0 638:1.0 
1.0 1.0 3:1.0 220:1.0 221:1.0 683:1.0 
0.0 0.19533809144674483 11:1.0 53:1.0 170:1.0 196:1.0 
1.0 1.0 
1.0 0.0 2:1.0 222:1.0 675:1.0 
0.6190525353493745 0.0 37:1.0 223:1.0 
0.07134950172794464 0.0 115:1.0 116:1.0 117:1.0 224:1.0 225:1.0 
0.16709527152637058 0.4849386690542766 71:1.0 106:1.0 226:1.0 487:1.0 652:1.0 676:1.0 
0.9116423515745025 0.0 196:1.0 227:1.0 
1.0 1.0 167:1.0 
0.5771390651321956 1.0 65:1.0 127:1.0 170:1.0 228:1.0 229:1.0 341:1.0 641:1.0 677:1.0 
1.0 1.0 
0.0 0.02164800904231963 1:1.0 13:1.0 20:1.0 54:1.0 74:1.0 101:1.0 144:1.0 
0.5631636939466664 0.0 69:1.0 214:1.0 233:1.0 
1.0 0.0 2:1.0 3:1.0 675:1.0 683:1.0 
1.0 0.20487715156228908 353:1.0 
0.02673212212078307 0.7044497271054116 110:1.0 
0.441962592783826 0.7238894531449954 74:1.0 134:1.0 239:1.0 678:1.0 
0.5094713441303151 0.34138239523769 48:1.0 142:1.0 213:1.0 233:1.0 240:1.0 632:1.0 
0.0 0.2046982250122233 34:1.0 
1.0 0.0 2:1.0 3:1.0 675:1.0 683:1.0 
0.49407955567396367 1.0 108:1.0 130:1.0 229:1.0 
0.37424484081142234 1.0 52:1.0 
0.03863560176230744 0.0 219:1.0 241:1.0 
1.0 0.8013337871348872 30:1.0 71:1.0 92:1.0 184:1.0 676:1.0 
1.0 1.0 
1.0 1.0 242:1.0 
0.04071086054469686 1.0 8:1.0 
1.0 1.0 
0.0 1.0 129:1.0 244:1.0 
0.105639702928635 1.0 178:0.9061447530240242 
1.0 1.0 
0.0 0.7910210268730022 170:1.0 246:1.0 
0.08643622901373417 0.0 247:1.0 
1.0 0.0 2:1.0 3:1.0 675:1.0 683:1.0 
1.0 1.0 
1.0 1.0 
1.0 0.0 145:1.0 
1.0 0.0 92:1.0 248:0.9479525034613154 249:1.0 250:1.0 
1.0 1.0 71:1.0 676:1.0 
1.0 0.0 2:1.0 3:1.0 675:1.0 683:1.0 
1.0 1.0 71:1.0 676:1.0 
0.0 0.3801238567769139 166:1.0 247:1.0 253:1.0 254:1.0 255:1.0 
0.0 0.10504193989266575 256:1.0 
0.0 0.05408988930031477 70:1.0 184:1.0 258:1.0 
0.08644576086696278 0.1864976877904808 259:1.0 
0.24628127806085914 1.0 8:1.0 66:1.0 
0.028008894365039675 0.0 2:1.0 3:1.0 13:1.0 15:1.0 257:1.0 675:1.0 683:1.0 
1.0 1.0 
0.0 0.36416560968599143 232:1.0 611:1.0 
0.04331999629625414 0.10254731731818884 84:1.0 85:1.0 
0.663336744869144 1.0 71:1.0 246:1.0 676:1.0 
0.0 0.047737454138689746 47:1.0 260:1.0 261:1.0 
0.7685967469753564 0.9131889213728374 250:1.0 
0.0 1.0 35:1.0 
0.3574669182743098 1.0 71:1.0 262:1.0 676:1.0 
1.0 1.0 
0.0 0.24000184606132297 38:1.0 39:1.0 254:1.0 255:1.0 
0.0 0.19818753015355312 4:1.0 49:1.0 207:1.0 227:1.0 616:1.0 
0.6243071373836906 0.5389706709842457 68:0.9499999874 102:0.9620851208387015 230:0.9479525034613154 
0.10965728509427536 0.4739324140929077 31:1.0 71:1.0 167:1.0 527:1.0 676:1.0 
1.0 1.0 
1.0 1.0 
1.0 1.0 
0.5026891952906231 0.09839417180185853 16:1.0 17:1.0 40:1.0 188:1.0 265:1.0 372:1.0 
1.0 1.0 
0.0031806584801178208 0.003894650061068538 2:1.0 3:1.0 11:1.0 13:1.0 234:1.0 235:1.0 236:1.0 237:1.0 238:1.0 675:1.0 683:1.0 
0.0 0.030505644727920337 14:1.0 18:1.0 
1.0 0.9303934786154167 35:1.0 425:1.0 
0.27497102176894217 0.28004234840546416 249:1.0 269:1.0 658:1.0 
0.17342904839228687 0.0 73:1.0 181:1.0 270:1.0 
1.0 1.0 71:1.0 222:1.0 600:1.0 676:1.0 
1.0 1.0 
1.0 1.0 66:1.0 
0.19153341325446588 0.5399848846554995 71:1.0 137:1.0 138:1.0 676:1.0 
0.740979998502673 2.3298681325722992E-4 196:1.0 
0.08645445988249785 0.20484394481421464 275:1.0 
0.7519528688432068 1.0 216:1.0 343:1.0 
0.0 0.6974389159989335 277:1.0 451:1.0 
1.0 1.0 354:1.0 
0.08625765485885098 0.4104957037658617 190:1.0 
0.24036695180278742 0.0 36:1.0 109:1.0 184:1.0 194:1.0 227:1.0 279:1.0 
0.3573075790946267 1.0 71:1.0 154:1.0 676:1.0 
0.0 0.018370635710394656 170:1.0 259:1.0 
0.5449308958444304 0.09302139345575494 71:1.0 74:1.0 119:1.0 130:1.0 347:1.0 676:1.0 
0.0 0.289318076619683 74:1.0 75:1.0 
1.0 0.0 2:1.0 3:1.0 348:1.0 675:1.0 683:1.0 
1.5637810710394435E-4 0.0 2:1.0 3:1.0 87:1.0 114:1.0 281:1.0 282:1.0 283:1.0 284:1.0 285:1.0 675:1.0 683:1.0 
0.020721897962919723 0.0 2:1.0 3:1.0 8:1.0 11:1.0 675:1.0 683:1.0 
0.37013832289875337 0.1790742376075418 49:0.9516670196927766 135:1.0 286:1.0 
0.0 0.053403664727926 178:1.0 184:1.0 
1.0 1.0 
1.0 1.0 
1.0 1.0 
1.0 0.7395100654203676 201:1.0 287:1.0 366:1.0 657:1.0 
0.0 0.8287189038229158 115:1.0 116:1.0 
0.628684148498609 0.0 34:1.0 252:1.0 288:1.0 
0.012843624350536768 0.0 2:1.0 3:1.0 83:1.0 114:1.0 289:1.0 675:1.0 683:1.0 
0.0035957302040421123 0.0 9:1.0 34:1.0 95:1.0 225:1.0 291:1.0 
1.0 1.0 170:1.0 
1.0 1.0 8:1.0 
0.22614063129270895 0.015334595741392329 25:1.0 152:1.0 215:1.0 293:1.0 
1.0 1.0 
0.0 0.8601199625306418 106:1.0 180:1.0 
1.0 1.0 242:1.0 
0.0 0.4569115040157473 104:1.0 228:1.0 
1.0 1.0 35:1.0 
1.0 1.0 
1.0 1.0 
1.0 1.0 
0.0 0.6069747556964398 270:1.0 
0.0 1.0 200:1.0 
1.0 1.0 8:1.0 
0.08646679981924048 0.20496096415592124 273:1.0 
1.0 1.0 
1.0 1.0 
1.0 0.0 2:1.0 3:1.0 34:1.0 62:1.0 121:1.0 169:1.0 222:1.0 675:1.0 683:1.0 
1.0 1.0 
0.9800721142484405 1.0 8:1.0 
1.0 1.0 
1.0 1.0 
0.12313744752107358 0.0 43:1.0 295:1.0 
0.9696307448044119 0.20499396478746765 404:1.0 
0.04341525383528398 0.022453219341912505 2:1.0 3:1.0 10:1.0 11:1.0 12:1.0 675:1.0 683:1.0 
0.09129352220195501 0.0 136:1.0 
1.0 1.0 
1.0 1.0 7:1.0 220:1.0 
0.0 0.14872982464030948 52:1.0 170:1.0 246:1.0 
1.0 1.0 
1.0 1.0 
1.0 1.0 231:1.0 
1.0 0.2050321848058681 379:1.0 
1.0 1.0 
0.9470428408634217 0.5005407842869041 196:1.0 
0.014327896158188367 0.0 34:1.0 64:1.0 92:1.0 143:1.0 147:1.0 290:1.0 
1.0 1.0 
1.0 1.0 52:1.0 71:1.0 210:1.0 245:1.0 295:1.0 676:1.0 
0.9396523482089838 0.2627249621920557 297:0.8830820463442043 
1.0 0.0 2:1.0 3:1.0 675:1.0 683:1.0 
0.0 0.5280562950097984 147:1.0 167:1.0 244:1.0 525:1.0 647:1.0 
1.0 1.0 
0.6927160021804102 0.0 2:1.0 3:1.0 243:1.0 345:1.0 675:1.0 683:1.0 
1.0 1.0 298:0.9033341127688574 
1.0 1.0 
0.08628976325674999 1.0 603:1.0 
1.0 1.0 54:1.0 
0.08635422488491516 1.0 408:1.0 
0.1626478766197068 0.3013142947422757 266:1.0 299:1.0 467:1.0 
1.0 0.40282255595552224 89:1.0 300:1.0 
0.11577076728516063 0.12138972981859361 2:1.0 3:1.0 87:1.0 114:1.0 281:1.0 282:1.0 283:1.0 284:1.0 285:1.0 675:1.0 683:1.0 
0.5165973740961607 0.47251669882236785 135:1.0 292:1.0 
0.0 0.06941444956769413 103:0.8359028440700123 202:1.0 274:1.0 
0.1262230182760886 0.0 6:1.0 32:1.0 244:1.0 280:1.0 
1.0 1.0 
1.0 1.0 
0.9121943131694119 0.0 102:1.0 301:1.0 
0.0 0.5978110810565 270:1.0 
1.0 1.0 170:1.0 
0.07099031814623394 0.0 2:1.0 3:1.0 79:1.0 80:1.0 675:1.0 683:1.0 
1.0 0.0 2:1.0 3:1.0 41:1.0 128:1.0 239:1.0 272:1.0 675:1.0 678:1.0 683:1.0 
0.06192087770296506 0.0 2:1.0 3:1.0 77:1.0 267:1.0 675:1.0 683:1.0 
0.583606639841348 0.0 34:1.0 170:1.0 303:1.0 
1.0 1.0 
0.19899551832057255 2.1741514616645027E-4 2:1.0 225:1.0 296:1.0 675:1.0 
1.0 0.022501942883411875 2:1.0 3:1.0 11:1.0 179:1.0 675:1.0 683:1.0 684:1.0 
0.08647075758580411 0.6123806480371873 598:1.0 
0.0 0.5286302032149837 56:1.0 305:1.0 
0.0863935766937529 1.0 67:1.0 
0.004854257882741525 0.0 302:1.0 
0.9924335617132383 1.0 9:1.0 
1.0 1.0 
0.6409183617780567 1.0 526:1.0 575:1.0 
0.14652942885488923 4.03065557488173E-4 24:1.0 192:1.0 
1.0 0.9508061499112469 102:1.0 108:1.0 303:1.0 397:1.0 617:1.0 
0.0 0.20489031420564197 46:1.0 
0.08634996180270535 0.20476181687491338 306:1.0 
0.961082011920148 0.8193243278894545 2:1.0 127:1.0 268:1.0 675:1.0 677:1.0 
0.25637211564482915 0.4581144755638418 27:1.0 
1.0 1.0 
0.0 0.3431535773159005 181:1.0 307:1.0 659:1.0 
0.2616104616612189 0.20520416534915897 440:1.0 
0.0863898654368196 0.8246487607807247 166:1.0 
0.28165008595001123 0.6977889673871549 66:1.0 176:1.0 200:1.0 287:1.0 383:1.0 
1.0 1.0 
0.1711203941808961 0.0 62:1.0 305:1.0 478:1.0 
0.028830232304880694 0.0682923838540964 251:1.0 309:1.0 310:1.0 
0.0 0.2726657988117543 176:1.0 311:1.0 
1.0 0.3408638558520609 64:1.0 167:1.0 312:1.0 
0.49941823359763615 0.0 2:1.0 3:1.0 48:1.0 141:1.0 675:1.0 683:1.0 
0.47675696257347405 0.0 9:1.0 95:1.0 502:1.0 
0.0 0.2530692135537265 43:1.0 74:1.0 127:1.0 198:1.0 295:1.0 677:1.0 
0.16515073639578867 0.0 2:1.0 3:1.0 156:1.0 313:1.0 314:1.0 675:1.0 683:1.0 
1.0 1.0 9:1.0 71:1.0 676:1.0 
0.012413332735394763 0.09630302436077535 118:1.0 278:1.0 308:1.0 493:1.0 
0.0 1.0 142:1.0 
1.0 1.0 
0.0 0.4849181249669207 38:1.0 74:1.0 208:1.0 315:1.0 597:1.0 
0.3178132692376556 0.2916948307227943 71:1.0 111:1.0 112:1.0 250:1.0 316:1.0 541:1.0 676:1.0 
0.6658740962706811 0.0 2:1.0 3:1.0 106:1.0 167:1.0 218:1.0 304:1.0 675:1.0 683:1.0 
1.0 1.0 
0.08646495524865094 1.0 318:1.0 
1.0 0.07914787501936052 92:1.0 
1.0 0.0 40:1.0 74:1.0 82:1.0 393:1.0 429:1.0 
1.0 0.0 2:1.0 3:1.0 288:1.0 675:1.0 683:1.0 
1.0 1.0 
0.08647995882116605 0.0 307:1.0 
1.0 1.0 
1.0 1.0 
0.08144303011693799 0.20501862347123892 302:1.0 
0.18228229570459173 0.14376822611954118 18:1.0 71:1.0 151:1.0 152:1.0 153:1.0 174:1.0 258:1.0 676:1.0 
1.0 1.0 
0.37920298638892086 0.042673864906091846 5:1.0 54:1.0 279:1.0 320:0.9415410972642327 
1.0 1.0 
1.0 1.0 
1.0 1.0 
1.0 1.0 321:0.9267909106363923 
1.0 1.0 
0.767207520516563 0.20206303106542803 2:1.0 3:1.0 198:1.0 217:1.0 431:1.0 675:1.0 683:1.0 
1.0 0.9324957275055151 311:1.0 
1.0 1.0 
0.08655367171763537 1.0 550:1.0 
1.0 1.0 
1.0 1.0 
1.0 1.0 406:1.0 
0.9270006460461393 1.0 35:1.0 
1.0 1.0 
1.0 1.0 
0.5965990884799496 1.0 127:1.0 170:1.0 377:1.0 572:1.0 677:1.0 
0.08647075758580414 0.20517722378129333 94:1.0 
0.0 0.01955580899951877 269:1.0 322:1.0 
0.00837435661728576 0.0 323:1.0 
1.0 1.0 
0.0637151272369025 0.0 106:1.0 324:0.9415410972642327 403:1.0 
1.0 0.20490610171343626 313:1.0 
0.08641656738335463 0.2050562535606998 177:1.0 
0.8804242013204334 0.05867051606666357 2:1.0 3:1.0 350:1.0 456:1.0 675:1.0 683:1.0 
0.0 0.07066907402919773 37:1.0 40:1.0 223:1.0 227:1.0 260:1.0 265:1.0 524:1.0 
0.3292383688284596 0.0 277:1.0 313:1.0 314:1.0 466:1.0 
0.03657884757782177 0.0 2:1.0 3:1.0 38:1.0 39:1.0 40:1.0 675:1.0 683:1.0 
1.0 1.0 127:1.0 677:1.0 
0.023179130086102635 0.0 34:1.0 130:1.0 167:1.0 184:1.0 291:1.0 312:1.0 
0.601640998353257 0.17155831571451222 232:1.0 287:1.0 
1.0 0.0 2:1.0 3:1.0 4:1.0 8:1.0 21:1.0 22:1.0 675:1.0 683:1.0 
1.0 0.0 2:1.0 3:1.0 675:1.0 683:1.0 
0.753391931546812 0.09964616552930983 74:1.0 256:1.0 325:1.0 394:1.0 
0.5093794973546453 0.0 211:1.0 400:1.0 
0.15428165338355745 0.0 2:1.0 3:1.0 261:1.0 675:1.0 683:1.0 
0.2603473987197024 1.0 35:1.0 
0.08648719015439534 0.9345619362490815 183:1.0 
0.02647851606071529 0.2049283404079748 324:1.0 
1.0 0.0 8:0.9704940524621375 22:1.0 130:1.0 317:1.0 
0.0780700076075129 0.20502835872393313 323:1.0 
-0.7277608833658991 0.04247015709283175 2:1.0 3:1.0 30:1.0 325:1.0 326:1.0 675:1.0 683:1.0 
-1.0 1.0 
-1.0 1.0 327:1.0 
-1.0 0.0 2:1.0 3:1.0 130:1.0 132:1.0 133:1.0 288:1.0 675:1.0 683:1.0 
-0.23766175898275232 0.0 179:1.0 684:1.0 
-1.0 1.0 
-1.0 1.0 
-1.0 1.0 108:1.0 
-1.0 1.0 74:1.0 
-0.058600206493516833 0.0 332:1.0 680:1.0 
-1.0 0.07260564747282958 2:1.0 3:1.0 16:1.0 17:1.0 44:1.0 245:1.0 339:1.0 675:1.0 683:1.0 
-1.0 1.0 220:1.0 
-1.0 1.0 71:1.0 213:1.0 295:1.0 343:1.0 595:1.0 676:1.0 
-0.00160355637784948 0.0 344:1.0 
-0.06134518975689434 0.0 2:1.0 3:1.0 170:1.0 321:0.9267909106363923 345:1.0 675:1.0 683:1.0 
-1.0 1.0 
-1.0 1.0 115:1.0 349:1.0 
-0.0 0.6098970826376096 54:1.0 220:1.0 287:1.0 329:1.0 569:1.0 600:1.0 679:1.0 
-0.009181675746305443 0.0 35:1.0 129:1.0 329:1.0 679:1.0 
-1.0 1.0 92:1.0 359:1.0 
-0.15350865713530548 0.10737017948791784 194:1.0 362:1.0 
-0.8424493251725096 0.0 34:1.0 71:1.0 337:1.0 676:1.0 681:1.0 
-0.2565551695059518 0.0 198:1.0 230:1.0 364:1.0 365:1.0 
-0.23887421446451595 0.0 329:1.0 368:1.0 617:1.0 679:1.0 
-0.9568415285438652 1.0 369:1.0 370:1.0 
-0.4170645838471256 0.0 2:1.0 3:1.0 108:1.0 216:1.0 317:1.0 366:1.0 376:1.0 675:1.0 683:1.0 
-0.18818199739148603 0.8003939171834268 48:1.0 127:1.0 170:1.0 377:1.0 378:1.0 601:1.0 602:1.0 677:1.0 
-0.9566910907558612 1.0 379:1.0 380:1.0 
-1.0 1.0 582:1.0 
-0.0 0.2892639219151313 239:1.0 343:1.0 678:1.0 
-1.0 0.0 2:1.0 3:1.0 675:1.0 683:1.0 
-0.8774390634935947 0.23047671552447746 2:1.0 71:1.0 366:1.0 675:1.0 676:1.0 
-1.0 0.2411681066954307 48:1.0 
-0.47268767465261863 0.18928805298603704 225:1.0 386:1.0 387:1.0 388:1.0 
-0.6186227474726119 0.7140536040238907 37:1.0 223:1.0 359:1.0 382:1.0 658:1.0 
-1.0 0.0 2:1.0 3:1.0 394:1.0 675:1.0 683:1.0 
-0.3043950195886328 0.00853687018899525 395:1.0 396:1.0 397:1.0 
-1.0 1.0 167:1.0 
-1.0 1.0 402:1.0 
-1.0 0.0 9:1.0 130:1.0 345:1.0 404:0.8830820463442043 
-0.3342190097067833 0.0 196:1.0 217:1.0 239:1.0 317:0.9542866452692822 384:1.0 678:1.0 
-1.0 1.0 71:1.0 152:1.0 676:1.0 
-1.0 1.0 
-1.0 1.0 
-0.9712565560428341 0.680575017445424 367:1.0 405:1.0 406:1.0 
-1.0 0.0 2:1.0 3:1.0 675:1.0 683:1.0 
-1.0 1.0 
-1.0 1.0 8:1.0 127:1.0 287:1.0 677:1.0 
-1.0 1.0 365:1.0 
-1.0 1.0 
-1.0 1.0 
-0.3989096479536056 0.0 2:1.0 3:1.0 135:1.0 170:1.0 409:1.0 410:1.0 675:1.0 683:1.0 
-1.0 1.0 
-0.0 1.0 127:1.0 362:1.0 677:1.0 
-1.0 0.6291755186999066 11:1.0 35:0.9672664782960723 66:1.0 279:1.0 303:0.9499999874 623:1.0 
-0.0 0.8520899185765899 108:1.0 179:1.0 684:1.0 
-0.23366686205393072 0.7972312462802322 71:1.0 412:1.0 413:1.0 414:1.0 676:1.0 
-0.0 0.3688960556550436 71:1.0 146:1.0 369:1.0 378:1.0 415:1.0 416:1.0 612:1.0 676:1.0 
-1.0 1.0 
-0.025609298967146227 0.0 137:1.0 337:1.0 415:1.0 681:1.0 
-0.0 0.8268904875174075 8:1.0 127:1.0 362:1.0 677:1.0 
-0.0 0.20797719980647786 127:1.0 417:1.0 677:1.0 
-1.0 1.0 201:1.0 350:1.0 
-1.0 0.10427190165756564 124:0.9479525034613154 
-1.0 0.500257549587545 391:0.9107109769894385 425:1.0 
-1.0 1.0 519:1.0 
-0.42499516094622247 0.3642693485451975 8:1.0 35:1.0 71:1.0 295:1.0 328:1.0 368:1.0 428:1.0 676:1.0 
-0.11926682031092609 0.16103710303078403 40:1.0 184:1.0 429:1.0 430:1.0 431:1.0 432:1.0 
-1.0 1.0 
-1.0 0.0 2:1.0 3:1.0 32:1.0 53:1.0 92:1.0 432:1.0 675:1.0 683:1.0 
-1.0 0.0 2:1.0 3:1.0 675:1.0 683:1.0 
-1.0 0.0 2:1.0 348:1.0 675:1.0 
-0.0 0.2896952144238588 34:1.0 129:1.0 220:1.0 288:1.0 291:1.0 
-0.5158322019576368 0.0 2:1.0 3:1.0 228:1.0 391:1.0 675:1.0 683:1.0 
-0.9775199087487455 0.18734019776736233 381:1.0 
-0.8466397515295008 1.0 35:1.0 362:1.0 
-1.0 1.0 
-0.06666797448182062 0.008012782505501003 346:1.0 436:0.94530094099201 
-0.0049461080769524395 0.0 437:1.0 438:1.0 
-0.17531932277356457 0.4405846487917877 93:1.0 412:1.0 439:1.0 440:1.0 553:1.0 661:1.0 
-0.0834417647015854 0.0 42:1.0 130:1.0 167:1.0 299:1.0 337:1.0 681:1.0 
-0.7365508989554642 0.0 331:1.0 
-0.0 0.012052204237868546 321:1.0 441:1.0 442:1.0 
-0.9318020289540827 0.6711107035045178 102:1.0 130:1.0 606:1.0 
-0.7660533898220924 0.0 2:1.0 3:1.0 222:1.0 413:1.0 675:1.0 683:1.0 
-1.0 0.8395191178579587 222:1.0 
-1.0 0.5209301604373955 304:1.0 450:1.0 
-0.9961036660804254 1.0 242:1.0 
-1.0 1.0 
-1.0 0.0 2:1.0 3:1.0 675:1.0 683:1.0 
-1.0 0.758601761194297 71:1.0 249:1.0 427:1.0 676:1.0 
-0.9927681241273958 0.4694668864231877 233:1.0 455:0.9379113125386787 
-1.0 1.0 170:1.0 366:1.0 
-1.0 0.28753918189684863 73:1.0 379:1.0 
-0.973200210360583 0.8295669382568711 127:1.0 433:1.0 677:1.0 
-0.2590038952555003 0.0 239:1.0 678:1.0 
-1.0 0.0 22:1.0 
-1.0 1.0 321:0.9267909106363923 
-1.0 1.0 222:1.0 
-1.0 1.0 669:1.0 
-1.0 1.0 63:1.0 371:0.9593453270656368 
-0.7799582095616744 1.0 298:1.0 364:1.0 
-1.0 0.7057143474513368 23:1.0 108:1.0 460:1.0 
-0.0 0.40836626919837593 369:1.0 394:1.0 461:1.0 
-0.0 0.14148487475201152 71:1.0 345:1.0 393:1.0 676:1.0 
-1.0 1.0 
-1.0 1.0 
-1.0 1.0 71:1.0 410:1.0 676:1.0 
-1.0 0.9512280747303753 22:1.0 
-1.0 0.5402002407951195 52:1.0 135:1.0 250:1.0 288:1.0 
-0.003608560324606458 0.0 52:1.0 374:1.0 394:1.0 463:1.0 
-1.0 0.0 34:1.0 362:1.0 
-0.0 0.9761138358210302 329:1.0 363:1.0 464:1.0 537:1.0 679:1.0 
-1.0 1.0 374:1.0 
-1.0 1.0 71:1.0 145:1.0 676:1.0 
-1.0 1.0 
-0.32937275493217777 0.0 239:1.0 466:1.0 678:1.0 
-0.0 0.22275080608759826 331:1.0 467:1.0 
-0.0 0.48554466719335726 71:1.0 200:1.0 239:1.0 676:1.0 678:1.0 
-1.0 1.0 
-0.6016262084270346 1.0 184:1.0 231:1.0 420:1.0 640:1.0 
-0.6705179575436044 0.0 54:1.0 179:1.0 684:1.0 
-0.9135469172449241 1.0 470:1.0 
-0.8902845005892183 0.0 48:1.0 82:1.0 146:1.0 179:1.0 200:1.0 684:1.0 
-0.0 0.07614016183179448 170:1.0 220:1.0 239:1.0 317:1.0 678:1.0 
-1.0 1.0 248:1.0 
-0.9134597835004914 0.0 393:1.0 
-0.9339533793671314 0.8603497519481884 71:1.0 89:1.0 341:1.0 400:1.0 566:1.0 676:1.0 
-0.9547565396450592 0.0 2:1.0 3:1.0 338:1.0 403:1.0 675:1.0 683:1.0 
-0.3985279265179602 0.7710992791907351 145:1.0 287:1.0 
-1.0 1.0 
-0.9799659568270853 0.3784050952161365 353:1.0 354:1.0 433:1.0 
-0.01487063638544385 0.0 8:1.0 355:1.0 356:1.0 357:1.0 
-1.0 1.0 
-1.1102230246251565E-16 0.0 319:1.0 332:1.0 680:1.0 
-1.0 1.0 
-1.0 1.5692855971985927E-4 2:1.0 3:1.0 45:1.0 474:1.0 675:1.0 683:1.0 
-0.5862452302633334 0.0 2:1.0 3:1.0 441:1.0 476:1.0 675:1.0 683:1.0 
-0.0 0.4087356737265385 170:1.0 239:1.0 477:1.0 672:1.0 678:1.0 
-1.0 1.0 
-0.42695116632967606 0.42586972411667195 210:1.0 478:1.0 479:0.9415410972642327 480:1.0 668:1.0 
-0.4948960275379445 0.36098501568929514 127:1.0 288:1.0 677:1.0 
-0.5092677662001122 0.4581026636410632 229:1.0 321:1.0 453:1.0 454:1.0 
-1.0 1.0 313:1.0 541:1.0 
-0.1696583208439224 0.3333084411207536 27:1.0 345:1.0 378:1.0 399:1.0 430:1.0 475:1.0 
-1.0 1.0 222:1.0 
-1.0 1.0 
-1.0 1.0 145:1.0 
-0.19000174745984963 0.0 348:1.0 
-0.0 0.334745122240911 242:1.0 263:1.0 458:1.0 
-0.23120988826750746 0.21625767921714845 71:1.0 201:1.0 277:1.0 331:1.0 465:1.0 570:1.0 676:1.0 
-0.17908805287987448 0.2237338458483023 8:1.0 196:1.0 360:1.0 366:1.0 477:1.0 
-1.0 0.0 421:0.8738703236046308 
-0.7319632612818646 0.0 297:1.0 329:1.0 679:1.0 
-1.0 0.9873900664543676 22:1.0 
-0.0 0.9620706031192009 71:1.0 348:1.0 676:1.0 
-0.8388352931098538 0.0 348:1.0 
-1.0 0.0 348:0.8848035624556929 
-1.0 1.0 
-0.0867737603127317 0.016941942565247475 127:1.0 136:1.0 288:1.0 482:1.0 677:1.0 
-0.24170608106036565 0.5593287889085418 52:1.0 119:1.0 170:1.0 239:1.0 467:1.0 469:1.0 678:1.0 
-1.0 0.0 54:1.0 222:1.0 
-1.0 1.0 
-1.0 1.0 
-1.0 1.0 8:0.9704940524621375 
-0.041398733715893206 0.23567937738306322 52:1.0 179:1.0 463:1.0 464:1.0 684:1.0 
-1.0 1.0 242:1.0 
-0.11969698458422422 0.0 66:1.0 233:1.0 249:1.0 350:1.0 484:1.0 
-1.0 1.0 485:1.0 
-0.4865258343242867 0.4760011211344941 175:1.0 179:1.0 220:1.0 456:1.0 684:1.0 
-0.001141661640067513 0.05218263553403289 52:1.0 217:1.0 239:1.0 467:1.0 471:1.0 472:1.0 678:1.0 
-0.9996726422318497 0.3322769677298159 311:1.0 487:1.0 488:1.0 
-0.7156073364549644 0.02096258128916827 330:1.0 435:1.0 
-0.0013029094530276342 0.006363603774713267 365:1.0 489:1.0 
-1.0 0.0 41:1.0 
-1.0 0.0 196:1.0 313:1.0 
-1.0 0.36005624733199865 40:1.0 429:1.0 
-0.0 0.31050335323894257 183:1.0 329:1.0 679:1.0 
-1.0 1.0 9:1.0 
-0.23317446021094387 0.11146059543547035 163:1.0 239:1.0 258:1.0 491:1.0 678:1.0 
-0.0 0.1498798024898333 352:1.0 366:1.0 664:1.0 
-0.4567227896849928 0.020917877229729015 402:1.0 452:1.0 
-1.0 1.0 
-1.0 1.0 423:1.0 
-1.0 1.0 492:1.0 
-0.0 0.10340792673037126 22:1.0 369:1.0 382:1.0 401:1.0 
-0.151452894070547 0.0 24:1.0 227:1.0 427:0.9499999874 430:1.0 439:1.0 
-0.0 0.09825900074835028 179:1.0 231:1.0 369:1.0 420:1.0 456:1.0 493:1.0 684:1.0 
-1.0 1.0 347:0.9107109769894385 
-1.0 0.07746536428891981 167:1.0 218:1.0 312:1.0 353:1.0 
-1.0 1.0 102:1.0 
-0.0 0.4525126915534011 71:1.0 337:1.0 676:1.0 681:1.0 
-1.0 1.0 
-0.0 0.6441463537538025 220:1.0 329:1.0 679:1.0 
-0.8248872450000094 0.0 2:1.0 3:1.0 95:1.0 170:1.0 458:1.0 630:1.0 675:1.0 683:1.0 
-0.0 0.768808416837404 127:1.0 331:1.0 677:1.0 
-0.02969834062171938 0.003431113083636017 346:1.0 495:1.0 496:1.0 
-1.0 1.0 167:1.0 
-0.9540848046864259 0.6938774889812335 371:1.0 
-0.0 0.2416941219296706 71:1.0 181:1.0 240:1.0 326:1.0 337:1.0 676:1.0 681:1.0 
-1.0 0.3981440489044872 8:1.0 64:1.0 325:1.0 
-1.0 0.4477795324109131 62:1.0 196:1.0 497:1.0 
-0.0 0.2772508258815389 56:1.0 366:1.0 449:1.0 
-0.6731804997820479 0.0 2:1.0 3:1.0 8:1.0 441:1.0 442:1.0 675:1.0 683:1.0 
-0.9318256128579357 1.0 391:1.0 518:1.0 
-0.0 0.027841156872715853 2:1.0 3:1.0 338:1.0 355:1.0 441:1.0 476:1.0 675:1.0 683:1.0 
-1.0 0.23618099796350311 394:1.0 431:1.0 
-0.0 0.352845641826808 231:1.0 329:1.0 369:1.0 415:1.0 434:1.0 564:1.0 679:1.0 
-0.0 0.06420583044953222 71:1.0 129:1.0 210:1.0 217:1.0 337:1.0 440:1.0 676:1.0 681:1.0 
-0.07523207525934775 0.0 71:1.0 74:1.0 299:1.0 337:1.0 351:1.0 498:1.0 676:1.0 681:1.0 
-0.47488205683282186 0.14811149632298734 332:1.0 680:1.0 
-0.42318679549398724 0.37279144539291054 332:1.0 416:1.0 680:1.0 
-1.0 1.0 
-1.0 0.32753145553634766 2:1.0 3:1.0 287:1.0 675:1.0 683:1.0 
-0.8457336097783685 0.0 2:1.0 3:1.0 327:1.0 675:1.0 683:1.0 
-1.0 1.0 242:1.0 
-0.4156790018861357 1.0 228:1.0 326:1.0 352:1.0 
-1.0 1.0 361:1.0 
-0.0 1.0 127:1.0 146:1.0 170:1.0 499:1.0 677:1.0 
-0.9458800928206761 0.0 331:1.0 
-0.7413892121020723 0.0 2:1.0 3:1.0 8:1.0 102:1.0 347:1.0 675:1.0 683:1.0 
-1.0 0.0 40:1.0 127:1.0 146:1.0 170:1.0 499:1.0 677:1.0 
-1.0 1.0 
-0.0 0.3930634818510275 130:1.0 327:1.0 408:1.0 
-0.0 0.02051997967050092 54:1.0 220:1.0 321:1.0 365:1.0 481:1.0 
-0.19530504804075977 0.6016859443748158 418:1.0 419:1.0 420:1.0 421:1.0 526:1.0 
-0.660409116231342 0.9714896918347633 346:1.0 409:1.0 
-1.0 1.0 575:1.0 
-0.3528400663867568 0.4458133128732937 333:1.0 355:1.0 411:1.0 
-0.3058660509356311 0.2450762537504679 246:1.0 411:1.0 460:1.0 500:1.0 
-1.0 0.5283210510697892 21:1.0 41:0.9571713397730784 
-1.0 1.0 71:1.0 210:1.0 676:1.0 
-0.6700381396730529 0.6443587940183694 9:1.0 64:1.0 283:1.0 484:1.0 
-1.0 3.3173676819595803E-4 2:1.0 3:1.0 298:1.0 675:1.0 683:1.0 
-0.9359799689691853 0.9929582700191738 381:1.0 
-1.0 1.0 372:1.0 
-1.0 0.7586048097072793 71:1.0 462:1.0 654:1.0 676:1.0 
-1.0 1.0 184:1.0 
-1.0 1.0 457:1.0 
-0.9490735882627751 0.0 92:0.959965550316625 102:1.0 398:1.0 
-0.040638509235655325 0.18870061529619683 487:1.0 488:1.0 
-1.0 1.0 66:1.0 435:1.0 
-0.09894878720209618 0.09490174918143962 386:1.0 387:1.0 388:1.0 503:1.0 504:1.0 
-1.0 1.0 
-1.0 1.0 505:1.0 
-0.0 0.555221986698021 348:1.0 358:1.0 
-1.0 0.3462090118831356 2:1.0 3:1.0 675:1.0 683:1.0 
-0.25480533500623026 0.4157309509084819 74:1.0 220:1.0 366:1.0 449:1.0 
-1.0 0.9617598224308929 393:1.0 
-0.9173976960887616 1.0 242:1.0 
-1.0 0.5568831645220134 49:1.0 506:1.0 
-0.7468078145828307 1.0 9:1.0 41:1.0 220:1.0 
-1.0 1.0 92:1.0 
-1.0 0.0 239:1.0 678:1.0 
-1.0 0.0 32:1.0 102:1.0 
-1.0 1.0 
-1.0 1.0 
-1.0 1.0 
-1.0 1.0 71:1.0 498:1.0 676:1.0 
-1.0 1.0 32:1.0 
-1.0 1.0 
-0.24758793449443817 0.0 2:1.0 3:1.0 92:1.0 102:1.0 279:1.0 385:1.0 675:1.0 683:1.0 
-0.9896397422694139 0.04183601385777254 344:1.0 
-1.0 1.0 233:1.0 
-0.8900170771419824 1.0 421:0.8738703236046308 530:1.0 
-1.0 0.0025857427533569947 217:1.0 248:1.0 250:1.0 
-1.0 1.0 
-0.32413018914194375 0.0 24:1.0 378:1.0 421:1.0 
-0.9516918616971299 0.8930043936449575 437:1.0 438:1.0 
-0.5341215396443678 0.4314681736537216 8:1.0 355:1.0 356:1.0 357:1.0 
-0.23838273242357674 0.0 179:1.0 407:1.0 502:1.0 684:1.0 
-1.0 0.0 2:1.0 3:1.0 675:1.0 683:1.0 
-1.0 1.0 220:1.0 
-0.9223189163852262 1.0 344:1.0 
-1.0 1.0 395:1.0 397:1.0 
-0.21974777219813738 0.0 2:1.0 3:1.0 93:0.9479525034613154 119:1.0 346:1.0 383:1.0 434:1.0 675:1.0 683:1.0 
-1.0 1.0 
-1.0 0.9387558222330645 393:1.0 
-0.9325952714634372 0.0 2:1.0 3:1.0 8:1.0 497:1.0 675:1.0 683:1.0 
-1.0 0.6602065941728648 2:1.0 3:1.0 675:1.0 683:1.0 
-0.9530563226678749 1.0 127:1.0 417:1.0 677:1.0 
-1.0 0.6341364938719339 169:1.0 206:1.0 321:0.8901863607715655 
-0.07982342138373971 0.0 2:1.0 3:1.0 222:1.0 675:1.0 683:1.0 
-0.877243371932838 0.051894233020778675 24:1.0 346:1.0 
-1.0 1.0 494:1.0 
-1.0 1.0 35:1.0 231:1.0 
-1.0 0.16980577457547522 2:1.0 3:1.0 300:1.0 675:1.0 683:1.0 
-1.0 1.0 24:1.0 303:1.0 
-0.3918053335944789 0.0 179:1.0 684:1.0 
-0.46521089895242757 0.004228459429265456 365:1.0 489:1.0 
-1.0 0.8820870388890679 54:1.0 423:1.0 
-1.0 1.0 573:1.0 
-1.0 1.0 412:1.0 
-1.0 1.0 2:1.0 3:1.0 675:1.0 683:1.0 
-1.0 1.0 71:1.0 145:1.0 676:1.0 
-1.0 1.0 
-0.0 0.18480629302415003 2:1.0 3:1.0 71:1.0 245:1.0 366:1.0 675:1.0 676:1.0 683:1.0 
-0.0 0.07136822926496728 321:1.0 369:1.0 
-0.025376460048425586 0.0 181:1.0 329:1.0 363:1.0 507:1.0 679:1.0 
-1.0 0.1517117057197159 207:0.9479525034613154 227:1.0 470:1.0 
-0.9567472709774687 1.0 124:1.0 571:1.0 
-1.0 -1.0 
-0.0018136498915898118 -0.009177928328360035 508:1.0 
-0.23328510573752456 -0.0 56:1.0 57:1.0 341:1.0 509:1.0 510:1.0 
-0.19490195569771893 -0.0 216:1.0 511:1.0 512:1.0 682:1.0 
-1.0 -1.0 
-1.0 -1.0 343:1.0 
-1.0 -0.5277142099171355 516:1.0 
-0.291573475213927 -0.516760005876134 326:1.0 517:1.0 518:1.0 519:1.0 
-0.5160220134531864 -0.0 520:1.0 
-0.5078977502465507 -0.0 170:1.0 521:1.0 
-0.0 -0.7298235631937107 127:1.0 142:1.0 145:1.0 295:1.0 521:1.0 677:1.0 
-0.0 -0.021623018926793587 50:1.0 67:1.0 71:1.0 222:1.0 515:1.0 524:1.0 676:1.0 
-1.0 -1.0 71:1.0 676:1.0 
-1.0 -1.0 27:1.0 102:1.0 201:0.9542866452692822 359:1.0 
-0.11399674216336281 -0.0 63:1.0 183:1.0 269:1.0 528:1.0 529:1.0 
-1.0 -1.0 530:1.0 
-0.018782786635674772 -0.12757134233630146 163:1.0 167:1.0 533:1.0 534:1.0 535:1.0 
-0.0 -0.9506689099550788 71:1.0 127:1.0 169:1.0 676:1.0 677:1.0 
-0.5080197199927756 -0.4610677088072954 415:1.0 536:1.0 
-1.0 -0.9654964383338539 24:1.0 546:1.0 
-0.0 -0.06369380055304384 220:1.0 442:1.0 522:1.0 547:1.0 
-0.0 -1.0 127:1.0 220:1.0 677:1.0 
-1.0 -1.0 
-0.0 -0.2224630196591705 2:1.0 3:1.0 108:1.0 209:1.0 228:1.0 550:1.0 551:1.0 675:1.0 683:1.0 
-1.0 -1.0 354:1.0 
-0.7946700148361833 -0.4450149762364682 66:1.0 552:1.0 
-1.0 -1.0 52:1.0 170:1.0 
-0.10482067286532366 -0.0 287:1.0 343:1.0 553:1.0 
-1.0 -0.958156498371252 554:1.0 
-1.0 -1.0 359:1.0 
-1.0 -1.0 
-1.0 -1.0 
-0.3985687198547375 -0.3764246855093454 35:1.0 242:1.0 545:1.0 
-1.0 -1.0 71:1.0 676:1.0 
-1.0 -0.9581151155630591 559:1.0 
-0.3932543909511193 -0.6451312656478128 108:1.0 372:1.0 563:1.0 
-1.0 -1.0 564:1.0 
-1.0 -1.0 
-0.6043093932301556 -1.0 2:1.0 3:1.0 108:1.0 242:1.0 287:1.0 343:1.0 675:1.0 683:1.0 
-1.0 -1.0 
-0.33170270810803987 -0.743784302344796 71:1.0 438:1.0 491:1.0 676:1.0 
-0.5135317527264058 -0.3332189424974408 568:1.0 569:1.0 
-0.956758773097236 -0.5873073561760126 260:1.0 570:1.0 
-0.7512354706848986 -0.5471723148842854 2:1.0 3:1.0 65:1.0 196:0.959965550316625 245:1.0 562:1.0 675:1.0 683:1.0 
-1.0 -1.0 
-0.09520717509289345 -0.03379707730350647 8:1.0 482:1.0 534:1.0 547:1.0 
-0.9760820809331933 -0.0 127:1.0 572:1.0 677:1.0 
-0.0 -0.057024001490484 65:1.0 573:1.0 574:1.0 
-1.0 -0.983394436739943 397:1.0 577:1.0 
-1.0 -0.90693775373278 551:0.9126194200872642 
-1.0 -0.0 68:1.0 71:1.0 676:1.0 
-0.5278465716856683 -0.3107685105013722 8:1.0 74:1.0 142:1.0 167:1.0 549:1.0 
-0.32849823325700167 -0.43052978991963037 167:1.0 516:1.0 528:1.0 
-0.8975455919373608 -0.4789674910046924 580:1.0 581:1.0 
-1.0 -0.0046117943075879575 582:1.0 
-1.0 -0.4622777096155432 517:1.0 518:1.0 
-0.23017684134262842 -0.0 475:1.0 564:1.0 583:1.0 
-0.7949236692056325 -0.0 546:1.0 
-1.0 -0.012103211512035514 254:1.0 
-1.0 -0.0 551:1.0 
-1.0 -1.0 246:1.0 
-1.0 -0.9350384688760641 586:1.0 
-0.04486099797370552 -0.00716145557617125 71:1.0 587:1.0 676:1.0 
-0.12444072703758814 -0.2235282556657897 537:1.0 
-1.0 -0.0 508:1.0 
-0.025200179956354596 -0.0 513:1.0 
-0.0 -0.427026370830962 430:1.0 434:1.0 549:1.0 
-0.9944581743140011 -0.9968325334214816 380:1.0 
-0.5444726609851884 -0.21657680671367704 89:1.0 468:1.0 536:1.0 
-1.0 -0.0 532:1.0 
-1.0 -0.9171156900413558 2:1.0 3:1.0 108:1.0 183:1.0 213:1.0 592:1.0 675:1.0 683:1.0 
-1.0 -1.0 
-1.0 -0.9581967073886644 593:1.0 
-1.0 -1.0 71:1.0 298:1.0 676:1.0 
-1.0 -0.9566092181143888 54:1.0 534:1.0 
-0.7345489747064609 -0.08967817787650038 246:1.0 595:1.0 596:1.0 
-1.0 -1.0 
-1.0 -0.9577361065198661 210:1.0 597:1.0 
-0.3211117204153652 -0.0 67:1.0 228:1.0 304:1.0 598:1.0 599:1.0 
-0.5572362084717587 -0.0 52:1.0 65:1.0 575:1.0 576:1.0 600:1.0 
-0.046091335610083974 -0.009266232121687295 601:1.0 602:1.0 
-0.8975343174654105 -1.0 329:1.0 679:1.0 
-1.0 -1.0 
-1.0 -1.0 
-0.3975113982501851 -0.0 149:1.0 531:1.0 
-0.6987147370150577 -1.0 327:1.0 467:1.0 608:1.0 
-0.18778303028180685 -1.0 71:1.0 145:1.0 222:1.0 412:1.0 676:1.0 
-1.0 -1.0 71:1.0 676:1.0 
-1.0 -1.0 231:1.0 
-0.022249400797390288 -0.0 35:1.0 578:1.0 609:1.0 
-0.697786350234985 -0.0 451:1.0 537:1.0 
-1.0 -0.0 520:1.0 
-0.5886876941891142 -0.0 229:1.0 463:1.0 524:1.0 
-0.9997101515170072 -0.004373683058873562 610:1.0 
-0.7942179069165314 -0.7761194186084734 74:1.0 110:1.0 222:1.0 443:1.0 583:1.0 
-0.6951674387831562 -0.765869574124817 366:1.0 526:1.0 611:1.0 
-0.0 -0.26007007059950366 65:1.0 464:1.0 612:1.0 
-0.8995795053298289 -1.0 537:1.0 
-0.7792470721011184 -0.5327909936128983 210:1.0 526:1.0 
-1.0 -0.9582969116325306 613:1.0 
-0.5039357813415279 -1.0 220:1.0 
-1.0 -0.0 192:1.0 614:1.0 
-0.8749930886108472 -0.4755387403460809 587:1.0 615:1.0 
-1.0 -0.9582069150495359 616:1.0 
-0.93245518349629 -0.1664795750574926 71:1.0 538:1.0 617:1.0 676:1.0 
-1.0 -1.0 412:1.0 
-0.7116500707760575 -0.0 513:1.0 
-1.0 -0.4792216443093244 148:1.0 149:1.0 287:1.0 
-1.0 -1.0 352:1.0 
-0.0 -0.06341463279284086 71:1.0 468:1.0 566:1.0 676:1.0 
-0.2541758270031755 -0.0 432:1.0 564:1.0 
-0.43961002318972914 -0.5814268414705415 68:1.0 231:1.0 619:1.0 
-1.0 -1.0 
-1.0 -1.0 228:1.0 
-0.8745382764442031 -0.47498632626140047 621:1.0 622:1.0 
-0.2335358581222823 -0.3825209337350769 601:1.0 602:1.0 
-0.2875717583693778 -0.0 127:1.0 229:1.0 585:1.0 677:1.0 
-1.0 -0.0 217:1.0 244:1.0 
-0.0 -0.4119371028183403 63:1.0 231:1.0 369:1.0 623:1.0 
-1.0 -0.7116552986617339 170:0.9693428333817914 624:1.0 
-1.0 -1.0 35:0.9672664782960723 
-0.0 -0.055087134537536726 65:1.0 108:1.0 258:1.0 379:1.0 626:1.0 627:1.0 628:1.0 629:1.0 630:1.0 631:1.0 
-1.0 -0.0 65:1.0 250:1.0 550:1.0 
-0.16619166789922513 -0.0 63:1.0 354:1.0 
-0.0 -0.038882822800311634 41:1.0 287:1.0 343:1.0 511:1.0 682:1.0 
-1.0 -1.0 8:1.0 432:1.0 
-1.0 -0.8904318599028652 21:1.0 135:1.0 283:1.0 
-1.0 -0.9581151155630591 637:1.0 
-1.0 -1.0 71:1.0 676:1.0 
-1.0 -0.20850383604506909 35:1.0 605:1.0 638:1.0 
-1.0 -1.0 
-0.0 -0.3171690217124585 127:1.0 295:1.0 521:1.0 677:1.0 
-1.0 -0.0 8:1.0 65:1.0 318:1.0 
-1.0 -0.0 108:1.0 180:1.0 
-0.3252965146231421 -0.19329829914663516 127:1.0 548:1.0 560:1.0 561:1.0 677:1.0 
-0.18988793145096636 -0.3340238262372942 8:1.0 176:1.0 420:1.0 640:1.0 
-0.0 -0.39590328745807307 54:1.0 463:1.0 537:1.0 
-0.01666347961908854 -0.0 170:1.0 515:1.0 
-0.3876418040450261 -0.0 71:1.0 228:1.0 295:1.0 521:1.0 641:1.0 676:1.0 
-1.0 -0.0 373:1.0 
-1.0 -1.0 
-1.0 -1.0 
-1.0 -0.2468620894271668 526:1.0 
-1.0 -1.0 170:1.0 
-0.15759505791046938 -0.6257237466098442 127:1.0 602:1.0 677:1.0 
-0.8976485122758493 -0.17399300698714665 643:1.0 644:1.0 
-1.0 -0.8114376863186359 373:1.0 
-1.0 -1.0 71:1.0 676:1.0 
-0.0051497555854702155 -0.0 373:1.0 645:1.0 
-0.0 -0.030797887509020717 11:1.0 358:1.0 420:1.0 512:1.0 623:1.0 
-1.0 -1.0 
-1.0 -0.3944139376569169 166:1.0 244:1.0 
-1.0 -1.0 184:1.0 406:1.0 
-0.7679623272859294 -0.9012999193379521 391:0.9553555198340536 569:1.0 646:1.0 
-1.0 -0.6941330266372159 56:1.0 647:0.8830820463442043 
-0.2649430324658117 -0.6113112506976631 371:1.0 648:1.0 649:1.0 
-1.0 -0.24481692204007888 584:1.0 
-1.0 -1.0 
-0.9997067710381441 -0.9646757870300224 409:1.0 523:1.0 
-1.0 -1.0 
-0.8975780613498878 -0.4790292892218543 539:1.0 590:1.0 
-0.9189895157397997 -0.7060093396891232 146:1.0 200:1.0 509:1.0 
-0.0 -0.008349260461681949 359:1.0 564:1.0 565:1.0 
-1.0 -0.4791088845732805 178:1.0 483:1.0 
-0.35064228494053556 -0.0 35:1.0 65:1.0 71:1.0 142:1.0 218:1.0 295:1.0 654:1.0 676:1.0 
-1.0 -0.5999143575053735 52:1.0 542:1.0 
-0.7953293634338151 -0.9537986113036088 610:1.0 
-0.1663757013375352 -0.0 63:1.0 375:1.0 
-0.23477921422114767 -0.5408773633933666 350:1.0 415:1.0 493:1.0 573:1.0 588:1.0 634:1.0 
-1.0 -1.0 220:1.0 
-1.0 -0.9233394976690708 127:1.0 377:1.0 399:1.0 677:1.0 
-1.0 -1.0 
-1.0 -1.0 321:1.0 510:1.0 657:1.0 
-1.0 -1.0 229:1.0 
-0.9607201449815805 -1.0 420:1.0 
-0.5303063857434285 -0.9341069647227492 595:1.0 625:1.0 
-0.9194493135929027 -1.0 71:1.0 358:1.0 676:1.0 
-1.0 -1.0 566:1.0 
-0.5712344893542612 -0.0 515:1.0 
-0.0 -0.23822867635708286 65:1.0 71:1.0 102:1.0 146:1.0 366:1.0 527:1.0 571:1.0 620:1.0 676:1.0 
-0.13376414989993177 -0.5749092663923607 233:0.9143427838290228 243:1.0 601:1.0 602:1.0 
-0.0 -0.4754144593988194 326:1.0 530:1.0 
-0.5345305101139587 -0.7136104885929161 584:1.0 658:1.0 
-0.22438830375669502 -0.0 534:1.0 
-0.7196493362932216 -0.07924003754542833 24:1.0 66:1.0 399:1.0 623:1.0 652:1.0 659:1.0 
-0.0 -1.0 329:1.0 363:1.0 532:1.0 553:1.0 679:1.0 
-0.044604106312826186 -0.4778667798463244 8:1.0 11:1.0 73:1.0 287:1.0 416:1.0 481:1.0 660:1.0 
-0.20531531049591994 -0.1468001251825237 190:1.0 513:1.0 661:1.0 
-0.8134113078841329 -0.0 521:1.0 
-1.0 -0.9584373157325935 662:1.0 
-1.0 -1.0 220:1.0 
-0.7755212326391553 -0.0 425:1.0 597:1.0 603:1.0 
-1.0 -1.0 71:1.0 676:1.0 
-0.40513505395812277 -0.0 66:1.0 601:1.0 602:1.0 
-1.0 -0.5873968163848785 35:1.0 175:1.0 382:1.0 663:1.0 
-0.0 -0.14585702124460628 29:1.0 52:1.0 65:1.0 170:1.0 369:1.0 413:1.0 600:1.0 
-0.21452282747863866 -0.1383355838184005 183:1.0 213:1.0 216:1.0 343:1.0 381:1.0 632:1.0 
-0.8004445760041197 -0.3746766014095971 609:1.0 638:1.0 
-0.0 -0.7122522515871738 66:1.0 287:1.0 366:1.0 511:1.0 682:1.0 
-0.8072207742994696 -0.5032262588023833 606:1.0 607:1.0 
-1.0 -1.0 
-1.0 -1.0 179:1.0 684:1.0 
-1.0 -0.9580719212888994 540:1.0 
-0.7955831242881873 -0.0 523:1.0 
-1.0 -0.8083767266348661 8:0.9704940524621375 226:1.0 408:1.0 
-1.0 -0.8598163635838525 115:1.0 571:1.0 
-0.39506018069742915 -0.0 11:1.0 216:1.0 534:1.0 
-0.49176801732560377 -0.0 167:1.0 218:1.0 277:1.0 312:1.0 613:1.0 637:1.0 
-1.0 -1.0 
-0.5587465136302261 -0.0 169:1.0 171:1.0 532:1.0 
-0.6285757485670007 -0.7748859127741081 71:1.0 326:1.0 676:1.0 
-1.0 -0.9581839806842105 666:1.0 
-1.0 -0.7920440305948125 103:1.0 127:1.0 677:1.0 
-7.129931841005079E-4 -0.0 175:1.0 246:1.0 320:1.0 358:1.0 515:1.0 557:1.0 668:1.0 
-0.0 -1.0 63:1.0 127:1.0 145:1.0 677:1.0 
-0.005851211270690404 -0.0 176:1.0 178:1.0 545:1.0 617:1.0 658:1.0 
-0.43565958531035015 -0.035198998888538585 343:1.0 555:1.0 
-1.0 -0.777688915001418 167:1.0 649:1.0 
-1.0 -1.0 8:1.0 
-0.8526315815744028 -0.6420172417795909 513:1.0 
-1.0 -1.0 35:1.0 
-0.18566207700573198 -0.0 64:1.0 65:1.0 287:1.0 
-1.0 -1.0 9:1.0 669:0.9415410972642327 
-0.6756158018752313 -1.0 22:1.0 92:1.0 567:1.0 670:1.0 
-0.09976417174095827 -0.0 170:1.0 515:1.0 
-0.0 -0.15015266789010043 71:1.0 127:1.0 538:1.0 676:1.0 677:1.0 
-0.49970714837077085 -0.32235428582540915 66:1.0 69:1.0 382:1.0 642:1.0 
-0.0 -0.11868008078970273 231:1.0 515:1.0 525:0.94530094099201 
-0.6110342251032967 -1.0 420:1.0 
-1.0 -1.0 127:1.0 677:1.0 
-1.0 -0.26341753147641217 170:1.0 416:1.0 469:1.0 
-1.0 -1.0 
-1.0 -0.9581906749530968 591:1.0 
-0.061781057119509 -0.0 330:1.0 533:1.0 534:1.0 
-0.8472606414029193 -0.0 515:1.0 
-0.23281767030853628 -0.2135150884255645 206:1.0 543:1.0 549:1.0 651:1.0 
-0.2649151416433974 -0.0 422:1.0 434:1.0 540:1.0 
-0.0 -1.0 242:1.0 362:1.0 469:1.0 614:1.0 
-0.26935594825056214 -0.6127907479119552 9:1.0 480:1.0 515:0.9637920444616109 
-0.8120792449144663 -0.3857034643717647 229:1.0 372:1.0 
-0.0 -0.2123281066763945 127:1.0 561:1.0 644:1.0 677:1.0 
-1.0 -0.958384068907674 270:1.0 
-1.0 -1.0 
-0.0 -0.16959514544147047 244:1.0 300:1.0 412:1.0 513:1.0 640:1.0 
-0.0 -0.39787958274693724 369:0.9637920444616109 470:1.0 515:1.0 643:1.0 
-0.0020520615000160424 -0.0 551:1.0 655:1.0 
-1.0 -0.2917075356238388 66:1.0 129:1.0 552:1.0 
-0.6735753821382808 -0.6226222556960274 217:1.0 606:1.0 
-0.28906181647554335 -0.0 373:1.0 645:1.0 
-1.0 -0.9582120713559278 599:1.0 
-0.0 -0.21343507039026305 220:1.0 618:1.0 
-1.0 -0.7543565288110601 656:0.94530094099201 672:0.9415410972642327 
-1.0 -0.2280314748293726 146:1.0 200:1.0 660:1.0 
-0.0 -0.14675902107002847 373:1.0 645:1.0 661:1.0 
-1.0 -1.0 
-0.2565451615160383 -0.0 35:1.0 491:1.0 591:1.0 
-1.0 -0.9579571240633461 572:1.0 
-1.0 -1.0 
-0.7932318089685532 -0.9489650927679644 508:1.0 
-1.0 -0.31424600449176476 180:1.0 
-1.0 -1.0 220:1.0 
-1.0 -1.0 362:1.0 
-0.291326378520312 -1.0 220:1.0 541:1.0 
-0.9401277542127433 -0.0 127:1.0 178:0.9530723608080983 200:1.0 673:1.0 677:1.0 
-1.0 -0.0 35:1.0 549:1.0 
-0.2788892461381774 -1.0 423:1.0 520:1.0 575:1.0 
-1.0 -0.0 63:1.0 
-0.08621506510312896 -0.06243818982270545 129:1.0 231:1.0 521:1.0 598:1.0 635:1.0 
-1.0 -1.0 71:1.0 676:1.0 
-0.10462370184041342 -0.02339803642894113 407:1.0 586:1.0 659:1.0 664:1.0 
-0.8836133617593787 -1.0 239:1.0 303:1.0 355:1.0 603:1.0 678:1.0 
-0.05989590441036928 -0.07190170363233699 49:1.0 184:1.0 545:1.0 619:1.0 
-0.4387115407786907 -0.0 51:1.0 545:1.0 
-0.07301716384142817 -0.3145796328026259 233:1.0 537:1.0 594:1.0 653:1.0 
-1.0 -0.9582394293392742 578:1.0 
-0.7750583026630882 -0.7151196516302322 9:1.0 64:1.0 176:1.0 184:1.0 464:1.0 545:1.0 
-0.7026598057620137 -0.0 511:1.0 682:1.0 
-0.31416299791665325 -1.0 242:1.0 393:1.0 582:1.0 
-0.03350107371792343 -0.014117378059458502 201:1.0 350:1.0 420:1.0 526:1.0 650:1.0 
-1.0 -1.0 115:1.0 
-0.9432300022351658 -0.33094382794390503 67:1.0 258:1.0 579:1.0 
-0.16637694774905368 -0.0 63:1.0 363:1.0 
-0.8783471496465319 -0.0 142:1.0 551:1.0 
-0.20637451908993626 -0.0 108:1.0 373:1.0 
-0.04560531442904132 -0.008221050874824117 71:1.0 621:1.0 676:1.0 
-1.0 -0.953665610702065 582:1.0 
-1.0 -1.0 477:1.0 
-1.0 -1.0 
-1.0 -1.0 71:1.0 170:1.0 676:1.0 
-0.16639338409344118 -0.0 63:1.0 612:1.0 
-1.0 -0.6439018328713888 89:1.0 180:1.0 
-1.0 -1.0 369:1.0 
-0.8006296747919575 -0.9615080021461251 380:1.0 
-1.0 -0.9458891250458137 254:1.0 
-0.8493076910104493 -0.5860283559682345 63:1.0 242:1.0 
-1.0 -0.9582110713707624 531:1.0 
-0.26494673147555403 -0.473203477742553 369:1.0 544:1.0 665:1.0 
-1.0 -0.0 71:1.0 74:1.0 148:1.0 149:1.0 676:1.0 
-1.0 -1.0 
-1.0 -0.33266229459199426 23:1.0 63:1.0 311:1.0 
